{"learner":{"attributes":{},"feature_names":[],"feature_types":[],"gradient_booster":{"model":{"gbtree_model_param":{"num_parallel_tree":"1","num_trees":"1500"},"iteration_indptr":[0,2,4,6,8,10,12,14,16,18,20,22,24,26,28,30,32,34,36,38,40,42,44,46,48,50,52,54,56,58,60,62,64,66,68,70,72,74,76,78,80,82,84,86,88,90,92,94,96,98,100,102,104,106,108,110,112,114,116,118,120,122,124,126,128,130,132,134,136,138,140,142,144,146,148,150,152,154,156,158,160,162,164,166,168,170,172,174,176,178,180,182,184,186,188,190,192,194,196,198,200,202,204,206,208,210,212,214,216,218,220,222,224,226,228,230,232,234,236,238,240,242,244,246,248,250,252,254,256,258,260,262,264,266,268,270,272,274,276,278,280,282,284,286,288,290,292,294,296,298,300,302,304,306,308,310,312,314,316,318,320,322,324,326,328,330,332,334,336,338,340,342,344,346,348,350,352,354,356,358,360,362,364,366,368,370,372,374,376,378,380,382,384,386,388,390,392,394,396,398,400,402,404,406,408,410,412,414,416,418,420,422,424,426,428,430,432,434,436,438,440,442,444,446,448,450,452,454,456,458,460,462,464,466,468,470,472,474,476,478,480,482,484,486,488,490,492,494,496,498,500,502,504,506,508,510,512,514,516,518,520,522,524,526,528,530,532,534,536,538,540,542,544,546,548,550,552,554,556,558,560,562,564,566,568,570,572,574,576,578,580,582,584,586,588,590,592,594,596,598,600,602,604,606,608,610,612,614,616,618,620,622,624,626,628,630,632,634,636,638,640,642,644,646,648,650,652,654,656,658,660,662,664,666,668,670,672,674,676,678,680,682,684,686,688,690,692,694,696,698,700,702,704,706,708,710,712,714,716,718,720,722,724,726,728,730,732,734,736,738,740,742,744,746,748,750,752,754,756,758,760,762,764,766,768,770,772,774,776,778,780,782,784,786,788,790,792,794,796,798,800,802,804,806,808,810,812,814,816,818,820,822,824,826,828,830,832,834,836,838,840,842,844,846,848,850,852,854,856,858,860,862,864,866,868,870,872,874,876,878,880,882,884,886,888,890,892,894,896,898,900,902,904,906,908,910,912,914,916,918,920,922,924,926,928,930,932,934,936,938,940,942,944,946,948,950,952,954,956,958,960,962,964,966,968,970,972,974,976,978,980,982,984,986,988,990,992,994,996,998,1000,1002,1004,1006,1008,1010,1012,1014,1016,1018,1020,1022,1024,1026,1028,1030,1032,1034,1036,1038,1040,1042,1044,1046,1048,1050,1052,1054,1056,1058,1060,1062,1064,1066,1068,1070,1072,1074,1076,1078,1080,1082,1084,1086,1088,1090,1092,1094,1096,1098,1100,1102,1104,1106,1108,1110,1112,1114,1116,1118,1120,1122,1124,1126,1128,1130,1132,1134,1136,1138,1140,1142,1144,1146,1148,1150,1152,1154,1156,1158,1160,1162,1164,1166,1168,1170,1172,1174,1176,1178,1180,1182,1184,1186,1188,1190,1192,1194,1196,1198,1200,1202,1204,1206,1208,1210,1212,1214,1216,1218,1220,1222,1224,1226,1228,1230,1232,1234,1236,1238,1240,1242,1244,1246,1248,1250,1252,1254,1256,1258,1260,1262,1264,1266,1268,1270,1272,1274,1276,1278,1280,1282,1284,1286,1288,1290,1292,1294,1296,1298,1300,1302,1304,1306,1308,1310,1312,1314,1316,1318,1320,1322,1324,1326,1328,1330,1332,1334,1336,1338,1340,1342,1344,1346,1348,1350,1352,1354,1356,1358,1360,1362,1364,1366,1368,1370,1372,1374,1376,1378,1380,1382,1384,1386,1388,1390,1392,1394,1396,1398,1400,1402,1404,1406,1408,1410,1412,1414,1416,1418,1420,1422,1424,1426,1428,1430,1432,1434,1436,1438,1440,1442,1444,1446,1448,1450,1452,1454,1456,1458,1460,1462,1464,1466,1468,1470,1472,1474,1476,1478,1480,1482,1484,1486,1488,1490,1492,1494,1496,1498,1500],"tree_info":[0,1,0,1,0,1,0,1,0,1,0,1,0,1,0,1,0,1,0,1,0,1,0,1,0,1,0,1,0,1,0,1,0,1,0,1,0,1,0,1,0,1,0,1,0,1,0,1,0,1,0,1,0,1,0,1,0,1,0,1,0,1,0,1,0,1,0,1,0,1,0,1,0,1,0,1,0,1,0,1,0,1,0,1,0,1,0,1,0,1,0,1,0,1,0,1,0,1,0,1,0,1,0,1,0,1,0,1,0,1,0,1,0,1,0,1,0,1,0,1,0,1,0,1,0,1,0,1,0,1,0,1,0,1,0,1,0,1,0,1,0,1,0,1,0,1,0,1,0,1,0,1,0,1,0,1,0,1,0,1,0,1,0,1,0,1,0,1,0,1,0,1,0,1,0,1,0,1,0,1,0,1,0,1,0,1,0,1,0,1,0,1,0,1,0,1,0,1,0,1,0,1,0,1,0,1,0,1,0,1,0,1,0,1,0,1,0,1,0,1,0,1,0,1,0,1,0,1,0,1,0,1,0,1,0,1,0,1,0,1,0,1,0,1,0,1,0,1,0,1,0,1,0,1,0,1,0,1,0,1,0,1,0,1,0,1,0,1,0,1,0,1,0,1,0,1,0,1,0,1,0,1,0,1,0,1,0,1,0,1,0,1,0,1,0,1,0,1,0,1,0,1,0,1,0,1,0,1,0,1,0,1,0,1,0,1,0,1,0,1,0,1,0,1,0,1,0,1,0,1,0,1,0,1,0,1,0,1,0,1,0,1,0,1,0,1,0,1,0,1,0,1,0,1,0,1,0,1,0,1,0,1,0,1,0,1,0,1,0,1,0,1,0,1,0,1,0,1,0,1,0,1,0,1,0,1,0,1,0,1,0,1,0,1,0,1,0,1,0,1,0,1,0,1,0,1,0,1,0,1,0,1,0,1,0,1,0,1,0,1,0,1,0,1,0,1,0,1,0,1,0,1,0,1,0,1,0,1,0,1,0,1,0,1,0,1,0,1,0,1,0,1,0,1,0,1,0,1,0,1,0,1,0,1,0,1,0,1,0,1,0,1,0,1,0,1,0,1,0,1,0,1,0,1,0,1,0,1,0,1,0,1,0,1,0,1,0,1,0,1,0,1,0,1,0,1,0,1,0,1,0,1,0,1,0,1,0,1,0,1,0,1,0,1,0,1,0,1,0,1,0,1,0,1,0,1,0,1,0,1,0,1,0,1,0,1,0,1,0,1,0,1,0,1,0,1,0,1,0,1,0,1,0,1,0,1,0,1,0,1,0,1,0,1,0,1,0,1,0,1,0,1,0,1,0,1,0,1,0,1,0,1,0,1,0,1,0,1,0,1,0,1,0,1,0,1,0,1,0,1,0,1,0,1,0,1,0,1,0,1,0,1,0,1,0,1,0,1,0,1,0,1,0,1,0,1,0,1,0,1,0,1,0,1,0,1,0,1,0,1,0,1,0,1,0,1,0,1,0,1,0,1,0,1,0,1,0,1,0,1,0,1,0,1,0,1,0,1,0,1,0,1,0,1,0,1,0,1,0,1,0,1,0,1,0,1,0,1,0,1,0,1,0,1,0,1,0,1,0,1,0,1,0,1,0,1,0,1,0,1,0,1,0,1,0,1,0,1,0,1,0,1,0,1,0,1,0,1,0,1,0,1,0,1,0,1,0,1,0,1,0,1,0,1,0,1,0,1,0,1,0,1,0,1,0,1,0,1,0,1,0,1,0,1,0,1,0,1,0,1,0,1,0,1,0,1,0,1,0,1,0,1,0,1,0,1,0,1,0,1,0,1,0,1,0,1,0,1,0,1,0,1,0,1,0,1,0,1,0,1,0,1,0,1,0,1,0,1,0,1,0,1,0,1,0,1,0,1,0,1,0,1,0,1,0,1,0,1,0,1,0,1,0,1,0,1,0,1,0,1,0,1,0,1,0,1,0,1,0,1,0,1,0,1,0,1,0,1,0,1,0,1,0,1,0,1,0,1,0,1,0,1,0,1,0,1,0,1,0,1,0,1,0,1,0,1,0,1,0,1,0,1,0,1,0,1,0,1,0,1,0,1,0,1,0,1,0,1,0,1,0,1,0,1,0,1,0,1,0,1,0,1,0,1,0,1,0,1,0,1,0,1,0,1,0,1,0,1,0,1,0,1,0,1,0,1,0,1,0,1,0,1,0,1,0,1,0,1,0,1,0,1,0,1,0,1,0,1,0,1,0,1,0,1,0,1,0,1,0,1,0,1,0,1,0,1,0,1,0,1,0,1,0,1,0,1,0,1,0,1,0,1,0,1,0,1,0,1,0,1,0,1,0,1,0,1,0,1,0,1,0,1,0,1,0,1,0,1,0,1,0,1,0,1,0,1,0,1,0,1,0,1,0,1,0,1,0,1,0,1,0,1,0,1,0,1,0,1,0,1,0,1,0,1,0,1,0,1,0,1,0,1,0,1,0,1,0,1,0,1,0,1,0,1,0,1,0,1,0,1,0,1,0,1,0,1,0,1,0,1,0,1,0,1,0,1,0,1,0,1,0,1,0,1,0,1,0,1,0,1,0,1,0,1,0,1,0,1,0,1,0,1,0,1,0,1,0,1,0,1,0,1,0,1,0,1,0,1,0,1,0,1,0,1,0,1,0,1,0,1,0,1,0,1,0,1,0,1,0,1,0,1,0,1,0,1,0,1,0,1,0,1,0,1,0,1,0,1,0,1,0,1,0,1,0,1,0,1,0,1,0,1,0,1,0,1,0,1,0,1,0,1,0,1,0,1,0,1,0,1,0,1,0,1,0,1,0,1,0,1,0,1,0,1,0,1,0,1,0,1,0,1,0,1,0,1,0,1,0,1,0,1,0,1,0,1,0,1,0,1,0,1,0,1,0,1,0,1,0,1,0,1,0,1,0,1,0,1,0,1,0,1,0,1,0,1,0,1,0,1,0,1,0,1,0,1,0,1,0,1,0,1,0,1,0,1,0,1,0,1,0,1,0,1,0,1,0,1,0,1,0,1,0,1,0,1,0,1,0,1,0,1,0,1,0,1,0,1,0,1,0,1,0,1,0,1,0,1,0,1,0,1,0,1,0,1,0,1,0,1,0,1,0,1,0,1,0,1,0,1,0,1,0,1,0,1,0,1,0,1,0,1,0,1,0,1,0,1,0,1,0,1,0,1,0,1,0,1,0,1,0,1,0,1,0,1,0,1,0,1,0,1,0,1,0,1,0,1,0,1,0,1,0,1,0,1,0,1,0,1,0,1,0,1,0,1,0,1,0,1,0,1,0,1,0,1,0,1,0,1,0,1,0,1,0,1,0,1,0,1,0,1,0,1,0,1,0,1,0,1,0,1,0,1,0,1,0,1,0,1],"trees":[{"base_weights":[-1.4781971E-1,-2.8308594E-1,1.6932124E-1,-1.2118226E-1,-4.6583575E-1,-9.7427905E-2,2.9142857E-1,-2.7384867E-3,1.9281663E-4,-3.6416634E-3,-6.0145683E-3,7.714286E-4,-3.0598291E-3,4.5238095E-3,1.8830409E-3],"categories":[],"categories_nodes":[],"categories_segments":[],"categories_sizes":[],"default_left":[0,0,0,0,0,0,0,0,0,0,0,0,0,0,0],"id":0,"left_children":[1,3,5,7,9,11,13,-1,-1,-1,-1,-1,-1,-1,-1],"loss_changes":[2.9272266E2,1.4146228E2,6.649161E1,5.441975E1,3.0756866E1,2.3379082E1,2.3152199E1,0E0,0E0,0E0,0E0,0E0,0E0,0E0,0E0],"parents":[2147483647,0,0,1,1,2,2,3,3,4,4,5,5,6,6],"right_children":[2,4,6,8,10,12,14,-1,-1,-1,-1,-1,-1,-1,-1],"split_conditions":[2E1,1.4E1,-2E0,1E1,2.3E1,-4.3E0,-6.2E0,-2.7384867E-3,1.9281663E-4,-3.6416634E-3,-6.0145683E-3,7.714286E-4,-3.0598291E-3,4.5238095E-3,1.8830409E-3],"split_indices":[28,80,77,51,80,25,25,0,0,0,0,0,0,0,0],"split_type":[0,0,0,0,0,0,0,0,0,0,0,0,0,0,0],"sum_hessian":[6.8215E3,4.782E3,2.0395E3,2.5365E3,2.2455E3,6.405E2,1.399E3,1.215E3,1.3215E3,1.2855E3,9.6E2,3.49E2,2.915E2,5.45E2,8.54E2],"tree_param":{"num_deleted":"0","num_feature":"106","num_nodes":"15","size_leaf_vector":"1"}},{"base_weights":[1.4781971E-1,2.8308594E-1,-1.6932124E-1,1.2118226E-1,4.6583575E-1,9.7427905E-2,-2.9142857E-1,2.7384867E-3,-1.9281663E-4,3.6416634E-3,6.0145683E-3,-7.714286E-4,3.0598291E-3,-4.5238095E-3,-1.8830409E-3],"categories":[],"categories_nodes":[],"categories_segments":[],"categories_sizes":[],"default_left":[0,0,0,0,0,0,0,0,0,0,0,0,0,0,0],"id":1,"left_children":[1,3,5,7,9,11,13,-1,-1,-1,-1,-1,-1,-1,-1],"loss_changes":[2.9272266E2,1.4146228E2,6.649161E1,5.441975E1,3.0756866E1,2.3379082E1,2.3152199E1,0E0,0E0,0E0,0E0,0E0,0E0,0E0,0E0],"parents":[2147483647,0,0,1,1,2,2,3,3,4,4,5,5,6,6],"right_children":[2,4,6,8,10,12,14,-1,-1,-1,-1,-1,-1,-1,-1],"split_conditions":[2E1,1.4E1,-2E0,1E1,2.3E1,-4.3E0,-6.2E0,2.7384867E-3,-1.9281663E-4,3.6416634E-3,6.0145683E-3,-7.714286E-4,3.0598291E-3,-4.5238095E-3,-1.8830409E-3],"split_indices":[28,80,77,51,80,25,25,0,0,0,0,0,0,0,0],"split_type":[0,0,0,0,0,0,0,0,0,0,0,0,0,0,0],"sum_hessian":[6.8215E3,4.782E3,2.0395E3,2.5365E3,2.2455E3,6.405E2,1.399E3,1.215E3,1.3215E3,1.2855E3,9.6E2,3.49E2,2.915E2,5.45E2,8.54E2],"tree_param":{"num_deleted":"0","num_feature":"106","num_nodes":"15","size_leaf_vector":"1"}},{"base_weights":[-1.4634438E-1,-2.8026122E-1,1.6763148E-1,-1.1997186E-1,-4.6119237E-1,-9.64576E-2,2.885218E-1,-2.711145E-3,1.9089048E-4,-3.6053231E-3,-5.954701E-3,7.63737E-4,-3.029363E-3,4.478746E-3,1.8642392E-3],"categories":[],"categories_nodes":[],"categories_segments":[],"categories_sizes":[],"default_left":[0,0,0,0,0,0,0,0,0,0,0,0,0,0,0],"id":2,"left_children":[1,3,5,7,9,11,13,-1,-1,-1,-1,-1,-1,-1,-1],"loss_changes":[2.8690695E2,1.3865625E2,6.517192E1,5.3338245E1,3.0149261E1,2.2915592E1,2.2693695E1,0E0,0E0,0E0,0E0,0E0,0E0,0E0,0E0],"parents":[2147483647,0,0,1,1,2,2,3,3,4,4,5,5,6,6],"right_children":[2,4,6,8,10,12,14,-1,-1,-1,-1,-1,-1,-1,-1],"split_conditions":[2E1,1.4E1,-2E0,1E1,2.3E1,-4.3E0,-6.2E0,-2.711145E-3,1.9089048E-4,-3.6053231E-3,-5.954701E-3,7.63737E-4,-3.029363E-3,4.478746E-3,1.8642392E-3],"split_indices":[28,80,77,51,80,25,25,0,0,0,0,0,0,0,0],"split_type":[0,0,0,0,0,0,0,0,0,0,0,0,0,0,0],"sum_hessian":[6.821422E3,4.781939E3,2.0394829E3,2.5364907E3,2.2454482E3,6.404971E2,1.3989858E3,1.2149908E3,1.3214999E3,1.2854829E3,9.599653E2,3.489998E2,2.9149728E2,5.4498883E2,8.53997E2],"tree_param":{"num_deleted":"0","num_feature":"106","num_nodes":"15","size_leaf_vector":"1"}},{"base_weights":[1.4634441E-1,2.8026122E-1,-1.6763145E-1,1.1997192E-1,4.6119234E-1,9.6457705E-2,-2.885218E-1,2.711145E-3,-1.9088929E-4,3.6053234E-3,5.9547E-3,-7.6373614E-4,3.0293644E-3,-4.478746E-3,-1.8642392E-3],"categories":[],"categories_nodes":[],"categories_segments":[],"categories_sizes":[],"default_left":[0,0,0,0,0,0,0,0,0,0,0,0,0,0,0],"id":3,"left_children":[1,3,5,7,9,11,13,-1,-1,-1,-1,-1,-1,-1,-1],"loss_changes":[2.8690698E2,1.3865619E2,6.517194E1,5.33382E1,3.014917E1,2.2915594E1,2.269368E1,0E0,0E0,0E0,0E0,0E0,0E0,0E0,0E0],"parents":[2147483647,0,0,1,1,2,2,3,3,4,4,5,5,6,6],"right_children":[2,4,6,8,10,12,14,-1,-1,-1,-1,-1,-1,-1,-1],"split_conditions":[2E1,1.4E1,-2E0,1E1,2.3E1,-4.3E0,-6.2E0,2.711145E-3,-1.9088929E-4,3.6053234E-3,5.9547E-3,-7.6373614E-4,3.0293644E-3,-4.478746E-3,-1.8642392E-3],"split_indices":[28,80,77,51,80,25,25,0,0,0,0,0,0,0,0],"split_type":[0,0,0,0,0,0,0,0,0,0,0,0,0,0,0],"sum_hessian":[6.821422E3,4.781939E3,2.0394829E3,2.5364907E3,2.2454482E3,6.404971E2,1.3989858E3,1.2149908E3,1.3214999E3,1.285483E3,9.599653E2,3.4899982E2,2.9149728E2,5.4498883E2,8.53997E2],"tree_param":{"num_deleted":"0","num_feature":"106","num_nodes":"15","size_leaf_vector":"1"}},{"base_weights":[-1.4488707E-1,1.21538356E-1,-2.9964322E-1,-1.3463162E-1,2.4152823E-1,-5.4529995E-1,-1.8164787E-1,8.195611E-4,-3.0785084E-3,9.456817E-4,3.4498414E-3,-2.5045415E-3,-5.8368156E-3,-3.555852E-3,-6.0908945E-4],"categories":[],"categories_nodes":[],"categories_segments":[],"categories_sizes":[],"default_left":[0,0,0,0,0,0,0,0,0,0,0,0,0,0,0],"id":4,"left_children":[1,3,5,7,9,11,13,-1,-1,-1,-1,-1,-1,-1,-1],"loss_changes":[2.81322E2,7.710484E1,1.24999664E2,3.0056671E1,2.5934685E1,1.5695465E1,6.1236702E1,0E0,0E0,0E0,0E0,0E0,0E0,0E0,0E0],"parents":[2147483647,0,0,1,1,2,2,3,3,4,4,5,5,6,6],"right_children":[2,4,6,8,10,12,14,-1,-1,-1,-1,-1,-1,-1,-1],"split_conditions":[4.6E-1,-2E0,-1.4E0,-4.8E0,2.4E1,9E0,8E0,8.195611E-4,-3.0785084E-3,9.456817E-4,3.4498414E-3,-2.5045415E-3,-5.8368156E-3,-3.555852E-3,-6.0908945E-4],"split_indices":[3,77,77,25,51,52,51,0,0,0,0,0,0,0,0],"split_type":[0,0,0,0,0,0,0,0,0,0,0,0,0,0,0],"sum_hessian":[6.821191E3,2.5064116E3,4.3147793E3,7.994722E2,1.7069393E3,1.398855E3,2.9159243E3,3.5549704E2,4.439752E2,7.0598926E2,1.0009501E3,1.6198895E2,1.2368661E3,1.1939567E3,1.7219677E3],"tree_param":{"num_deleted":"0","num_feature":"106","num_nodes":"15","size_leaf_vector":"1"}},{"base_weights":[1.4488709E-1,-1.2153834E-1,2.9964322E-1,1.3463162E-1,-2.415282E-1,5.453E-1,1.8164785E-1,-8.195613E-4,3.0785087E-3,-9.4568176E-4,-3.4498407E-3,2.5045418E-3,5.8368165E-3,3.5558525E-3,6.09089E-4],"categories":[],"categories_nodes":[],"categories_segments":[],"categories_sizes":[],"default_left":[0,0,0,0,0,0,0,0,0,0,0,0,0,0,0],"id":5,"left_children":[1,3,5,7,9,11,13,-1,-1,-1,-1,-1,-1,-1,-1],"loss_changes":[2.8132196E2,7.710483E1,1.24999695E2,3.0056679E1,2.5934677E1,1.5695496E1,6.1236725E1,0E0,0E0,0E0,0E0,0E0,0E0,0E0,0E0],"parents":[2147483647,0,0,1,1,2,2,3,3,4,4,5,5,6,6],"right_children":[2,4,6,8,10,12,14,-1,-1,-1,-1,-1,-1,-1,-1],"split_conditions":[4.6E-1,-2E0,-1.4E0,-4.8E0,2.4E1,9E0,8E0,-8.195613E-4,3.0785087E-3,-9.4568176E-4,-3.4498407E-3,2.5045418E-3,5.8368165E-3,3.5558525E-3,6.09089E-4],"split_indices":[3,77,77,25,51,52,51,0,0,0,0,0,0,0,0],"split_type":[0,0,0,0,0,0,0,0,0,0,0,0,0,0,0],"sum_hessian":[6.821191E3,2.5064116E3,4.3147793E3,7.994722E2,1.7069393E3,1.398855E3,2.9159243E3,3.5549704E2,4.439752E2,7.059892E2,1.0009501E3,1.6198895E2,1.2368661E3,1.1939567E3,1.7219677E3],"tree_param":{"num_deleted":"0","num_feature":"106","num_nodes":"15","size_leaf_vector":"1"}},{"base_weights":[-1.4344713E-1,-2.748152E-1,1.6454257E-1,-1.17217906E-1,-4.5273203E-1,-9.435582E-2,2.8306067E-1,-2.6549497E-3,1.9197544E-4,-3.539403E-3,-5.845385E-3,7.505151E-4,-2.967592E-3,4.4003823E-3,1.8249619E-3],"categories":[],"categories_nodes":[],"categories_segments":[],"categories_sizes":[],"default_left":[0,0,0,0,0,0,0,0,0,0,0,0,0,0,0],"id":6,"left_children":[1,3,5,7,9,11,13,-1,-1,-1,-1,-1,-1,-1,-1],"loss_changes":[2.7605707E2,1.3404404E2,6.263336E1,5.1330032E1,2.90401E1,2.2017498E1,2.2018814E1,0E0,0E0,0E0,0E0,0E0,0E0,0E0,0E0],"parents":[2147483647,0,0,1,1,2,2,3,3,4,4,5,5,6,6],"right_children":[2,4,6,8,10,12,14,-1,-1,-1,-1,-1,-1,-1,-1],"split_conditions":[2E1,1.4E1,-2E0,1E1,2.3E1,-4.3E0,-6.2E0,-2.6549497E-3,1.9197544E-4,-3.539403E-3,-5.845385E-3,7.505151E-4,-2.967592E-3,4.4003823E-3,1.8249619E-3],"split_indices":[28,80,77,51,80,25,25,0,0,0,0,0,0,0,0],"split_type":[0,0,0,0,0,0,0,0,0,0,0,0,0,0,0],"sum_hessian":[6.8208433E3,4.781485E3,2.0393583E3,2.536411E3,2.245074E3,6.4047296E2,1.3988853E3,1.2149127E3,1.3214983E3,1.2853572E3,9.5971674E2,3.4899814E2,2.914748E2,5.449157E2,8.5396954E2],"tree_param":{"num_deleted":"0","num_feature":"106","num_nodes":"15","size_leaf_vector":"1"}},{"base_weights":[1.4344713E-1,2.748152E-1,-1.6454251E-1,1.1721791E-1,4.5273197E-1,9.435588E-2,-2.830606E-1,2.6549497E-3,-1.919752E-4,3.539403E-3,5.8453837E-3,-7.5051404E-4,2.967592E-3,-4.4003823E-3,-1.8249608E-3],"categories":[],"categories_nodes":[],"categories_segments":[],"categories_sizes":[],"default_left":[0,0,0,0,0,0,0,0,0,0,0,0,0,0,0],"id":7,"left_children":[1,3,5,7,9,11,13,-1,-1,-1,-1,-1,-1,-1,-1],"loss_changes":[2.76057E2,1.34044E2,6.263337E1,5.133001E1,2.90401E1,2.2017485E1,2.2018822E1,0E0,0E0,0E0,0E0,0E0,0E0,0E0,0E0],"parents":[2147483647,0,0,1,1,2,2,3,3,4,4,5,5,6,6],"right_children":[2,4,6,8,10,12,14,-1,-1,-1,-1,-1,-1,-1,-1],"split_conditions":[2E1,1.4E1,-2E0,1E1,2.3E1,-4.3E0,-6.2E0,2.6549497E-3,-1.919752E-4,3.539403E-3,5.8453837E-3,-7.5051404E-4,2.967592E-3,-4.4003823E-3,-1.8249608E-3],"split_indices":[28,80,77,51,80,25,25,0,0,0,0,0,0,0,0],"split_type":[0,0,0,0,0,0,0,0,0,0,0,0,0,0,0],"sum_hessian":[6.8208433E3,4.781485E3,2.0393583E3,2.536411E3,2.245074E3,6.4047296E2,1.3988853E3,1.2149127E3,1.3214983E3,1.2853572E3,9.5971674E2,3.4899814E2,2.914748E2,5.449157E2,8.5396954E2],"tree_param":{"num_deleted":"0","num_feature":"106","num_nodes":"15","size_leaf_vector":"1"}},{"base_weights":[-1.4202449E-1,1.19408205E-1,-2.9388952E-1,-1.4847015E-1,2.2982629E-1,-4.3864676E-1,-9.927096E-2,7.759305E-4,-3.2998845E-3,8.979424E-4,3.2839426E-3,-3.522093E-3,-5.9692E-3,-2.5718554E-3,4.0179084E-4],"categories":[],"categories_nodes":[],"categories_segments":[],"categories_sizes":[],"default_left":[0,0,0,0,0,0,0,0,0,0,0,0,0,0,0],"id":8,"left_children":[1,3,5,7,9,11,13,-1,-1,-1,-1,-1,-1,-1,-1],"loss_changes":[2.70859E2,7.4193344E1,1.2152466E2,3.007986E1,2.4480995E1,3.3639618E1,4.057058E1,0E0,0E0,0E0,0E0,0E0,0E0,0E0,0E0],"parents":[2147483647,0,0,1,1,2,2,3,3,4,4,5,5,6,6],"right_children":[2,4,6,8,10,12,14,-1,-1,-1,-1,-1,-1,-1,-1],"split_conditions":[4.6E-1,-2.4E0,1.5E0,-4.8E0,2.4E1,2.3E1,9E0,7.759305E-4,-3.2998845E-3,8.979424E-4,3.2839426E-3,-3.522093E-3,-5.9692E-3,-2.5718554E-3,4.0179084E-4],"split_indices":[3,77,77,25,51,80,51,0,0,0,0,0,0,0,0],"split_type":[0,0,0,0,0,0,0,0,0,0,0,0,0,0,0],"sum_hessian":[6.820335E3,2.5061904E3,4.3141445E3,7.3141235E2,1.7747781E3,2.4732717E3,1.8408729E3,3.2599286E2,4.0541953E2,7.339674E2,1.0408107E3,1.6017411E3,8.715306E2,8.6288696E2,9.779859E2],"tree_param":{"num_deleted":"0","num_feature":"106","num_nodes":"15","size_leaf_vector":"1"}},{"base_weights":[1.4202449E-1,-1.1940823E-1,2.9388952E-1,1.4847013E-1,-2.298263E-1,4.3864676E-1,9.927099E-2,-7.759313E-4,3.2998847E-3,-8.9794246E-4,-3.2839428E-3,3.522093E-3,5.9692E-3,2.5718557E-3,-4.017907E-4],"categories":[],"categories_nodes":[],"categories_segments":[],"categories_sizes":[],"default_left":[0,0,0,0,0,0,0,0,0,0,0,0,0,0,0],"id":9,"left_children":[1,3,5,7,9,11,13,-1,-1,-1,-1,-1,-1,-1,-1],"loss_changes":[2.7085907E2,7.419334E1,1.2152463E2,3.0079868E1,2.448101E1,3.3639618E1,4.0570587E1,0E0,0E0,0E0,0E0,0E0,0E0,0E0,0E0],"parents":[2147483647,0,0,1,1,2,2,3,3,4,4,5,5,6,6],"right_children":[2,4,6,8,10,12,14,-1,-1,-1,-1,-1,-1,-1,-1],"split_conditions":[4.6E-1,-2.4E0,1.5E0,-4.8E0,2.4E1,2.3E1,9E0,-7.759313E-4,3.2998847E-3,-8.9794246E-4,-3.2839428E-3,3.522093E-3,5.9692E-3,2.5718557E-3,-4.017907E-4],"split_indices":[3,77,77,25,51,80,51,0,0,0,0,0,0,0,0],"split_type":[0,0,0,0,0,0,0,0,0,0,0,0,0,0,0],"sum_hessian":[6.820335E3,2.5061904E3,4.3141445E3,7.3141235E2,1.7747781E3,2.4732717E3,1.8408729E3,3.2599283E2,4.0541953E2,7.339674E2,1.0408107E3,1.6017411E3,8.715306E2,8.62887E2,9.779859E2],"tree_param":{"num_deleted":"0","num_feature":"106","num_nodes":"15","size_leaf_vector":"1"}},{"base_weights":[-1.4061859E-1,-2.6950216E-1,1.6152523E-1,-1.1475496E-1,-4.4424883E-1,-9.248104E-2,2.7781096E-1,-2.6029947E-3,1.9131285E-4,-3.4747552E-3,-5.7340586E-3,7.354328E-4,-2.9086953E-3,4.3249414E-3,1.7873594E-3],"categories":[],"categories_nodes":[],"categories_segments":[],"categories_sizes":[],"default_left":[0,0,0,0,0,0,0,0,0,0,0,0,0,0,0],"id":10,"left_children":[1,3,5,7,9,11,13,-1,-1,-1,-1,-1,-1,-1,-1],"loss_changes":[2.656516E2,1.2925082E2,6.028535E1,4.9447105E1,2.7865082E1,2.1148224E1,2.1373352E1,0E0,0E0,0E0,0E0,0E0,0E0,0E0,0E0],"parents":[2147483647,0,0,1,1,2,2,3,3,4,4,5,5,6,6],"right_children":[2,4,6,8,10,12,14,-1,-1,-1,-1,-1,-1,-1,-1],"split_conditions":[2E1,1.4E1,-2E0,1E1,2.3E1,-4.3E0,-6.2E0,-2.6029947E-3,1.9131285E-4,-3.4747552E-3,-5.7340586E-3,7.354328E-4,-2.9086953E-3,4.3249414E-3,1.7873594E-3],"split_indices":[28,80,77,51,80,25,25,0,0,0,0,0,0,0,0],"split_type":[0,0,0,0,0,0,0,0,0,0,0,0,0,0,0],"sum_hessian":[6.819717E3,4.7805967E3,2.0391205E3,2.5362622E3,2.2443345E3,6.404254E2,1.398695E3,1.2147704E3,1.3214917E3,1.2851229E3,9.592114E2,3.48994E2,2.9143146E2,5.447798E2,8.539152E2],"tree_param":{"num_deleted":"0","num_feature":"106","num_nodes":"15","size_leaf_vector":"1"}},{"base_weights":[1.4061859E-1,2.6950213E-1,-1.6152519E-1,1.1475494E-1,4.442488E-1,9.248112E-2,-2.7781093E-1,2.602994E-3,-1.9131294E-4,3.4747552E-3,5.7340586E-3,-7.354319E-4,2.9086962E-3,-4.3249414E-3,-1.7873591E-3],"categories":[],"categories_nodes":[],"categories_segments":[],"categories_sizes":[],"default_left":[0,0,0,0,0,0,0,0,0,0,0,0,0,0,0],"id":11,"left_children":[1,3,5,7,9,11,13,-1,-1,-1,-1,-1,-1,-1,-1],"loss_changes":[2.6565155E2,1.2925082E2,6.0285374E1,4.944709E1,2.7865112E1,2.114822E1,2.137336E1,0E0,0E0,0E0,0E0,0E0,0E0,0E0,0E0],"parents":[2147483647,0,0,1,1,2,2,3,3,4,4,5,5,6,6],"right_children":[2,4,6,8,10,12,14,-1,-1,-1,-1,-1,-1,-1,-1],"split_conditions":[2E1,1.4E1,-2E0,1E1,2.3E1,-4.3E0,-6.2E0,2.602994E-3,-1.9131294E-4,3.4747552E-3,5.7340586E-3,-7.354319E-4,2.9086962E-3,-4.3249414E-3,-1.7873591E-3],"split_indices":[28,80,77,51,80,25,25,0,0,0,0,0,0,0,0],"split_type":[0,0,0,0,0,0,0,0,0,0,0,0,0,0,0],"sum_hessian":[6.819717E3,4.7805967E3,2.0391205E3,2.5362622E3,2.2443345E3,6.404254E2,1.3986951E3,1.2147704E3,1.3214917E3,1.285123E3,9.5921136E2,3.48994E2,2.9143146E2,5.447798E2,8.539153E2],"tree_param":{"num_deleted":"0","num_feature":"106","num_nodes":"15","size_leaf_vector":"1"}},{"base_weights":[-1.3922948E-1,1.1732151E-1,-2.8827408E-1,-1.4535166E-1,2.2559397E-1,-4.3064284E-1,-9.692327E-2,7.6466356E-4,-3.2350032E-3,8.827965E-4,3.2226567E-3,-3.4601514E-3,-5.8567473E-3,-2.5201612E-3,4.0015666E-4],"categories":[],"categories_nodes":[],"categories_segments":[],"categories_sizes":[],"default_left":[0,0,0,0,0,0,0,0,0,0,0,0,0,0,0],"id":12,"left_children":[1,3,5,7,9,11,13,-1,-1,-1,-1,-1,-1,-1,-1],"loss_changes":[2.608117E2,7.132806E1,1.1748465E2,2.896317E1,2.354068E1,3.2247864E1,3.9125378E1,0E0,0E0,0E0,0E0,0E0,0E0,0E0,0E0],"parents":[2147483647,0,0,1,1,2,2,3,3,4,4,5,5,6,6],"right_children":[2,4,6,8,10,12,14,-1,-1,-1,-1,-1,-1,-1,-1],"split_conditions":[4.6E-1,-2.4E0,1.5E0,-4.8E0,2.4E1,2.3E1,9E0,7.6466356E-4,-3.2350032E-3,8.827965E-4,3.2226567E-3,-3.4601514E-3,-5.8567473E-3,-2.5201612E-3,4.0015666E-4],"split_indices":[3,77,77,25,51,80,51,0,0,0,0,0,0,0,0],"split_type":[0,0,0,0,0,0,0,0,0,0,0,0,0,0,0],"sum_hessian":[6.8189443E3,2.5058423E3,4.313102E3,7.31311E2,1.7745312E3,2.472364E3,1.8407382E3,3.2598657E2,4.0532443E2,7.3394086E2,1.0405903E3,1.6014226E3,8.709413E2,8.6276105E2,9.779771E2],"tree_param":{"num_deleted":"0","num_feature":"106","num_nodes":"15","size_leaf_vector":"1"}},{"base_weights":[1.3922948E-1,-1.17321506E-1,2.8827408E-1,1.4535166E-1,-2.2559397E-1,4.3064284E-1,9.6923254E-2,-7.646645E-4,3.2350041E-3,-8.827964E-4,-3.2226564E-3,3.4601518E-3,5.856747E-3,2.520162E-3,-4.0015756E-4],"categories":[],"categories_nodes":[],"categories_segments":[],"categories_sizes":[],"default_left":[0,0,0,0,0,0,0,0,0,0,0,0,0,0,0],"id":13,"left_children":[1,3,5,7,9,11,13,-1,-1,-1,-1,-1,-1,-1,-1],"loss_changes":[2.608117E2,7.132806E1,1.1748474E2,2.8963192E1,2.3540665E1,3.2247803E1,3.9125423E1,0E0,0E0,0E0,0E0,0E0,0E0,0E0,0E0],"parents":[2147483647,0,0,1,1,2,2,3,3,4,4,5,5,6,6],"right_children":[2,4,6,8,10,12,14,-1,-1,-1,-1,-1,-1,-1,-1],"split_conditions":[4.6E-1,-2.4E0,1.5E0,-4.8E0,2.4E1,2.3E1,9E0,-7.646645E-4,3.2350041E-3,-8.827964E-4,-3.2226564E-3,3.4601518E-3,5.856747E-3,2.520162E-3,-4.0015756E-4],"split_indices":[3,77,77,25,51,80,51,0,0,0,0,0,0,0,0],"split_type":[0,0,0,0,0,0,0,0,0,0,0,0,0,0,0],"sum_hessian":[6.8189443E3,2.505842E3,4.313102E3,7.31311E2,1.7745311E3,2.4723638E3,1.8407382E3,3.2598654E2,4.0532443E2,7.3394086E2,1.0405903E3,1.6014227E3,8.709412E2,8.62761E2,9.779771E2],"tree_param":{"num_deleted":"0","num_feature":"106","num_nodes":"15","size_leaf_vector":"1"}},{"base_weights":[-1.3785656E-1,1.1615825E-1,-2.854392E-1,-1.4391305E-1,2.2335826E-1,-4.264444E-1,-9.595926E-2,7.570447E-4,-3.2031795E-3,8.739878E-4,3.1908776E-3,-3.4260368E-3,-5.8008176E-3,-2.4952153E-3,3.9615954E-4],"categories":[],"categories_nodes":[],"categories_segments":[],"categories_sizes":[],"default_left":[0,0,0,0,0,0,0,0,0,0,0,0,0,0,0],"id":14,"left_children":[1,3,5,7,9,11,13,-1,-1,-1,-1,-1,-1,-1,-1],"loss_changes":[2.5566751E2,6.991646E1,1.15203674E2,2.8392906E1,2.3079414E1,3.1653107E1,3.8351868E1,0E0,0E0,0E0,0E0,0E0,0E0,0E0,0E0],"parents":[2147483647,0,0,1,1,2,2,3,3,4,4,5,5,6,6],"right_children":[2,4,6,8,10,12,14,-1,-1,-1,-1,-1,-1,-1,-1],"split_conditions":[4.6E-1,-2.4E0,1.5E0,-4.8E0,2.4E1,2.3E1,9E0,7.570447E-4,-3.2031795E-3,8.739878E-4,3.1908776E-3,-3.4260368E-3,-5.8008176E-3,-2.4952153E-3,3.9615954E-4],"split_indices":[3,77,77,25,51,80,51,0,0,0,0,0,0,0,0],"split_type":[0,0,0,0,0,0,0,0,0,0,0,0,0,0,0],"sum_hessian":[6.818067E3,2.5056428E3,4.3124243E3,7.312529E2,1.7743898E3,2.471763E3,1.8406613E3,3.2598486E2,4.052681E2,7.3393475E2,1.040455E3,1.6012062E3,8.705567E2,8.6268335E2,9.779779E2],"tree_param":{"num_deleted":"0","num_feature":"106","num_nodes":"15","size_leaf_vector":"1"}},{"base_weights":[1.3785657E-1,-1.161582E-1,2.854392E-1,1.4391308E-1,-2.2335821E-1,4.264444E-1,9.5959224E-2,-7.570447E-4,3.2031802E-3,-8.739873E-4,-3.1908774E-3,3.4260368E-3,5.8008176E-3,2.4952146E-3,-3.961596E-4],"categories":[],"categories_nodes":[],"categories_segments":[],"categories_sizes":[],"default_left":[0,0,0,0,0,0,0,0,0,0,0,0,0,0,0],"id":15,"left_children":[1,3,5,7,9,11,13,-1,-1,-1,-1,-1,-1,-1,-1],"loss_changes":[2.5566745E2,6.991646E1,1.15203705E2,2.8392914E1,2.3079391E1,3.1653107E1,3.8351852E1,0E0,0E0,0E0,0E0,0E0,0E0,0E0,0E0],"parents":[2147483647,0,0,1,1,2,2,3,3,4,4,5,5,6,6],"right_children":[2,4,6,8,10,12,14,-1,-1,-1,-1,-1,-1,-1,-1],"split_conditions":[4.6E-1,-2.4E0,1.5E0,-4.8E0,2.4E1,2.3E1,9E0,-7.570447E-4,3.2031802E-3,-8.739873E-4,-3.1908774E-3,3.4260368E-3,5.8008176E-3,2.4952146E-3,-3.961596E-4],"split_indices":[3,77,77,25,51,80,51,0,0,0,0,0,0,0,0],"split_type":[0,0,0,0,0,0,0,0,0,0,0,0,0,0,0],"sum_hessian":[6.818067E3,2.5056428E3,4.312424E3,7.312529E2,1.7743898E3,2.4717627E3,1.8406613E3,3.2598486E2,4.052681E2,7.339348E2,1.0404551E3,1.6012062E3,8.7055664E2,8.6268335E2,9.779779E2],"tree_param":{"num_deleted":"0","num_feature":"106","num_nodes":"15","size_leaf_vector":"1"}},{"base_weights":[-1.364998E-1,-2.6181662E-1,1.5723239E-1,-1.110943E-1,-4.3212548E-1,-8.9743726E-2,2.7031377E-1,-2.5274705E-3,1.9179145E-4,-3.3829983E-3,-5.5744997E-3,7.132116E-4,-2.8226818E-3,4.2204186E-3,1.7317121E-3],"categories":[],"categories_nodes":[],"categories_segments":[],"categories_sizes":[],"default_left":[0,0,0,0,0,0,0,0,0,0,0,0,0,0,0],"id":16,"left_children":[1,3,5,7,9,11,13,-1,-1,-1,-1,-1,-1,-1,-1],"loss_changes":[2.5101108E2,1.226384E2,5.6986156E1,4.6819633E1,2.6193085E1,1.9906391E1,2.055098E1,0E0,0E0,0E0,0E0,0E0,0E0,0E0,0E0],"parents":[2147483647,0,0,1,1,2,2,3,3,4,4,5,5,6,6],"right_children":[2,4,6,8,10,12,14,-1,-1,-1,-1,-1,-1,-1,-1],"split_conditions":[2E1,1.4E1,-2E0,1E1,2.3E1,-4.3E0,-6.2E0,-2.5274705E-3,1.9179145E-4,-3.3829983E-3,-5.5744997E-3,7.132116E-4,-2.8226818E-3,4.2204186E-3,1.7317121E-3],"split_indices":[28,80,77,51,80,25,25,0,0,0,0,0,0,0,0],"split_type":[0,0,0,0,0,0,0,0,0,0,0,0,0,0,0],"sum_hessian":[6.8170596E3,4.7784907E3,2.0385688E3,2.5358928E3,2.2425977E3,6.4030756E2,1.3982614E3,1.2144363E3,1.3214567E3,1.2845809E3,9.580167E2,3.489813E2,2.9132626E2,5.444828E2,8.537785E2],"tree_param":{"num_deleted":"0","num_feature":"106","num_nodes":"15","size_leaf_vector":"1"}},{"base_weights":[1.3649984E-1,2.6181665E-1,-1.5723233E-1,1.1109438E-1,4.3212545E-1,8.974381E-2,-2.7031374E-1,2.5274714E-3,-1.9179074E-4,3.3829983E-3,5.5744997E-3,-7.132108E-4,2.8226825E-3,-4.2204172E-3,-1.7317121E-3],"categories":[],"categories_nodes":[],"categories_segments":[],"categories_sizes":[],"default_left":[0,0,0,0,0,0,0,0,0,0,0,0,0,0,0],"id":17,"left_children":[1,3,5,7,9,11,13,-1,-1,-1,-1,-1,-1,-1,-1],"loss_changes":[2.5101108E2,1.22638306E2,5.6986183E1,4.681965E1,2.6193085E1,1.9906395E1,2.0550957E1,0E0,0E0,0E0,0E0,0E0,0E0,0E0,0E0],"parents":[2147483647,0,0,1,1,2,2,3,3,4,4,5,5,6,6],"right_children":[2,4,6,8,10,12,14,-1,-1,-1,-1,-1,-1,-1,-1],"split_conditions":[2E1,1.4E1,-2E0,1E1,2.3E1,-4.3E0,-6.2E0,2.5274714E-3,-1.9179074E-4,3.3829983E-3,5.5744997E-3,-7.132108E-4,2.8226825E-3,-4.2204172E-3,-1.7317121E-3],"split_indices":[28,80,77,51,80,25,25,0,0,0,0,0,0,0,0],"split_type":[0,0,0,0,0,0,0,0,0,0,0,0,0,0,0],"sum_hessian":[6.8170596E3,4.7784907E3,2.038569E3,2.535893E3,2.2425977E3,6.403076E2,1.3982614E3,1.2144363E3,1.3214567E3,1.2845809E3,9.580167E2,3.4898132E2,2.9132626E2,5.4448285E2,8.537785E2],"tree_param":{"num_deleted":"0","num_feature":"106","num_nodes":"15","size_leaf_vector":"1"}},{"base_weights":[-1.3515867E-1,1.1413497E-1,-2.800223E-1,-1.4089693E-1,2.1925773E-1,-4.1875005E-1,-9.368969E-2,7.460861E-4,-3.140567E-3,8.5928483E-4,3.1316085E-3,-3.366175E-3,-5.6936652E-3,-2.445218E-3,3.944694E-4],"categories":[],"categories_nodes":[],"categories_segments":[],"categories_sizes":[],"default_left":[0,0,0,0,0,0,0,0,0,0,0,0,0,0,0],"id":18,"left_children":[1,3,5,7,9,11,13,-1,-1,-1,-1,-1,-1,-1,-1],"loss_changes":[2.4621544E2,6.7219025E1,1.1141885E2,2.7343128E1,2.219638E1,3.0380127E1,3.6988533E1,0E0,0E0,0E0,0E0,0E0,0E0,0E0,0E0],"parents":[2147483647,0,0,1,1,2,2,3,3,4,4,5,5,6,6],"right_children":[2,4,6,8,10,12,14,-1,-1,-1,-1,-1,-1,-1,-1],"split_conditions":[4.6E-1,-2.4E0,1.5E0,-4.8E0,2.4E1,2.3E1,9E0,7.460861E-4,-3.140567E-3,8.5928483E-4,3.1316085E-3,-3.366175E-3,-5.6936652E-3,-2.445218E-3,3.944694E-4],"split_indices":[3,77,77,25,51,80,51,0,0,0,0,0,0,0,0],"split_type":[0,0,0,0,0,0,0,0,0,0,0,0,0,0,0],"sum_hessian":[6.8159233E3,2.5051172E3,4.3108066E3,7.310999E2,1.7740172E3,2.4703455E3,1.8404609E3,3.2597623E2,4.051237E2,7.338991E2,1.040118E3,1.600703E3,8.696425E2,8.624942E2,9.7796674E2],"tree_param":{"num_deleted":"0","num_feature":"106","num_nodes":"15","size_leaf_vector":"1"}},{"base_weights":[1.3515869E-1,-1.1413495E-1,2.8002232E-1,1.4089695E-1,-2.1925771E-1,4.1875005E-1,9.36897E-2,-7.460861E-4,3.140567E-3,-8.5928506E-4,-3.1316085E-3,3.3661756E-3,5.6936652E-3,2.4452177E-3,-3.9446913E-4],"categories":[],"categories_nodes":[],"categories_segments":[],"categories_sizes":[],"default_left":[0,0,0,0,0,0,0,0,0,0,0,0,0,0,0],"id":19,"left_children":[1,3,5,7,9,11,13,-1,-1,-1,-1,-1,-1,-1,-1],"loss_changes":[2.4621547E2,6.7219025E1,1.1141885E2,2.7343128E1,2.2196358E1,3.0380127E1,3.6988525E1,0E0,0E0,0E0,0E0,0E0,0E0,0E0,0E0],"parents":[2147483647,0,0,1,1,2,2,3,3,4,4,5,5,6,6],"right_children":[2,4,6,8,10,12,14,-1,-1,-1,-1,-1,-1,-1,-1],"split_conditions":[4.6E-1,-2.4E0,1.5E0,-4.8E0,2.4E1,2.3E1,9E0,-7.460861E-4,3.140567E-3,-8.5928506E-4,-3.1316085E-3,3.3661756E-3,5.6936652E-3,2.4452177E-3,-3.9446913E-4],"split_indices":[3,77,77,25,51,80,51,0,0,0,0,0,0,0,0],"split_type":[0,0,0,0,0,0,0,0,0,0,0,0,0,0,0],"sum_hessian":[6.8159233E3,2.505117E3,4.3108066E3,7.310999E2,1.7740171E3,2.4703455E3,1.8404608E3,3.2597623E2,4.0512372E2,7.338991E2,1.040118E3,1.600703E3,8.696426E2,8.624942E2,9.779667E2],"tree_param":{"num_deleted":"0","num_feature":"106","num_nodes":"15","size_leaf_vector":"1"}},{"base_weights":[-1.3383321E-1,-2.5680944E-1,1.5436938E-1,-1.08765595E-1,-4.2418694E-1,-1.647662E-1,2.3907435E-1,-2.834353E-3,-5.9463608E-5,-5.8431355E-3,-3.5328744E-3,5.568974E-4,-2.9707917E-3,3.8933659E-3,1.4258076E-3],"categories":[],"categories_nodes":[],"categories_segments":[],"categories_sizes":[],"default_left":[0,0,0,0,0,0,0,0,0,0,0,0,0,0,0],"id":20,"left_children":[1,3,5,7,9,11,13,-1,-1,-1,-1,-1,-1,-1,-1],"loss_changes":[2.4160143E2,1.1833923E2,5.516035E1,4.5553596E1,2.5247162E1,1.2509249E1,2.3314354E1,0E0,0E0,0E0,0E0,0E0,0E0,0E0,0E0],"parents":[2147483647,0,0,1,1,2,2,3,3,4,4,5,5,6,6],"right_children":[2,4,6,8,10,12,14,-1,-1,-1,-1,-1,-1,-1,-1],"split_conditions":[2E1,1.4E1,3.59E-1,7E0,7E0,-6.3E0,-6.2E0,-2.834353E-3,-5.9463608E-5,-5.8431355E-3,-3.5328744E-3,5.568974E-4,-2.9707917E-3,3.8933659E-3,1.4258076E-3],"split_indices":[28,80,55,27,51,25,25,0,0,0,0,0,0,0,0],"split_type":[0,0,0,0,0,0,0,0,0,0,0,0,0,0,0],"sum_hessian":[6.8146797E3,4.7766074E3,2.0380724E3,2.5355696E3,2.2410378E3,4.272844E2,1.610788E3,9.3886523E2,1.5967043E3,6.8552856E2,1.5555094E3,1.6047868E2,2.6680573E2,6.2870996E2,9.8207794E2],"tree_param":{"num_deleted":"0","num_feature":"106","num_nodes":"15","size_leaf_vector":"1"}},{"base_weights":[1.3383317E-1,2.5680938E-1,-1.5436941E-1,1.08765535E-1,4.2418692E-1,1.647662E-1,-2.3907436E-1,2.8343522E-3,5.9463073E-5,5.8431355E-3,3.5328742E-3,-5.568974E-4,2.9707917E-3,-3.8933659E-3,-1.4258081E-3],"categories":[],"categories_nodes":[],"categories_segments":[],"categories_sizes":[],"default_left":[0,0,0,0,0,0,0,0,0,0,0,0,0,0,0],"id":21,"left_children":[1,3,5,7,9,11,13,-1,-1,-1,-1,-1,-1,-1,-1],"loss_changes":[2.4160141E2,1.183392E2,5.5160347E1,4.5553596E1,2.5247192E1,1.2509249E1,2.3314354E1,0E0,0E0,0E0,0E0,0E0,0E0,0E0,0E0],"parents":[2147483647,0,0,1,1,2,2,3,3,4,4,5,5,6,6],"right_children":[2,4,6,8,10,12,14,-1,-1,-1,-1,-1,-1,-1,-1],"split_conditions":[2E1,1.4E1,3.59E-1,7E0,7E0,-6.3E0,-6.2E0,2.8343522E-3,5.9463073E-5,5.8431355E-3,3.5328742E-3,-5.568974E-4,2.9707917E-3,-3.8933659E-3,-1.4258081E-3],"split_indices":[28,80,55,27,51,25,25,0,0,0,0,0,0,0,0],"split_type":[0,0,0,0,0,0,0,0,0,0,0,0,0,0,0],"sum_hessian":[6.8146797E3,4.7766074E3,2.0380724E3,2.5355698E3,2.2410378E3,4.272844E2,1.610788E3,9.388653E2,1.5967045E3,6.855285E2,1.5555093E3,1.6047868E2,2.6680573E2,6.2870996E2,9.8207794E2],"tree_param":{"num_deleted":"0","num_feature":"106","num_nodes":"15","size_leaf_vector":"1"}},{"base_weights":[-1.3252078E-1,1.121073E-1,-2.7470335E-1,-1.2316832E-1,2.2231987E-1,-5.038033E-1,-1.6489959E-1,7.546295E-4,-2.8218823E-3,8.736197E-4,3.174252E-3,-2.1821922E-3,-5.410442E-3,-3.2929077E-3,-5.086712E-4],"categories":[],"categories_nodes":[],"categories_segments":[],"categories_sizes":[],"default_left":[0,0,0,0,0,0,0,0,0,0,0,0,0,0,0],"id":22,"left_children":[1,3,5,7,9,11,13,-1,-1,-1,-1,-1,-1,-1,-1],"loss_changes":[2.370493E2,6.4996765E1,1.0833679E2,2.5287914E1,2.1877022E1,1.4727997E1,5.4627434E1,0E0,0E0,0E0,0E0,0E0,0E0,0E0,0E0],"parents":[2147483647,0,0,1,1,2,2,3,3,4,4,5,5,6,6],"right_children":[2,4,6,8,10,12,14,-1,-1,-1,-1,-1,-1,-1,-1],"split_conditions":[4.6E-1,-2E0,-1.4E0,-4.8E0,2.4E1,9E0,8E0,7.546295E-4,-2.8218823E-3,8.736197E-4,3.174252E-3,-2.1821922E-3,-5.410442E-3,-3.2929077E-3,-5.086712E-4],"split_indices":[3,77,77,25,51,52,51,0,0,0,0,0,0,0,0],"split_type":[0,0,0,0,0,0,0,0,0,0,0,0,0,0,0],"sum_hessian":[6.813431E3,2.504536E3,4.308895E3,7.989228E2,1.705613E3,1.394906E3,2.9139893E3,3.55453E2,4.434698E2,7.0587274E2,9.997403E2,1.617068E2,1.2331992E3,1.1926935E3,1.7212957E3],"tree_param":{"num_deleted":"0","num_feature":"106","num_nodes":"15","size_leaf_vector":"1"}},{"base_weights":[1.3252078E-1,-1.1210733E-1,2.7470332E-1,1.2316833E-1,-2.2231993E-1,5.038034E-1,1.6489957E-1,-7.5462897E-4,2.821882E-3,-8.7362074E-4,-3.174252E-3,2.1821924E-3,5.410442E-3,3.2929082E-3,5.0867064E-4],"categories":[],"categories_nodes":[],"categories_segments":[],"categories_sizes":[],"default_left":[0,0,0,0,0,0,0,0,0,0,0,0,0,0,0],"id":23,"left_children":[1,3,5,7,9,11,13,-1,-1,-1,-1,-1,-1,-1,-1],"loss_changes":[2.3704935E2,6.499678E1,1.0833682E2,2.528791E1,2.1876999E1,1.4727966E1,5.4627495E1,0E0,0E0,0E0,0E0,0E0,0E0,0E0,0E0],"parents":[2147483647,0,0,1,1,2,2,3,3,4,4,5,5,6,6],"right_children":[2,4,6,8,10,12,14,-1,-1,-1,-1,-1,-1,-1,-1],"split_conditions":[4.6E-1,-2E0,-1.4E0,-4.8E0,2.4E1,9E0,8E0,-7.5462897E-4,2.821882E-3,-8.7362074E-4,-3.174252E-3,2.1821924E-3,5.410442E-3,3.2929082E-3,5.0867064E-4],"split_indices":[3,77,77,25,51,52,51,0,0,0,0,0,0,0,0],"split_type":[0,0,0,0,0,0,0,0,0,0,0,0,0,0,0],"sum_hessian":[6.813431E3,2.504536E3,4.308895E3,7.989228E2,1.705613E3,1.394906E3,2.9139893E3,3.55453E2,4.434698E2,7.0587274E2,9.997403E2,1.617068E2,1.2331992E3,1.1926936E3,1.7212957E3],"tree_param":{"num_deleted":"0","num_feature":"106","num_nodes":"15","size_leaf_vector":"1"}},{"base_weights":[-1.3122444E-1,-3.184852E-1,5.1318217E-2,-1.7398092E-1,-4.6623135E-1,-1.7442204E-1,1.7961839E-1,-2.4700998E-3,8.857095E-5,-3.7182118E-3,-6.0832286E-3,8.2515134E-4,-3.0971565E-3,7.2531466E-4,3.2128715E-3],"categories":[],"categories_nodes":[],"categories_segments":[],"categories_sizes":[],"default_left":[0,0,0,0,0,0,0,0,0,0,0,0,0,0,0],"id":24,"left_children":[1,3,5,7,9,11,13,-1,-1,-1,-1,-1,-1,-1,-1],"loss_changes":[2.3290637E2,7.172278E1,9.997615E1,2.2726017E1,2.2073975E1,4.3514496E1,3.3364494E1,0E0,0E0,0E0,0E0,0E0,0E0,0E0,0E0],"parents":[2147483647,0,0,1,1,2,2,3,3,4,4,5,5,6,6],"right_children":[2,4,6,8,10,12,14,-1,-1,-1,-1,-1,-1,-1,-1],"split_conditions":[1.5E1,1.3E1,-1.3E0,6E0,2.3E1,-4.8E0,2.4E1,-2.4700998E-3,8.857095E-5,-3.7182118E-3,-6.0832286E-3,8.2515134E-4,-3.0971565E-3,7.2531466E-4,3.2128715E-3],"split_indices":[51,80,77,77,80,25,51,0,0,0,0,0,0,0,0],"split_type":[0,0,0,0,0,0,0,0,0,0,0,0,0,0,0],"sum_hessian":[6.812021E3,3.3621873E3,3.4498335E3,1.7008423E3,1.661345E3,1.2500496E3,2.199784E3,1.2151405E3,4.8570178E2,1.0003184E3,6.6102655E2,4.313188E2,8.1873083E2,1.2536593E3,9.461247E2],"tree_param":{"num_deleted":"0","num_feature":"106","num_nodes":"15","size_leaf_vector":"1"}},{"base_weights":[1.3122444E-1,3.1848523E-1,-5.1318213E-2,1.7398094E-1,4.6623135E-1,1.7442206E-1,-1.7961839E-1,2.4700998E-3,-8.857082E-5,3.7182118E-3,6.083229E-3,-8.251514E-4,3.0971568E-3,-7.253146E-4,-3.2128715E-3],"categories":[],"categories_nodes":[],"categories_segments":[],"categories_sizes":[],"default_left":[0,0,0,0,0,0,0,0,0,0,0,0,0,0,0],"id":25,"left_children":[1,3,5,7,9,11,13,-1,-1,-1,-1,-1,-1,-1,-1],"loss_changes":[2.329064E2,7.172275E1,9.997616E1,2.2726025E1,2.2074005E1,4.3514496E1,3.3364502E1,0E0,0E0,0E0,0E0,0E0,0E0,0E0,0E0],"parents":[2147483647,0,0,1,1,2,2,3,3,4,4,5,5,6,6],"right_children":[2,4,6,8,10,12,14,-1,-1,-1,-1,-1,-1,-1,-1],"split_conditions":[1.5E1,1.3E1,-1.3E0,6E0,2.3E1,-4.8E0,2.4E1,2.4700998E-3,-8.857082E-5,3.7182118E-3,6.083229E-3,-8.251514E-4,3.0971568E-3,-7.253146E-4,-3.2128715E-3],"split_indices":[51,80,77,77,80,25,51,0,0,0,0,0,0,0,0],"split_type":[0,0,0,0,0,0,0,0,0,0,0,0,0,0,0],"sum_hessian":[6.812021E3,3.3621873E3,3.4498337E3,1.7008424E3,1.661345E3,1.2500496E3,2.199784E3,1.2151405E3,4.857018E2,1.00031836E3,6.6102655E2,4.313188E2,8.1873083E2,1.2536593E3,9.461247E2],"tree_param":{"num_deleted":"0","num_feature":"106","num_nodes":"15","size_leaf_vector":"1"}},{"base_weights":[-1.2994193E-1,-2.4964769E-1,1.505215E-1,-1.0525787E-1,-4.1306013E-1,-1.6111922E-1,2.3324782E-1,-2.7617381E-3,-4.6861725E-5,-3.2255696E-3,-5.3416104E-3,5.3398137E-4,-2.8991809E-3,3.8025482E-3,1.38894E-3],"categories":[],"categories_nodes":[],"categories_segments":[],"categories_sizes":[],"default_left":[0,0,0,0,0,0,0,0,0,0,0,0,0,0,0],"id":26,"left_children":[1,3,5,7,9,11,13,-1,-1,-1,-1,-1,-1,-1,-1],"loss_changes":[2.2872276E2,1.12607544E2,5.2584713E1,4.3591526E1,2.4370453E1,1.1845057E1,2.229383E1,0E0,0E0,0E0,0E0,0E0,0E0,0E0,0E0],"parents":[2147483647,0,0,1,1,2,2,3,3,4,4,5,5,6,6],"right_children":[2,4,6,8,10,12,14,-1,-1,-1,-1,-1,-1,-1,-1],"split_conditions":[2E1,1.4E1,3.59E-1,7E0,2.3E1,-6.3E0,-6.2E0,-2.7617381E-3,-4.6861725E-5,-3.2255696E-3,-5.3416104E-3,5.3398137E-4,-2.8991809E-3,3.8025482E-3,1.38894E-3],"split_indices":[28,80,55,27,80,25,25,0,0,0,0,0,0,0,0],"split_type":[0,0,0,0,0,0,0,0,0,0,0,0,0,0,0],"sum_hessian":[6.8105615E3,4.7733413E3,2.0372202E3,2.5350432E3,2.2382983E3,4.2714862E2,1.6100715E3,9.384515E2,1.5965918E3,1.2830736E3,9.552246E2,1.6046916E2,2.6667947E2,6.2823157E2,9.8183997E2],"tree_param":{"num_deleted":"0","num_feature":"106","num_nodes":"15","size_leaf_vector":"1"}},{"base_weights":[1.2994193E-1,2.496477E-1,-1.505215E-1,1.0525788E-1,4.1306016E-1,1.6111918E-1,-2.3324782E-1,2.7617386E-3,4.686179E-5,3.2255696E-3,5.341611E-3,-5.3398224E-4,2.8991809E-3,-3.8025482E-3,-1.3889399E-3],"categories":[],"categories_nodes":[],"categories_segments":[],"categories_sizes":[],"default_left":[0,0,0,0,0,0,0,0,0,0,0,0,0,0,0],"id":27,"left_children":[1,3,5,7,9,11,13,-1,-1,-1,-1,-1,-1,-1,-1],"loss_changes":[2.2872278E2,1.12607544E2,5.2584698E1,4.3591537E1,2.4370453E1,1.184506E1,2.2293839E1,0E0,0E0,0E0,0E0,0E0,0E0,0E0,0E0],"parents":[2147483647,0,0,1,1,2,2,3,3,4,4,5,5,6,6],"right_children":[2,4,6,8,10,12,14,-1,-1,-1,-1,-1,-1,-1,-1],"split_conditions":[2E1,1.4E1,3.59E-1,7E0,2.3E1,-6.3E0,-6.2E0,2.7617386E-3,4.686179E-5,3.2255696E-3,5.341611E-3,-5.3398224E-4,2.8991809E-3,-3.8025482E-3,-1.3889399E-3],"split_indices":[28,80,55,27,80,25,25,0,0,0,0,0,0,0,0],"split_type":[0,0,0,0,0,0,0,0,0,0,0,0,0,0,0],"sum_hessian":[6.8105615E3,4.7733413E3,2.0372201E3,2.5350432E3,2.2382983E3,4.2714862E2,1.6100715E3,9.384515E2,1.5965918E3,1.2830736E3,9.552246E2,1.6046915E2,2.6667947E2,6.2823157E2,9.8183997E2],"tree_param":{"num_deleted":"0","num_feature":"106","num_nodes":"15","size_leaf_vector":"1"}},{"base_weights":[-1.2867413E-1,-3.128463E-1,5.080764E-2,-1.7085806E-1,-4.5814097E-1,-1.7110607E-1,1.7690662E-1,-2.431857E-3,1.019748E-4,-3.6533794E-3,-5.979613E-3,8.0861856E-4,-3.0385077E-3,7.1986724E-4,3.1576694E-3],"categories":[],"categories_nodes":[],"categories_segments":[],"categories_sizes":[],"default_left":[0,0,0,0,0,0,0,0,0,0,0,0,0,0,0],"id":28,"left_children":[1,3,5,7,9,11,13,-1,-1,-1,-1,-1,-1,-1,-1],"loss_changes":[2.2512326E2,6.9263916E1,9.656532E1,2.2284702E1,2.1329895E1,4.185043E1,3.2033417E1,0E0,0E0,0E0,0E0,0E0,0E0,0E0,0E0],"parents":[2147483647,0,0,1,1,2,2,3,3,4,4,5,5,6,6],"right_children":[2,4,6,8,10,12,14,-1,-1,-1,-1,-1,-1,-1,-1],"split_conditions":[1.5E1,1.3E1,-1.3E0,6E0,2.3E1,-4.8E0,2.4E1,-2.431857E-3,1.019748E-4,-3.6533794E-3,-5.979613E-3,8.0861856E-4,-3.0385077E-3,7.1986724E-4,3.1576694E-3],"split_indices":[51,80,77,77,80,25,51,0,0,0,0,0,0,0,0],"split_type":[0,0,0,0,0,0,0,0,0,0,0,0,0,0,0],"sum_hessian":[6.8089717E3,3.3602083E3,3.4487634E3,1.7005414E3,1.6596669E3,1.2494962E3,2.199267E3,1.2148806E3,4.8566083E2,9.997291E2,6.5993774E2,4.3127228E2,8.1822394E2,1.2535956E3,9.456716E2],"tree_param":{"num_deleted":"0","num_feature":"106","num_nodes":"15","size_leaf_vector":"1"}},{"base_weights":[1.2867415E-1,3.1284633E-1,-5.080764E-2,1.7085807E-1,4.5814097E-1,1.7110607E-1,-1.7690663E-1,2.431857E-3,-1.0197454E-4,3.6533796E-3,5.9796134E-3,-8.0861826E-4,3.0385077E-3,-7.198674E-4,-3.1576694E-3],"categories":[],"categories_nodes":[],"categories_segments":[],"categories_sizes":[],"default_left":[0,0,0,0,0,0,0,0,0,0,0,0,0,0,0],"id":29,"left_children":[1,3,5,7,9,11,13,-1,-1,-1,-1,-1,-1,-1,-1],"loss_changes":[2.2512323E2,6.9263916E1,9.656532E1,2.2284702E1,2.1329956E1,4.1850426E1,3.2033417E1,0E0,0E0,0E0,0E0,0E0,0E0,0E0,0E0],"parents":[2147483647,0,0,1,1,2,2,3,3,4,4,5,5,6,6],"right_children":[2,4,6,8,10,12,14,-1,-1,-1,-1,-1,-1,-1,-1],"split_conditions":[1.5E1,1.3E1,-1.3E0,6E0,2.3E1,-4.8E0,2.4E1,2.431857E-3,-1.0197454E-4,3.6533796E-3,5.9796134E-3,-8.0861826E-4,3.0385077E-3,-7.198674E-4,-3.1576694E-3],"split_indices":[51,80,77,77,80,25,51,0,0,0,0,0,0,0,0],"split_type":[0,0,0,0,0,0,0,0,0,0,0,0,0,0,0],"sum_hessian":[6.8089717E3,3.3602085E3,3.4487634E3,1.7005415E3,1.659667E3,1.2494962E3,2.199267E3,1.2148806E3,4.8566083E2,9.997292E2,6.5993774E2,4.312723E2,8.1822394E2,1.2535956E3,9.456716E2],"tree_param":{"num_deleted":"0","num_feature":"106","num_nodes":"15","size_leaf_vector":"1"}},{"base_weights":[-1.2742032E-1,1.0869401E-1,-2.6472238E-1,-1.3343316E-1,2.0850024E-1,-3.9773676E-1,-8.641039E-2,7.045919E-4,-2.9746266E-3,8.3417445E-4,2.9669474E-3,-3.1981783E-3,-5.4102223E-3,-2.3162828E-3,4.166735E-4],"categories":[],"categories_nodes":[],"categories_segments":[],"categories_sizes":[],"default_left":[0,0,0,0,0,0,0,0,0,0,0,0,0,0,0],"id":30,"left_children":[1,3,5,7,9,11,13,-1,-1,-1,-1,-1,-1,-1,-1],"loss_changes":[2.2074738E2,6.054063E1,1.020777E2,2.448608E1,1.954039E1,2.7353943E1,3.42451E1,0E0,0E0,0E0,0E0,0E0,0E0,0E0,0E0],"parents":[2147483647,0,0,1,1,2,2,3,3,4,4,5,5,6,6],"right_children":[2,4,6,8,10,12,14,-1,-1,-1,-1,-1,-1,-1,-1],"split_conditions":[4.6E-1,-2.4E0,1.5E0,-4.8E0,2.4E1,2.3E1,9E0,7.045919E-4,-2.9746266E-3,8.3417445E-4,2.9669474E-3,-3.1981783E-3,-5.4102223E-3,-2.3162828E-3,4.166735E-4],"split_indices":[3,77,77,25,51,80,51,0,0,0,0,0,0,0,0],"split_type":[0,0,0,0,0,0,0,0,0,0,0,0,0,0,0],"sum_hessian":[6.807314E3,2.5030684E3,4.3042456E3,7.30517E2,1.7725513E3,2.464549E3,1.8396965E3,3.2593854E2,4.0457846E2,7.3379083E2,1.0387605E3,1.5985087E3,8.6604034E2,8.6177966E2,9.779169E2],"tree_param":{"num_deleted":"0","num_feature":"106","num_nodes":"15","size_leaf_vector":"1"}},{"base_weights":[1.2742034E-1,-1.0869401E-1,2.6472238E-1,1.3343316E-1,-2.0850022E-1,3.977368E-1,8.641041E-2,-7.045922E-4,2.9746266E-3,-8.3417393E-4,-2.9669479E-3,3.1981783E-3,5.4102223E-3,2.3162828E-3,-4.1667305E-4],"categories":[],"categories_nodes":[],"categories_segments":[],"categories_sizes":[],"default_left":[0,0,0,0,0,0,0,0,0,0,0,0,0,0,0],"id":31,"left_children":[1,3,5,7,9,11,13,-1,-1,-1,-1,-1,-1,-1,-1],"loss_changes":[2.2074736E2,6.054062E1,1.0207773E2,2.4486084E1,1.9540405E1,2.7353943E1,3.4245087E1,0E0,0E0,0E0,0E0,0E0,0E0,0E0,0E0],"parents":[2147483647,0,0,1,1,2,2,3,3,4,4,5,5,6,6],"right_children":[2,4,6,8,10,12,14,-1,-1,-1,-1,-1,-1,-1,-1],"split_conditions":[4.6E-1,-2.4E0,1.5E0,-4.8E0,2.4E1,2.3E1,9E0,-7.045922E-4,2.9746266E-3,-8.3417393E-4,-2.9669479E-3,3.1981783E-3,5.4102223E-3,2.3162828E-3,-4.1667305E-4],"split_indices":[3,77,77,25,51,80,51,0,0,0,0,0,0,0,0],"split_type":[0,0,0,0,0,0,0,0,0,0,0,0,0,0,0],"sum_hessian":[6.807314E3,2.5030684E3,4.3042456E3,7.30517E2,1.7725513E3,2.464549E3,1.8396965E3,3.2593854E2,4.045785E2,7.3379083E2,1.0387605E3,1.5985087E3,8.6604034E2,8.6177966E2,9.779169E2],"tree_param":{"num_deleted":"0","num_feature":"106","num_nodes":"15","size_leaf_vector":"1"}},{"base_weights":[-1.261819E-1,-3.0721346E-1,5.0180018E-2,-1.6758832E-1,-4.502234E-1,-1.6780855E-1,1.7402038E-1,-2.390656E-3,1.13030845E-4,-3.590267E-3,-5.877918E-3,7.9030386E-4,-2.9793023E-3,7.1371224E-4,3.0994238E-3],"categories":[],"categories_nodes":[],"categories_segments":[],"categories_sizes":[],"default_left":[0,0,0,0,0,0,0,0,0,0,0,0,0,0,0],"id":32,"left_children":[1,3,5,7,9,11,13,-1,-1,-1,-1,-1,-1,-1,-1],"loss_changes":[2.173263E2,6.69946E1,9.312589E1,2.1754898E1,2.0599274E1,4.0168606E1,3.0668472E1,0E0,0E0,0E0,0E0,0E0,0E0,0E0,0E0],"parents":[2147483647,0,0,1,1,2,2,3,3,4,4,5,5,6,6],"right_children":[2,4,6,8,10,12,14,-1,-1,-1,-1,-1,-1,-1,-1],"split_conditions":[1.5E1,1.3E1,-1.3E0,6E0,2.3E1,-4.8E0,2.4E1,-2.390656E-3,1.13030845E-4,-3.590267E-3,-5.877918E-3,7.9030386E-4,-2.9793023E-3,7.1371224E-4,3.0994238E-3],"split_indices":[51,80,77,77,80,25,51,0,0,0,0,0,0,0,0],"split_type":[0,0,0,0,0,0,0,0,0,0,0,0,0,0,0],"sum_hessian":[6.805477E3,3.3579128E3,3.4475642E3,1.7001621E3,1.6577506E3,1.248881E3,2.1986833E3,1.2145459E3,4.8561627E2,9.990629E2,6.586877E2,4.312323E2,8.176486E2,1.2535328E3,9.451506E2],"tree_param":{"num_deleted":"0","num_feature":"106","num_nodes":"15","size_leaf_vector":"1"}},{"base_weights":[1.261819E-1,3.072135E-1,-5.0180037E-2,1.6758835E-1,4.502234E-1,1.6780855E-1,-1.740204E-1,2.390656E-3,-1.1303027E-4,3.5902672E-3,5.877918E-3,-7.903043E-4,2.9793025E-3,-7.137124E-4,-3.0994245E-3],"categories":[],"categories_nodes":[],"categories_segments":[],"categories_sizes":[],"default_left":[0,0,0,0,0,0,0,0,0,0,0,0,0,0,0],"id":33,"left_children":[1,3,5,7,9,11,13,-1,-1,-1,-1,-1,-1,-1,-1],"loss_changes":[2.1732639E2,6.699457E1,9.31259E1,2.175489E1,2.0599243E1,4.0168613E1,3.066848E1,0E0,0E0,0E0,0E0,0E0,0E0,0E0,0E0],"parents":[2147483647,0,0,1,1,2,2,3,3,4,4,5,5,6,6],"right_children":[2,4,6,8,10,12,14,-1,-1,-1,-1,-1,-1,-1,-1],"split_conditions":[1.5E1,1.3E1,-1.3E0,6E0,2.3E1,-4.8E0,2.4E1,2.390656E-3,-1.1303027E-4,3.5902672E-3,5.877918E-3,-7.903043E-4,2.9793025E-3,-7.137124E-4,-3.0994245E-3],"split_indices":[51,80,77,77,80,25,51,0,0,0,0,0,0,0,0],"split_type":[0,0,0,0,0,0,0,0,0,0,0,0,0,0,0],"sum_hessian":[6.805477E3,3.3579126E3,3.4475642E3,1.7001621E3,1.6577506E3,1.248881E3,2.1986833E3,1.2145459E3,4.8561627E2,9.990629E2,6.586877E2,4.312323E2,8.176487E2,1.2535327E3,9.451506E2],"tree_param":{"num_deleted":"0","num_feature":"106","num_nodes":"15","size_leaf_vector":"1"}},{"base_weights":[-1.2495596E-1,-3.0426192E-1,4.9686894E-2,-1.6593127E-1,-4.4602558E-1,-2.0783055E-1,1.5255757E-1,-2.3671223E-3,1.11902686E-4,-3.5558003E-3,-5.8255554E-3,5.486256E-4,-3.4485694E-3,3.8955073E-4,2.6910263E-3],"categories":[],"categories_nodes":[],"categories_segments":[],"categories_sizes":[],"default_left":[0,0,0,0,0,0,0,0,0,0,0,0,0,0,0],"id":34,"left_children":[1,3,5,7,9,11,13,-1,-1,-1,-1,-1,-1,-1,-1],"loss_changes":[2.130986E2,6.576999E1,9.137256E1,2.1327599E1,2.026236E1,3.546169E1,3.261721E1,0E0,0E0,0E0,0E0,0E0,0E0,0E0,0E0],"parents":[2147483647,0,0,1,1,2,2,3,3,4,4,5,5,6,6],"right_children":[2,4,6,8,10,12,14,-1,-1,-1,-1,-1,-1,-1,-1],"split_conditions":[1.5E1,1.3E1,-2.4E0,6E0,2.3E1,-4.8E0,2.2E1,-2.3671223E-3,1.11902686E-4,-3.5558003E-3,-5.8255554E-3,5.486256E-4,-3.4485694E-3,3.8955073E-4,2.6910263E-3],"split_indices":[51,80,77,77,80,25,27,0,0,0,0,0,0,0,0],"split_type":[0,0,0,0,0,0,0,0,0,0,0,0,0,0,0],"sum_hessian":[6.8036265E3,3.3566296E3,3.4469968E3,1.6999838E3,1.6566459E3,9.836337E2,2.463363E3,1.2143651E3,4.8561862E2,9.9867114E2,6.579747E2,3.3740146E2,6.462323E2,1.2481051E3,1.215258E3],"tree_param":{"num_deleted":"0","num_feature":"106","num_nodes":"15","size_leaf_vector":"1"}},{"base_weights":[1.2495596E-1,3.0426195E-1,-4.9686898E-2,1.659313E-1,4.4602558E-1,2.0783052E-1,-1.5255755E-1,2.3671226E-3,-1.1190226E-4,3.5557998E-3,5.8255554E-3,-5.486259E-4,3.4485692E-3,-3.8955073E-4,-2.6910263E-3],"categories":[],"categories_nodes":[],"categories_segments":[],"categories_sizes":[],"default_left":[0,0,0,0,0,0,0,0,0,0,0,0,0,0,0],"id":35,"left_children":[1,3,5,7,9,11,13,-1,-1,-1,-1,-1,-1,-1,-1],"loss_changes":[2.1309863E2,6.576996E1,9.1372536E1,2.1327595E1,2.026236E1,3.5461685E1,3.2617218E1,0E0,0E0,0E0,0E0,0E0,0E0,0E0,0E0],"parents":[2147483647,0,0,1,1,2,2,3,3,4,4,5,5,6,6],"right_children":[2,4,6,8,10,12,14,-1,-1,-1,-1,-1,-1,-1,-1],"split_conditions":[1.5E1,1.3E1,-2.4E0,6E0,2.3E1,-4.8E0,2.2E1,2.3671226E-3,-1.1190226E-4,3.5557998E-3,5.8255554E-3,-5.486259E-4,3.4485692E-3,-3.8955073E-4,-2.6910263E-3],"split_indices":[51,80,77,77,80,25,27,0,0,0,0,0,0,0,0],"split_type":[0,0,0,0,0,0,0,0,0,0,0,0,0,0,0],"sum_hessian":[6.8036265E3,3.3566296E3,3.4469968E3,1.6999838E3,1.6566459E3,9.836337E2,2.463363E3,1.2143651E3,4.8561862E2,9.9867114E2,6.5797473E2,3.3740146E2,6.4623224E2,1.2481051E3,1.2152579E3],"tree_param":{"num_deleted":"0","num_feature":"106","num_nodes":"15","size_leaf_vector":"1"}},{"base_weights":[-1.2374373E-1,-2.383883E-1,1.4470294E-1,-1.00011155E-1,-3.9534858E-1,-5.2542607E-3,3.064326E-1,-2.6622668E-3,-2.2666005E-5,-5.501986E-3,-3.2689157E-3,1.516298E-3,-1.7624932E-3,4.3546045E-3,2.270822E-3],"categories":[],"categories_nodes":[],"categories_segments":[],"categories_sizes":[],"default_left":[0,0,0,0,0,0,0,0,0,0,0,0,0,0,0],"id":36,"left_children":[1,3,5,7,9,11,13,-1,-1,-1,-1,-1,-1,-1,-1],"loss_changes":[2.0939384E2,1.0350455E2,4.9389664E1,4.1184097E1,2.3494598E1,2.8399532E1,9.932327E0,0E0,0E0,0E0,0E0,0E0,0E0,0E0,0E0],"parents":[2147483647,0,0,1,1,2,2,3,3,4,4,5,5,6,6],"right_children":[2,4,6,8,10,12,14,-1,-1,-1,-1,-1,-1,-1,-1],"split_conditions":[2E1,1.4E1,5.14E-1,7E0,7E0,-4.8E0,-6.2E0,-2.6622668E-3,-2.2666005E-5,-5.501986E-3,-3.2689157E-3,1.516298E-3,-1.7624932E-3,4.3546045E-3,2.270822E-3],"split_indices":[28,80,55,27,51,25,25,0,0,0,0,0,0,0,0],"split_type":[0,0,0,0,0,0,0,0,0,0,0,0,0,0,0],"sum_hessian":[6.801693E3,4.7662847E3,2.0354084E3,2.5339636E3,2.2323208E3,1.056645E3,9.7876337E2,9.3768976E2,1.5962739E3,6.8218304E2,1.5501378E3,5.5111914E2,5.0552594E2,3.710039E2,6.0775946E2],"tree_param":{"num_deleted":"0","num_feature":"106","num_nodes":"15","size_leaf_vector":"1"}},{"base_weights":[1.2374373E-1,2.383883E-1,-1.4470293E-1,1.0001115E-1,3.9534858E-1,5.254266E-3,-3.0643257E-1,2.6622668E-3,2.2665854E-5,5.5019865E-3,3.2689157E-3,-1.5162972E-3,1.7624926E-3,-4.3546036E-3,-2.270822E-3],"categories":[],"categories_nodes":[],"categories_segments":[],"categories_sizes":[],"default_left":[0,0,0,0,0,0,0,0,0,0,0,0,0,0,0],"id":37,"left_children":[1,3,5,7,9,11,13,-1,-1,-1,-1,-1,-1,-1,-1],"loss_changes":[2.0939383E2,1.0350455E2,4.9389652E1,4.1184105E1,2.349466E1,2.8399511E1,9.93232E0,0E0,0E0,0E0,0E0,0E0,0E0,0E0,0E0],"parents":[2147483647,0,0,1,1,2,2,3,3,4,4,5,5,6,6],"right_children":[2,4,6,8,10,12,14,-1,-1,-1,-1,-1,-1,-1,-1],"split_conditions":[2E1,1.4E1,5.14E-1,7E0,7E0,-4.8E0,-6.2E0,2.6622668E-3,2.2665854E-5,5.5019865E-3,3.2689157E-3,-1.5162972E-3,1.7624926E-3,-4.3546036E-3,-2.270822E-3],"split_indices":[28,80,55,27,51,25,25,0,0,0,0,0,0,0,0],"split_type":[0,0,0,0,0,0,0,0,0,0,0,0,0,0,0],"sum_hessian":[6.801693E3,4.7662847E3,2.0354084E3,2.5339636E3,2.2323208E3,1.056645E3,9.7876337E2,9.3768976E2,1.5962739E3,6.82183E2,1.5501378E3,5.5111914E2,5.0552594E2,3.7100394E2,6.0775946E2],"tree_param":{"num_deleted":"0","num_feature":"106","num_nodes":"15","size_leaf_vector":"1"}},{"base_weights":[-1.2254272E-1,-2.9877865E-1,4.9036875E-2,-1.6296545E-1,-4.3811917E-1,-1.6372924E-1,1.6987485E-1,-2.3307374E-3,1.243575E-4,-3.4840915E-3,-5.7369205E-3,7.6097867E-4,-2.9026063E-3,6.996507E-4,3.0227408E-3],"categories":[],"categories_nodes":[],"categories_segments":[],"categories_sizes":[],"default_left":[0,0,0,0,0,0,0,0,0,0,0,0,0,0,0],"id":38,"left_children":[1,3,5,7,9,11,13,-1,-1,-1,-1,-1,-1,-1,-1],"loss_changes":[2.0565854E2,6.341928E1,8.864447E1,2.0915188E1,1.9933502E1,3.7923496E1,2.9063972E1,0E0,0E0,0E0,0E0,0E0,0E0,0E0,0E0],"parents":[2147483647,0,0,1,1,2,2,3,3,4,4,5,5,6,6],"right_children":[2,4,6,8,10,12,14,-1,-1,-1,-1,-1,-1,-1,-1],"split_conditions":[1.5E1,1.3E1,-1.3E0,6E0,2.3E1,-4.8E0,2.4E1,-2.3307374E-3,1.243575E-4,-3.4840915E-3,-5.7369205E-3,7.6097867E-4,-2.9026063E-3,6.996507E-4,3.0227408E-3],"split_indices":[51,80,77,77,80,25,51,0,0,0,0,0,0,0,0],"split_type":[0,0,0,0,0,0,0,0,0,0,0,0,0,0,0],"sum_hessian":[6.799733E3,3.3539854E3,3.4457476E3,1.6995895E3,1.6543959E3,1.2479891E3,2.1977583E3,1.2140155E3,4.855739E2,9.977465E2,6.5664935E2,4.311631E2,8.1682605E2,1.2534335E3,9.4432495E2],"tree_param":{"num_deleted":"0","num_feature":"106","num_nodes":"15","size_leaf_vector":"1"}},{"base_weights":[1.2254273E-1,2.9877865E-1,-4.9036838E-2,1.6296543E-1,4.381192E-1,1.6372925E-1,-1.698748E-1,2.3307374E-3,-1.2435806E-4,3.4840915E-3,5.7369214E-3,-7.609785E-4,2.902607E-3,-6.9965026E-4,-3.0227401E-3],"categories":[],"categories_nodes":[],"categories_segments":[],"categories_sizes":[],"default_left":[0,0,0,0,0,0,0,0,0,0,0,0,0,0,0],"id":39,"left_children":[1,3,5,7,9,11,13,-1,-1,-1,-1,-1,-1,-1,-1],"loss_changes":[2.056585E2,6.341928E1,8.8644455E1,2.0915203E1,1.9933472E1,3.79235E1,2.9063984E1,0E0,0E0,0E0,0E0,0E0,0E0,0E0,0E0],"parents":[2147483647,0,0,1,1,2,2,3,3,4,4,5,5,6,6],"right_children":[2,4,6,8,10,12,14,-1,-1,-1,-1,-1,-1,-1,-1],"split_conditions":[1.5E1,1.3E1,-1.3E0,6E0,2.3E1,-4.8E0,2.4E1,2.3307374E-3,-1.2435806E-4,3.4840915E-3,5.7369214E-3,-7.609785E-4,2.902607E-3,-6.9965026E-4,-3.0227401E-3],"split_indices":[51,80,77,77,80,25,51,0,0,0,0,0,0,0,0],"split_type":[0,0,0,0,0,0,0,0,0,0,0,0,0,0,0],"sum_hessian":[6.799733E3,3.3539854E3,3.4457476E3,1.6995895E3,1.6543959E3,1.2479891E3,2.1977585E3,1.2140155E3,4.855739E2,9.977465E2,6.5664935E2,4.311631E2,8.16826E2,1.2534335E3,9.4432495E2],"tree_param":{"num_deleted":"0","num_feature":"106","num_nodes":"15","size_leaf_vector":"1"}},{"base_weights":[-1.2135696E-1,1.0455981E-1,-2.5283462E-1,-1.2714982E-1,2.0006731E-1,-3.557244E-1,-3.7347253E-2,6.648076E-4,-2.831575E-3,3.3108061E-3,1.2216325E-3,-4.7928425E-3,-2.6103999E-3,9.1867853E-4,-1.668251E-3],"categories":[],"categories_nodes":[],"categories_segments":[],"categories_sizes":[],"default_left":[0,0,0,0,0,0,0,0,0,0,0,0,0,0,0],"id":40,"left_children":[1,3,5,7,9,11,13,-1,-1,-1,-1,-1,-1,-1,-1],"loss_changes":[2.0196585E2,5.5389656E1,9.5276215E1,2.2095444E1,1.8044884E1,3.3905426E1,2.3271555E1,0E0,0E0,0E0,0E0,0E0,0E0,0E0,0E0],"parents":[2147483647,0,0,1,1,2,2,3,3,4,4,5,5,6,6],"right_children":[2,4,6,8,10,12,14,-1,-1,-1,-1,-1,-1,-1,-1],"split_conditions":[4.6E-1,-2.4E0,2.9E0,-4.8E0,-5.9E0,-1.9E0,3.1E0,6.648076E-4,-2.831575E-3,3.3108061E-3,1.2216325E-3,-4.7928425E-3,-2.6103999E-3,9.1867853E-4,-1.668251E-3],"split_indices":[3,77,77,25,25,77,25,0,0,0,0,0,0,0,0],"split_type":[0,0,0,0,0,0,0,0,0,0,0,0,0,0,0],"sum_hessian":[6.797618E3,2.5007715E3,4.2968467E3,7.298236E2,1.770948E3,2.9077961E3,1.3890503E3,3.2590143E2,4.0392218E2,6.5916425E2,1.1117837E3,1.2597736E3,1.6480226E3,6.9537585E2,6.936744E2],"tree_param":{"num_deleted":"0","num_feature":"106","num_nodes":"15","size_leaf_vector":"1"}},{"base_weights":[1.2135697E-1,-1.04559794E-1,2.5283462E-1,1.2714984E-1,-2.000673E-1,3.5572442E-1,3.7347272E-2,-6.6480704E-4,2.831575E-3,-3.3108061E-3,-1.2216322E-3,4.792842E-3,2.6104003E-3,-9.186784E-4,1.6682511E-3],"categories":[],"categories_nodes":[],"categories_segments":[],"categories_sizes":[],"default_left":[0,0,0,0,0,0,0,0,0,0,0,0,0,0,0],"id":41,"left_children":[1,3,5,7,9,11,13,-1,-1,-1,-1,-1,-1,-1,-1],"loss_changes":[2.0196585E2,5.5389656E1,9.5276184E1,2.2095432E1,1.8044884E1,3.3905487E1,2.3271555E1,0E0,0E0,0E0,0E0,0E0,0E0,0E0,0E0],"parents":[2147483647,0,0,1,1,2,2,3,3,4,4,5,5,6,6],"right_children":[2,4,6,8,10,12,14,-1,-1,-1,-1,-1,-1,-1,-1],"split_conditions":[4.6E-1,-2.4E0,2.9E0,-4.8E0,-5.9E0,-1.9E0,3.1E0,-6.6480704E-4,2.831575E-3,-3.3108061E-3,-1.2216322E-3,4.792842E-3,2.6104003E-3,-9.186784E-4,1.6682511E-3],"split_indices":[3,77,77,25,25,77,25,0,0,0,0,0,0,0,0],"split_type":[0,0,0,0,0,0,0,0,0,0,0,0,0,0,0],"sum_hessian":[6.797618E3,2.5007715E3,4.296846E3,7.298236E2,1.770948E3,2.9077961E3,1.3890502E3,3.2590143E2,4.0392218E2,6.5916425E2,1.1117837E3,1.2597736E3,1.6480226E3,6.9537585E2,6.936743E2],"tree_param":{"num_deleted":"0","num_feature":"106","num_nodes":"15","size_leaf_vector":"1"}},{"base_weights":[-1.20183334E-1,-2.934912E-1,4.847294E-2,-1.5996075E-1,-4.3065342E-1,-2.0083027E-1,1.4800231E-1,-2.2912375E-3,1.3027067E-4,-3.4209965E-3,-5.6466437E-3,5.202039E-4,-3.3294072E-3,3.8728747E-4,2.6019504E-3],"categories":[],"categories_nodes":[],"categories_segments":[],"categories_sizes":[],"default_left":[0,0,0,0,0,0,0,0,0,0,0,0,0,0,0],"id":42,"left_children":[1,3,5,7,9,11,13,-1,-1,-1,-1,-1,-1,-1,-1],"loss_changes":[1.9867029E2,6.1326538E1,8.551791E1,2.034412E1,1.9423126E1,3.2868423E1,3.0183819E1,0E0,0E0,0E0,0E0,0E0,0E0,0E0,0E0],"parents":[2147483647,0,0,1,1,2,2,3,3,4,4,5,5,6,6],"right_children":[2,4,6,8,10,12,14,-1,-1,-1,-1,-1,-1,-1,-1],"split_conditions":[1.5E1,1.3E1,-2.4E0,6E0,2.3E1,-4.8E0,2.2E1,-2.2912375E-3,1.3027067E-4,-3.4209965E-3,-5.6466437E-3,5.202039E-4,-3.3294072E-3,3.8728747E-4,2.6019504E-3],"split_indices":[51,80,77,77,80,25,27,0,0,0,0,0,0,0,0],"split_type":[0,0,0,0,0,0,0,0,0,0,0,0,0,0,0],"sum_hessian":[6.7954326E3,3.3511333E3,3.444299E3,1.6991445E3,1.6519889E3,9.824415E2,2.4618577E3,1.2136039E3,4.8554068E2,9.9683685E2,6.5515204E2,3.3736108E2,6.4508044E2,1.2478352E3,1.2140223E3],"tree_param":{"num_deleted":"0","num_feature":"106","num_nodes":"15","size_leaf_vector":"1"}},{"base_weights":[1.2018333E-1,2.934912E-1,-4.8472945E-2,1.5996073E-1,4.3065342E-1,2.0083027E-1,-1.4800231E-1,2.2912372E-3,-1.3027084E-4,3.4209965E-3,5.6466437E-3,-5.202039E-4,3.3294072E-3,-3.8728776E-4,-2.6019502E-3],"categories":[],"categories_nodes":[],"categories_segments":[],"categories_sizes":[],"default_left":[0,0,0,0,0,0,0,0,0,0,0,0,0,0,0],"id":43,"left_children":[1,3,5,7,9,11,13,-1,-1,-1,-1,-1,-1,-1,-1],"loss_changes":[1.9867029E2,6.132657E1,8.55179E1,2.0344124E1,1.9423157E1,3.2868423E1,3.0183807E1,0E0,0E0,0E0,0E0,0E0,0E0,0E0,0E0],"parents":[2147483647,0,0,1,1,2,2,3,3,4,4,5,5,6,6],"right_children":[2,4,6,8,10,12,14,-1,-1,-1,-1,-1,-1,-1,-1],"split_conditions":[1.5E1,1.3E1,-2.4E0,6E0,2.3E1,-4.8E0,2.2E1,2.2912372E-3,-1.3027084E-4,3.4209965E-3,5.6466437E-3,-5.202039E-4,3.3294072E-3,-3.8728776E-4,-2.6019502E-3],"split_indices":[51,80,77,77,80,25,27,0,0,0,0,0,0,0,0],"split_type":[0,0,0,0,0,0,0,0,0,0,0,0,0,0,0],"sum_hessian":[6.7954326E3,3.3511333E3,3.444299E3,1.6991445E3,1.6519889E3,9.824415E2,2.4618574E3,1.2136038E3,4.8554068E2,9.9683685E2,6.55152E2,3.3736108E2,6.4508044E2,1.2478352E3,1.2140223E3],"tree_param":{"num_deleted":"0","num_feature":"106","num_nodes":"15","size_leaf_vector":"1"}},{"base_weights":[-1.1902327E-1,-2.2976701E-1,1.4014325E-1,-1.3362998E-1,-4.4254428E-1,-5.7011154E-3,2.974943E-1,-1.4923434E-4,-2.6895888E-3,-4.958685E-3,-3.0360466E-3,1.4554083E-3,-1.7057915E-3,4.232097E-3,2.2027916E-3],"categories":[],"categories_nodes":[],"categories_segments":[],"categories_sizes":[],"default_left":[0,0,0,0,0,0,0,0,0,0,0,0,0,0,0],"id":44,"left_children":[1,3,5,7,9,11,13,-1,-1,-1,-1,-1,-1,-1,-1],"loss_changes":[1.9503217E2,9.7320786E1,4.6694633E1,5.2694183E1,1.0822601E1,2.6380693E1,9.407524E0,0E0,0E0,0E0,0E0,0E0,0E0,0E0,0E0],"parents":[2147483647,0,0,1,1,2,2,3,3,4,4,5,5,6,6],"right_children":[2,4,6,8,10,12,14,-1,-1,-1,-1,-1,-1,-1,-1],"split_conditions":[2E1,1.9E1,5.14E-1,2.8E0,-2.5E0,-4.8E0,-6.2E0,-1.4923434E-4,-2.6895888E-3,-4.958685E-3,-3.0360466E-3,1.4554083E-3,-1.7057915E-3,4.232097E-3,2.2027916E-3],"split_indices":[28,80,55,25,77,25,25,0,0,0,0,0,0,0,0],"split_type":[0,0,0,0,0,0,0,0,0,0,0,0,0,0,0],"sum_hessian":[6.793171E3,4.7595107E3,2.03366E3,3.2794277E3,1.480083E3,1.0559203E3,9.7773975E2,1.7475972E3,1.5318306E3,1.0677266E3,4.1235648E2,5.507953E2,5.0512497E2,3.703253E2,6.074145E2],"tree_param":{"num_deleted":"0","num_feature":"106","num_nodes":"15","size_leaf_vector":"1"}},{"base_weights":[1.1902327E-1,2.2976701E-1,-1.4014328E-1,1.3363E-1,4.4254428E-1,5.7011E-3,-2.9749435E-1,1.4923436E-4,2.6895893E-3,4.9586855E-3,3.0360466E-3,-1.4554089E-3,1.7057918E-3,-4.232098E-3,-2.2027916E-3],"categories":[],"categories_nodes":[],"categories_segments":[],"categories_sizes":[],"default_left":[0,0,0,0,0,0,0,0,0,0,0,0,0,0,0],"id":45,"left_children":[1,3,5,7,9,11,13,-1,-1,-1,-1,-1,-1,-1,-1],"loss_changes":[1.950322E2,9.7320786E1,4.6694637E1,5.269419E1,1.0822601E1,2.6380705E1,9.407539E0,0E0,0E0,0E0,0E0,0E0,0E0,0E0,0E0],"parents":[2147483647,0,0,1,1,2,2,3,3,4,4,5,5,6,6],"right_children":[2,4,6,8,10,12,14,-1,-1,-1,-1,-1,-1,-1,-1],"split_conditions":[2E1,1.9E1,5.14E-1,2.8E0,-2.5E0,-4.8E0,-6.2E0,1.4923436E-4,2.6895893E-3,4.9586855E-3,3.0360466E-3,-1.4554089E-3,1.7057918E-3,-4.232098E-3,-2.2027916E-3],"split_indices":[28,80,55,25,77,25,25,0,0,0,0,0,0,0,0],"split_type":[0,0,0,0,0,0,0,0,0,0,0,0,0,0,0],"sum_hessian":[6.793171E3,4.7595107E3,2.03366E3,3.2794277E3,1.480083E3,1.0559203E3,9.7773975E2,1.7475972E3,1.5318306E3,1.0677266E3,4.1235648E2,5.507953E2,5.0512497E2,3.7032526E2,6.074145E2],"tree_param":{"num_deleted":"0","num_feature":"106","num_nodes":"15","size_leaf_vector":"1"}},{"base_weights":[-1.17873825E-1,-2.8823093E-1,4.7831245E-2,-1.4710356E-1,-4.1448405E-1,-1.5790777E-1,1.6460949E-1,-2.1792473E-3,1.367843E-4,-3.3111146E-3,-5.5570537E-3,7.23024E-4,-2.7954145E-3,6.8202754E-4,2.9251897E-3],"categories":[],"categories_nodes":[],"categories_segments":[],"categories_sizes":[],"default_left":[0,0,0,0,0,0,0,0,0,0,0,0,0,0,0],"id":46,"left_children":[1,3,5,7,9,11,13,-1,-1,-1,-1,-1,-1,-1,-1],"loss_changes":[1.9174216E2,5.961209E1,8.276642E1,1.8027493E1,2.0622314E1,3.4950657E1,2.7076332E1,0E0,0E0,0E0,0E0,0E0,0E0,0E0,0E0],"parents":[2147483647,0,0,1,1,2,2,3,3,4,4,5,5,6,6],"right_children":[2,4,6,8,10,12,14,-1,-1,-1,-1,-1,-1,-1,-1],"split_conditions":[1.5E1,1.2E1,-1.3E0,6E0,2.3E1,-4.8E0,2.4E1,-2.1792473E-3,1.367843E-4,-3.3111146E-3,-5.5570537E-3,7.23024E-4,-2.7954145E-3,6.8202754E-4,2.9251897E-3],"split_indices":[51,80,77,77,80,25,51,0,0,0,0,0,0,0,0],"split_type":[0,0,0,0,0,0,0,0,0,0,0,0,0,0,0],"sum_hessian":[6.7908853E3,3.348076E3,3.4428096E3,1.5819346E3,1.7661414E3,1.2464576E3,2.1963518E3,1.0979532E3,4.8398135E2,1.1126266E3,6.535147E2,4.3104507E2,8.154126E2,1.2532769E3,9.4307495E2],"tree_param":{"num_deleted":"0","num_feature":"106","num_nodes":"15","size_leaf_vector":"1"}},{"base_weights":[1.1787383E-1,2.882309E-1,-4.7831237E-2,1.4710355E-1,4.1448405E-1,1.5790775E-1,-1.6460948E-1,2.179247E-3,-1.3678416E-4,3.3111149E-3,5.5570537E-3,-7.2302413E-4,2.7954143E-3,-6.820272E-4,-2.9251894E-3],"categories":[],"categories_nodes":[],"categories_segments":[],"categories_sizes":[],"default_left":[0,0,0,0,0,0,0,0,0,0,0,0,0,0,0],"id":47,"left_children":[1,3,5,7,9,11,13,-1,-1,-1,-1,-1,-1,-1,-1],"loss_changes":[1.9174216E2,5.961209E1,8.27664E1,1.8027485E1,2.0622314E1,3.495067E1,2.707634E1,0E0,0E0,0E0,0E0,0E0,0E0,0E0,0E0],"parents":[2147483647,0,0,1,1,2,2,3,3,4,4,5,5,6,6],"right_children":[2,4,6,8,10,12,14,-1,-1,-1,-1,-1,-1,-1,-1],"split_conditions":[1.5E1,1.2E1,-1.3E0,6E0,2.3E1,-4.8E0,2.4E1,2.179247E-3,-1.3678416E-4,3.3111149E-3,5.5570537E-3,-7.2302413E-4,2.7954143E-3,-6.820272E-4,-2.9251894E-3],"split_indices":[51,80,77,77,80,25,51,0,0,0,0,0,0,0,0],"split_type":[0,0,0,0,0,0,0,0,0,0,0,0,0,0,0],"sum_hessian":[6.7908853E3,3.348076E3,3.4428096E3,1.5819346E3,1.7661414E3,1.2464576E3,2.1963518E3,1.0979532E3,4.8398135E2,1.1126266E3,6.535147E2,4.3104507E2,8.154126E2,1.2532769E3,9.4307495E2],"tree_param":{"num_deleted":"0","num_feature":"106","num_nodes":"15","size_leaf_vector":"1"}},{"base_weights":[-1.1673863E-1,-2.2555912E-1,1.3784699E-1,-1.3106444E-1,-4.3501168E-1,-5.6169713E-3,2.9268146E-1,-1.417397E-4,-2.6438632E-3,-4.8764395E-3,-2.9802953E-3,1.4270573E-3,-1.6732404E-3,2.142492E-3,4.1409E-3],"categories":[],"categories_nodes":[],"categories_segments":[],"categories_sizes":[],"default_left":[0,0,0,0,0,0,0,0,0,0,0,0,0,0,0],"id":48,"left_children":[1,3,5,7,9,11,13,-1,-1,-1,-1,-1,-1,-1,-1],"loss_changes":[1.8812729E2,9.408963E1,4.5176517E1,5.110196E1,1.0513519E1,2.536602E1,9.225159E0,0E0,0E0,0E0,0E0,0E0,0E0,0E0,0E0],"parents":[2147483647,0,0,1,1,2,2,3,3,4,4,5,5,6,6],"right_children":[2,4,6,8,10,12,14,-1,-1,-1,-1,-1,-1,-1,-1],"split_conditions":[2E1,1.9E1,5.14E-1,2.8E0,-2.5E0,-4.8E0,3.5E1,-1.417397E-4,-2.6438632E-3,-4.8764395E-3,-2.9802953E-3,1.4270573E-3,-1.6732404E-3,2.142492E-3,4.1409E-3],"split_indices":[28,80,55,25,77,25,2,0,0,0,0,0,0,0,0],"split_type":[0,0,0,0,0,0,0,0,0,0,0,0,0,0,0],"sum_hessian":[6.788464E3,4.7557656E3,2.0326981E3,3.2783582E3,1.4774077E3,1.0555905E3,9.771077E2,1.7474131E3,1.530945E3,1.0654666E3,4.1194107E2,5.506421E2,5.0494833E2,5.9529834E2,3.818094E2],"tree_param":{"num_deleted":"0","num_feature":"106","num_nodes":"15","size_leaf_vector":"1"}},{"base_weights":[1.1673863E-1,2.2555912E-1,-1.3784698E-1,1.3106444E-1,4.350117E-1,5.6169834E-3,-2.9268143E-1,1.4173961E-4,2.6438632E-3,4.87644E-3,2.9802953E-3,-1.4270572E-3,1.6732408E-3,-2.142492E-3,-4.1408995E-3],"categories":[],"categories_nodes":[],"categories_segments":[],"categories_sizes":[],"default_left":[0,0,0,0,0,0,0,0,0,0,0,0,0,0,0],"id":49,"left_children":[1,3,5,7,9,11,13,-1,-1,-1,-1,-1,-1,-1,-1],"loss_changes":[1.8812729E2,9.408963E1,4.5176514E1,5.1101955E1,1.0513519E1,2.5366024E1,9.225166E0,0E0,0E0,0E0,0E0,0E0,0E0,0E0,0E0],"parents":[2147483647,0,0,1,1,2,2,3,3,4,4,5,5,6,6],"right_children":[2,4,6,8,10,12,14,-1,-1,-1,-1,-1,-1,-1,-1],"split_conditions":[2E1,1.9E1,5.14E-1,2.8E0,-2.5E0,-4.8E0,3.5E1,1.4173961E-4,2.6438632E-3,4.87644E-3,2.9802953E-3,-1.4270572E-3,1.6732408E-3,-2.142492E-3,-4.1408995E-3],"split_indices":[28,80,55,25,77,25,2,0,0,0,0,0,0,0,0],"split_type":[0,0,0,0,0,0,0,0,0,0,0,0,0,0,0],"sum_hessian":[6.788464E3,4.7557656E3,2.0326982E3,3.2783582E3,1.4774076E3,1.0555905E3,9.771078E2,1.7474131E3,1.530945E3,1.0654666E3,4.1194107E2,5.506421E2,5.0494833E2,5.952984E2,3.8180942E2],"tree_param":{"num_deleted":"0","num_feature":"106","num_nodes":"15","size_leaf_vector":"1"}},{"base_weights":[-1.15613304E-1,-2.830837E-1,4.7199797E-2,-3.7529427E-1,-9.4193496E-2,-1.9408014E-1,1.434471E-1,-3.0484437E-3,-5.469847E-3,-1.7528851E-4,-2.2953164E-3,4.8750232E-4,-3.2120363E-3,4.97132E-4,2.6556926E-3],"categories":[],"categories_nodes":[],"categories_segments":[],"categories_sizes":[],"default_left":[0,0,0,0,0,0,0,0,0,0,0,0,0,0,0],"id":50,"left_children":[1,3,5,7,9,11,13,-1,-1,-1,-1,-1,-1,-1,-1],"loss_changes":[1.8507196E2,5.824109E1,7.9965416E1,2.7023438E1,1.1397551E1,3.032928E1,2.8160652E1,0E0,0E0,0E0,0E0,0E0,0E0,0E0,0E0],"parents":[2147483647,0,0,1,1,2,2,3,3,4,4,5,5,6,6],"right_children":[2,4,6,8,10,12,14,-1,-1,-1,-1,-1,-1,-1,-1],"split_conditions":[1.5E1,2.9E0,-2.4E0,2.3E1,6.71E-1,-4.8E0,2.4E1,-3.0484437E-3,-5.469847E-3,-1.7528851E-4,-2.2953164E-3,4.8750232E-4,-3.2120363E-3,4.97132E-4,2.6556926E-3],"split_indices":[51,77,77,80,3,25,51,0,0,0,0,0,0,0,0],"split_type":[0,0,0,0,0,0,0,0,0,0,0,0,0,0,0],"sum_hessian":[6.7860625E3,3.3448223E3,3.4412402E3,2.246944E3,1.097878E3,9.8099414E2,2.460246E3,1.5951714E3,6.5177277E2,7.0158344E2,3.9629462E2,3.373009E2,6.436932E2,1.3926986E3,1.0675475E3],"tree_param":{"num_deleted":"0","num_feature":"106","num_nodes":"15","size_leaf_vector":"1"}},{"base_weights":[1.1561332E-1,2.830837E-1,-4.719978E-2,3.752943E-1,9.419353E-2,1.9408016E-1,-1.4344707E-1,3.0484437E-3,5.4698465E-3,1.7528872E-4,2.295317E-3,-4.8750182E-4,3.2120363E-3,-4.971317E-4,-2.6556926E-3],"categories":[],"categories_nodes":[],"categories_segments":[],"categories_sizes":[],"default_left":[0,0,0,0,0,0,0,0,0,0,0,0,0,0,0],"id":51,"left_children":[1,3,5,7,9,11,13,-1,-1,-1,-1,-1,-1,-1,-1],"loss_changes":[1.8507196E2,5.824109E1,7.9965416E1,2.7023407E1,1.1397558E1,3.0329273E1,2.8160664E1,0E0,0E0,0E0,0E0,0E0,0E0,0E0,0E0],"parents":[2147483647,0,0,1,1,2,2,3,3,4,4,5,5,6,6],"right_children":[2,4,6,8,10,12,14,-1,-1,-1,-1,-1,-1,-1,-1],"split_conditions":[1.5E1,2.9E0,-2.4E0,2.3E1,6.71E-1,-4.8E0,2.4E1,3.0484437E-3,5.4698465E-3,1.7528872E-4,2.295317E-3,-4.8750182E-4,3.2120363E-3,-4.971317E-4,-2.6556926E-3],"split_indices":[51,77,77,80,3,25,51,0,0,0,0,0,0,0,0],"split_type":[0,0,0,0,0,0,0,0,0,0,0,0,0,0,0],"sum_hessian":[6.7860625E3,3.3448223E3,3.4412402E3,2.246944E3,1.097878E3,9.8099414E2,2.460246E3,1.5951714E3,6.5177277E2,7.0158344E2,3.9629462E2,3.373009E2,6.4369324E2,1.3926987E3,1.0675475E3],"tree_param":{"num_deleted":"0","num_feature":"106","num_nodes":"15","size_leaf_vector":"1"}},{"base_weights":[-1.1450239E-1,9.979565E-2,-2.3936339E-1,-3.654946E-2,2.4786055E-1,-3.3872876E-1,-3.1853195E-2,1.2997885E-3,-1.7629038E-3,1.753412E-3,3.8861826E-3,-4.561662E-3,-2.491023E-3,9.2136796E-4,-1.5622299E-3],"categories":[],"categories_nodes":[],"categories_segments":[],"categories_sizes":[],"default_left":[0,0,0,0,0,0,0,0,0,0,0,0,0,0,0],"id":52,"left_children":[1,3,5,7,9,11,13,-1,-1,-1,-1,-1,-1,-1,-1],"loss_changes":[1.8156012E2,5.044686E1,8.838623E1,3.0311174E1,1.2159195E1,3.0398102E1,2.1437502E1,0E0,0E0,0E0,0E0,0E0,0E0,0E0,0E0],"parents":[2147483647,0,0,1,1,2,2,3,3,4,4,5,5,6,6],"right_children":[2,4,6,8,10,12,14,-1,-1,-1,-1,-1,-1,-1,-1],"split_conditions":[4.6E-1,5.14E-1,2.9E0,-4.8E0,3.5E1,-1.9E0,3.1E0,1.2997885E-3,-1.7629038E-3,1.753412E-3,3.8861826E-3,-4.561662E-3,-2.491023E-3,9.2136796E-4,-1.5622299E-3],"split_indices":[3,55,77,25,2,77,25,0,0,0,0,0,0,0,0],"split_type":[0,0,0,0,0,0,0,0,0,0,0,0,0,0,0],"sum_hessian":[6.783508E3,2.4974143E3,4.2860938E3,1.3005552E3,1.1968591E3,2.897842E3,1.3882513E3,5.934339E2,7.0712134E2,7.913802E2,4.0547888E2,1.2525444E3,1.6452977E3,6.9531696E2,6.929344E2],"tree_param":{"num_deleted":"0","num_feature":"106","num_nodes":"15","size_leaf_vector":"1"}},{"base_weights":[1.14502415E-1,-9.9795625E-2,2.3936342E-1,3.654949E-2,-2.4786054E-1,3.3872876E-1,3.185323E-2,-1.2997881E-3,1.762904E-3,-1.7534117E-3,-3.8861826E-3,4.561662E-3,2.491023E-3,-9.213674E-4,1.56223E-3],"categories":[],"categories_nodes":[],"categories_segments":[],"categories_sizes":[],"default_left":[0,0,0,0,0,0,0,0,0,0,0,0,0,0,0],"id":53,"left_children":[1,3,5,7,9,11,13,-1,-1,-1,-1,-1,-1,-1,-1],"loss_changes":[1.8156012E2,5.0446865E1,8.8386185E1,3.031117E1,1.2159203E1,3.0398163E1,2.1437492E1,0E0,0E0,0E0,0E0,0E0,0E0,0E0,0E0],"parents":[2147483647,0,0,1,1,2,2,3,3,4,4,5,5,6,6],"right_children":[2,4,6,8,10,12,14,-1,-1,-1,-1,-1,-1,-1,-1],"split_conditions":[4.6E-1,5.14E-1,2.9E0,-4.8E0,3.5E1,-1.9E0,3.1E0,-1.2997881E-3,1.762904E-3,-1.7534117E-3,-3.8861826E-3,4.561662E-3,2.491023E-3,-9.213674E-4,1.56223E-3],"split_indices":[3,55,77,25,2,77,25,0,0,0,0,0,0,0,0],"split_type":[0,0,0,0,0,0,0,0,0,0,0,0,0,0,0],"sum_hessian":[6.783508E3,2.4974143E3,4.2860938E3,1.3005553E3,1.196859E3,2.897842E3,1.3882513E3,5.934339E2,7.0712134E2,7.913802E2,4.0547888E2,1.2525444E3,1.6452977E3,6.95317E2,6.929344E2],"tree_param":{"num_deleted":"0","num_feature":"106","num_nodes":"15","size_leaf_vector":"1"}},{"base_weights":[-1.1340041E-1,-2.7812016E-1,4.6649564E-2,-1.4108838E-1,-4.0102485E-1,-1.5245686E-1,1.5959215E-1,-2.1075052E-3,1.6975641E-4,-3.2005203E-3,-5.3866566E-3,6.8439293E-4,-2.6935434E-3,6.655409E-4,2.831915E-3],"categories":[],"categories_nodes":[],"categories_segments":[],"categories_sizes":[],"default_left":[0,0,0,0,0,0,0,0,0,0,0,0,0,0,0],"id":54,"left_children":[1,3,5,7,9,11,13,-1,-1,-1,-1,-1,-1,-1,-1],"loss_changes":[1.788091E2,5.623526E1,7.739531E1,1.7422071E1,1.9459503E1,3.2187737E1,2.5231709E1,0E0,0E0,0E0,0E0,0E0,0E0,0E0,0E0],"parents":[2147483647,0,0,1,1,2,2,3,3,4,4,5,5,6,6],"right_children":[2,4,6,8,10,12,14,-1,-1,-1,-1,-1,-1,-1,-1],"split_conditions":[1.5E1,1.2E1,-1.3E0,6E0,2.3E1,-4.8E0,2.4E1,-2.1075052E-3,1.6975641E-4,-3.2005203E-3,-5.3866566E-3,6.8439293E-4,-2.6935434E-3,6.655409E-4,2.831915E-3],"split_indices":[51,80,77,77,80,25,51,0,0,0,0,0,0,0,0],"split_type":[0,0,0,0,0,0,0,0,0,0,0,0,0,0,0],"sum_hessian":[6.7809854E3,3.3413782E3,3.439607E3,1.5809058E3,1.7604724E3,1.2448E3,2.1948071E3,1.0970703E3,4.838354E2,1.1105004E3,6.4997205E2,4.309212E2,8.1387885E2,1.2530931E3,9.4171387E2],"tree_param":{"num_deleted":"0","num_feature":"106","num_nodes":"15","size_leaf_vector":"1"}},{"base_weights":[1.13400415E-1,2.7812013E-1,-4.6649538E-2,1.4108837E-1,4.0102485E-1,1.5245688E-1,-1.5959214E-1,2.1075052E-3,-1.6975669E-4,3.2005198E-3,5.3866566E-3,-6.8439275E-4,2.6935437E-3,-6.6554075E-4,-2.8319145E-3],"categories":[],"categories_nodes":[],"categories_segments":[],"categories_sizes":[],"default_left":[0,0,0,0,0,0,0,0,0,0,0,0,0,0,0],"id":55,"left_children":[1,3,5,7,9,11,13,-1,-1,-1,-1,-1,-1,-1,-1],"loss_changes":[1.7880902E2,5.623523E1,7.739531E1,1.7422073E1,1.9459534E1,3.2187733E1,2.5231709E1,0E0,0E0,0E0,0E0,0E0,0E0,0E0,0E0],"parents":[2147483647,0,0,1,1,2,2,3,3,4,4,5,5,6,6],"right_children":[2,4,6,8,10,12,14,-1,-1,-1,-1,-1,-1,-1,-1],"split_conditions":[1.5E1,1.2E1,-1.3E0,6E0,2.3E1,-4.8E0,2.4E1,2.1075052E-3,-1.6975669E-4,3.2005198E-3,5.3866566E-3,-6.8439275E-4,2.6935437E-3,-6.6554075E-4,-2.8319145E-3],"split_indices":[51,80,77,77,80,25,51,0,0,0,0,0,0,0,0],"split_type":[0,0,0,0,0,0,0,0,0,0,0,0,0,0,0],"sum_hessian":[6.780985E3,3.3413782E3,3.439607E3,1.5809058E3,1.7604724E3,1.2448E3,2.194807E3,1.0970703E3,4.838354E2,1.1105004E3,6.49972E2,4.309212E2,8.1387885E2,1.2530931E3,9.4171387E2],"tree_param":{"num_deleted":"0","num_feature":"106","num_nodes":"15","size_leaf_vector":"1"}},{"base_weights":[-1.1231285E-1,-2.1750182E-1,1.3359815E-1,-8.959457E-2,-3.6343172E-1,-1.4843626E-1,2.0852566E-1,-2.5470527E-3,-1.44244095E-5,-5.132022E-3,-2.9741325E-3,3.943615E-4,-2.6156895E-3,3.423905E-3,1.2288832E-3],"categories":[],"categories_nodes":[],"categories_segments":[],"categories_sizes":[],"default_left":[0,0,0,0,0,0,0,0,0,0,0,0,0,0,0],"id":56,"left_children":[1,3,5,7,9,11,13,-1,-1,-1,-1,-1,-1,-1,-1],"loss_changes":[1.7538992E2,8.860263E1,4.29648E1,3.6851055E1,2.1775269E1,9.086882E0,1.8364746E1,0E0,0E0,0E0,0E0,0E0,0E0,0E0,0E0],"parents":[2147483647,0,0,1,1,2,2,3,3,4,4,5,5,6,6],"right_children":[2,4,6,8,10,12,14,-1,-1,-1,-1,-1,-1,-1,-1],"split_conditions":[2E1,1.4E1,3.59E-1,7E0,7E0,-6.3E0,-6.2E0,-2.5470527E-3,-1.44244095E-5,-5.132022E-3,-2.9741325E-3,3.943615E-4,-2.6156895E-3,3.423905E-3,1.2288832E-3],"split_indices":[28,80,55,29,51,25,25,0,0,0,0,0,0,0,0],"split_type":[0,0,0,0,0,0,0,0,0,0,0,0,0,0,0],"sum_hessian":[6.778296E3,4.747611E3,2.0306853E3,2.530898E3,2.2167126E3,4.2604178E2,1.6046436E3,8.8026135E2,1.6506366E3,6.761088E2,1.5406039E3,1.6037254E2,2.6566922E2,6.248714E2,9.797721E2],"tree_param":{"num_deleted":"0","num_feature":"106","num_nodes":"15","size_leaf_vector":"1"}},{"base_weights":[1.1231285E-1,2.1750182E-1,-1.3359815E-1,8.959455E-2,3.6343175E-1,1.4843626E-1,-2.0852567E-1,2.5470525E-3,1.4424198E-5,5.1320223E-3,2.9741323E-3,-3.943615E-4,2.6156895E-3,-3.4239057E-3,-1.228883E-3],"categories":[],"categories_nodes":[],"categories_segments":[],"categories_sizes":[],"default_left":[0,0,0,0,0,0,0,0,0,0,0,0,0,0,0],"id":57,"left_children":[1,3,5,7,9,11,13,-1,-1,-1,-1,-1,-1,-1,-1],"loss_changes":[1.7538997E2,8.860263E1,4.2964806E1,3.685106E1,2.1775269E1,9.086883E0,1.8364754E1,0E0,0E0,0E0,0E0,0E0,0E0,0E0,0E0],"parents":[2147483647,0,0,1,1,2,2,3,3,4,4,5,5,6,6],"right_children":[2,4,6,8,10,12,14,-1,-1,-1,-1,-1,-1,-1,-1],"split_conditions":[2E1,1.4E1,3.59E-1,7E0,7E0,-6.3E0,-6.2E0,2.5470525E-3,1.4424198E-5,5.1320223E-3,2.9741323E-3,-3.943615E-4,2.6156895E-3,-3.4239057E-3,-1.228883E-3],"split_indices":[28,80,55,29,51,25,25,0,0,0,0,0,0,0,0],"split_type":[0,0,0,0,0,0,0,0,0,0,0,0,0,0,0],"sum_hessian":[6.778296E3,4.747611E3,2.0306853E3,2.530898E3,2.2167126E3,4.2604178E2,1.6046436E3,8.8026135E2,1.6506366E3,6.761088E2,1.5406039E3,1.6037254E2,2.6566922E2,6.248714E2,9.797721E2],"tree_param":{"num_deleted":"0","num_feature":"106","num_nodes":"15","size_leaf_vector":"1"}},{"base_weights":[-1.1123432E-1,-2.7318856E-1,4.6034005E-2,-3.6270657E-1,-9.0267316E-2,-1.880145E-1,1.3933022E-1,-2.9395341E-3,-5.3088544E-3,-1.548383E-4,-2.2237485E-3,4.6129702E-4,-3.108316E-3,3.745631E-4,2.4412905E-3],"categories":[],"categories_nodes":[],"categories_segments":[],"categories_sizes":[],"default_left":[0,0,0,0,0,0,0,0,0,0,0,0,0,0,0],"id":58,"left_children":[1,3,5,7,9,11,13,-1,-1,-1,-1,-1,-1,-1,-1],"loss_changes":[1.7261653E2,5.4638412E1,7.5118225E1,2.5760529E1,1.0847921E1,2.8212029E1,2.6247868E1,0E0,0E0,0E0,0E0,0E0,0E0,0E0,0E0],"parents":[2147483647,0,0,1,1,2,2,3,3,4,4,5,5,6,6],"right_children":[2,4,6,8,10,12,14,-1,-1,-1,-1,-1,-1,-1,-1],"split_conditions":[1.5E1,2.9E0,-2.4E0,2.3E1,6.71E-1,-4.8E0,2.2E1,-2.9395341E-3,-5.3088544E-3,-1.548383E-4,-2.2237485E-3,4.6129702E-4,-3.108316E-3,3.745631E-4,2.4412905E-3],"split_indices":[51,77,77,80,3,25,27,0,0,0,0,0,0,0,0],"split_type":[0,0,0,0,0,0,0,0,0,0,0,0,0,0,0],"sum_hessian":[6.7756826E3,3.3377476E3,3.437935E3,2.2403716E3,1.0973761E3,9.795533E2,2.4583816E3,1.5922087E3,6.481628E2,7.014284E2,3.959477E2,3.3724268E2,6.423106E2,1.2472753E3,1.2111064E3],"tree_param":{"num_deleted":"0","num_feature":"106","num_nodes":"15","size_leaf_vector":"1"}},{"base_weights":[1.11234315E-1,2.7318856E-1,-4.603402E-2,3.627066E-1,9.02673E-2,1.8801448E-1,-1.3933022E-1,2.939534E-3,5.3088544E-3,1.5483782E-4,2.2237487E-3,-4.6129752E-4,3.1083156E-3,-3.7456318E-4,-2.4412905E-3],"categories":[],"categories_nodes":[],"categories_segments":[],"categories_sizes":[],"default_left":[0,0,0,0,0,0,0,0,0,0,0,0,0,0,0],"id":59,"left_children":[1,3,5,7,9,11,13,-1,-1,-1,-1,-1,-1,-1,-1],"loss_changes":[1.7261655E2,5.4638412E1,7.511822E1,2.576056E1,1.0847931E1,2.8212029E1,2.6247864E1,0E0,0E0,0E0,0E0,0E0,0E0,0E0,0E0],"parents":[2147483647,0,0,1,1,2,2,3,3,4,4,5,5,6,6],"right_children":[2,4,6,8,10,12,14,-1,-1,-1,-1,-1,-1,-1,-1],"split_conditions":[1.5E1,2.9E0,-2.4E0,2.3E1,6.71E-1,-4.8E0,2.2E1,2.939534E-3,5.3088544E-3,1.5483782E-4,2.2237487E-3,-4.6129752E-4,3.1083156E-3,-3.7456318E-4,-2.4412905E-3],"split_indices":[51,77,77,80,3,25,27,0,0,0,0,0,0,0,0],"split_type":[0,0,0,0,0,0,0,0,0,0,0,0,0,0,0],"sum_hessian":[6.7756826E3,3.3377476E3,3.437935E3,2.2403716E3,1.0973761E3,9.795533E2,2.4583818E3,1.5922087E3,6.481628E2,7.014284E2,3.9594766E2,3.3724268E2,6.423106E2,1.2472753E3,1.2111064E3],"tree_param":{"num_deleted":"0","num_feature":"106","num_nodes":"15","size_leaf_vector":"1"}},{"base_weights":[-1.1016955E-1,-2.7062115E-1,4.5584556E-2,-3.5938305E-1,-8.937634E-2,-1.4884022E-1,1.5582766E-1,-2.9115917E-3,-5.264632E-3,-1.5329322E-4,-2.202177E-3,6.613236E-4,-2.6273113E-3,6.523682E-4,2.7630823E-3],"categories":[],"categories_nodes":[],"categories_segments":[],"categories_sizes":[],"default_left":[0,0,0,0,0,0,0,0,0,0,0,0,0,0,0],"id":60,"left_children":[1,3,5,7,9,11,13,-1,-1,-1,-1,-1,-1,-1,-1],"loss_changes":[1.6929855E2,5.3648666E1,7.3715744E1,2.5374573E1,1.0637025E1,3.0489016E1,2.3934078E1,0E0,0E0,0E0,0E0,0E0,0E0,0E0,0E0],"parents":[2147483647,0,0,1,1,2,2,3,3,4,4,5,5,6,6],"right_children":[2,4,6,8,10,12,14,-1,-1,-1,-1,-1,-1,-1,-1],"split_conditions":[1.5E1,2.9E0,-1.3E0,2.3E1,6.71E-1,-4.8E0,2.4E1,-2.9115917E-3,-5.264632E-3,-1.5329322E-4,-2.202177E-3,6.613236E-4,-2.6273113E-3,6.523682E-4,2.7630823E-3],"split_indices":[51,77,77,80,3,25,51,0,0,0,0,0,0,0,0],"split_type":[0,0,0,0,0,0,0,0,0,0,0,0,0,0,0],"sum_hessian":[6.772889E3,3.3357732E3,3.4371162E3,2.2385127E3,1.0972605E3,1.2435829E3,2.1935334E3,1.5914276E3,6.47085E2,7.01422E2,3.958384E2,4.3081866E2,8.127642E2,1.2529594E3,9.405741E2],"tree_param":{"num_deleted":"0","num_feature":"106","num_nodes":"15","size_leaf_vector":"1"}},{"base_weights":[1.1016956E-1,2.7062112E-1,-4.5584537E-2,3.5938302E-1,8.937632E-2,1.4884023E-1,-1.5582764E-1,2.9115914E-3,5.2646324E-3,1.532931E-4,2.2021765E-3,-6.6132325E-4,2.6273113E-3,-6.5236783E-4,-2.7630823E-3],"categories":[],"categories_nodes":[],"categories_segments":[],"categories_sizes":[],"default_left":[0,0,0,0,0,0,0,0,0,0,0,0,0,0,0],"id":61,"left_children":[1,3,5,7,9,11,13,-1,-1,-1,-1,-1,-1,-1,-1],"loss_changes":[1.6929852E2,5.364865E1,7.371574E1,2.5374603E1,1.0637021E1,3.0489014E1,2.3934082E1,0E0,0E0,0E0,0E0,0E0,0E0,0E0,0E0],"parents":[2147483647,0,0,1,1,2,2,3,3,4,4,5,5,6,6],"right_children":[2,4,6,8,10,12,14,-1,-1,-1,-1,-1,-1,-1,-1],"split_conditions":[1.5E1,2.9E0,-1.3E0,2.3E1,6.71E-1,-4.8E0,2.4E1,2.9115914E-3,5.2646324E-3,1.532931E-4,2.2021765E-3,-6.6132325E-4,2.6273113E-3,-6.5236783E-4,-2.7630823E-3],"split_indices":[51,77,77,80,3,25,51,0,0,0,0,0,0,0,0],"split_type":[0,0,0,0,0,0,0,0,0,0,0,0,0,0,0],"sum_hessian":[6.772889E3,3.3357732E3,3.4371162E3,2.2385127E3,1.0972605E3,1.2435829E3,2.1935334E3,1.5914276E3,6.47085E2,7.01422E2,3.9583844E2,4.3081866E2,8.127642E2,1.2529592E3,9.405741E2],"tree_param":{"num_deleted":"0","num_feature":"106","num_nodes":"15","size_leaf_vector":"1"}},{"base_weights":[-1.09116085E-1,-1.999662E-1,1.61334E-1,-7.189899E-2,-3.432043E-1,2.824628E-2,2.8580576E-1,-2.0902732E-3,4.083383E-4,-5.021444E-3,-2.806021E-3,1.2180659E-3,-1.1093393E-3,1.8615499E-3,4.332137E-3],"categories":[],"categories_nodes":[],"categories_segments":[],"categories_sizes":[],"default_left":[0,0,0,0,0,0,0,0,0,0,0,0,0,0,0],"id":62,"left_children":[1,3,5,7,9,11,13,-1,-1,-1,-1,-1,-1,-1,-1],"loss_changes":[1.6639899E2,9.295914E1,2.8205696E1,4.1398407E1,2.366397E1,1.0745986E1,1.284523E1,0E0,0E0,0E0,0E0,0E0,0E0,0E0,0E0],"parents":[2147483647,0,0,1,1,2,2,3,3,4,4,5,5,6,6],"right_children":[2,4,6,8,10,12,14,-1,-1,-1,-1,-1,-1,-1,-1],"split_conditions":[2.2E1,1.4E1,0E0,1E1,7E0,-4.8E0,3.5E1,-2.0902732E-3,4.083383E-4,-5.021444E-3,-2.806021E-3,1.2180659E-3,-1.1093393E-3,1.8615499E-3,4.332137E-3],"split_indices":[27,80,77,51,51,25,2,0,0,0,0,0,0,0,0],"split_type":[0,0,0,0,0,0,0,0,0,0,0,0,0,0,0],"sum_hessian":[6.7700156E3,5.067868E3,1.7021476E3,2.67642E3,2.3914485E3,8.231964E2,8.789511E2,1.2071666E3,1.4692532E3,6.7377814E2,1.7176703E3,4.9235098E2,3.3084543E2,5.257776E2,3.5317355E2],"tree_param":{"num_deleted":"0","num_feature":"106","num_nodes":"15","size_leaf_vector":"1"}},{"base_weights":[1.0911609E-1,1.999662E-1,-1.6133401E-1,7.189899E-2,3.4320432E-1,-2.8246276E-2,-2.858058E-1,2.0902732E-3,-4.0833827E-4,5.021444E-3,2.8060211E-3,-1.2180657E-3,1.1093393E-3,-1.8615499E-3,-4.3321373E-3],"categories":[],"categories_nodes":[],"categories_segments":[],"categories_sizes":[],"default_left":[0,0,0,0,0,0,0,0,0,0,0,0,0,0,0],"id":63,"left_children":[1,3,5,7,9,11,13,-1,-1,-1,-1,-1,-1,-1,-1],"loss_changes":[1.6639899E2,9.295915E1,2.8205708E1,4.139841E1,2.366394E1,1.0745986E1,1.284523E1,0E0,0E0,0E0,0E0,0E0,0E0,0E0,0E0],"parents":[2147483647,0,0,1,1,2,2,3,3,4,4,5,5,6,6],"right_children":[2,4,6,8,10,12,14,-1,-1,-1,-1,-1,-1,-1,-1],"split_conditions":[2.2E1,1.4E1,0E0,1E1,7E0,-4.8E0,3.5E1,2.0902732E-3,-4.0833827E-4,5.021444E-3,2.8060211E-3,-1.2180657E-3,1.1093393E-3,-1.8615499E-3,-4.3321373E-3],"split_indices":[27,80,77,51,51,25,2,0,0,0,0,0,0,0,0],"split_type":[0,0,0,0,0,0,0,0,0,0,0,0,0,0,0],"sum_hessian":[6.7700156E3,5.067868E3,1.7021476E3,2.67642E3,2.3914485E3,8.231964E2,8.789511E2,1.2071666E3,1.4692532E3,6.7377814E2,1.7176703E3,4.9235098E2,3.3084543E2,5.257775E2,3.5317358E2],"tree_param":{"num_deleted":"0","num_feature":"106","num_nodes":"15","size_leaf_vector":"1"}},{"base_weights":[-1.0806987E-1,-2.0972925E-1,1.294105E-1,-1.2073891E-1,-4.0819922E-1,-1.4453934E-1,2.0220864E-1,-2.779683E-3,-3.037213E-4,-3.527919E-3,-5.3342264E-3,3.6743938E-4,-2.538281E-3,3.3292135E-3,1.1868697E-3],"categories":[],"categories_nodes":[],"categories_segments":[],"categories_sizes":[],"default_left":[0,0,0,0,0,0,0,0,0,0,0,0,0,0,0],"id":64,"left_children":[1,3,5,7,9,11,13,-1,-1,-1,-1,-1,-1,-1,-1],"loss_changes":[1.6342725E2,8.3664856E1,4.050262E1,4.6508274E1,9.989639E0,8.462347E0,1.7469643E1,0E0,0E0,0E0,0E0,0E0,0E0,0E0,0E0],"parents":[2147483647,0,0,1,1,2,2,3,3,4,4,5,5,6,6],"right_children":[2,4,6,8,10,12,14,-1,-1,-1,-1,-1,-1,-1,-1],"split_conditions":[2E1,1.9E1,3.59E-1,7E0,3.7E1,-6.3E0,-6.2E0,-2.779683E-3,-3.037213E-4,-3.527919E-3,-5.3342264E-3,3.6743938E-4,-2.538281E-3,3.3292135E-3,1.1868697E-3],"split_indices":[28,80,55,27,54,25,25,0,0,0,0,0,0,0,0],"split_type":[0,0,0,0,0,0,0,0,0,0,0,0,0,0,0],"sum_hessian":[6.767261E3,4.7388115E3,2.0284495E3,3.2729075E3,1.4659042E3,4.2565677E2,1.6027927E3,1.1937764E3,2.079131E3,1.01889374E3,4.4701044E2,1.6034593E2,2.6531082E2,6.237025E2,9.790902E2],"tree_param":{"num_deleted":"0","num_feature":"106","num_nodes":"15","size_leaf_vector":"1"}},{"base_weights":[1.0806987E-1,2.0972925E-1,-1.2941049E-1,1.207389E-1,4.0819922E-1,1.4453934E-1,-2.0220864E-1,2.779683E-3,3.0372126E-4,3.5279186E-3,5.3342264E-3,-3.674394E-4,2.538281E-3,-3.3292132E-3,-1.1868697E-3],"categories":[],"categories_nodes":[],"categories_segments":[],"categories_sizes":[],"default_left":[0,0,0,0,0,0,0,0,0,0,0,0,0,0,0],"id":65,"left_children":[1,3,5,7,9,11,13,-1,-1,-1,-1,-1,-1,-1,-1],"loss_changes":[1.6342723E2,8.3664856E1,4.0502617E1,4.6508278E1,9.989624E0,8.462348E0,1.7469643E1,0E0,0E0,0E0,0E0,0E0,0E0,0E0,0E0],"parents":[2147483647,0,0,1,1,2,2,3,3,4,4,5,5,6,6],"right_children":[2,4,6,8,10,12,14,-1,-1,-1,-1,-1,-1,-1,-1],"split_conditions":[2E1,1.9E1,3.59E-1,7E0,3.7E1,-6.3E0,-6.2E0,2.779683E-3,3.0372126E-4,3.5279186E-3,5.3342264E-3,-3.674394E-4,2.538281E-3,-3.3292132E-3,-1.1868697E-3],"split_indices":[28,80,55,27,54,25,25,0,0,0,0,0,0,0,0],"split_type":[0,0,0,0,0,0,0,0,0,0,0,0,0,0,0],"sum_hessian":[6.767261E3,4.7388115E3,2.0284495E3,3.2729075E3,1.4659042E3,4.2565677E2,1.6027927E3,1.1937764E3,2.079131E3,1.01889374E3,4.4701047E2,1.6034593E2,2.6531082E2,6.237025E2,9.790902E2],"tree_param":{"num_deleted":"0","num_feature":"106","num_nodes":"15","size_leaf_vector":"1"}},{"base_weights":[-1.0703551E-1,-2.636614E-1,4.4865787E-2,-3.39837E-1,-5.954867E-2,-1.8205972E-1,1.3525337E-1,-2.7598226E-3,-5.1558902E-3,1.683975E-4,-1.9405644E-3,4.3977797E-4,-3.0087684E-3,2.7583682E-3,6.339272E-4],"categories":[],"categories_nodes":[],"categories_segments":[],"categories_sizes":[],"default_left":[0,0,0,0,0,0,0,0,0,0,0,0,0,0,0],"id":66,"left_children":[1,3,5,7,9,11,13,-1,-1,-1,-1,-1,-1,-1,-1],"loss_changes":[1.6097336E2,5.177263E1,7.0488625E1,2.7078766E1,9.317584E0,2.6306507E1,2.4807972E1,0E0,0E0,0E0,0E0,0E0,0E0,0E0,0E0],"parents":[2147483647,0,0,1,1,2,2,3,3,4,4,5,5,6,6],"right_children":[2,4,6,8,10,12,14,-1,-1,-1,-1,-1,-1,-1,-1],"split_conditions":[1.5E1,3.8E0,-2.4E0,2.3E1,6.71E-1,-4.8E0,8E0,-2.7598226E-3,-5.1558902E-3,1.683975E-4,-1.9405644E-3,4.3977797E-4,-3.0087684E-3,2.7583682E-3,6.339272E-4],"split_indices":[51,77,77,80,3,25,103,0,0,0,0,0,0,0,0],"split_type":[0,0,0,0,0,0,0,0,0,0,0,0,0,0,0],"sum_hessian":[6.7644546E3,3.3300718E3,3.434383E3,2.4245544E3,9.0551733E2,9.780054E2,2.4563777E3,1.7803005E3,6.4425385E2,5.780891E2,3.2742825E2,3.3718158E2,6.408238E2,8.299262E2,1.6264515E3],"tree_param":{"num_deleted":"0","num_feature":"106","num_nodes":"15","size_leaf_vector":"1"}},{"base_weights":[1.0703552E-1,2.636614E-1,-4.4865776E-2,3.3983704E-1,5.954867E-2,1.8205974E-1,-1.3525335E-1,2.7598226E-3,5.1558902E-3,-1.6839753E-4,1.9405644E-3,-4.3977785E-4,3.0087684E-3,-2.758368E-3,-6.339271E-4],"categories":[],"categories_nodes":[],"categories_segments":[],"categories_sizes":[],"default_left":[0,0,0,0,0,0,0,0,0,0,0,0,0,0,0],"id":67,"left_children":[1,3,5,7,9,11,13,-1,-1,-1,-1,-1,-1,-1,-1],"loss_changes":[1.6097333E2,5.177263E1,7.048862E1,2.7078766E1,9.317584E0,2.6306507E1,2.4807964E1,0E0,0E0,0E0,0E0,0E0,0E0,0E0,0E0],"parents":[2147483647,0,0,1,1,2,2,3,3,4,4,5,5,6,6],"right_children":[2,4,6,8,10,12,14,-1,-1,-1,-1,-1,-1,-1,-1],"split_conditions":[1.5E1,3.8E0,-2.4E0,2.3E1,6.71E-1,-4.8E0,8E0,2.7598226E-3,5.1558902E-3,-1.6839753E-4,1.9405644E-3,-4.3977785E-4,3.0087684E-3,-2.758368E-3,-6.339271E-4],"split_indices":[51,77,77,80,3,25,103,0,0,0,0,0,0,0,0],"split_type":[0,0,0,0,0,0,0,0,0,0,0,0,0,0,0],"sum_hessian":[6.7644546E3,3.3300718E3,3.434383E3,2.4245544E3,9.0551733E2,9.780054E2,2.4563777E3,1.7803005E3,6.4425385E2,5.780891E2,3.2742828E2,3.3718158E2,6.408238E2,8.299262E2,1.6264515E3],"tree_param":{"num_deleted":"0","num_feature":"106","num_nodes":"15","size_leaf_vector":"1"}},{"base_weights":[-1.06012E-1,9.418949E-2,-2.2288716E-1,-3.46585E-2,2.341699E-1,-3.174978E-1,-2.6208632E-2,1.205211E-3,-1.6499786E-3,1.6386149E-3,3.7084916E-3,-4.290788E-3,-2.3283062E-3,9.09288E-4,-1.4388312E-3],"categories":[],"categories_nodes":[],"categories_segments":[],"categories_sizes":[],"default_left":[0,0,0,0,0,0,0,0,0,0,0,0,0,0,0],"id":68,"left_children":[1,3,5,7,9,11,13,-1,-1,-1,-1,-1,-1,-1,-1],"loss_changes":[1.5825607E2,4.497972E1,7.94507E1,2.6297579E1,1.1424812E1,2.7137848E1,1.9146008E1,0E0,0E0,0E0,0E0,0E0,0E0,0E0,0E0],"parents":[2147483647,0,0,1,1,2,2,3,3,4,4,5,5,6,6],"right_children":[2,4,6,8,10,12,14,-1,-1,-1,-1,-1,-1,-1,-1],"split_conditions":[4.6E-1,5.14E-1,2.9E0,-4.8E0,3.5E1,-1.9E0,3.1E0,1.205211E-3,-1.6499786E-3,1.6386149E-3,3.7084916E-3,-4.290788E-3,-2.3283062E-3,9.09288E-4,-1.4388312E-3],"split_indices":[3,55,77,25,2,77,25,0,0,0,0,0,0,0,0],"split_type":[0,0,0,0,0,0,0,0,0,0,0,0,0,0,0],"sum_hessian":[6.7615923E3,2.4924094E3,4.2691826E3,1.2982029E3,1.1942065E3,2.8821384E3,1.3870442E3,5.926638E2,7.0553906E2,7.900172E2,4.041893E2,1.2416833E3,1.6404552E3,6.952222E2,6.9182196E2],"tree_param":{"num_deleted":"0","num_feature":"106","num_nodes":"15","size_leaf_vector":"1"}},{"base_weights":[1.06012E-1,-9.418949E-2,2.2288716E-1,3.46585E-2,-2.341699E-1,3.174978E-1,2.6208635E-2,-1.205211E-3,1.6499786E-3,-1.6386149E-3,-3.7084916E-3,4.290788E-3,2.3283062E-3,-9.092883E-4,1.4388316E-3],"categories":[],"categories_nodes":[],"categories_segments":[],"categories_sizes":[],"default_left":[0,0,0,0,0,0,0,0,0,0,0,0,0,0,0],"id":69,"left_children":[1,3,5,7,9,11,13,-1,-1,-1,-1,-1,-1,-1,-1],"loss_changes":[1.5825607E2,4.497972E1,7.945073E1,2.6297579E1,1.1424812E1,2.7137817E1,1.9146015E1,0E0,0E0,0E0,0E0,0E0,0E0,0E0,0E0],"parents":[2147483647,0,0,1,1,2,2,3,3,4,4,5,5,6,6],"right_children":[2,4,6,8,10,12,14,-1,-1,-1,-1,-1,-1,-1,-1],"split_conditions":[4.6E-1,5.14E-1,2.9E0,-4.8E0,3.5E1,-1.9E0,3.1E0,-1.205211E-3,1.6499786E-3,-1.6386149E-3,-3.7084916E-3,4.290788E-3,2.3283062E-3,-9.092883E-4,1.4388316E-3],"split_indices":[3,55,77,25,2,77,25,0,0,0,0,0,0,0,0],"split_type":[0,0,0,0,0,0,0,0,0,0,0,0,0,0,0],"sum_hessian":[6.7615923E3,2.4924094E3,4.2691826E3,1.2982029E3,1.1942065E3,2.8821384E3,1.3870442E3,5.926638E2,7.0553906E2,7.900172E2,4.041893E2,1.2416833E3,1.6404552E3,6.952222E2,6.9182196E2],"tree_param":{"num_deleted":"0","num_feature":"106","num_nodes":"15","size_leaf_vector":"1"}},{"base_weights":[-1.0499863E-1,-1.929608E-1,1.566519E-1,-6.8903E-2,-3.3208075E-1,2.7348498E-2,2.7769047E-1,-2.01606E-3,4.0086504E-4,-4.8875874E-3,-2.7049019E-3,1.173836E-3,-1.066191E-3,1.7972887E-3,4.2276033E-3],"categories":[],"categories_nodes":[],"categories_segments":[],"categories_sizes":[],"default_left":[0,0,0,0,0,0,0,0,0,0,0,0,0,0,0],"id":70,"left_children":[1,3,5,7,9,11,13,-1,-1,-1,-1,-1,-1,-1,-1],"loss_changes":[1.5560564E2,8.729637E1,2.6618458E1,3.8707718E1,2.2879303E1,9.947335E0,1.24101715E1,0E0,0E0,0E0,0E0,0E0,0E0,0E0,0E0],"parents":[2147483647,0,0,1,1,2,2,3,3,4,4,5,5,6,6],"right_children":[2,4,6,8,10,12,14,-1,-1,-1,-1,-1,-1,-1,-1],"split_conditions":[2.2E1,1.4E1,0E0,1E1,7E0,-4.8E0,3.5E1,-2.01606E-3,4.0086504E-4,-4.8875874E-3,-2.7049019E-3,1.173836E-3,-1.066191E-3,1.7972887E-3,4.2276033E-3],"split_indices":[27,80,77,51,51,25,2,0,0,0,0,0,0,0,0],"split_type":[0,0,0,0,0,0,0,0,0,0,0,0,0,0,0],"sum_hessian":[6.7586377E3,5.0583687E3,1.7002693E3,2.6747246E3,2.3836438E3,8.226608E2,8.7760846E2,1.2057645E3,1.4689601E3,6.706544E2,1.7129894E3,4.9207657E2,3.3058423E2,5.251967E2,3.5241168E2],"tree_param":{"num_deleted":"0","num_feature":"106","num_nodes":"15","size_leaf_vector":"1"}},{"base_weights":[1.0499863E-1,1.929608E-1,-1.5665191E-1,6.8903E-2,3.3208075E-1,-2.7348517E-2,-2.7769047E-1,2.01606E-3,-4.008648E-4,4.8875874E-3,2.7049019E-3,-1.1738362E-3,1.066191E-3,-1.7972884E-3,-4.2276033E-3],"categories":[],"categories_nodes":[],"categories_segments":[],"categories_sizes":[],"default_left":[0,0,0,0,0,0,0,0,0,0,0,0,0,0,0],"id":71,"left_children":[1,3,5,7,9,11,13,-1,-1,-1,-1,-1,-1,-1,-1],"loss_changes":[1.5560565E2,8.729634E1,2.6618458E1,3.870771E1,2.2879364E1,9.947337E0,1.2410164E1,0E0,0E0,0E0,0E0,0E0,0E0,0E0,0E0],"parents":[2147483647,0,0,1,1,2,2,3,3,4,4,5,5,6,6],"right_children":[2,4,6,8,10,12,14,-1,-1,-1,-1,-1,-1,-1,-1],"split_conditions":[2.2E1,1.4E1,0E0,1E1,7E0,-4.8E0,3.5E1,2.01606E-3,-4.008648E-4,4.8875874E-3,2.7049019E-3,-1.1738362E-3,1.066191E-3,-1.7972884E-3,-4.2276033E-3],"split_indices":[27,80,77,51,51,25,2,0,0,0,0,0,0,0,0],"split_type":[0,0,0,0,0,0,0,0,0,0,0,0,0,0,0],"sum_hessian":[6.7586377E3,5.0583687E3,1.7002693E3,2.6747246E3,2.3836438E3,8.226608E2,8.776084E2,1.2057645E3,1.4689601E3,6.706544E2,1.7129894E3,4.9207657E2,3.3058423E2,5.251967E2,3.5241168E2],"tree_param":{"num_deleted":"0","num_feature":"106","num_nodes":"15","size_leaf_vector":"1"}},{"base_weights":[-1.0399498E-1,-2.569043E-1,4.4147868E-2,-3.3156806E-1,-5.7243083E-2,-1.7785613E-1,1.3251437E-1,-2.6872598E-3,-5.050674E-3,1.7542248E-4,-1.8900916E-3,4.1899807E-4,-2.9356682E-3,2.6994008E-3,6.229146E-4],"categories":[],"categories_nodes":[],"categories_segments":[],"categories_sizes":[],"default_left":[0,0,0,0,0,0,0,0,0,0,0,0,0,0,0],"id":72,"left_children":[1,3,5,7,9,11,13,-1,-1,-1,-1,-1,-1,-1,-1],"loss_changes":[1.5306674E2,4.9548355E1,6.7365036E1,2.624768E1,8.933001E0,2.4874826E1,2.3683971E1,0E0,0E0,0E0,0E0,0E0,0E0,0E0,0E0],"parents":[2147483647,0,0,1,1,2,2,3,3,4,4,5,5,6,6],"right_children":[2,4,6,8,10,12,14,-1,-1,-1,-1,-1,-1,-1,-1],"split_conditions":[1.5E1,3.8E0,-2.4E0,2.3E1,6.71E-1,-4.8E0,8E0,-2.6872598E-3,-5.050674E-3,1.7542248E-4,-1.8900916E-3,4.1899807E-4,-2.9356682E-3,2.6994008E-3,6.229146E-4],"split_indices":[51,77,77,80,3,25,103,0,0,0,0,0,0,0,0],"split_type":[0,0,0,0,0,0,0,0,0,0,0,0,0,0,0],"sum_hessian":[6.755689E3,3.3240027E3,3.4316863E3,2.4188193E3,9.051834E2,9.767572E2,2.4549292E3,1.7775378E3,6.4128156E2,5.779999E2,3.2718353E2,3.371276E2,6.396296E2,8.292497E2,1.6256794E3],"tree_param":{"num_deleted":"0","num_feature":"106","num_nodes":"15","size_leaf_vector":"1"}},{"base_weights":[1.03994966E-1,2.569043E-1,-4.4147886E-2,3.3156803E-1,5.724309E-2,1.7785613E-1,-1.3251439E-1,2.6872598E-3,5.050674E-3,-1.7542226E-4,1.8900915E-3,-4.1899824E-4,2.9356682E-3,-2.6994012E-3,-6.2291464E-4],"categories":[],"categories_nodes":[],"categories_segments":[],"categories_sizes":[],"default_left":[0,0,0,0,0,0,0,0,0,0,0,0,0,0,0],"id":73,"left_children":[1,3,5,7,9,11,13,-1,-1,-1,-1,-1,-1,-1,-1],"loss_changes":[1.5306674E2,4.954834E1,6.7365036E1,2.624768E1,8.932998E0,2.487482E1,2.3683979E1,0E0,0E0,0E0,0E0,0E0,0E0,0E0,0E0],"parents":[2147483647,0,0,1,1,2,2,3,3,4,4,5,5,6,6],"right_children":[2,4,6,8,10,12,14,-1,-1,-1,-1,-1,-1,-1,-1],"split_conditions":[1.5E1,3.8E0,-2.4E0,2.3E1,6.71E-1,-4.8E0,8E0,2.6872598E-3,5.050674E-3,-1.7542226E-4,1.8900915E-3,-4.1899824E-4,2.9356682E-3,-2.6994012E-3,-6.2291464E-4],"split_indices":[51,77,77,80,3,25,103,0,0,0,0,0,0,0,0],"split_type":[0,0,0,0,0,0,0,0,0,0,0,0,0,0,0],"sum_hessian":[6.755689E3,3.3240027E3,3.4316863E3,2.4188193E3,9.051834E2,9.767572E2,2.4549292E3,1.7775378E3,6.4128156E2,5.779999E2,3.2718353E2,3.371276E2,6.3962964E2,8.292497E2,1.6256794E3],"tree_param":{"num_deleted":"0","num_feature":"106","num_nodes":"15","size_leaf_vector":"1"}},{"base_weights":[-1.0300282E-1,-2.0078196E-1,1.2513724E-1,-1.1521455E-1,-3.9245358E-1,-1.4019535E-1,1.9565566E-1,-2.673453E-3,-2.7901377E-4,-3.375441E-3,-5.1673763E-3,3.3333153E-4,-2.4496687E-3,3.2363888E-3,1.1397616E-3],"categories":[],"categories_nodes":[],"categories_segments":[],"categories_sizes":[],"default_left":[0,0,0,0,0,0,0,0,0,0,0,0,0,0,0],"id":74,"left_children":[1,3,5,7,9,11,13,-1,-1,-1,-1,-1,-1,-1,-1],"loss_changes":[1.5068181E2,7.74962E1,3.7950382E1,4.342915E1,9.781021E0,7.75587E0,1.6706062E1,0E0,0E0,0E0,0E0,0E0,0E0,0E0,0E0],"parents":[2147483647,0,0,1,1,2,2,3,3,4,4,5,5,6,6],"right_children":[2,4,6,8,10,12,14,-1,-1,-1,-1,-1,-1,-1,-1],"split_conditions":[2E1,1.9E1,3.59E-1,7E0,3.7E1,-6.3E0,-6.2E0,-2.673453E-3,-2.7901377E-4,-3.375441E-3,-5.1673763E-3,3.3333153E-4,-2.4496687E-3,3.2363888E-3,1.1397616E-3],"split_indices":[28,80,55,27,54,25,25,0,0,0,0,0,0,0,0],"split_type":[0,0,0,0,0,0,0,0,0,0,0,0,0,0,0],"sum_hessian":[6.752683E3,4.726892E3,2.025791E3,3.2690852E3,1.4578069E3,4.251465E2,1.6006445E3,1.1913193E3,2.0777659E3,1.013675E3,4.4413193E2,1.6031145E2,2.6483505E2,6.224181E2,9.782264E2],"tree_param":{"num_deleted":"0","num_feature":"106","num_nodes":"15","size_leaf_vector":"1"}},{"base_weights":[1.0300282E-1,2.0078196E-1,-1.2513724E-1,1.1521455E-1,3.9245358E-1,1.4019534E-1,-1.9565564E-1,2.673453E-3,2.7901377E-4,3.375441E-3,5.1673763E-3,-3.3333147E-4,2.4496682E-3,-3.2363888E-3,-1.1397615E-3],"categories":[],"categories_nodes":[],"categories_segments":[],"categories_sizes":[],"default_left":[0,0,0,0,0,0,0,0,0,0,0,0,0,0,0],"id":75,"left_children":[1,3,5,7,9,11,13,-1,-1,-1,-1,-1,-1,-1,-1],"loss_changes":[1.5068182E2,7.74962E1,3.795037E1,4.3429142E1,9.781036E0,7.755867E0,1.670607E1,0E0,0E0,0E0,0E0,0E0,0E0,0E0,0E0],"parents":[2147483647,0,0,1,1,2,2,3,3,4,4,5,5,6,6],"right_children":[2,4,6,8,10,12,14,-1,-1,-1,-1,-1,-1,-1,-1],"split_conditions":[2E1,1.9E1,3.59E-1,7E0,3.7E1,-6.3E0,-6.2E0,2.673453E-3,2.7901377E-4,3.375441E-3,5.1673763E-3,-3.3333147E-4,2.4496682E-3,-3.2363888E-3,-1.1397615E-3],"split_indices":[28,80,55,27,54,25,25,0,0,0,0,0,0,0,0],"split_type":[0,0,0,0,0,0,0,0,0,0,0,0,0,0,0],"sum_hessian":[6.752683E3,4.726892E3,2.025791E3,3.2690852E3,1.457807E3,4.251465E2,1.6006445E3,1.1913193E3,2.0777659E3,1.01367505E3,4.4413193E2,1.6031145E2,2.6483505E2,6.224181E2,9.782264E2],"tree_param":{"num_deleted":"0","num_feature":"106","num_nodes":"15","size_leaf_vector":"1"}},{"base_weights":[-1.0202045E-1,-1.8788765E-1,1.5324478E-1,-6.669684E-2,-3.2407618E-1,2.6726386E-2,2.7175885E-1,-1.9603872E-3,3.9444564E-4,-4.7873324E-3,-2.633874E-3,1.143356E-3,-1.0365885E-3,1.7474695E-3,4.155364E-3],"categories":[],"categories_nodes":[],"categories_segments":[],"categories_sizes":[],"default_left":[0,0,0,0,0,0,0,0,0,0,0,0,0,0,0],"id":76,"left_children":[1,3,5,7,9,11,13,-1,-1,-1,-1,-1,-1,-1,-1],"loss_changes":[1.4799583E2,8.335866E1,2.5479496E1,3.672316E1,2.2198349E1,9.415602E0,1.2167442E1,0E0,0E0,0E0,0E0,0E0,0E0,0E0,0E0],"parents":[2147483647,0,0,1,1,2,2,3,3,4,4,5,5,6,6],"right_children":[2,4,6,8,10,12,14,-1,-1,-1,-1,-1,-1,-1,-1],"split_conditions":[2.2E1,1.4E1,0E0,1E1,7E0,-4.8E0,3.5E1,-1.9603872E-3,3.9444564E-4,-4.7873324E-3,-2.633874E-3,1.143356E-3,-1.0365885E-3,1.7474695E-3,4.155364E-3],"split_indices":[27,80,77,51,51,25,2,0,0,0,0,0,0,0,0],"split_type":[0,0,0,0,0,0,0,0,0,0,0,0,0,0,0],"sum_hessian":[6.7496562E3,5.050883E3,1.6987736E3,2.6733892E3,2.3774937E3,8.2223315E2,8.765404E2,1.2046179E3,1.4687712E3,6.6808405E2,1.7094095E3,4.9186163E2,3.303715E2,5.24713E2,3.5182736E2],"tree_param":{"num_deleted":"0","num_feature":"106","num_nodes":"15","size_leaf_vector":"1"}},{"base_weights":[1.0202045E-1,1.8788765E-1,-1.532448E-1,6.6696845E-2,3.2407618E-1,-2.6726384E-2,-2.7175888E-1,1.9603872E-3,-3.944456E-4,4.7873324E-3,2.633874E-3,-1.1433557E-3,1.0365881E-3,-1.7474695E-3,-4.1553644E-3],"categories":[],"categories_nodes":[],"categories_segments":[],"categories_sizes":[],"default_left":[0,0,0,0,0,0,0,0,0,0,0,0,0,0,0],"id":77,"left_children":[1,3,5,7,9,11,13,-1,-1,-1,-1,-1,-1,-1,-1],"loss_changes":[1.4799583E2,8.335869E1,2.5479507E1,3.6723164E1,2.2198288E1,9.415596E0,1.2167442E1,0E0,0E0,0E0,0E0,0E0,0E0,0E0,0E0],"parents":[2147483647,0,0,1,1,2,2,3,3,4,4,5,5,6,6],"right_children":[2,4,6,8,10,12,14,-1,-1,-1,