{"learner":{"attributes":{},"feature_names":[],"feature_types":[],"gradient_booster":{"model":{"gbtree_model_param":{"num_parallel_tree":"1","num_trees":"1500"},"iteration_indptr":[0,2,4,6,8,10,12,14,16,18,20,22,24,26,28,30,32,34,36,38,40,42,44,46,48,50,52,54,56,58,60,62,64,66,68,70,72,74,76,78,80,82,84,86,88,90,92,94,96,98,100,102,104,106,108,110,112,114,116,118,120,122,124,126,128,130,132,134,136,138,140,142,144,146,148,150,152,154,156,158,160,162,164,166,168,170,172,174,176,178,180,182,184,186,188,190,192,194,196,198,200,202,204,206,208,210,212,214,216,218,220,222,224,226,228,230,232,234,236,238,240,242,244,246,248,250,252,254,256,258,260,262,264,266,268,270,272,274,276,278,280,282,284,286,288,290,292,294,296,298,300,302,304,306,308,310,312,314,316,318,320,322,324,326,328,330,332,334,336,338,340,342,344,346,348,350,352,354,356,358,360,362,364,366,368,370,372,374,376,378,380,382,384,386,388,390,392,394,396,398,400,402,404,406,408,410,412,414,416,418,420,422,424,426,428,430,432,434,436,438,440,442,444,446,448,450,452,454,456,458,460,462,464,466,468,470,472,474,476,478,480,482,484,486,488,490,492,494,496,498,500,502,504,506,508,510,512,514,516,518,520,522,524,526,528,530,532,534,536,538,540,542,544,546,548,550,552,554,556,558,560,562,564,566,568,570,572,574,576,578,580,582,584,586,588,590,592,594,596,598,600,602,604,606,608,610,612,614,616,618,620,622,624,626,628,630,632,634,636,638,640,642,644,646,648,650,652,654,656,658,660,662,664,666,668,670,672,674,676,678,680,682,684,686,688,690,692,694,696,698,700,702,704,706,708,710,712,714,716,718,720,722,724,726,728,730,732,734,736,738,740,742,744,746,748,750,752,754,756,758,760,762,764,766,768,770,772,774,776,778,780,782,784,786,788,790,792,794,796,798,800,802,804,806,808,810,812,814,816,818,820,822,824,826,828,830,832,834,836,838,840,842,844,846,848,850,852,854,856,858,860,862,864,866,868,870,872,874,876,878,880,882,884,886,888,890,892,894,896,898,900,902,904,906,908,910,912,914,916,918,920,922,924,926,928,930,932,934,936,938,940,942,944,946,948,950,952,954,956,958,960,962,964,966,968,970,972,974,976,978,980,982,984,986,988,990,992,994,996,998,1000,1002,1004,1006,1008,1010,1012,1014,1016,1018,1020,1022,1024,1026,1028,1030,1032,1034,1036,1038,1040,1042,1044,1046,1048,1050,1052,1054,1056,1058,1060,1062,1064,1066,1068,1070,1072,1074,1076,1078,1080,1082,1084,1086,1088,1090,1092,1094,1096,1098,1100,1102,1104,1106,1108,1110,1112,1114,1116,1118,1120,1122,1124,1126,1128,1130,1132,1134,1136,1138,1140,1142,1144,1146,1148,1150,1152,1154,1156,1158,1160,1162,1164,1166,1168,1170,1172,1174,1176,1178,1180,1182,1184,1186,1188,1190,1192,1194,1196,1198,1200,1202,1204,1206,1208,1210,1212,1214,1216,1218,1220,1222,1224,1226,1228,1230,1232,1234,1236,1238,1240,1242,1244,1246,1248,1250,1252,1254,1256,1258,1260,1262,1264,1266,1268,1270,1272,1274,1276,1278,1280,1282,1284,1286,1288,1290,1292,1294,1296,1298,1300,1302,1304,1306,1308,1310,1312,1314,1316,1318,1320,1322,1324,1326,1328,1330,1332,1334,1336,1338,1340,1342,1344,1346,1348,1350,1352,1354,1356,1358,1360,1362,1364,1366,1368,1370,1372,1374,1376,1378,1380,1382,1384,1386,1388,1390,1392,1394,1396,1398,1400,1402,1404,1406,1408,1410,1412,1414,1416,1418,1420,1422,1424,1426,1428,1430,1432,1434,1436,1438,1440,1442,1444,1446,1448,1450,1452,1454,1456,1458,1460,1462,1464,1466,1468,1470,1472,1474,1476,1478,1480,1482,1484,1486,1488,1490,1492,1494,1496,1498,1500],"tree_info":[0,1,0,1,0,1,0,1,0,1,0,1,0,1,0,1,0,1,0,1,0,1,0,1,0,1,0,1,0,1,0,1,0,1,0,1,0,1,0,1,0,1,0,1,0,1,0,1,0,1,0,1,0,1,0,1,0,1,0,1,0,1,0,1,0,1,0,1,0,1,0,1,0,1,0,1,0,1,0,1,0,1,0,1,0,1,0,1,0,1,0,1,0,1,0,1,0,1,0,1,0,1,0,1,0,1,0,1,0,1,0,1,0,1,0,1,0,1,0,1,0,1,0,1,0,1,0,1,0,1,0,1,0,1,0,1,0,1,0,1,0,1,0,1,0,1,0,1,0,1,0,1,0,1,0,1,0,1,0,1,0,1,0,1,0,1,0,1,0,1,0,1,0,1,0,1,0,1,0,1,0,1,0,1,0,1,0,1,0,1,0,1,0,1,0,1,0,1,0,1,0,1,0,1,0,1,0,1,0,1,0,1,0,1,0,1,0,1,0,1,0,1,0,1,0,1,0,1,0,1,0,1,0,1,0,1,0,1,0,1,0,1,0,1,0,1,0,1,0,1,0,1,0,1,0,1,0,1,0,1,0,1,0,1,0,1,0,1,0,1,0,1,0,1,0,1,0,1,0,1,0,1,0,1,0,1,0,1,0,1,0,1,0,1,0,1,0,1,0,1,0,1,0,1,0,1,0,1,0,1,0,1,0,1,0,1,0,1,0,1,0,1,0,1,0,1,0,1,0,1,0,1,0,1,0,1,0,1,0,1,0,1,0,1,0,1,0,1,0,1,0,1,0,1,0,1,0,1,0,1,0,1,0,1,0,1,0,1,0,1,0,1,0,1,0,1,0,1,0,1,0,1,0,1,0,1,0,1,0,1,0,1,0,1,0,1,0,1,0,1,0,1,0,1,0,1,0,1,0,1,0,1,0,1,0,1,0,1,0,1,0,1,0,1,0,1,0,1,0,1,0,1,0,1,0,1,0,1,0,1,0,1,0,1,0,1,0,1,0,1,0,1,0,1,0,1,0,1,0,1,0,1,0,1,0,1,0,1,0,1,0,1,0,1,0,1,0,1,0,1,0,1,0,1,0,1,0,1,0,1,0,1,0,1,0,1,0,1,0,1,0,1,0,1,0,1,0,1,0,1,0,1,0,1,0,1,0,1,0,1,0,1,0,1,0,1,0,1,0,1,0,1,0,1,0,1,0,1,0,1,0,1,0,1,0,1,0,1,0,1,0,1,0,1,0,1,0,1,0,1,0,1,0,1,0,1,0,1,0,1,0,1,0,1,0,1,0,1,0,1,0,1,0,1,0,1,0,1,0,1,0,1,0,1,0,1,0,1,0,1,0,1,0,1,0,1,0,1,0,1,0,1,0,1,0,1,0,1,0,1,0,1,0,1,0,1,0,1,0,1,0,1,0,1,0,1,0,1,0,1,0,1,0,1,0,1,0,1,0,1,0,1,0,1,0,1,0,1,0,1,0,1,0,1,0,1,0,1,0,1,0,1,0,1,0,1,0,1,0,1,0,1,0,1,0,1,0,1,0,1,0,1,0,1,0,1,0,1,0,1,0,1,0,1,0,1,0,1,0,1,0,1,0,1,0,1,0,1,0,1,0,1,0,1,0,1,0,1,0,1,0,1,0,1,0,1,0,1,0,1,0,1,0,1,0,1,0,1,0,1,0,1,0,1,0,1,0,1,0,1,0,1,0,1,0,1,0,1,0,1,0,1,0,1,0,1,0,1,0,1,0,1,0,1,0,1,0,1,0,1,0,1,0,1,0,1,0,1,0,1,0,1,0,1,0,1,0,1,0,1,0,1,0,1,0,1,0,1,0,1,0,1,0,1,0,1,0,1,0,1,0,1,0,1,0,1,0,1,0,1,0,1,0,1,0,1,0,1,0,1,0,1,0,1,0,1,0,1,0,1,0,1,0,1,0,1,0,1,0,1,0,1,0,1,0,1,0,1,0,1,0,1,0,1,0,1,0,1,0,1,0,1,0,1,0,1,0,1,0,1,0,1,0,1,0,1,0,1,0,1,0,1,0,1,0,1,0,1,0,1,0,1,0,1,0,1,0,1,0,1,0,1,0,1,0,1,0,1,0,1,0,1,0,1,0,1,0,1,0,1,0,1,0,1,0,1,0,1,0,1,0,1,0,1,0,1,0,1,0,1,0,1,0,1,0,1,0,1,0,1,0,1,0,1,0,1,0,1,0,1,0,1,0,1,0,1,0,1,0,1,0,1,0,1,0,1,0,1,0,1,0,1,0,1,0,1,0,1,0,1,0,1,0,1,0,1,0,1,0,1,0,1,0,1,0,1,0,1,0,1,0,1,0,1,0,1,0,1,0,1,0,1,0,1,0,1,0,1,0,1,0,1,0,1,0,1,0,1,0,1,0,1,0,1,0,1,0,1,0,1,0,1,0,1,0,1,0,1,0,1,0,1,0,1,0,1,0,1,0,1,0,1,0,1,0,1,0,1,0,1,0,1,0,1,0,1,0,1,0,1,0,1,0,1,0,1,0,1,0,1,0,1,0,1,0,1,0,1,0,1,0,1,0,1,0,1,0,1,0,1,0,1,0,1,0,1,0,1,0,1,0,1,0,1,0,1,0,1,0,1,0,1,0,1,0,1,0,1,0,1,0,1,0,1,0,1,0,1,0,1,0,1,0,1,0,1,0,1,0,1,0,1,0,1,0,1,0,1,0,1,0,1,0,1,0,1,0,1,0,1,0,1,0,1,0,1,0,1,0,1,0,1,0,1,0,1,0,1,0,1,0,1,0,1,0,1,0,1,0,1,0,1,0,1,0,1,0,1,0,1,0,1,0,1,0,1,0,1,0,1,0,1,0,1,0,1,0,1,0,1,0,1,0,1,0,1,0,1,0,1,0,1,0,1,0,1,0,1,0,1,0,1,0,1,0,1,0,1,0,1,0,1,0,1,0,1,0,1,0,1,0,1,0,1,0,1,0,1,0,1,0,1,0,1,0,1,0,1,0,1,0,1,0,1,0,1,0,1,0,1,0,1,0,1,0,1,0,1,0,1,0,1,0,1,0,1,0,1,0,1,0,1,0,1,0,1,0,1,0,1,0,1,0,1,0,1,0,1,0,1,0,1,0,1,0,1,0,1,0,1,0,1,0,1,0,1,0,1,0,1,0,1,0,1,0,1,0,1,0,1,0,1,0,1,0,1,0,1,0,1,0,1,0,1,0,1,0,1,0,1,0,1,0,1,0,1,0,1,0,1,0,1,0,1,0,1,0,1,0,1,0,1,0,1,0,1,0,1,0,1,0,1,0,1,0,1,0,1,0,1,0,1,0,1,0,1,0,1,0,1,0,1,0,1,0,1,0,1,0,1],"trees":[{"base_weights":[-1.4729819E-1,1.1327975E-1,-3.090909E-1,-1.4927185E-1,2.3407821E-1,-1.4921348E-1,-4.882783E-1,6.5573765E-4,-3.2026144E-3,7.1382633E-4,3.586581E-3,-2.9166664E-3,-1.4834205E-4,-3.9226036E-3,-6.1651915E-3],"categories":[],"categories_nodes":[],"categories_segments":[],"categories_sizes":[],"default_left":[0,0,0,0,0,0,0,0,0,0,0,0,0,0,0],"id":0,"left_children":[1,3,5,7,9,11,13,-1,-1,-1,-1,-1,-1,-1,-1],"loss_changes":[2.875425E2,8.29084E1,1.20463684E2,3.0291761E1,3.625518E1,4.2588306E1,2.4181824E1,0E0,0E0,0E0,0E0,0E0,0E0,0E0,0E0],"parents":[2147483647,0,0,1,1,2,2,3,3,4,4,5,5,6,6],"right_children":[2,4,6,8,10,12,14,-1,-1,-1,-1,-1,-1,-1,-1],"split_conditions":[4.67E-1,-2E0,1.4E1,-4.8E0,2.4E1,9E0,2.3E1,6.5573765E-4,-3.2026144E-3,7.1382633E-4,3.586581E-3,-2.9166664E-3,-1.4834205E-4,-3.9226036E-3,-6.1651915E-3],"split_indices":[3,77,80,25,51,51,80,0,0,0,0,0,0,0,0],"split_type":[0,0,0,0,0,0,0,0,0,0,0,0,0,0,0],"sum_hessian":[6.8185E3,2.612E3,4.2065E3,8.23E2,1.789E3,2.224E3,1.9825E3,3.65E2,4.58E2,7.765E2,1.0125E3,1.079E3,1.145E3,1.136E3,8.465E2],"tree_param":{"num_deleted":"0","num_feature":"106","num_nodes":"15","size_leaf_vector":"1"}},{"base_weights":[1.4729819E-1,-1.1327975E-1,3.090909E-1,1.4927185E-1,-2.3407821E-1,1.4921348E-1,4.882783E-1,-6.5573765E-4,3.2026144E-3,-7.1382633E-4,-3.586581E-3,2.9166664E-3,1.4834205E-4,3.9226036E-3,6.1651915E-3],"categories":[],"categories_nodes":[],"categories_segments":[],"categories_sizes":[],"default_left":[0,0,0,0,0,0,0,0,0,0,0,0,0,0,0],"id":1,"left_children":[1,3,5,7,9,11,13,-1,-1,-1,-1,-1,-1,-1,-1],"loss_changes":[2.875425E2,8.29084E1,1.20463684E2,3.0291761E1,3.625518E1,4.2588306E1,2.4181824E1,0E0,0E0,0E0,0E0,0E0,0E0,0E0,0E0],"parents":[2147483647,0,0,1,1,2,2,3,3,4,4,5,5,6,6],"right_children":[2,4,6,8,10,12,14,-1,-1,-1,-1,-1,-1,-1,-1],"split_conditions":[4.67E-1,-2E0,1.4E1,-4.8E0,2.4E1,9E0,2.3E1,-6.5573765E-4,3.2026144E-3,-7.1382633E-4,-3.586581E-3,2.9166664E-3,1.4834205E-4,3.9226036E-3,6.1651915E-3],"split_indices":[3,77,80,25,51,51,80,0,0,0,0,0,0,0,0],"split_type":[0,0,0,0,0,0,0,0,0,0,0,0,0,0,0],"sum_hessian":[6.8185E3,2.612E3,4.2065E3,8.23E2,1.789E3,2.224E3,1.9825E3,3.65E2,4.58E2,7.765E2,1.0125E3,1.079E3,1.145E3,1.136E3,8.465E2],"tree_param":{"num_deleted":"0","num_feature":"106","num_nodes":"15","size_leaf_vector":"1"}},{"base_weights":[-1.4582856E-1,-2.7889487E-1,1.6476172E-1,-1.7145595E-1,-5.492119E-1,-9.884788E-2,2.857829E-1,-3.1950825E-3,-3.7727004E-4,-4.804546E-3,-6.8634776E-3,7.397308E-4,-2.8498885E-3,4.424693E-3,1.692751E-3],"categories":[],"categories_nodes":[],"categories_segments":[],"categories_sizes":[],"default_left":[0,0,0,0,0,0,0,0,0,0,0,0,0,0,0],"id":2,"left_children":[1,3,5,7,9,11,13,-1,-1,-1,-1,-1,-1,-1,-1],"loss_changes":[2.8188654E2,1.3856784E2,6.529994E1,6.766005E1,1.2469879E1,2.0753933E1,2.5527786E1,0E0,0E0,0E0,0E0,0E0,0E0,0E0,0E0],"parents":[2147483647,0,0,1,1,2,2,3,3,4,4,5,5,6,6],"right_children":[2,4,6,8,10,12,14,-1,-1,-1,-1,-1,-1,-1,-1],"split_conditions":[2E1,2E1,-2E0,1E1,3.9E0,-4.8E0,-5.9E0,-3.1950825E-3,-3.7727004E-4,-4.804546E-3,-6.8634776E-3,7.397308E-4,-2.8498885E-3,4.424693E-3,1.692751E-3],"split_indices":[28,80,77,51,25,25,25,0,0,0,0,0,0,0,0],"split_type":[0,0,0,0,0,0,0,0,0,0,0,0,0,0,0],"sum_hessian":[6.818423E3,4.773439E3,2.044984E3,3.4169775E3,1.3564612E3,6.434965E2,1.4014875E3,1.6209845E3,1.795993E3,9.064752E2,4.49986E2,3.3399985E2,3.0949664E2,5.964924E2,8.049951E2],"tree_param":{"num_deleted":"0","num_feature":"106","num_nodes":"15","size_leaf_vector":"1"}},{"base_weights":[1.4582853E-1,2.7889484E-1,-1.647618E-1,1.7145592E-1,5.492119E-1,9.884782E-2,-2.85783E-1,3.1950818E-3,3.7727013E-4,4.804546E-3,6.8634776E-3,-7.397317E-4,2.8498885E-3,-4.4246945E-3,-1.6927514E-3],"categories":[],"categories_nodes":[],"categories_segments":[],"categories_sizes":[],"default_left":[0,0,0,0,0,0,0,0,0,0,0,0,0,0,0],"id":3,"left_children":[1,3,5,7,9,11,13,-1,-1,-1,-1,-1,-1,-1,-1],"loss_changes":[2.818866E2,1.3856784E2,6.529994E1,6.7660034E1,1.2469879E1,2.0753937E1,2.5527802E1,0E0,0E0,0E0,0E0,0E0,0E0,0E0,0E0],"parents":[2147483647,0,0,1,1,2,2,3,3,4,4,5,5,6,6],"right_children":[2,4,6,8,10,12,14,-1,-1,-1,-1,-1,-1,-1,-1],"split_conditions":[2E1,2E1,-2E0,1E1,3.9E0,-4.8E0,-5.9E0,3.1950818E-3,3.7727013E-4,4.804546E-3,6.8634776E-3,-7.397317E-4,2.8498885E-3,-4.4246945E-3,-1.6927514E-3],"split_indices":[28,80,77,51,25,25,25,0,0,0,0,0,0,0,0],"split_type":[0,0,0,0,0,0,0,0,0,0,0,0,0,0,0],"sum_hessian":[6.818423E3,4.773439E3,2.044984E3,3.4169775E3,1.3564612E3,6.4349646E2,1.4014875E3,1.6209845E3,1.7959932E3,9.064752E2,4.49986E2,3.3399985E2,3.0949664E2,5.964924E2,8.049951E2],"tree_param":{"num_deleted":"0","num_feature":"106","num_nodes":"15","size_leaf_vector":"1"}},{"base_weights":[-1.4437644E-1,1.1120928E-1,-3.0307347E-1,-1.4625897E-1,2.2966938E-1,-8.5755795E-2,-4.315562E-1,6.4422033E-4,-3.1394088E-3,6.999412E-4,3.51942E-3,-2.337668E-3,4.7706295E-4,-3.205192E-3,-5.6160134E-3],"categories":[],"categories_nodes":[],"categories_segments":[],"categories_sizes":[],"default_left":[0,0,0,0,0,0,0,0,0,0,0,0,0,0,0],"id":4,"left_children":[1,3,5,7,9,11,13,-1,-1,-1,-1,-1,-1,-1,-1],"loss_changes":[2.7662552E2,7.9727165E1,1.1743683E2,2.9129295E1,3.4922165E1,3.0915474E1,3.7996124E1,0E0,0E0,0E0,0E0,0E0,0E0,0E0,0E0],"parents":[2147483647,0,0,1,1,2,2,3,3,4,4,5,5,6,6],"right_children":[2,4,6,8,10,12,14,-1,-1,-1,-1,-1,-1,-1,-1],"split_conditions":[4.67E-1,-2E0,1.1E1,-4.8E0,2.4E1,9E0,2E1,6.4422033E-4,-3.1394088E-3,6.999412E-4,3.51942E-3,-2.337668E-3,4.7706295E-4,-3.205192E-3,-5.6160134E-3],"split_indices":[3,77,103,25,51,51,80,0,0,0,0,0,0,0,0],"split_type":[0,0,0,0,0,0,0,0,0,0,0,0,0,0,0],"sum_hessian":[6.8182085E3,2.6119285E3,4.2062803E3,8.2298004E2,1.7889484E3,1.5634701E3,2.64281E3,3.6499915E2,4.579809E2,7.7649695E2,1.0124514E3,7.40972E2,8.224981E2,1.4274604E3,1.2153497E3],"tree_param":{"num_deleted":"0","num_feature":"106","num_nodes":"15","size_leaf_vector":"1"}},{"base_weights":[1.4437652E-1,-1.1120924E-1,3.0307356E-1,1.4625898E-1,-2.2966933E-1,8.575591E-2,4.3155625E-1,-6.442204E-4,3.1394092E-3,-6.9994014E-4,-3.51942E-3,2.3376693E-3,-4.77062E-4,3.205193E-3,5.616014E-3],"categories":[],"categories_nodes":[],"categories_segments":[],"categories_sizes":[],"default_left":[0,0,0,0,0,0,0,0,0,0,0,0,0,0,0],"id":5,"left_children":[1,3,5,7,9,11,13,-1,-1,-1,-1,-1,-1,-1,-1],"loss_changes":[2.7662558E2,7.972716E1,1.1743686E2,2.9129303E1,3.4922188E1,3.0915478E1,3.7996094E1,0E0,0E0,0E0,0E0,0E0,0E0,0E0,0E0],"parents":[2147483647,0,0,1,1,2,2,3,3,4,4,5,5,6,6],"right_children":[2,4,6,8,10,12,14,-1,-1,-1,-1,-1,-1,-1,-1],"split_conditions":[4.67E-1,-2E0,1.1E1,-4.8E0,2.4E1,9E0,2E1,-6.442204E-4,3.1394092E-3,-6.9994014E-4,-3.51942E-3,2.3376693E-3,-4.77062E-4,3.205193E-3,5.616014E-3],"split_indices":[3,77,103,25,51,51,80,0,0,0,0,0,0,0,0],"split_type":[0,0,0,0,0,0,0,0,0,0,0,0,0,0,0],"sum_hessian":[6.8182085E3,2.6119285E3,4.2062803E3,8.2298E2,1.7889484E3,1.56347E3,2.64281E3,3.6499915E2,4.5798087E2,7.76497E2,1.0124514E3,7.40972E2,8.2249805E2,1.4274604E3,1.2153496E3],"tree_param":{"num_deleted":"0","num_feature":"106","num_nodes":"15","size_leaf_vector":"1"}},{"base_weights":[-1.429416E-1,-2.7348E-1,1.6173804E-1,-1.6811976E-1,-5.386179E-1,-9.666009E-2,2.803702E-1,-3.1372805E-3,-3.660625E-4,-4.70694E-3,-6.741122E-3,7.2593585E-4,-2.7897255E-3,4.346096E-3,1.6569293E-3],"categories":[],"categories_nodes":[],"categories_segments":[],"categories_sizes":[],"default_left":[0,0,0,0,0,0,0,0,0,0,0,0,0,0,0],"id":6,"left_children":[1,3,5,7,9,11,13,-1,-1,-1,-1,-1,-1,-1,-1],"loss_changes":[2.7124628E2,1.3327081E2,6.27416E1,6.5438385E1,1.2172943E1,1.9906746E1,2.47331E1,0E0,0E0,0E0,0E0,0E0,0E0,0E0,0E0],"parents":[2147483647,0,0,1,1,2,2,3,3,4,4,5,5,6,6],"right_children":[2,4,6,8,10,12,14,-1,-1,-1,-1,-1,-1,-1,-1],"split_conditions":[2E1,2E1,-2E0,1E1,3.9E0,-4.8E0,-5.9E0,-3.1372805E-3,-3.660625E-4,-4.70694E-3,-6.741122E-3,7.2593585E-4,-2.7897255E-3,4.346096E-3,1.6569293E-3],"split_indices":[28,80,77,51,25,25,25,0,0,0,0,0,0,0,0],"split_type":[0,0,0,0,0,0,0,0,0,0,0,0,0,0,0],"sum_hessian":[6.817852E3,4.772991E3,2.0448607E3,3.4168438E3,1.3561476E3,6.434715E2,1.4013892E3,1.6208717E3,1.7959719E3,9.0629297E2,4.4985458E2,3.339986E2,3.094729E2,5.964211E2,8.049681E2],"tree_param":{"num_deleted":"0","num_feature":"106","num_nodes":"15","size_leaf_vector":"1"}},{"base_weights":[1.4294158E-1,2.7347997E-1,-1.6173808E-1,1.6811977E-1,5.3861785E-1,9.666015E-2,-2.803703E-1,3.1372805E-3,3.6606265E-4,4.70694E-3,6.7411205E-3,-7.259355E-4,2.7897265E-3,-4.3460974E-3,-1.6569296E-3],"categories":[],"categories_nodes":[],"categories_segments":[],"categories_sizes":[],"default_left":[0,0,0,0,0,0,0,0,0,0,0,0,0,0,0],"id":7,"left_children":[1,3,5,7,9,11,13,-1,-1,-1,-1,-1,-1,-1,-1],"loss_changes":[2.7124634E2,1.3327081E2,6.274164E1,6.543837E1,1.2172913E1,1.9906754E1,2.4733124E1,0E0,0E0,0E0,0E0,0E0,0E0,0E0,0E0],"parents":[2147483647,0,0,1,1,2,2,3,3,4,4,5,5,6,6],"right_children":[2,4,6,8,10,12,14,-1,-1,-1,-1,-1,-1,-1,-1],"split_conditions":[2E1,2E1,-2E0,1E1,3.9E0,-4.8E0,-5.9E0,3.1372805E-3,3.6606265E-4,4.70694E-3,6.7411205E-3,-7.259355E-4,2.7897265E-3,-4.3460974E-3,-1.6569296E-3],"split_indices":[28,80,77,51,25,25,25,0,0,0,0,0,0,0,0],"split_type":[0,0,0,0,0,0,0,0,0,0,0,0,0,0,0],"sum_hessian":[6.817852E3,4.772991E3,2.0448607E3,3.4168435E3,1.3561476E3,6.4347144E2,1.4013892E3,1.6208717E3,1.7959719E3,9.0629297E2,4.498546E2,3.339986E2,3.0947287E2,5.964211E2,8.049681E2],"tree_param":{"num_deleted":"0","num_feature":"106","num_nodes":"15","size_leaf_vector":"1"}},{"base_weights":[-1.4152409E-1,1.07299484E-1,-2.983957E-1,-1.4484943E-1,2.2326937E-1,-8.456561E-2,-4.2478594E-1,6.459488E-4,-3.0928834E-3,6.7911606E-4,3.4472106E-3,-2.2864062E-3,4.6514513E-4,-3.1608902E-3,-5.522405E-3],"categories":[],"categories_nodes":[],"categories_segments":[],"categories_sizes":[],"default_left":[0,0,0,0,0,0,0,0,0,0,0,0,0,0,0],"id":8,"left_children":[1,3,5,7,9,11,13,-1,-1,-1,-1,-1,-1,-1,-1],"loss_changes":[2.661755E2,7.714895E1,1.12990875E2,2.8654701E1,3.4068077E1,2.9375423E1,3.623706E1,0E0,0E0,0E0,0E0,0E0,0E0,0E0,0E0],"parents":[2147483647,0,0,1,1,2,2,3,3,4,4,5,5,6,6],"right_children":[2,4,6,8,10,12,14,-1,-1,-1,-1,-1,-1,-1,-1],"split_conditions":[4.68E-1,-2E0,1.1E1,-4.8E0,2.4E1,9E0,2E1,6.459488E-4,-3.0928834E-3,6.7911606E-4,3.4472106E-3,-2.2864062E-3,4.6514513E-4,-3.1608902E-3,-5.522405E-3],"split_indices":[3,77,103,25,51,51,80,0,0,0,0,0,0,0,0],"split_type":[0,0,0,0,0,0,0,0,0,0,0,0,0,0,0],"sum_hessian":[6.8173613E3,2.6362156E3,4.1811455E3,8.304187E2,1.8057969E3,1.5538958E3,2.6272498E3,3.6549646E2,4.6492224E2,7.929876E2,1.0128093E3,7.3989996E2,8.139958E2,1.4198451E3,1.2074045E3],"tree_param":{"num_deleted":"0","num_feature":"106","num_nodes":"15","size_leaf_vector":"1"}},{"base_weights":[1.4152408E-1,-1.0729951E-1,2.983957E-1,1.4484943E-1,-2.232694E-1,8.45656E-2,4.247859E-1,-6.45948E-4,3.092883E-3,-6.7911594E-4,-3.4472113E-3,2.2864062E-3,-4.651452E-4,3.1608897E-3,5.522405E-3],"categories":[],"categories_nodes":[],"categories_segments":[],"categories_sizes":[],"default_left":[0,0,0,0,0,0,0,0,0,0,0,0,0,0,0],"id":9,"left_children":[1,3,5,7,9,11,13,-1,-1,-1,-1,-1,-1,-1,-1],"loss_changes":[2.6617554E2,7.714897E1,1.12990906E2,2.8654678E1,3.40681E1,2.937542E1,3.6237E1,0E0,0E0,0E0,0E0,0E0,0E0,0E0,0E0],"parents":[2147483647,0,0,1,1,2,2,3,3,4,4,5,5,6,6],"right_children":[2,4,6,8,10,12,14,-1,-1,-1,-1,-1,-1,-1,-1],"split_conditions":[4.68E-1,-2E0,1.1E1,-4.8E0,2.4E1,9E0,2E1,-6.45948E-4,3.092883E-3,-6.7911594E-4,-3.4472113E-3,2.2864062E-3,-4.651452E-4,3.1608897E-3,5.522405E-3],"split_indices":[3,77,103,25,51,51,80,0,0,0,0,0,0,0,0],"split_type":[0,0,0,0,0,0,0,0,0,0,0,0,0,0,0],"sum_hessian":[6.8173613E3,2.6362156E3,4.1811455E3,8.304187E2,1.8057969E3,1.5538958E3,2.6272498E3,3.654965E2,4.6492224E2,7.929876E2,1.01280927E3,7.3989996E2,8.139958E2,1.4198452E3,1.2074045E3],"tree_param":{"num_deleted":"0","num_feature":"106","num_nodes":"15","size_leaf_vector":"1"}},{"base_weights":[-1.4012314E-1,-2.6819584E-1,1.5878178E-1,-1.6485661E-1,-5.2834684E-1,-9.4525225E-2,2.7508378E-1,-3.0807322E-3,-3.5518277E-4,-4.6121986E-3,-6.6228644E-3,7.122634E-4,-2.7309062E-3,4.269509E-3,1.6219136E-3],"categories":[],"categories_nodes":[],"categories_segments":[],"categories_sizes":[],"default_left":[0,0,0,0,0,0,0,0,0,0,0,0,0,0,0],"id":10,"left_children":[1,3,5,7,9,11,13,-1,-1,-1,-1,-1,-1,-1,-1],"loss_changes":[2.610361E2,1.2823242E2,6.0290184E1,6.3294357E1,1.1891052E1,1.9092777E1,2.3970917E1,0E0,0E0,0E0,0E0,0E0,0E0,0E0,0E0],"parents":[2147483647,0,0,1,1,2,2,3,3,4,4,5,5,6,6],"right_children":[2,4,6,8,10,12,14,-1,-1,-1,-1,-1,-1,-1,-1],"split_conditions":[2E1,2E1,-2E0,1E1,3.9E0,-4.8E0,-5.9E0,-3.0807322E-3,-3.5518277E-4,-4.6121986E-3,-6.6228644E-3,7.122634E-4,-2.7309062E-3,4.269509E-3,1.6219136E-3],"split_indices":[28,80,77,51,25,25,25,0,0,0,0,0,0,0,0],"split_type":[0,0,0,0,0,0,0,0,0,0,0,0,0,0,0],"sum_hessian":[6.816735E3,4.772115E3,2.0446199E3,3.4165857E3,1.3555294E3,6.434236E2,1.4011964E3,1.6206522E3,1.7959335E3,9.059399E2,4.495895E2,3.3399612E2,3.0942743E2,5.962783E2,8.04918E2],"tree_param":{"num_deleted":"0","num_feature":"106","num_nodes":"15","size_leaf_vector":"1"}},{"base_weights":[1.4012311E-1,2.681958E-1,-1.5878178E-1,1.6485658E-1,5.2834684E-1,9.4525225E-2,-2.7508375E-1,3.0807313E-3,3.5518268E-4,4.6121986E-3,6.622864E-3,-7.122634E-4,2.7309062E-3,-4.2695077E-3,-1.621914E-3],"categories":[],"categories_nodes":[],"categories_segments":[],"categories_sizes":[],"default_left":[0,0,0,0,0,0,0,0,0,0,0,0,0,0,0],"id":11,"left_children":[1,3,5,7,9,11,13,-1,-1,-1,-1,-1,-1,-1,-1],"loss_changes":[2.61036E2,1.2823242E2,6.0290173E1,6.3294334E1,1.1891052E1,1.9092777E1,2.3970901E1,0E0,0E0,0E0,0E0,0E0,0E0,0E0,0E0],"parents":[2147483647,0,0,1,1,2,2,3,3,4,4,5,5,6,6],"right_children":[2,4,6,8,10,12,14,-1,-1,-1,-1,-1,-1,-1,-1],"split_conditions":[2E1,2E1,-2E0,1E1,3.9E0,-4.8E0,-5.9E0,3.0807313E-3,3.5518268E-4,4.6121986E-3,6.622864E-3,-7.122634E-4,2.7309062E-3,-4.2695077E-3,-1.621914E-3],"split_indices":[28,80,77,51,25,25,25,0,0,0,0,0,0,0,0],"split_type":[0,0,0,0,0,0,0,0,0,0,0,0,0,0,0],"sum_hessian":[6.816735E3,4.772115E3,2.0446199E3,3.4165857E3,1.3555294E3,6.434236E2,1.4011964E3,1.6206522E3,1.7959333E3,9.059399E2,4.495895E2,3.3399612E2,3.0942743E2,5.962784E2,8.0491797E2],"tree_param":{"num_deleted":"0","num_feature":"106","num_nodes":"15","size_leaf_vector":"1"}},{"base_weights":[-1.3873895E-1,1.0535559E-1,-2.926473E-1,-1.4193219E-1,2.1909173E-1,-8.193533E-2,-4.1722918E-1,6.3477963E-4,-3.0323442E-3,6.660939E-4,3.3832053E-3,-1.5418865E-3,1.7093385E-3,-3.3803459E-3,-5.848823E-3],"categories":[],"categories_nodes":[],"categories_segments":[],"categories_sizes":[],"default_left":[0,0,0,0,0,0,0,0,0,0,0,0,0,0,0],"id":12,"left_children":[1,3,5,7,9,11,13,-1,-1,-1,-1,-1,-1,-1,-1],"loss_changes":[2.5613257E2,7.419464E1,1.0972366E2,2.756352E1,3.2821106E1,2.8433155E1,3.4685913E1,0E0,0E0,0E0,0E0,0E0,0E0,0E0,0E0],"parents":[2147483647,0,0,1,1,2,2,3,3,4,4,5,5,6,6],"right_children":[2,4,6,8,10,12,14,-1,-1,-1,-1,-1,-1,-1,-1],"split_conditions":[4.68E-1,-2E0,1.1E1,-4.8E0,2.4E1,1.5E1,2.3E1,6.3477963E-4,-3.0323442E-3,6.660939E-4,3.3832053E-3,-1.5418865E-3,1.7093385E-3,-3.3803459E-3,-5.848823E-3],"split_indices":[3,77,103,25,51,51,80,0,0,0,0,0,0,0,0],"split_type":[0,0,0,0,0,0,0,0,0,0,0,0,0,0,0],"sum_hessian":[6.8159834E3,2.6358738E3,4.18011E3,8.303215E2,1.8055524E3,1.5537786E3,2.626331E3,3.6549228E2,4.6482922E2,7.929733E2,1.0125791E3,1.2087794E3,3.449991E2,1.7857909E3,8.4054034E2],"tree_param":{"num_deleted":"0","num_feature":"106","num_nodes":"15","size_leaf_vector":"1"}},{"base_weights":[1.3873895E-1,-1.05355605E-1,2.9264733E-1,1.4193216E-1,-2.1909173E-1,8.193533E-2,4.1722918E-1,-6.3478044E-4,3.0323446E-3,-6.660939E-4,-3.3832053E-3,1.5418865E-3,-1.7093385E-3,3.380346E-3,5.848823E-3],"categories":[],"categories_nodes":[],"categories_segments":[],"categories_sizes":[],"default_left":[0,0,0,0,0,0,0,0,0,0,0,0,0,0,0],"id":13,"left_children":[1,3,5,7,9,11,13,-1,-1,-1,-1,-1,-1,-1,-1],"loss_changes":[2.5613257E2,7.4194626E1,1.09723694E2,2.7563538E1,3.2821114E1,2.8433155E1,3.4685913E1,0E0,0E0,0E0,0E0,0E0,0E0,0E0,0E0],"parents":[2147483647,0,0,1,1,2,2,3,3,4,4,5,5,6,6],"right_children":[2,4,6,8,10,12,14,-1,-1,-1,-1,-1,-1,-1,-1],"split_conditions":[4.68E-1,-2E0,1.1E1,-4.8E0,2.4E1,1.5E1,2.3E1,-6.3478044E-4,3.0323446E-3,-6.660939E-4,-3.3832053E-3,1.5418865E-3,-1.7093385E-3,3.380346E-3,5.848823E-3],"split_indices":[3,77,103,25,51,51,80,0,0,0,0,0,0,0,0],"split_type":[0,0,0,0,0,0,0,0,0,0,0,0,0,0,0],"sum_hessian":[6.8159834E3,2.635874E3,4.18011E3,8.303215E2,1.8055525E3,1.5537786E3,2.626331E3,3.6549225E2,4.6482922E2,7.929733E2,1.0125791E3,1.2087794E3,3.449991E2,1.7857909E3,8.405403E2],"tree_param":{"num_deleted":"0","num_feature":"106","num_nodes":"15","size_leaf_vector":"1"}},{"base_weights":[-1.3737008E-1,-2.6303336E-1,1.5588482E-1,-1.5466481E-1,-5.0241345E-1,-4.7258437E-3,3.325032E-1,-3.0082637E-3,-2.2184636E-4,-4.38465E-3,-6.2841033E-3,1.6008312E-3,-1.8546615E-3,4.8415437E-3,2.3183397E-3],"categories":[],"categories_nodes":[],"categories_segments":[],"categories_sizes":[],"default_left":[0,0,0,0,0,0,0,0,0,0,0,0,0,0,0],"id":14,"left_children":[1,3,5,7,9,11,13,-1,-1,-1,-1,-1,-1,-1,-1],"loss_changes":[2.512247E2,1.2371039E2,5.8019283E1,6.3626778E1,1.1702484E1,3.1966875E1,1.4759048E1,0E0,0E0,0E0,0E0,0E0,0E0,0E0,0E0],"parents":[2147483647,0,0,1,1,2,2,3,3,4,4,5,5,6,6],"right_children":[2,4,6,8,10,12,14,-1,-1,-1,-1,-1,-1,-1,-1],"split_conditions":[2E1,1.9E1,5.14E-1,1E1,3.9E0,-4.9E0,-6E0,-3.0082637E-3,-2.2184636E-4,-4.38465E-3,-6.2841033E-3,1.6008312E-3,-1.8546615E-3,4.8415437E-3,2.3183397E-3],"split_indices":[28,80,55,51,25,25,25,0,0,0,0,0,0,0,0],"split_type":[0,0,0,0,0,0,0,0,0,0,0,0,0,0,0],"sum_hessian":[6.8151284E3,4.77086E3,2.0442683E3,3.285255E3,1.4856051E3,1.071163E3,9.7310535E2,1.5613698E3,1.7238851E3,9.884217E2,4.9718344E2,5.60334E2,5.1082904E2,3.8672366E2,5.8638165E2],"tree_param":{"num_deleted":"0","num_feature":"106","num_nodes":"15","size_leaf_vector":"1"}},{"base_weights":[1.3737005E-1,2.6303333E-1,-1.5588485E-1,1.5466477E-1,5.0241345E-1,4.7257994E-3,-3.3250323E-1,3.0082634E-3,2.2184582E-4,4.38465E-3,6.2841033E-3,-1.6008317E-3,1.854661E-3,-4.841545E-3,-2.3183392E-3],"categories":[],"categories_nodes":[],"categories_segments":[],"categories_sizes":[],"default_left":[0,0,0,0,0,0,0,0,0,0,0,0,0,0,0],"id":15,"left_children":[1,3,5,7,9,11,13,-1,-1,-1,-1,-1,-1,-1,-1],"loss_changes":[2.5122469E2,1.2371045E2,5.8019276E1,6.3626762E1,1.1702484E1,3.1966883E1,1.4759056E1,0E0,0E0,0E0,0E0,0E0,0E0,0E0,0E0],"parents":[2147483647,0,0,1,1,2,2,3,3,4,4,5,5,6,6],"right_children":[2,4,6,8,10,12,14,-1,-1,-1,-1,-1,-1,-1,-1],"split_conditions":[2E1,1.9E1,5.14E-1,1E1,3.9E0,-4.9E0,-6E0,3.0082634E-3,2.2184582E-4,4.38465E-3,6.2841033E-3,-1.6008317E-3,1.854661E-3,-4.841545E-3,-2.3183392E-3],"split_indices":[28,80,55,51,25,25,25,0,0,0,0,0,0,0,0],"split_type":[0,0,0,0,0,0,0,0,0,0,0,0,0,0,0],"sum_hessian":[6.8151284E3,4.77086E3,2.0442684E3,3.285255E3,1.4856051E3,1.0711631E3,9.7310535E2,1.5613698E3,1.7238851E3,9.884217E2,4.9718344E2,5.60334E2,5.1082907E2,3.8672366E2,5.8638165E2],"tree_param":{"num_deleted":"0","num_feature":"106","num_nodes":"15","size_leaf_vector":"1"}},{"base_weights":[-1.360167E-1,1.0344877E-1,-2.870312E-1,-1.397478E-1,2.1530601E-1,-3.974141E-1,-5.5407852E-2,6.156351E-4,-2.9786455E-3,6.5557193E-4,3.3242872E-3,-2.9720764E-3,-5.3142747E-3,7.758881E-4,-1.8535748E-3],"categories":[],"categories_nodes":[],"categories_segments":[],"categories_sizes":[],"default_left":[0,0,0,0,0,0,0,0,0,0,0,0,0,0,0],"id":16,"left_children":[1,3,5,7,9,11,13,-1,-1,-1,-1,-1,-1,-1,-1],"loss_changes":[2.4648506E2,7.174993E1,1.06842224E2,2.6475948E1,3.1657845E1,3.7853607E1,2.3349276E1,0E0,0E0,0E0,0E0,0E0,0E0,0E0,0E0],"parents":[2147483647,0,0,1,1,2,2,3,3,4,4,5,5,6,6],"right_children":[2,4,6,8,10,12,14,-1,-1,-1,-1,-1,-1,-1,-1],"split_conditions":[4.68E-1,-2E0,2.9E0,-4.8E0,2.4E1,2E1,3.2E0,6.156351E-4,-2.9786455E-3,6.5557193E-4,3.3242872E-3,-2.9720764E-3,-5.3142747E-3,7.758881E-4,-1.8535748E-3],"split_indices":[3,77,77,25,51,80,25,0,0,0,0,0,0,0,0],"split_type":[0,0,0,0,0,0,0,0,0,0,0,0,0,0,0],"sum_hessian":[6.8141704E3,2.6354392E3,4.1787314E3,8.301983E2,1.8052408E3,2.8295566E3,1.3491748E3,3.654829E2,4.6471542E2,7.9295593E2,1.0122849E3,1.6208264E3,1.2087302E3,6.669694E2,6.8220544E2],"tree_param":{"num_deleted":"0","num_feature":"106","num_nodes":"15","size_leaf_vector":"1"}},{"base_weights":[1.3601671E-1,-1.0344876E-1,2.8703123E-1,1.3974783E-1,-2.1530603E-1,3.974141E-1,5.5407908E-2,-6.156353E-4,2.9786462E-3,-6.5557193E-4,-3.3242872E-3,2.9720764E-3,5.314274E-3,-7.758878E-4,1.8535757E-3],"categories":[],"categories_nodes":[],"categories_segments":[],"categories_sizes":[],"default_left":[0,0,0,0,0,0,0,0,0,0,0,0,0,0,0],"id":17,"left_children":[1,3,5,7,9,11,13,-1,-1,-1,-1,-1,-1,-1,-1],"loss_changes":[2.4648508E2,7.174994E1,1.0684219E2,2.6475971E1,3.1657845E1,3.7853607E1,2.3349285E1,0E0,0E0,0E0,0E0,0E0,0E0,0E0,0E0],"parents":[2147483647,0,0,1,1,2,2,3,3,4,4,5,5,6,6],"right_children":[2,4,6,8,10,12,14,-1,-1,-1,-1,-1,-1,-1,-1],"split_conditions":[4.68E-1,-2E0,2.9E0,-4.8E0,2.4E1,2E1,3.2E0,-6.156353E-4,2.9786462E-3,-6.5557193E-4,-3.3242872E-3,2.9720764E-3,5.314274E-3,-7.758878E-4,1.8535757E-3],"split_indices":[3,77,77,25,51,80,25,0,0,0,0,0,0,0,0],"split_type":[0,0,0,0,0,0,0,0,0,0,0,0,0,0,0],"sum_hessian":[6.8141704E3,2.6354392E3,4.1787314E3,8.301983E2,1.8052408E3,2.8295566E3,1.3491748E3,3.654829E2,4.647154E2,7.929559E2,1.0122849E3,1.6208264E3,1.2087302E3,6.6696936E2,6.822054E2],"tree_param":{"num_deleted":"0","num_feature":"106","num_nodes":"15","size_leaf_vector":"1"}},{"base_weights":[-1.3467963E-1,-2.5799376E-1,1.5305397E-1,-1.0936884E-1,-4.2667228E-1,-5.031251E-3,3.2692072E-1,-2.5313383E-3,2.2468848E-4,-5.9032566E-3,-3.5541845E-3,1.5675107E-3,-1.8245354E-3,4.7630426E-3,2.277931E-3],"categories":[],"categories_nodes":[],"categories_segments":[],"categories_sizes":[],"default_left":[0,0,0,0,0,0,0,0,0,0,0,0,0,0,0],"id":18,"left_children":[1,3,5,7,9,11,13,-1,-1,-1,-1,-1,-1,-1,-1],"loss_changes":[2.418138E2,1.19542114E2,5.6205807E1,4.8094826E1,2.5841003E1,3.0799515E1,1.4312012E1,0E0,0E0,0E0,0E0,0E0,0E0,0E0,0E0],"parents":[2147483647,0,0,1,1,2,2,3,3,4,4,5,5,6,6],"right_children":[2,4,6,8,10,12,14,-1,-1,-1,-1,-1,-1,-1,-1],"split_conditions":[2E1,1.4E1,5.14E-1,1E1,7E0,-4.9E0,-6E0,-2.5313383E-3,2.2468848E-4,-5.9032566E-3,-3.5541845E-3,1.5675107E-3,-1.8245354E-3,4.7630426E-3,2.277931E-3],"split_indices":[28,80,55,51,51,25,25,0,0,0,0,0,0,0,0],"split_type":[0,0,0,0,0,0,0,0,0,0,0,0,0,0,0],"sum_hessian":[6.8130728E3,4.7692266E3,2.0438463E3,2.5361975E3,2.233029E3,1.0710157E3,9.728306E2,1.2127788E3,1.3234186E3,6.751297E2,1.5578994E3,5.602599E2,5.1075583E2,3.865308E2,5.8629987E2],"tree_param":{"num_deleted":"0","num_feature":"106","num_nodes":"15","size_leaf_vector":"1"}},{"base_weights":[1.3467962E-1,2.5799373E-1,-1.5305395E-1,1.09368786E-1,4.2667228E-1,5.0312644E-3,-3.2692072E-1,2.5313378E-3,-2.2468882E-4,5.9032566E-3,3.5541845E-3,-1.5675103E-3,1.8245355E-3,-4.763043E-3,-2.2779307E-3],"categories":[],"categories_nodes":[],"categories_segments":[],"categories_sizes":[],"default_left":[0,0,0,0,0,0,0,0,0,0,0,0,0,0,0],"id":19,"left_children":[1,3,5,7,9,11,13,-1,-1,-1,-1,-1,-1,-1,-1],"loss_changes":[2.4181377E2,1.19542145E2,5.6205814E1,4.809481E1,2.5841064E1,3.0799513E1,1.4312027E1,0E0,0E0,0E0,0E0,0E0,0E0,0E0,0E0],"parents":[2147483647,0,0,1,1,2,2,3,3,4,4,5,5,6,6],"right_children":[2,4,6,8,10,12,14,-1,-1,-1,-1,-1,-1,-1,-1],"split_conditions":[2E1,1.4E1,5.14E-1,1E1,7E0,-4.9E0,-6E0,2.5313378E-3,-2.2468882E-4,5.9032566E-3,3.5541845E-3,-1.5675103E-3,1.8245355E-3,-4.763043E-3,-2.2779307E-3],"split_indices":[28,80,55,51,51,25,25,0,0,0,0,0,0,0,0],"split_type":[0,0,0,0,0,0,0,0,0,0,0,0,0,0,0],"sum_hessian":[6.8130728E3,4.7692266E3,2.0438463E3,2.5361973E3,2.233029E3,1.0710157E3,9.728306E2,1.2127788E3,1.3234186E3,6.7512964E2,1.5578994E3,5.602599E2,5.1075583E2,3.865308E2,5.862998E2],"tree_param":{"num_deleted":"0","num_feature":"106","num_nodes":"15","size_leaf_vector":"1"}},{"base_weights":[-1.3335627E-1,-3.243861E-1,4.9307596E-2,-4.2877474E-1,-1.1220605E-1,-2.0993668E-1,1.666595E-1,-3.5435185E-3,-6.0952795E-3,-2.0644537E-3,8.790827E-6,4.425995E-4,-3.4569548E-3,4.9350125E-4,3.1949612E-3],"categories":[],"categories_nodes":[],"categories_segments":[],"categories_sizes":[],"default_left":[0,0,0,0,0,0,0,0,0,0,0,0,0,0,0],"id":20,"left_children":[1,3,5,7,9,11,13,-1,-1,-1,-1,-1,-1,-1,-1],"loss_changes":[2.3774782E2,7.3716034E1,1.0601562E2,2.980661E1,1.1717979E1,3.749157E1,4.2989487E1,0E0,0E0,0E0,0E0,0E0,0E0,0E0,0E0],"parents":[2147483647,0,0,1,1,2,2,3,3,4,4,5,5,6,6],"right_children":[2,4,6,8,10,12,14,-1,-1,-1,-1,-1,-1,-1,-1],"split_conditions":[1.5E1,2.9E0,-2E0,2.3E1,1.15E1,-4.8E0,2.4E1,-3.5435185E-3,-6.0952795E-3,-2.0644537E-3,8.790827E-6,4.425995E-4,-3.4569548E-3,4.9350125E-4,3.1949612E-3],"split_indices":[51,77,77,80,60,25,51,0,0,0,0,0,0,0,0],"split_type":[0,0,0,0,0,0,0,0,0,0,0,0,0,0,0],"sum_hessian":[6.811924E3,3.3293328E3,3.4825913E3,2.2307998E3,1.0985331E3,1.0849716E3,2.3976196E3,1.582277E3,6.485227E2,5.9874457E2,4.9978854E2,3.7795587E2,7.070157E2,1.3572152E3,1.0404044E3],"tree_param":{"num_deleted":"0","num_feature":"106","num_nodes":"15","size_leaf_vector":"1"}},{"base_weights":[1.3335627E-1,3.243861E-1,-4.9307592E-2,4.2877474E-1,1.1220605E-1,2.0993668E-1,-1.6665949E-1,3.543518E-3,6.09528E-3,2.0644537E-3,-8.790832E-6,-4.4259924E-4,3.4569546E-3,-4.9350143E-4,-3.1949608E-3],"categories":[],"categories_nodes":[],"categories_segments":[],"categories_sizes":[],"default_left":[0,0,0,0,0,0,0,0,0,0,0,0,0,0,0],"id":21,"left_children":[1,3,5,7,9,11,13,-1,-1,-1,-1,-1,-1,-1,-1],"loss_changes":[2.3774783E2,7.3716064E1,1.060156E2,2.980658E1,1.17179785E1,3.7491566E1,4.298947E1,0E0,0E0,0E0,0E0,0E0,0E0,0E0,0E0],"parents":[2147483647,0,0,1,1,2,2,3,3,4,4,5,5,6,6],"right_children":[2,4,6,8,10,12,14,-1,-1,-1,-1,-1,-1,-1,-1],"split_conditions":[1.5E1,2.9E0,-2E0,2.3E1,1.15E1,-4.8E0,2.4E1,3.543518E-3,6.09528E-3,2.0644537E-3,-8.790832E-6,-4.4259924E-4,3.4569546E-3,-4.9350143E-4,-3.1949608E-3],"split_indices":[51,77,77,80,60,25,51,0,0,0,0,0,0,0,0],"split_type":[0,0,0,0,0,0,0,0,0,0,0,0,0,0,0],"sum_hessian":[6.811924E3,3.3293328E3,3.482591E3,2.2307998E3,1.0985331E3,1.0849716E3,2.3976196E3,1.582277E3,6.485227E2,5.9874457E2,4.9978854E2,3.7795587E2,7.070156E2,1.3572153E3,1.0404044E3],"tree_param":{"num_deleted":"0","num_feature":"106","num_nodes":"15","size_leaf_vector":"1"}},{"base_weights":[-1.3204896E-1,1.0091234E-1,-2.790061E-1,-1.3582097E-1,2.0980015E-1,-3.868966E-1,-5.277802E-2,5.9317745E-4,-2.8916162E-3,6.445988E-4,3.2353534E-3,-2.8899454E-3,-5.179628E-3,7.7354384E-4,-1.7996172E-3],"categories":[],"categories_nodes":[],"categories_segments":[],"categories_sizes":[],"default_left":[0,0,0,0,0,0,0,0,0,0,0,0,0,0,0],"id":22,"left_children":[1,3,5,7,9,11,13,-1,-1,-1,-1,-1,-1,-1,-1],"loss_changes":[2.3322781E2,6.79666E1,1.0193356E2,2.4881203E1,2.9826736E1,3.613965E1,2.2357195E1,0E0,0E0,0E0,0E0,0E0,0E0,0E0,0E0],"parents":[2147483647,0,0,1,1,2,2,3,3,4,4,5,5,6,6],"right_children":[2,4,6,8,10,12,14,-1,-1,-1,-1,-1,-1,-1,-1],"split_conditions":[4.68E-1,-2E0,2.9E0,-4.8E0,2.4E1,2E1,3.2E0,5.9317745E-4,-2.8916162E-3,6.445988E-4,3.2353534E-3,-2.8899454E-3,-5.179628E-3,7.7354384E-4,-1.7996172E-3],"split_indices":[3,77,77,25,51,80,25,0,0,0,0,0,0,0,0],"split_type":[0,0,0,0,0,0,0,0,0,0,0,0,0,0,0],"sum_hessian":[6.810668E3,2.6345713E3,4.1760967E3,8.299428E2,1.8046285E3,2.8271086E3,1.3489879E3,3.6546783E2,4.64475E2,7.9292725E2,1.0117013E3,1.6201305E3,1.2069781E3,6.669583E2,6.820296E2],"tree_param":{"num_deleted":"0","num_feature":"106","num_nodes":"15","size_leaf_vector":"1"}},{"base_weights":[1.3204896E-1,-1.0091235E-1,2.790061E-1,1.3582093E-1,-2.0980014E-1,3.868966E-1,5.277807E-2,-5.931783E-4,2.891616E-3,-6.445985E-4,-3.2353534E-3,2.8899454E-3,5.179628E-3,-7.7354355E-4,1.799618E-3],"categories":[],"categories_nodes":[],"categories_segments":[],"categories_sizes":[],"default_left":[0,0,0,0,0,0,0,0,0,0,0,0,0,0,0],"id":23,"left_children":[1,3,5,7,9,11,13,-1,-1,-1,-1,-1,-1,-1,-1],"loss_changes":[2.3322781E2,6.7966576E1,1.0193359E2,2.4881214E1,2.9826744E1,3.6139618E1,2.23572E1,0E0,0E0,0E0,0E0,0E0,0E0,0E0,0E0],"parents":[2147483647,0,0,1,1,2,2,3,3,4,4,5,5,6,6],"right_children":[2,4,6,8,10,12,14,-1,-1,-1,-1,-1,-1,-1,-1],"split_conditions":[4.68E-1,-2E0,2.9E0,-4.8E0,2.4E1,2E1,3.2E0,-5.931783E-4,2.891616E-3,-6.445985E-4,-3.2353534E-3,2.8899454E-3,5.179628E-3,-7.7354355E-4,1.799618E-3],"split_indices":[3,77,77,25,51,80,25,0,0,0,0,0,0,0,0],"split_type":[0,0,0,0,0,0,0,0,0,0,0,0,0,0,0],"sum_hessian":[6.810668E3,2.6345713E3,4.1760967E3,8.299428E2,1.8046285E3,2.8271086E3,1.3489879E3,3.6546783E2,4.64475E2,7.9292725E2,1.0117013E3,1.6201305E3,1.2069781E3,6.669583E2,6.8202966E2],"tree_param":{"num_deleted":"0","num_feature":"106","num_nodes":"15","size_leaf_vector":"1"}},{"base_weights":[-1.3075717E-1,-3.1854337E-1,4.8759893E-2,-4.210755E-1,-1.10268824E-1,-2.0569193E-1,1.6392279E-1,-3.4781091E-3,-5.991726E-3,-2.0354958E-3,1.6551774E-5,4.337281E-4,-3.3878398E-3,4.927385E-4,3.1335035E-3],"categories":[],"categories_nodes":[],"categories_segments":[],"categories_sizes":[],"default_left":[0,0,0,0,0,0,0,0,0,0,0,0,0,0,0],"id":24,"left_children":[1,3,5,7,9,11,13,-1,-1,-1,-1,-1,-1,-1,-1],"loss_changes":[2.2959464E2,7.103516E1,1.0208727E2,2.8891357E1,1.1478741E1,3.599917E1,4.1068108E1,0E0,0E0,0E0,0E0,0E0,0E0,0E0,0E0],"parents":[2147483647,0,0,1,1,2,2,3,3,4,4,5,5,6,6],"right_children":[2,4,6,8,10,12,14,-1,-1,-1,-1,-1,-1,-1,-1],"split_conditions":[1.5E1,2.9E0,-2E0,2.3E1,1.15E1,-4.8E0,2.4E1,-3.4781091E-3,-5.991726E-3,-2.0354958E-3,1.6551774E-5,4.337281E-4,-3.3878398E-3,4.927385E-4,3.1335035E-3],"split_indices":[51,77,77,80,60,25,51,0,0,0,0,0,0,0,0],"split_type":[0,0,0,0,0,0,0,0,0,0,0,0,0,0,0],"sum_hessian":[6.8092476E3,3.3275964E3,3.4816511E3,2.22917E3,1.0984265E3,1.0845524E3,2.3970989E3,1.5815245E3,6.476454E2,5.986638E2,4.9976273E2,3.77947E2,7.0660535E2,1.3571498E3,1.0399491E3],"tree_param":{"num_deleted":"0","num_feature":"106","num_nodes":"15","size_leaf_vector":"1"}},{"base_weights":[1.3075717E-1,3.1854337E-1,-4.8759878E-2,4.2107546E-1,1.1026882E-1,2.05692E-1,-1.6392279E-1,3.478109E-3,5.991726E-3,2.0354958E-3,-1.6551778E-5,-4.3372708E-4,3.38784E-3,-4.927386E-4,-3.1335035E-3],"categories":[],"categories_nodes":[],"categories_segments":[],"categories_sizes":[],"default_left":[0,0,0,0,0,0,0,0,0,0,0,0,0,0,0],"id":25,"left_children":[1,3,5,7,9,11,13,-1,-1,-1,-1,-1,-1,-1,-1],"loss_changes":[2.2959457E2,7.103519E1,1.0208731E2,2.8891327E1,1.1478742E1,3.5999157E1,4.10681E1,0E0,0E0,0E0,0E0,0E0,0E0,0E0,0E0],"parents":[2147483647,0,0,1,1,2,2,3,3,4,4,5,5,6,6],"right_children":[2,4,6,8,10,12,14,-1,-1,-1,-1,-1,-1,-1,-1],"split_conditions":[1.5E1,2.9E0,-2E0,2.3E1,1.15E1,-4.8E0,2.4E1,3.478109E-3,5.991726E-3,2.0354958E-3,-1.6551778E-5,-4.3372708E-4,3.38784E-3,-4.927386E-4,-3.1335035E-3],"split_indices":[51,77,77,80,60,25,51,0,0,0,0,0,0,0,0],"split_type":[0,0,0,0,0,0,0,0,0,0,0,0,0,0,0],"sum_hessian":[6.8092476E3,3.3275964E3,3.4816514E3,2.22917E3,1.0984265E3,1.0845524E3,2.3970989E3,1.5815245E3,6.476453E2,5.986638E2,4.9976273E2,3.77947E2,7.0660535E2,1.3571498E3,1.0399491E3],"tree_param":{"num_deleted":"0","num_feature":"106","num_nodes":"15","size_leaf_vector":"1"}},{"base_weights":[-1.2947953E-1,-3.1545788E-1,4.8278928E-2,-4.170495E-1,-1.0917305E-1,-1.8148829E-1,1.735553E-1,-3.444281E-3,-5.936815E-3,-2.0080511E-3,3.2226744E-5,6.1770075E-4,-3.1308783E-3,6.0276955E-4,3.2308956E-3],"categories":[],"categories_nodes":[],"categories_segments":[],"categories_sizes":[],"default_left":[0,0,0,0,0,0,0,0,0,0,0,0,0,0,0],"id":26,"left_children":[1,3,5,7,9,11,13,-1,-1,-1,-1,-1,-1,-1,-1],"loss_changes":[2.2510803E2,6.969006E1,1.00264206E2,2.8390137E1,1.1323176E1,3.936843E1,3.816131E1,0E0,0E0,0E0,0E0,0E0,0E0,0E0,0E0],"parents":[2147483647,0,0,1,1,2,2,3,3,4,4,5,5,6,6],"right_children":[2,4,6,8,10,12,14,-1,-1,-1,-1,-1,-1,-1,-1],"split_conditions":[1.5E1,2.9E0,-1.4E0,2.3E1,6E0,-4.8E0,2.4E1,-3.444281E-3,-5.936815E-3,-2.0080511E-3,3.2226744E-5,6.1770075E-4,-3.1308783E-3,6.0276955E-4,3.2308956E-3],"split_indices":[51,77,77,80,77,25,51,0,0,0,0,0,0,0,0],"split_type":[0,0,0,0,0,0,0,0,0,0,0,0,0,0,0],"sum_hessian":[6.8077744E3,3.326586E3,3.4811882E3,2.22821E3,1.0983759E3,1.2281715E3,2.2530168E3,1.5810989E3,6.4711127E2,6.046448E2,4.9373105E2,4.3135452E2,7.96817E2,1.2827124E3,9.703043E2],"tree_param":{"num_deleted":"0","num_feature":"106","num_nodes":"15","size_leaf_vector":"1"}},{"base_weights":[1.2947953E-1,3.1545785E-1,-4.827892E-2,4.170495E-1,1.0917303E-1,1.8148828E-1,-1.7355528E-1,3.4442812E-3,5.9368145E-3,2.008051E-3,-3.222702E-5,-6.177006E-4,3.130878E-3,-6.0276955E-4,-3.230895E-3],"categories":[],"categories_nodes":[],"categories_segments":[],"categories_sizes":[],"default_left":[0,0,0,0,0,0,0,0,0,0,0,0,0,0,0],"id":27,"left_children":[1,3,5,7,9,11,13,-1,-1,-1,-1,-1,-1,-1,-1],"loss_changes":[2.25108E2,6.969003E1,1.0026419E2,2.8390198E1,1.1323178E1,3.936842E1,3.8161285E1,0E0,0E0,0E0,0E0,0E0,0E0,0E0,0E0],"parents":[2147483647,0,0,1,1,2,2,3,3,4,4,5,5,6,6],"right_children":[2,4,6,8,10,12,14,-1,-1,-1,-1,-1,-1,-1,-1],"split_conditions":[1.5E1,2.9E0,-1.4E0,2.3E1,6E0,-4.8E0,2.4E1,3.4442812E-3,5.9368145E-3,2.008051E-3,-3.222702E-5,-6.177006E-4,3.130878E-3,-6.0276955E-4,-3.230895E-3],"split_indices":[51,77,77,80,77,25,51,0,0,0,0,0,0,0,0],"split_type":[0,0,0,0,0,0,0,0,0,0,0,0,0,0,0],"sum_hessian":[6.8077744E3,3.326586E3,3.4811882E3,2.2282102E3,1.0983759E3,1.2281715E3,2.2530168E3,1.5810989E3,6.4711127E2,6.046448E2,4.9373105E2,4.313545E2,7.96817E2,1.2827124E3,9.703044E2],"tree_param":{"num_deleted":"0","num_feature":"106","num_nodes":"15","size_leaf_vector":"1"}},{"base_weights":[-1.2821619E-1,-2.4628657E-1,1.4717077E-1,-1.5046576E-1,-4.883268E-1,-5.459927E-3,3.1509337E-1,-3.2233216E-3,-5.3416175E-4,-4.2442307E-3,-6.161212E-3,1.4888246E-3,-1.7475588E-3,4.633969E-3,2.2152325E-3],"categories":[],"categories_nodes":[],"categories_segments":[],"categories_sizes":[],"default_left":[0,0,0,0,0,0,0,0,0,0,0,0,0,0,0],"id":28,"left_children":[1,3,5,7,9,11,13,-1,-1,-1,-1,-1,-1,-1,-1],"loss_changes":[2.2137274E2,1.1043506E2,5.237334E1,5.694232E1,1.0770782E1,2.8021265E1,1.3398872E1,0E0,0E0,0E0,0E0,0E0,0E0,0E0,0E0],"parents":[2147483647,0,0,1,1,2,2,3,3,4,4,5,5,6,6],"right_children":[2,4,6,8,10,12,14,-1,-1,-1,-1,-1,-1,-1,-1],"split_conditions":[2E1,2E1,5.14E-1,7E0,3.9E0,-4.9E0,-6.1E0,-3.2233216E-3,-5.3416175E-4,-4.2442307E-3,-6.161212E-3,1.4888246E-3,-1.7475588E-3,4.633969E-3,2.2152325E-3],"split_indices":[28,80,55,27,25,25,25,0,0,0,0,0,0,0,0],"split_type":[0,0,0,0,0,0,0,0,0,0,0,0,0,0,0],"sum_hessian":[6.806202E3,4.7638413E3,2.0423606E3,3.4139294E3,1.349912E3,1.0704022E3,9.719584E2,1.2312213E3,2.182708E3,9.0279156E2,4.4712048E2,5.599929E2,5.1040927E2,3.7447827E2,5.974801E2],"tree_param":{"num_deleted":"0","num_feature":"106","num_nodes":"15","size_leaf_vector":"1"}},{"base_weights":[1.2821618E-1,2.4628657E-1,-1.4717081E-1,1.5046576E-1,4.8832676E-1,5.4598986E-3,-3.1509343E-1,3.2233219E-3,5.3416163E-4,4.2442307E-3,6.161212E-3,-1.4888246E-3,1.7475582E-3,-4.63397E-3,-2.2152325E-3],"categories":[],"categories_nodes":[],"categories_segments":[],"categories_sizes":[],"default_left":[0,0,0,0,0,0,0,0,0,0,0,0,0,0,0],"id":29,"left_children":[1,3,5,7,9,11,13,-1,-1,-1,-1,-1,-1,-1,-1],"loss_changes":[2.2137279E2,1.1043503E2,5.2373352E1,5.6942337E1,1.0770813E1,2.8021257E1,1.3398888E1,0E0,0E0,0E0,0E0,0E0,0E0,0E0,0E0],"parents":[2147483647,0,0,1,1,2,2,3,3,4,4,5,5,6,6],"right_children":[2,4,6,8,10,12,14,-1,-1,-1,-1,-1,-1,-1,-1],"split_conditions":[2E1,2E1,5.14E-1,7E0,3.9E0,-4.9E0,-6.1E0,3.2233219E-3,5.3416163E-4,4.2442307E-3,6.161212E-3,-1.4888246E-3,1.7475582E-3,-4.63397E-3,-2.2152325E-3],"split_indices":[28,80,55,27,25,25,25,0,0,0,0,0,0,0,0],"split_type":[0,0,0,0,0,0,0,0,0,0,0,0,0,0,0],"sum_hessian":[6.806202E3,4.7638413E3,2.0423606E3,3.4139294E3,1.3499121E3,1.0704022E3,9.719584E2,1.2312213E3,2.182708E3,9.0279156E2,4.4712048E2,5.599929E2,5.1040927E2,3.7447827E2,5.974801E2],"tree_param":{"num_deleted":"0","num_feature":"106","num_nodes":"15","size_leaf_vector":"1"}},{"base_weights":[-1.2696584E-1,-3.0973974E-1,4.766882E-2,-4.100351E-1,-1.0623864E-1,-2.00482E-1,1.5994957E-1,-3.3873993E-3,-5.836434E-3,-1.9856424E-3,4.5206656E-5,4.1249287E-4,-3.2976486E-3,4.8656168E-4,3.05104E-3],"categories":[],"categories_nodes":[],"categories_segments":[],"categories_sizes":[],"default_left":[0,0,0,0,0,0,0,0,0,0,0,0,0,0,0],"id":30,"left_children":[1,3,5,7,9,11,13,-1,-1,-1,-1,-1,-1,-1,-1],"loss_changes":[2.1723953E2,6.782919E1,9.702568E1,2.7369568E1,1.1241298E1,3.3918015E1,3.87123E1,0E0,0E0,0E0,0E0,0E0,0E0,0E0,0E0],"parents":[2147483647,0,0,1,1,2,2,3,3,4,4,5,5,6,6],"right_children":[2,4,6,8,10,12,14,-1,-1,-1,-1,-1,-1,-1,-1],"split_conditions":[1.5E1,2.9E0,-2E0,2.3E1,1.15E1,-4.8E0,2.4E1,-3.3873993E-3,-5.836434E-3,-1.9856424E-3,4.5206656E-5,4.1249287E-4,-3.2976486E-3,4.8656168E-4,3.05104E-3],"split_indices":[51,77,77,80,60,25,51,0,0,0,0,0,0,0,0],"split_type":[0,0,0,0,0,0,0,0,0,0,0,0,0,0,0],"sum_hessian":[6.804574E3,3.3244292E3,3.480145E3,2.2262222E3,1.0982068E3,1.0838815E3,2.3962634E3,1.580227E3,6.4599524E2,5.985123E2,4.9969452E2,3.7792453E2,7.05957E2,1.3570873E3,1.0391763E3],"tree_param":{"num_deleted":"0","num_feature":"106","num_nodes":"15","size_leaf_vector":"1"}},{"base_weights":[1.2696585E-1,3.0973974E-1,-4.766881E-2,4.1003507E-1,1.0623863E-1,2.0048197E-1,-1.5994956E-1,3.3873993E-3,5.836434E-3,1.9856424E-3,-4.5206736E-5,-4.124929E-4,3.2976484E-3,-4.865614E-4,-3.05104E-3],"categories":[],"categories_nodes":[],"categories_segments":[],"categories_sizes":[],"default_left":[0,0,0,0,0,0,0,0,0,0,0,0,0,0,0],"id":31,"left_children":[1,3,5,7,9,11,13,-1,-1,-1,-1,-1,-1,-1,-1],"loss_changes":[2.1723953E2,6.782919E1,9.7025665E1,2.7369568E1,1.1241299E1,3.3918007E1,3.871231E1,0E0,0E0,0E0,0E0,0E0,0E0,0E0,0E0],"parents":[2147483647,0,0,1,1,2,2,3,3,4,4,5,5,6,6],"right_children":[2,4,6,8,10,12,14,-1,-1,-1,-1,-1,-1,-1,-1],"split_conditions":[1.5E1,2.9E0,-2E0,2.3E1,1.15E1,-4.8E0,2.4E1,3.3873993E-3,5.836434E-3,1.9856424E-3,-4.5206736E-5,-4.124929E-4,3.2976484E-3,-4.865614E-4,-3.05104E-3],"split_indices":[51,77,77,80,60,25,51,0,0,0,0,0,0,0,0],"split_type":[0,0,0,0,0,0,0,0,0,0,0,0,0,0,0],"sum_hessian":[6.804574E3,3.3244292E3,3.480145E3,2.2262222E3,1.0982068E3,1.0838815E3,2.3962634E3,1.580227E3,6.4599524E2,5.985123E2,4.9969452E2,3.7792453E2,7.05957E2,1.3570873E3,1.0391763E3],"tree_param":{"num_deleted":"0","num_feature":"106","num_nodes":"15","size_leaf_vector":"1"}},{"base_weights":[-1.2573081E-1,-2.4170989E-1,1.4472282E-1,-1.00892685E-1,-4.019088E-1,-5.468728E-3,3.1000212E-1,-2.382893E-3,2.499462E-4,-5.5994503E-3,-3.3322158E-3,1.4590436E-3,-1.7151973E-3,4.5617996E-3,2.1782925E-3],"categories":[],"categories_nodes":[],"categories_segments":[],"categories_sizes":[],"default_left":[0,0,0,0,0,0,0,0,0,0,0,0,0,0,0],"id":32,"left_children":[1,3,5,7,9,11,13,-1,-1,-1,-1,-1,-1,-1,-1],"loss_changes":[2.134497E2,1.0738812E2,5.070715E1,4.3865234E1,2.3992401E1,2.6948973E1,1.3003586E1,0E0,0E0,0E0,0E0,0E0,0E0,0E0,0E0],"parents":[2147483647,0,0,1,1,2,2,3,3,4,4,5,5,6,6],"right_children":[2,4,6,8,10,12,14,-1,-1,-1,-1,-1,-1,-1,-1],"split_conditions":[2E1,1.4E1,5.14E-1,1E1,7E0,-4.9E0,-6.1E0,-2.382893E-3,2.499462E-4,-5.5994503E-3,-3.3322158E-3,1.4590436E-3,-1.7151973E-3,4.5617996E-3,2.1782925E-3],"split_indices":[28,80,55,51,51,25,25,0,0,0,0,0,0,0,0],"split_type":[0,0,0,0,0,0,0,0,0,0,0,0,0,0,0],"sum_hessian":[6.8028057E3,4.761171E3,2.0416345E3,2.534733E3,2.226438E3,1.0701456E3,9.7148895E2,1.2115372E3,1.3231957E3,6.723455E2,1.5540925E3,5.598785E2,5.1026718E2,3.741585E2,5.9733044E2],"tree_param":{"num_deleted":"0","num_feature":"106","num_nodes":"15","size_leaf_vector":"1"}},{"base_weights":[1.2573081E-1,2.4170989E-1,-1.4472279E-1,1.0089266E-1,4.019088E-1,5.468775E-3,-3.1000212E-1,2.3828926E-3,-2.4994623E-4,5.599451E-3,3.332216E-3,-1.4590432E-3,1.7151983E-3,-4.5617996E-3,-2.178292E-3],"categories":[],"categories_nodes":[],"categories_segments":[],"categories_sizes":[],"default_left":[0,0,0,0,0,0,0,0,0,0,0,0,0,0,0],"id":33,"left_children":[1,3,5,7,9,11,13,-1,-1,-1,-1,-1,-1,-1,-1],"loss_changes":[2.1344969E2,1.0738815E2,5.070716E1,4.386522E1,2.3992401E1,2.6948982E1,1.3003601E1,0E0,0E0,0E0,0E0,0E0,0E0,0E0,0E0],"parents":[2147483647,0,0,1,1,2,2,3,3,4,4,5,5,6,6],"right_children":[2,4,6,8,10,12,14,-1,-1,-1,-1,-1,-1,-1,-1],"split_conditions":[2E1,1.4E1,5.14E-1,1E1,7E0,-4.9E0,-6.1E0,2.3828926E-3,-2.4994623E-4,5.599451E-3,3.332216E-3,-1.4590432E-3,1.7151983E-3,-4.5617996E-3,-2.178292E-3],"split_indices":[28,80,55,51,51,25,25,0,0,0,0,0,0,0,0],"split_type":[0,0,0,0,0,0,0,0,0,0,0,0,0,0,0],"sum_hessian":[6.8028057E3,4.761171E3,2.0416346E3,2.534733E3,2.226438E3,1.0701456E3,9.71489E2,1.2115372E3,1.3231957E3,6.723455E2,1.5540924E3,5.598785E2,5.1026715E2,3.741585E2,5.9733044E2],"tree_param":{"num_deleted":"0","num_feature":"106","num_nodes":"15","size_leaf_vector":"1"}},{"base_weights":[-1.24507464E-1,9.634308E-2,-2.6393807E-1,-1.2807646E-1,1.9957122E-1,-3.6751312E-1,-4.7204994E-2,5.496792E-4,-2.7211055E-3,6.281426E-4,3.067445E-3,-2.7447697E-3,-4.9241898E-3,7.8501075E-4,-1.7013861E-3],"categories":[],"categories_nodes":[],"categories_segments":[],"categories_sizes":[],"default_left":[0,0,0,0,0,0,0,0,0,0,0,0,0,0,0],"id":34,"left_children":[1,3,5,7,9,11,13,-1,-1,-1,-1,-1,-1,-1,-1],"loss_changes":[2.0948178E2,6.1026028E1,9.358829E1,2.1902946E1,2.6420525E1,3.265103E1,2.0868118E1,0E0,0E0,0E0,0E0,0E0,0E0,0E0,0E0],"parents":[2147483647,0,0,1,1,2,2,3,3,4,4,5,5,6,6],"right_children":[2,4,6,8,10,12,14,-1,-1,-1,-1,-1,-1,-1,-1],"split_conditions":[4.68E-1,-2E0,2.9E0,-4.8E0,2.4E1,2E1,3.2E0,5.496792E-4,-2.7211055E-3,6.281426E-4,3.067445E-3,-2.7447697E-3,-4.9241898E-3,7.8501075E-4,-1.7013861E-3],"split_indices":[3,77,77,25,51,80,25,0,0,0,0,0,0,0,0],"split_type":[0,0,0,0,0,0,0,0,0,0,0,0,0,0,0],"sum_hessian":[6.8010054E3,2.6321428E3,4.168863E3,8.2920276E2,1.80294E3,2.8203457E3,1.3485168E3,3.6542462E2,4.6377814E2,7.9283734E2,1.0101026E3,1.6182157E3,1.2021301E3,6.669188E2,6.81598E2],"tree_param":{"num_deleted":"0","num_feature":"106","num_nodes":"15","size_leaf_vector":"1"}},{"base_weights":[1.2450746E-1,-9.634307E-2,2.6393807E-1,1.2807642E-1,-1.9957119E-1,3.675131E-1,4.7204997E-2,-5.496792E-4,2.7211048E-3,-6.281426E-4,-3.0674448E-3,2.7447694E-3,4.9241898E-3,-7.8501034E-4,1.7013858E-3],"categories":[],"categories_nodes":[],"categories_segments":[],"categories_sizes":[],"default_left":[0,0,0,0,0,0,0,0,0,0,0,0,0,0,0],"id":35,"left_children":[1,3,5,7,9,11,13,-1,-1,-1,-1,-1,-1,-1,-1],"loss_changes":[2.0948177E2,6.102601E1,9.358829E1,2.1902939E1,2.6420517E1,3.265103E1,2.0868107E1,0E0,0E0,0E0,0E0,0E0,0E0,0E0,0E0],"parents":[2147483647,0,0,1,1,2,2,3,3,4,4,5,5,6,6],"right_children":[2,4,6,8,10,12,14,-1,-1,-1,-1,-1,-1,-1,-1],"split_conditions":[4.68E-1,-2E0,2.9E0,-4.8E0,2.4E1,2E1,3.2E0,-5.496792E-4,2.7211048E-3,-6.281426E-4,-3.0674448E-3,2.7447694E-3,4.9241898E-3,-7.8501034E-4,1.7013858E-3],"split_indices":[3,77,77,25,51,80,25,0,0,0,0,0,0,0,0],"split_type":[0,0,0,0,0,0,0,0,0,0,0,0,0,0,0],"sum_hessian":[6.8010054E3,2.6321428E3,4.168863E3,8.2920276E2,1.80294E3,2.8203457E3,1.3485168E3,3.6542465E2,4.6377814E2,7.9283734E2,1.0101026E3,1.6182157E3,1.2021301E3,6.669189E2,6.81598E2],"tree_param":{"num_deleted":"0","num_feature":"106","num_nodes":"15","size_leaf_vector":"1"}},{"base_weights":[-1.23299606E-1,-3.0155447E-1,4.6921704E-2,-3.9958838E-1,-1.028983E-1,-1.7387082E-1,1.6725527E-1,-3.2961818E-3,-5.7026106E-3,-1.9355385E-3,8.274492E-5,5.755962E-4,-2.9923983E-3,5.971726E-4,3.0939465E-3],"categories":[],"categories_nodes":[],"categories_segments":[],"categories_sizes":[],"default_left":[0,0,0,0,0,0,0,0,0,0,0,0,0,0,0],"id":36,"left_children":[1,3,5,7,9,11,13,-1,-1,-1,-1,-1,-1,-1,-1],"loss_changes":[2.0634596E2,6.465048E1,9.246875E1,2.6368988E1,1.1077224E1,3.5641277E1,3.4411087E1,0E0,0E0,0E0,0E0,0E0,0E0,0E0,0E0],"parents":[2147483647,0,0,1,1,2,2,3,3,4,4,5,5,6,6],"right_children":[2,4,6,8,10,12,14,-1,-1,-1,-1,-1,-1,-1,-1],"split_conditions":[1.5E1,2.9E0,-1.4E0,2.3E1,6E0,-4.8E0,2.4E1,-3.2961818E-3,-5.7026106E-3,-1.9355385E-3,8.274492E-5,5.755962E-4,-2.9923983E-3,5.971726E-4,3.0939465E-3],"split_indices":[51,77,77,80,77,25,51,0,0,0,0,0,0,0,0],"split_type":[0,0,0,0,0,0,0,0,0,0,0,0,0,0,0],"sum_hessian":[6.7990317E3,3.3207688E3,3.4782632E3,2.2228254E3,1.0979434E3,1.2268141E3,2.251449E3,1.5785875E3,6.442378E2,6.0437024E2,4.935731E2,4.312571E2,7.9555695E2,1.2825408E3,9.6890826E2],"tree_param":{"num_deleted":"0","num_feature":"106","num_nodes":"15","size_leaf_vector":"1"}},{"base_weights":[1.23299606E-1,3.0155447E-1,-4.6921715E-2,3.995884E-1,1.0289828E-1,1.738708E-1,-1.6725528E-1,3.296182E-3,5.702611E-3,1.9355381E-3,-8.274509E-5,-5.755962E-4,2.992398E-3,-5.9717265E-4,-3.0939465E-3],"categories":[],"categories_nodes":[],"categories_segments":[],"categories_sizes":[],"default_left":[0,0,0,0,0,0,0,0,0,0,0,0,0,0,0],"id":37,"left_children":[1,3,5,7,9,11,13,-1,-1,-1,-1,-1,-1,-1,-1],"loss_changes":[2.0634602E2,6.465045E1,9.246875E1,2.6368988E1,1.1077227E1,3.5641273E1,3.441108E1,0E0,0E0,0E0,0E0,0E0,0E0,0E0,0E0],"parents":[2147483647,0,0,1,1,2,2,3,3,4,4,5,5,6,6],"right_children":[2,4,6,8,10,12,14,-1,-1,-1,-1,-1,-1,-1,-1],"split_conditions":[1.5E1,2.9E0,-1.4E0,2.3E1,6E0,-4.8E0,2.4E1,3.296182E-3,5.702611E-3,1.9355381E-3,-8.274509E-5,-5.755962E-4,2.992398E-3,-5.9717265E-4,-3.0939465E-3],"split_indices":[51,77,77,80,77,25,51,0,0,0,0,0,0,0,0],"split_type":[0,0,0,0,0,0,0,0,0,0,0,0,0,0,0],"sum_hessian":[6.7990317E3,3.3207686E3,3.4782632E3,2.2228254E3,1.0979434E3,1.2268141E3,2.251449E3,1.5785875E3,6.442378E2,6.0437024E2,4.935731E2,4.3125708E2,7.9555695E2,1.2825408E3,9.6890826E2],"tree_param":{"num_deleted":"0","num_feature":"106","num_nodes":"15","size_leaf_vector":"1"}},{"base_weights":[-1.2210475E-1,-2.9866904E-1,4.646115E-2,-3.9583555E-1,-1.018771E-1,-1.7217422E-1,1.656093E-1,-3.2644807E-3,-5.65217E-3,-1.932037E-3,7.659288E-5,5.698632E-4,-2.9635439E-3,5.912058E-4,3.0641037E-3],"categories":[],"categories_nodes":[],"categories_segments":[],"categories_sizes":[],"default_left":[0,0,0,0,0,0,0,0,0,0,0,0,0,0,0],"id":38,"left_children":[1,3,5,7,9,11,13,-1,-1,-1,-1,-1,-1,-1,-1],"loss_changes":[2.0234117E2,6.3450348E1,9.064715E1,2.593631E1,1.0994202E1,3.494896E1,3.3749447E1,0E0,0E0,0E0,0E0,0E0,0E0,0E0,0E0],"parents":[2147483647,0,0,1,1,2,2,3,3,4,4,5,5,6,6],"right_children":[2,4,6,8,10,12,14,-1,-1,-1,-1,-1,-1,-1,-1],"split_conditions":[1.5E1,2.9E0,-1.4E0,2.3E1,1.15E1,-4.8E0,2.4E1,-3.2644807E-3,-5.65217E-3,-1.932037E-3,7.659288E-5,5.698632E-4,-2.9635439E-3,5.912058E-4,3.0641037E-3],"split_indices":[51,77,77,80,60,25,51,0,0,0,0,0,0,0,0],"split_type":[0,0,0,0,0,0,0,0,0,0,0,0,0,0,0],"sum_hessian":[6.797011E3,3.3193684E3,3.477643E3,2.2214905E3,1.097878E3,1.2265303E3,2.2511128E3,1.5779906E3,6.434998E2,5.98288E2,4.9959E2,4.3124933E2,7.9528094E2,1.2825399E3,9.685728E2],"tree_param":{"num_deleted":"0","num_feature":"106","num_nodes":"15","size_leaf_vector":"1"}},{"base_weights":[1.2210474E-1,2.98669E-1,-4.6461146E-2,3.9583552E-1,1.0187711E-1,1.7217422E-1,-1.656093E-1,3.2644805E-3,5.65217E-3,1.9320368E-3,-7.6592514E-5,-5.698635E-4,2.963544E-3,-5.912058E-4,-3.0641037E-3],"categories":[],"categories_nodes":[],"categories_segments":[],"categories_sizes":[],"default_left":[0,0,0,0,0,0,0,0,0,0,0,0,0,0,0],"id":39,"left_children":[1,3,5,7,9,11,13,-1,-1,-1,-1,-1,-1,-1,-1],"loss_changes":[2.0234116E2,6.3450348E1,9.0647156E1,2.593634E1,1.0994198E1,3.4948963E1,3.3749454E1,0E0,0E0,0E0,0E0,0E0,0E0,0E0,0E0],"parents":[2147483647,0,0,1,1,2,2,3,3,4,4,5,5,6,6],"right_children":[2,4,6,8,10,12,14,-1,-1,-1,-1,-1,-1,-1,-1],"split_conditions":[1.5E1,2.9E0,-1.4E0,2.3E1,1.15E1,-4.8E0,2.4E1,3.2644805E-3,5.65217E-3,1.9320368E-3,-7.6592514E-5,-5.698635E-4,2.963544E-3,-5.912058E-4,-3.0641037E-3],"split_indices":[51,77,77,80,60,25,51,0,0,0,0,0,0,0,0],"split_type":[0,0,0,0,0,0,0,0,0,0,0,0,0,0,0],"sum_hessian":[6.797011E3,3.3193684E3,3.477643E3,2.2214905E3,1.097878E3,1.2265303E3,2.2511128E3,1.5779906E3,6.434998E2,5.98288E2,4.9958997E2,4.3124936E2,7.9528094E2,1.2825399E3,9.685728E2],"tree_param":{"num_deleted":"0","num_feature":"106","num_nodes":"15","size_leaf_vector":"1"}},{"base_weights":[-1.2092316E-1,-2.3294248E-1,1.4017127E-1,-9.6658714E-2,-3.882701E-1,-5.7473583E-3,3.008235E-1,-2.3031312E-3,2.5722967E-4,-5.4359236E-3,-3.2085541E-3,1.400695E-3,-1.6573942E-3,4.4342424E-3,2.1101646E-3],"categories":[],"categories_nodes":[],"categories_segments":[],"categories_sizes":[],"default_left":[0,0,0,0,0,0,0,0,0,0,0,0,0,0,0],"id":40,"left_children":[1,3,5,7,9,11,13,-1,-1,-1,-1,-1,-1,-1,-1],"loss_changes":[1.9879648E2,1.00639465E2,4.784589E1,4.146405E1,2.3095825E1,2.4997423E1,1.2347321E1,0E0,0E0,0E0,0E0,0E0,0E0,0E0,0E0],"parents":[2147483647,0,0,1,1,2,2,3,3,4,4,5,5,6,6],"right_children":[2,4,6,8,10,12,14,-1,-1,-1,-1,-1,-1,-1,-1],"split_conditions":[2E1,1.4E1,5.14E-1,1E1,7E0,-4.9E0,-6.1E0,-2.3031312E-3,2.5722967E-4,-5.4359236E-3,-3.2085541E-3,1.400695E-3,-1.6573942E-3,4.4342424E-3,2.1101646E-3],"split_indices":[28,80,55,51,51,25,25,0,0,0,0,0,0,0,0],"split_type":[0,0,0,0,0,0,0,0,0,0,0,0,0,0,0],"sum_hessian":[6.7948975E3,4.754952E3,2.0399453E3,2.5336028E3,2.2213494E3,1.0694972E3,9.704481E2,1.2106052E3,1.3229974E3,6.7018713E2,1.5511622E3,5.59601E2,5.0989615E2,3.7347916E2,5.9696893E2],"tree_param":{"num_deleted":"0","num_feature":"106","num_nodes":"15","size_leaf_vector":"1"}},{"base_weights":[1.20923154E-1,2.3294248E-1,-1.401713E-1,9.665871E-2,3.882701E-1,5.7473234E-3,-3.008235E-1,2.3031314E-3,-2.5722996E-4,5.435923E-3,3.2085541E-3,-1.4006955E-3,1.6573941E-3,-4.4342424E-3,-2.1101646E-3],"categories":[],"categories_nodes":[],"categories_segments":[],"categories_sizes":[],"default_left":[0,0,0,0,0,0,0,0,0,0,0,0,0,0,0],"id":41,"left_children":[1,3,5,7,9,11,13,-1,-1,-1,-1,-1,-1,-1,-1],"loss_changes":[1.9879648E2,1.00639496E2,4.784588E1,4.1464058E1,2.3095825E1,2.499743E1,1.2347321E1,0E0,0E0,0E0,0E0,0E0,0E0,0E0,0E0],"parents":[2147483647,0,0,1,1,2,2,3,3,4,4,5,5,6,6],"right_children":[2,4,6,8,10,12,14,-1,-1,-1,-1,-1,-1,-1,-1],"split_conditions":[2E1,1.4E1,5.14E-1,1E1,7E0,-4.9E0,-6.1E0,2.3031314E-3,-2.5722996E-4,5.435923E-3,3.2085541E-3,-1.4006955E-3,1.6573941E-3,-4.4342424E-3,-2.1101646E-3],"split_indices":[28,80,55,51,51,25,25,0,0,0,0,0,0,0,0],"split_type":[0,0,0,0,0,0,0,0,0,0,0,0,0,0,0],"sum_hessian":[6.7948975E3,4.754952E3,2.0399452E3,2.5336028E3,2.2213494E3,1.0694971E3,9.704481E2,1.2106052E3,1.3229974E3,6.7018713E2,1.5511622E3,5.5960095E2,5.0989612E2,3.7347916E2,5.96969E2],"tree_param":{"num_deleted":"0","num_feature":"106","num_nodes":"15","size_leaf_vector":"1"}},{"base_weights":[-1.1975233E-1,-2.9323334E-1,4.579024E-2,-3.890392E-1,-9.939444E-2,-1.9063057E-1,1.527017E-1,-3.2047944E-3,-5.5662272E-3,-1.8905484E-3,1.053558E-4,3.731552E-4,-3.1278995E-3,4.8093713E-4,2.893647E-3],"categories":[],"categories_nodes":[],"categories_segments":[],"categories_sizes":[],"default_left":[0,0,0,0,0,0,0,0,0,0,0,0,0,0,0],"id":42,"left_children":[1,3,5,7,9,11,13,-1,-1,-1,-1,-1,-1,-1,-1],"loss_changes":[1.9512045E2,6.1569977E1,8.792152E1,2.5326141E1,1.0830864E1,3.0175632E1,3.4225697E1,0E0,0E0,0E0,0E0,0E0,0E0,0E0,0E0],"parents":[2147483647,0,0,1,1,2,2,3,3,4,4,5,5,6,6],"right_children":[2,4,6,8,10,12,14,-1,-1,-1,-1,-1,-1,-1,-1],"split_conditions":[1.5E1,2.9E0,-2E0,2.3E1,6E0,-4.8E0,2.4E1,-3.2047944E-3,-5.5662272E-3,-1.8905484E-3,1.053558E-4,3.731552E-4,-3.1278995E-3,4.8093713E-4,2.893647E-3],"split_indices":[51,77,77,80,77,25,51,0,0,0,0,0,0,0,0],"split_type":[0,0,0,0,0,0,0,0,0,0,0,0,0,0,0],"sum_hessian":[6.7927764E3,3.3164832E3,3.4762935E3,2.2188157E3,1.0976675E3,1.0822516E3,2.3940417E3,1.5766915E3,6.421241E2,6.041747E2,4.934928E2,3.7786337E2,7.0438824E2,1.3568215E3,1.0372203E3],"tree_param":{"num_deleted":"0","num_feature":"106","num_nodes":"15","size_leaf_vector":"1"}},{"base_weights":[1.1975235E-1,2.9323336E-1,-4.5790214E-2,3.890392E-1,9.939443E-2,1.9063066E-1,-1.5270172E-1,3.2047948E-3,5.5662277E-3,1.8905484E-3,-1.05355815E-4,-3.7315412E-4,3.1279002E-3,-4.8093728E-4,-2.893647E-3],"categories":[],"categories_nodes":[],"categories_segments":[],"categories_sizes":[],"default_left":[0,0,0,0,0,0,0,0,0,0,0,0,0,0,0],"id":43,"left_children":[1,3,5,7,9,11,13,-1,-1,-1,-1,-1,-1,-1,-1],"loss_changes":[1.9512042E2,6.1569977E1,8.792156E1,2.5326141E1,1.0830865E1,3.0175629E1,3.422569E1,0E0,0E0,0E0,0E0,0E0,0E0,0E0,0E0],"parents":[2147483647,0,0,1,1,2,2,3,3,4,4,5,5,6,6],"right_children":[2,4,6,8,10,12,14,-1,-1,-1,-1,-1,-1,-1,-1],"split_conditions":[1.5E1,2.9E0,-2E0,2.3E1,6E0,-4.8E0,2.4E1,3.2047948E-3,5.5662277E-3,1.8905484E-3,-1.05355815E-4,-3.7315412E-4,3.1279002E-3,-4.8093728E-4,-2.893647E-3],"split_indices":[51,77,77,80,77,25,51,0,0,0,0,0,0,0,0],"split_type":[0,0,0,0,0,0,0,0,0,0,0,0,0,0,0],"sum_hessian":[6.7927764E3,3.3164832E3,3.4762935E3,2.2188157E3,1.0976675E3,1.0822517E3,2.3940417E3,1.5766915E3,6.4212415E2,6.041747E2,4.934928E2,3.7786337E2,7.043883E2,1.3568215E3,1.0372203E3],"tree_param":{"num_deleted":"0","num_feature":"106","num_nodes":"15","size_leaf_vector":"1"}},{"base_weights":[-1.185964E-1,-2.2865602E-1,1.378626E-1,-1.3852653E-1,-4.574203E-1,-5.746465E-3,2.960239E-1,-3.0334273E-3,-4.557562E-4,-3.9660386E-3,-5.895679E-3,1.3727412E-3,-1.6268712E-3,4.3666083E-3,2.0752402E-3],"categories":[],"categories_nodes":[],"categories_segments":[],"categories_sizes":[],"default_left":[0,0,0,0,0,0,0,0,0,0,0,0,0,0,0],"id":44,"left_children":[1,3,5,7,9,11,13,-1,-1,-1,-1,-1,-1,-1,-1],"loss_changes":[1.9172708E2,9.7925674E1,4.633711E1,5.2237915E1,1.0557709E1,2.4043102E1,1.1992722E1,0E0,0E0,0E0,0E0,0E0,0E0,0E0,0E0],"parents":[2147483647,0,0,1,1,2,2,3,3,4,4,5,5,6,6],"right_children":[2,4,6,8,10,12,14,-1,-1,-1,-1,-1,-1,-1,-1],"split_conditions":[2E1,2E1,5.14E-1,7E0,3.7E1,-4.9E0,-6.1E0,-3.0334273E-3,-4.557562E-4,-3.9660386E-3,-5.895679E-3,1.3727412E-3,-1.6268712E-3,4.3666083E-3,2.0752402E-3],"split_indices":[28,80,55,27,54,25,25,0,0,0,0,0,0,0,0],"split_type":[0,0,0,0,0,0,0,0,0,0,0,0,0,0,0],"sum_hessian":[6.7905063E3,4.751503E3,2.0390037E3,3.409729E3,1.3417737E3,1.0691703E3,9.698334E2,1.2287333E3,2.1809958E3,9.216273E2,4.201463E2,5.594588E2,5.0971146E2,3.7306088E2,5.9677246E2],"tree_param":{"num_deleted":"0","num_feature":"106","num_nodes":"15","size_leaf_vector":"1"}},{"base_weights":[1.18596405E-1,2.2865602E-1,-1.3786258E-1,1.3852653E-1,4.5742032E-1,5.7464615E-3,-2.9602385E-1,3.0334273E-3,4.5575618E-4,3.9660386E-3,5.8956794E-3,-1.3727412E-3,1.6268712E-3,-4.3666083E-3,-2.0752393E-3],"categories":[],"categories_nodes":[],"categories_segments":[],"categories_sizes":[],"default_left":[0,0,0,0,0,0,0,0,0,0,0,0,0,0,0],"id":45,"left_children":[1,3,5,7,9,11,13,-1,-1,-1,-1,-1,-1,-1,-1],"loss_changes":[1.917271E2,9.7925674E1,4.6337097E1,5.2237923E1,1.0557709E1,2.4043102E1,1.1992729E1,0E0,0E0,0E0,0E0,0E0,0E0,0E0,0E0],"parents":[2147483647,0,0,1,1,2,2,3,3,4,4,5,5,6,6],"right_children":[2,4,6,8,10,12,14,-1,-1,-1,-1,-1,-1,-1,-1],"split_conditions":[2E1,2E1,5.14E-1,7E0,3.7E1,-4.9E0,-6.1E0,3.0334273E-3,4.5575618E-4,3.9660386E-3,5.8956794E-3,-1.3727412E-3,1.6268712E-3,-4.3666083E-3,-2.0752393E-3],"split_indices":[28,80,55,27,54,25,25,0,0,0,0,0,0,0,0],"split_type":[0,0,0,0,0,0,0,0,0,0,0,0,0,0,0],"sum_hessian":[6.7905063E3,4.751503E3,2.0390037E3,3.4097292E3,1.3417737E3,1.0691703E3,9.698334E2,1.2287333E3,2.1809958E3,9.216274E2,4.2014633E2,5.594588E2,5.097115E2,3.730609E2,5.9677246E2],"tree_param":{"num_deleted":"0","num_feature":"106","num_nodes":"15","size_leaf_vector":"1"}},{"base_weights":[-1.1745064E-1,-2.8806075E-1,4.527544E-2,-3.8274366E-1,-9.669415E-2,-1.8729095E-1,1.5041359E-1,-3.1533542E-3,-5.477802E-3,-1.871013E-3,1.17087526E-4,3.595137E-4,-3.0703123E-3,4.7867486E-4,2.8447057E-3],"categories":[],"categories_nodes":[],"categories_segments":[],"categories_sizes":[],"default_left":[0,0,0,0,0,0,0,0,0,0,0,0,0,0,0],"id":46,"left_children":[1,3,5,7,9,11,13,-1,-1,-1,-1,-1,-1,-1,-1],"loss_changes":[1.8850159E2,6.0018524E1,8.501675E1,2.4491455E1,1.0767312E1,2.8949299E1,3.289977E1,0E0,0E0,0E0,0E0,0E0,0E0,0E0,0E0],"parents":[2147483647,0,0,1,1,2,2,3,3,4,4,5,5,6,6],"right_children":[2,4,6,8,10,12,14,-1,-1,-1,-1,-1,-1,-1,-1],"split_conditions":[1.5E1,2.9E0,-2E0,2.3E1,1.15E1,-4.8E0,2.4E1,-3.1533542E-3,-5.477802E-3,-1.871013E-3,1.17087526E-4,3.595137E-4,-3.0703123E-3,4.7867486E-4,2.8447057E-3],"split_indices":[51,77,77,80,60,25,51,0,0,0,0,0,0,0,0],"split_type":[0,0,0,0,0,0,0,0,0,0,0,0,0,0,0],"sum_hessian":[6.788269E3,3.3134807E3,3.4747883E3,2.2160435E3,1.0974373E3,1.0815687E3,2.3932195E3,1.5754647E3,6.405788E2,5.9799133E2,4.9944592E2,3.7783594E2,7.037327E2,1.3567438E3,1.0364758E3],"tree_param":{"num_deleted":"0","num_feature":"106","num_nodes":"15","size_leaf_vector":"1"}},{"base_weights":[1.1745064E-1,2.8806075E-1,-4.527543E-2,3.827437E-1,9.6694134E-2,1.8729094E-1,-1.5041357E-1,3.1533544E-3,5.477802E-3,1.871013E-3,-1.1708791E-4,-3.5951368E-4,3.0703123E-3,-4.7867474E-4,-2.8447057E-3],"categories":[],"categories_nodes":[],"categories_segments":[],"categories_sizes":[],"default_left":[0,0,0,0,0,0,0,0,0,0,0,0,0,0,0],"id":47,"left_children":[1,3,5,7,9,11,13,-1,-1,-1,-1,-1,-1,-1,-1],"loss_changes":[1.8850159E2,6.0018555E1,8.501674E1,2.4491486E1,1.0767316E1,2.8949295E1,3.2899765E1,0E0,0E0,0E0,0E0,0E0,0E0,0E0,0E0],"parents":[2147483647,0,0,1,1,2,2,3,3,4,4,5,5,6,6],"right_children":[2,4,6,8,10,12,14,-1,-1,-1,-1,-1,-1,-1,-1],"split_conditions":[1.5E1,2.9E0,-2E0,2.3E1,1.15E1,-4.8E0,2.4E1,3.1533544E-3,5.477802E-3,1.871013E-3,-1.1708791E-4,-3.5951368E-4,3.0703123E-3,-4.7867474E-4,-2.8447057E-3],"split_indices":[51,77,77,80,60,25,51,0,0,0,0,0,0,0,0],"split_type":[0,0,0,0,0,0,0,0,0,0,0,0,0,0,0],"sum_hessian":[6.788269E3,3.3134807E3,3.4747883E3,2.2160435E3,1.0974373E3,1.0815687E3,2.3932195E3,1.5754647E3,6.405788E2,5.9799133E2,4.994459E2,3.7783594E2,7.037327E2,1.3567438E3,1.0364758E3],"tree_param":{"num_deleted":"0","num_feature":"106","num_nodes":"15","size_leaf_vector":"1"}},{"base_weights":[-1.163195E-1,9.141082E-2,-2.4763113E-1,-4.607552E-2,2.4073708E-1,-3.4650674E-1,-4.1409813E-2,1.2194139E-3,-1.8005117E-3,3.9109606E-3,1.6217048E-3,-2.5852786E-3,-4.6513225E-3,7.9697825E-4,-1.599447E-3],"categories":[],"categories_nodes":[],"categories_segments":[],"categories_sizes":[],"default_left":[0,0,0,0,0,0,0,0,0,0,0,0,0,0,0],"id":48,"left_children":[1,3,5,7,9,11,13,-1,-1,-1,-1,-1,-1,-1,-1],"loss_changes":[1.8515036E2,5.3991295E1,8.477977E1,3.0855387E1,1.4827538E1,2.9213928E1,1.9375977E1,0E0,0E0,0E0,0E0,0E0,0E0,0E0,0E0],"parents":[2147483647,0,0,1,1,2,2,3,3,4,4,5,5,6,6],"right_children":[2,4,6,8,10,12,14,-1,-1,-1,-1,-1,-1,-1,-1],"split_conditions":[4.68E-1,5.14E-1,2.9E0,-4.9E0,-5.9E0,2E1,3.2E0,1.2194139E-3,-1.8005117E-3,3.9109606E-3,1.6217048E-3,-2.5852786E-3,-4.6513225E-3,7.9697825E-4,-1.599447E-3],"split_indices":[3,55,77,25,25,80,25,0,0,0,0,0,0,0,0],"split_type":[0,0,0,0,0,0,0,0,0,0,0,0,0,0,0],"sum_hessian":[6.7858516E3,2.6282917E3,4.1575596E3,1.3687551E3,1.2595366E3,2.809721E3,1.3478389E3,6.072729E2,7.6148224E2,4.3090408E2,8.286325E2,1.6150759E3,1.194645E3,6.6684644E2,6.8099243E2],"tree_param":{"num_deleted":"0","num_feature":"106","num_nodes":"15","size_leaf_vector":"1"}},{"base_weights":[1.1631951E-1,-9.141083E-2,2.4763115E-1,4.6075504E-2,-2.4073707E-1,3.4650674E-1,4.140984E-2,-1.2194146E-3,1.8005121E-3,-3.9109606E-3,-1.6217048E-3,2.5852786E-3,4.6513225E-3,-7.96978E-4,1.5994472E-3],"categories":[],"categories_nodes":[],"categories_segments":[],"categories_sizes":[],"default_left":[0,0,0,0,0,0,0,0,0,0,0,0,0,0,0],"id":49,"left_children":[1,3,5,7,9,11,13,-1,-1,-1,-1,-1,-1,-1,-1],"loss_changes":[1.8515038E2,5.3991283E1,8.477977E1,3.0855404E1,1.4827538E1,2.9213928E1,1.9375978E1,0E0,0E0,0E0,0E0,0E0,0E0,0E0,0E0],"parents":[2147483647,0,0,1,1,2,2,3,3,4,4,5,5,6,6],"right_children":[2,4,6,8,10,12,14,-1,-1,-1,-1,-1,-1,-1,-1],"split_conditions":[4.68E-1,5.14E-1,2.9E0,-4.9E0,-5.9E0,2E1,3.2E0,-1.2194146E-3,1.8005121E-3,-3.9109606E-3,-1.6217048E-3,2.5852786E-3,4.6513225E-3,-7.96978E-4,1.5994472E-3],"split_indices":[3,55,77,25,25,80,25,0,0,0,0,0,0,0,0],"split_type":[0,0,0,0,0,0,0,0,0,0,0,0,0,0,0],"sum_hessian":[6.7858516E3,2.6282917E3,4.15756E3,1.3687551E3,1.2595366E3,2.809721E3,1.3478389E3,6.072729E2,7.6148224E2,4.3090408E2,8.2863257E2,1.6150759E3,1.194645E3,6.668465E2,6.8099243E2],"tree_param":{"num_deleted":"0","num_feature":"106","num_nodes":"15","size_leaf_vector":"1"}},{"base_weights":[-1.15198515E-1,-2.830037E-1,4.4767685E-2,-3.761001E-1,-9.5075674E-2,-1.6374843E-1,1.5833044E-1,-3.0960985E-3,-5.391606E-3,-1.8382826E-3,1.371373E-4,5.1982165E-4,-2.8089315E-3,5.7916576E-4,2.913675E-3],"categories":[],"categories_nodes":[],"categories_segments":[],"categories_sizes":[],"default_left":[0,0,0,0,0,0,0,0,0,0,0,0,0,0,0],"id":50,"left_children":[1,3,5,7,9,11,13,-1,-1,-1,-1,-1,-1,-1,-1],"loss_changes":[1.8212788E2,5.7895416E1,8.229384E1,2.3836609E1,1.0606621E1,3.098433E1,3.003675E1,0E0,0E0,0E0,0E0,0E0,0E0,0E0,0E0],"parents":[2147483647,0,0,1,1,2,2,3,3,4,4,5,5,6,6],"right_children":[2,4,6,8,10,12,14,-1,-1,-1,-1,-1,-1,-1,-1],"split_conditions":[1.5E1,2.9E0,-1.4E0,2.3E1,6E0,-4.8E0,2.4E1,-3.0960985E-3,-5.391606E-3,-1.8382826E-3,1.371373E-4,5.1982165E-4,-2.8089315E-3,5.7916576E-4,2.913675E-3],"split_indices":[51,77,77,80,77,25,51,0,0,0,0,0,0,0,0],"split_type":[0,0,0,0,0,0,0,0,0,0,0,0,0,0,0],"sum_hessian":[6.7834194E3,3.3102183E3,3.4732012E3,2.2129556E3,1.0972626E3,1.2244706E3,2.2487307E3,1.5740237E3,6.3893195E2,6.038995E2,4.933631E2,4.311087E2,7.9336194E2,1.2823058E3,9.664248E2],"tree_param":{"num_deleted":"0","num_feature":"106","num_nodes":"15","size_leaf_vector":"1"}},{"base_weights":[1.15198515E-1,2.830037E-1,-4.476769E-2,3.7610012E-1,9.507566E-2,1.6374841E-1,-1.5833043E-1,3.0960988E-3,5.391606E-3,1.8382821E-3,-1.371372E-4,-5.198223E-4,2.8089317E-3,-5.791657E-4,-2.913675E-3],"categories":[],"categories_nodes":[],"categories_segments":[],"categories_sizes":[],"default_left":[0,0,0,0,0,0,0,0,0,0,0,0,0,0,0],"id":51,"left_children":[1,3,5,7,9,11,13,-1,-1,-1,-1,-1,-1,-1,-1],"loss_changes":[1.8212793E2,5.7895386E1,8.229383E1,2.383664E1,1.0606616E1,3.0984344E1,3.0036747E1,0E0,0E0,0E0,0E0,0E0,0E0,0E0,0E0],"parents":[2147483647,0,0,1,1,2,2,3,3,4,4,5,5,6,6],"right_children":[2,4,6,8,10,12,14,-1,-1,-1,-1,-1,-1,-1,-1],"split_conditions":[1.5E1,2.9E0,-1.4E0,2.3E1,6E0,-4.8E0,2.4E1,3.0960988E-3,5.391606E-3,1.8382821E-3,-1.371372E-4,-5.198223E-4,2.8089317E-3,-5.791657E-4,-2.913675E-3],"split_indices":[51,77,77,80,77,25,51,0,0,0,0,0,0,0,0],"split_type":[0,0,0,0,0,0,0,0,0,0,0,0,0,0,0],"sum_hessian":[6.7834194E3,3.310218E3,3.4732012E3,2.2129556E3,1.0972626E3,1.2244706E3,2.2487307E3,1.5740237E3,6.389319E2,6.038995E2,4.933631E2,4.311087E2,7.9336194E2,1.2823058E3,9.664248E2],"tree_param":{"num_deleted":"0","num_feature":"106","num_nodes":"15","size_leaf_vector":"1"}},{"base_weights":[-1.140913E-1,-2.2046685E-1,1.3363303E-1,-9.0271E-2,-3.6934254E-1,-5.497401E-3,2.8697202E-1,-2.187564E-3,2.7244142E-4,-5.213266E-3,-3.0352953E-3,1.3202425E-3,-1.5644522E-3,4.5079608E-3,2.1471344E-3],"categories":[],"categories_nodes":[],"categories_segments":[],"categories_sizes":[],"default_left":[0,0,0,0,0,0,0,0,0,0,0,0,0,0,0],"id":52,"left_children":[1,3,5,7,9,11,13,-1,-1,-1,-1,-1,-1,-1,-1],"loss_changes":[1.7874399E2,9.1936966E1,4.3479893E1,3.824524E1,2.1980621E1,2.2221361E1,1.1379868E1,0E0,0E0,0E0,0E0,0E0,0E0,0E0,0E0],"parents":[2147483647,0,0,1,1,2,2,3,3,4,4,5,5,6,6],"right_children":[2,4,6,8,10,12,14,-1,-1,-1,-1,-1,-1,-1,-1],"split_conditions":[2E1,1.4E1,5.14E-1,1E1,7E0,-4.9E0,-7E0,-2.187564E-3,2.7244142E-4,-5.213266E-3,-3.0352953E-3,1.3202425E-3,-1.5644522E-3,4.5079608E-3,2.1471344E-3],"split_indices":[28,80,55,51,51,25,25,0,0,0,0,0,0,0,0],"split_type":[0,0,0,0,0,0,0,0,0,0,0,0,0,0,0],"sum_hessian":[6.780868E3,4.7438965E3,2.0369713E3,2.5315732E3,2.2123235E3,1.0684705E3,9.685008E2,1.208928E3,1.3226453E3,6.664191E2,1.5459043E3,5.591656E2,5.093049E2,2.948287E2,6.7367206E2],"tree_param":{"num_deleted":"0","num_feature":"106","num_nodes":"15","size_leaf_vector":"1"}},{"base_weights":[1.1409129E-1,2.2046685E-1,-1.3363306E-1,9.0271E-2,3.6934254E-1,5.497379E-3,-2.8697205E-1,2.1875643E-3,-2.724415E-4,5.213266E-3,3.0352953E-3,-1.3202435E-3,1.5644528E-3,-4.5079608E-3,-2.1471349E-3],"categories":[],"categories_nodes":[],"categories_segments":[],"categories_sizes":[],"default_left":[0,0,0,0,0,0,0,0,0,0,0,0,0,0,0],"id":53,"left_children":[1,3,5,7,9,11,13,-1,-1,-1,-1,-1,-1,-1,-1],"loss_changes":[1.7874399E2,9.1936966E1,4.34799E1,3.824524E1,2.198059E1,2.2221384E1,1.137986E1,0E0,0E0,0E0,0E0,0E0,0E0,0E0,0E0],"parents":[2147483647,0,0,1,1,2,2,3,3,4,4,5,5,6,6],"right_children":[2,4,6,8,10,12,14,-1,-1,-1,-1,-1,-1,-1,-1],"split_conditions":[2E1,1.4E1,5.14E-1,1E1,7E0,-4.9E0,-7E0,2.1875643E-3,-2.724415E-4,5.213266E-3,3.0352953E-3,-1.3202435E-3,1.5644528E-3,-4.5079608E-3,-2.1471349E-3],"split_indices":[28,80,55,51,51,25,25,0,0,0,0,0,0,0,0],"split_type":[0,0,0,0,0,0,0,0,0,0,0,0,0,0,0],"sum_hessian":[6.780868E3,4.7438965E3,2.0369713E3,2.5315732E3,2.2123235E3,1.0684705E3,9.6850073E2,1.208928E3,1.3226453E3,6.664191E2,1.5459043E3,5.5916565E2,5.093049E2,2.948287E2,6.7367206E2],"tree_param":{"num_deleted":"0","num_feature":"106","num_nodes":"15","size_leaf_vector":"1"}},{"base_weights":[-1.1299345E-1,-2.7789885E-1,4.4116512E-2,-3.6973348E-1,-9.274762E-2,-1.8140362E-1,1.4601982E-1,-3.0399591E-3,-5.312077E-3,-1.8217961E-3,1.4455157E-4,3.3113096E-4,-2.9665674E-3,4.7386868E-4,2.7513616E-3],"categories":[],"categories_nodes":[],"categories_segments":[],"categories_sizes":[],"default_left":[0,0,0,0,0,0,0,0,0,0,0,0,0,0,0],"id":54,"left_children":[1,3,5,7,9,11,13,-1,-1,-1,-1,-1,-1,-1,-1],"loss_changes":[1.7565341E2,5.6208344E1,7.983102E1,2.3305267E1,1.0529739E1,2.6741455E1,3.0454205E1,0E0,0E0,0E0,0E0,0E0,0E0,0E0,0E0],"parents":[2147483647,0,0,1,1,2,2,3,3,4,4,5,5,6,6],"right_children":[2,4,6,8,10,12,14,-1,-1,-1,-1,-1,-1,-1,-1],"split_conditions":[1.5E1,2.9E0,-2E0,2.3E1,1.15E1,-4.8E0,2.4E1,-3.0399591E-3,-5.312077E-3,-1.8217961E-3,1.4455157E-4,3.3113096E-4,-2.9665674E-3,4.7386868E-4,2.7513616E-3],"split_indices":[51,77,77,80,60,25,51,0,0,0,0,0,0,0,0],"split_type":[0,0,0,0,0,0,0,0,0,0,0,0,0,0,0],"sum_hessian":[6.7783438E3,3.3067507E3,3.471593E3,2.2097314E3,1.0970193E3,1.0802139E3,2.3913792E3,1.572454E3,6.3727747E2,5.9769965E2,4.9931967E2,3.777791E2,7.024347E2,1.3565032E3,1.0348761E3],"tree_param":{"num_deleted":"0","num_feature":"106","num_nodes":"15","size_leaf_vector":"1"}},{"base_weights":[1.12993434E-1,2.7789885E-1,-4.4116523E-2,3.6973348E-1,9.27476E-2,1.8140364E-1,-1.4601985E-1,3.0399591E-3,5.312077E-3,1.8217961E-3,-1.4455202E-4,-3.31131E-4,2.9665674E-3,-4.7386906E-4,-2.7513616E-3],"categories":[],"categories_nodes":[],"categories_segments":[],"categories_sizes":[],"default_left":[0,0,0,0,0,0,0,0,0,0,0,0,0,0,0],"id":55,"left_children":[1,3,5,7,9,11,13,-1,-1,-1,-1,-1,-1,-1,-1],"loss_changes":[1.7565341E2,5.620836E1,7.983103E1,2.3305267E1,1.0529743E1,2.6741455E1,3.0454205E1,0E0,0E0,0E0,0E0,0E0,0E0,0E0,0E0],"parents":[2147483647,0,0,1,1,2,2,3,3,4,4,5,5,6,6],"right_children":[2,4,6,8,10,12,14,-1,-1,-1,-1,-1,-1,-1,-1],"split_conditions":[1.5E1,2.9E0,-2E0,2.3E1,1.15E1,-4.8E0,2.4E1,3.0399591E-3,5.312077E-3,1.8217961E-3,-1.4455202E-4,-3.31131E-4,2.9665674E-3,-4.7386906E-4,-2.7513616E-3],"split_indices":[51,77,77,80,60,25,51,0,0,0,0,0,0,0,0],"split_type":[0,0,0,0,0,0,0,0,0,0,0,0,0,0,0],"sum_hessian":[6.7783438E3,3.3067507E3,3.471593E3,2.2097314E3,1.0970193E3,1.0802139E3,2.3913792E3,1.572454E3,6.372774E2,5.976997E2,4.9931964E2,3.777791E2,7.024347E2,1.3565032E3,1.0348761E3],"tree_param":{"num_deleted":"0","num_feature":"106","num_nodes":"15","size_leaf_vector":"1"}},{"base_weights":[-1.1190975E-1,-2.164407E-1,1.3144197E-1,-1.3040495E-1,-4.35827E-1,-5.494587E-3,2.824235E-1,-2.9016077E-3,-4.0418064E-4,-3.7560316E-3,-5.6685316E-3,1.2939691E-3,-1.5357549E-3,4.4422406E-3,2.1112624E-3],"categories":[],"categories_nodes":[],"categories_segments":[],"categories_sizes":[],"default_left":[0,0,0,0,0,0,0,0,0,0,0,0,0,0,0],"id":56,"left_children":[1,3,5,7,9,11,13,-1,-1,-1,-1,-1,-1,-1,-1],"loss_changes":[1.7241171E2,8.942616E1,4.211335E1,4.8963783E1,1.0321701E1,2.1374783E1,1.1081848E1,0E0,0E0,0E0,0E0,0E0,0E0,0E0,0E0],"parents":[2147483647,0,0,1,1,2,2,3,3,4,4,5,5,6,6],"right_children":[2,4,6,8,10,12,14,-1,-1,-1,-1,-1,-1,-1,-1],"split_conditions":[2E1,2E1,5.14E-1,7E0,3.7E1,-4.9E0,-7E0,-2.9016077E-3,-4.0418064E-4,-3.7560316E-3,-5.6685316E-3,1.2939691E-3,-1.5357549E-3,4.4422406E-3,2.1112624E-3],"split_indices":[28,80,55,27,54,25,25,0,0,0,0,0,0,0,0],"split_type":[0,0,0,0,0,0,0,0,0,0,0,0,0,0,0],"sum_hessian":[6.775661E3,4.739804E3,2.0358572E3,3.405772E3,1.3340321E3,1.0680896E3,9.6776764E2,1.2263607E3,2.1794111E3,9.166002E2,4.1743195E2,5.5900275E2,5.0908682E2,2.9440958E2,6.733581E2],"tree_param":{"num_deleted":"0","num_feature":"106","num_nodes":"15","size_leaf_vector":"1"}},{"base_weights":[1.1190974E-1,2.1644069E-1,-1.3144195E-1,1.3040493E-1,4.35827E-1,5.4946183E-3,-2.824235E-1,2.9016074E-3,4.0418046E-4,3.756032E-3,5.6685316E-3,-1.2939686E-3,1.5357552E-3,-4.4422415E-3,-2.1112622E-3],"categories":[],"categories_nodes":[],"categories_segments":[],"categories_sizes":[],"default_left":[0,0,0,0,0,0,0,0,0,0,0,0,0,0,0],"id":57,"left_children":[1,3,5,7,9,11,13,-1,-1,-1,-1,-1,-1,-1,-1],"loss_changes":[1.7241168E2,8.942619E1,4.2113365E1,4.896377E1,1.0321686E1,2.137478E1,1.1081863E1,0E0,0E0,0E0,0E0,0E0,0E0,0E0,0E0],"parents":[2147483647,0,0,1,1,2,2,3,3,4,4,5,5,6,6],"right_children":[2,4,6,8,10,12,14,-1,-1,-1,-1,-1,-1,-1,-1],"split_conditions":[2E1,2E1,5.14E-1,7E0,3.7E1,-4.9E0,-7E0,2.9016074E-3,4.0418046E-4,3.756032E-3,5.6685316E-3,-1.2939686E-3,1.5357552E-3,-4.4422415E-3,-2.1112622E-3],"split_indices":[28,80,55,27,54,25,25,0,0,0,0,0,0,0,0],"split_type":[0,0,0,0,0,0,0,0,0,0,0,0,0,0,0],"sum_hessian":[6.775661E3,4.739804E3,2.0358573E3,3.405772E3,1.3340321E3,1.0680896E3,9.6776764E2,1.2263607E3,2.1794111E3,9.1660016E2,4.1743195E2,5.590028E2,5.0908682E2,2.9440958E2,6.733581E2],"tree_param":{"num_deleted":"0","num_feature":"106","num_nodes":"15","size_leaf_vector":"1"}},{"base_weights":[-1.1083479E-1,-2.7304012E-1,4.3615434E-2,-3.6383715E-1,-9.020793E-2,-1.7824413E-1,1.4383109E-1,-2.9916125E-3,-5.230105E-3,-1.7802367E-3,1.7398689E-4,3.1860307E-4,-2.9123886E-3,4.7108816E-4,2.7054267E-3],"categories":[],"categories_nodes":[],"categories_segments":[],"categories_sizes":[],"default_left":[0,0,0,0,0,0,0,0,0,0,0,0,0,0,0],"id":58,"left_children":[1,3,5,7,9,11,13,-1,-1,-1,-1,-1,-1,-1,-1],"loss_changes":[1.6971979E2,5.4819183E1,7.719555E1,2.2568665E1,1.0376351E1,2.5659168E1,2.9296078E1,0E0,0E0,0E0,0E0,0E0,0E0,0E0,0E0],"parents":[2147483647,0,0,1,1,2,2,3,3,4,4,5,5,6,6],"right_children":[2,4,6,8,10,12,14,-1,-1,-1,-1,-1,-1,-1,-1],"split_conditions":[1.5E1,2.9E0,-2E0,2.3E1,6E0,-4.8E0,2.4E1,-2.9916125E-3,-5.230105E-3,-1.7802367E-3,1.7398689E-4,3.1860307E-4,-2.9123886E-3,4.7108816E-4,2.7054267E-3],"split_indices":[51,77,77,80,77,25,51,0,0,0,0,0,0,0,0],"split_type":[0,0,0,0,0,0,0,0,0,0,0,0,0,0,0],"sum_hessian":[6.77305E3,3.3032124E3,3.4698374E3,2.2064622E3,1.0967504E3,1.0794187E3,2.3904187E3,1.5710052E3,6.354569E2,6.0355E2,4.9320032E2,3.7774707E2,7.0167163E2,1.3564084E3,1.0340103E3],"tree_param":{"num_deleted":"0","num_feature":"106","num_nodes":"15","size_leaf_vector":"1"}},{"base_weights":[1.108348E-1,2.7304012E-1,-4.3615438E-2,3.6383715E-1,9.020792E-2,1.7824411E-1,-1.4383109E-1,2.9916125E-3,5.2301055E-3,1.7802367E-3,-1.7398692E-4,-3.1860283E-4,2.9123884E-3,-4.710883E-4,-2.7054264E-3],"categories":[],"categories_nodes":[],"categories_segments":[],"categories_sizes":[],"default_left":[0,0,0,0,0,0,0,0,0,0,0,0,0,0,0],"id":59,"left_children":[1,3,5,7,9,11,13,-1,-1,-1,-1,-1,-1,-1,-1],"loss_changes":[1.697198E2,5.4819168E1,7.719555E1,2.2568665E1,1.0376351E1,2.565916E1,2.9296078E1,0E0,0E0,0E0,0E0,0E0,0E0,0E0,0E0],"parents":[2147483647,0,0,1,1,2,2,3,3,4,4,5,5,6,6],"right_children":[2,4,6,8,10,12,14,-1,-1,-1,-1,-1,-1,-1,-1],"split_conditions":[1.5E1,2.9E0,-2E0,2.3E1,6E0,-4.8E0,2.4E1,2.9916125E-3,5.2301055E-3,1.7802367E-3,-1.7398692E-4,-3.1860283E-4,2.9123884E-3,-4.710883E-4,-2.7054264E-3],"split_indices":[51,77,77,80,77,25,51,0,0,0,0,0,0,0,0],"split_type":[0,0,0,0,0,0,0,0,0,0,0,0,0,0,0],"sum_hessian":[6.77305E3,3.3032124E3,3.4698374E3,2.2064622E3,1.0967504E3,1.0794186E3,2.3904187E3,1.5710052E3,6.354569E2,6.0355E2,4.9320032E2,3.7774704E2,7.016716E2,1.3564084E3,1.0340103E3],"tree_param":{"num_deleted":"0","num_feature":"106","num_nodes":"15","size_leaf_vector":"1"}},{"base_weights":[-1.0977373E-1,8.734276E-2,-2.3454183E-1,-4.3621823E-2,2.2966772E-1,-3.2974842E-1,-3.6646966E-2,1.1472475E-3,-1.6997763E-3,3.733499E-3,1.5480061E-3,-4.4177035E-3,-2.4416489E-3,5.03184E-4,-1.9204767E-3],"categories":[],"categories_nodes":[],"categories_segments":[],"categories_sizes":[],"default_left":[0,0,0,0,0,0,0,0,0,0,0,0,0,0,0],"id":60,"left_children":[1,3,5,7,9,11,13,-1,-1,-1,-1,-1,-1,-1,-1],"loss_changes":[1.665516E2,4.8945946E1,7.811862E1,2.7392452E1,1.34776535E1,2.6733887E1,1.822894E1,0E0,0E0,0E0,0E0,0E0,0E0,0E0,0E0],"parents":[2147483647,0,0,1,1,2,2,3,3,4,4,5,5,6,6],"right_children":[2,4,6,8,10,12,14,-1,-1,-1,-1,-1,-1,-1,-1],"split_conditions":[4.68E-1,5.14E-1,2.9E0,-4.9E0,-5.9E0,-1.9E0,6.54E-1,1.1472475E-3,-1.6997763E-3,3.733499E-3,1.5480061E-3,-4.4177035E-3,-2.4416489E-3,5.03184E-4,-1.9204767E-3],"split_indices":[3,55,77,25,25,77,3,0,0,0,0,0,0,0,0],"split_type":[0,0,0,0,0,0,0,0,0,0,0,0,0,0,0],"sum_hessian":[6.7702515E3,2.624384E3,4.1458677E3,1.3670997E3,1.2572844E3,2.7987375E3,1.34713E3,6.067832E2,7.603165E2,4.2933456E2,8.279498E2,1.2103392E3,1.5883982E3,8.641888E2,4.8294125E2],"tree_param":{"num_deleted":"0","num_feature":"106","num_nodes":"15","size_leaf_vector":"1"}},{"base_weights":[1.0977375E-1,-8.734275E-2,2.3454183E-1,4.362186E-2,-2.2966774E-1,3.2974842E-1,3.664699E-2,-1.1472474E-3,1.6997767E-3,-3.733499E-3,-1.5480062E-3,4.4177035E-3,2.4416489E-3,-5.0318387E-4,1.9204771E-3],"categories":[],"categories_nodes":[],"categories_segments":[],"categories_sizes":[],"default_left":[0,0,0,0,0,0,0,0,0,0,0,0,0,0,0],"id":61,"left_children":[1,3,5,7,9,11,13,-1,-1,-1,-1,-1,-1,-1,-1],"loss_changes":[1.665516E2,4.894596E1,7.811861E1,2.7392462E1,1.34776535E1,2.6733887E1,1.8228945E1,0E0,0E0,0E0,0E0,0E0,0E0,0E0,0E0],"parents":[2147483647,0,0,1,1,2,2,3,3,4,4,5,5,6,6],"right_children":[2,4,6,8,10,12,14,-1,-1,-1,-1,-1,-1,-1,-1],"split_conditions":[4.68E-1,5.14E-1,2.9E0,-4.9E0,-5.9E0,-1.9E0,6.54E-1,-1.1472474E-3,1.6997767E-3,-3.733499E-3,-1.5480062E-3,4.4177035E-3,2.4416489E-3,-5.0318387E-4,1.9204771E-3],"split_indices":[3,55,77,25,25,77,3,0,0,0,0,0,0,0,0],"split_type":[0,0,0,0,0,0,0,0,0,0,0,0,0,0,0],"sum_hessian":[6.7702515E3,2.624384E3,4.1458677E3,1.3670997E3,1.2572843E3,2.7987375E3,1.34713E3,6.067832E2,7.603165E2,4.2933453E2,8.279498E2,1.2103392E3,1.5883982E3,8.641888E2,4.8294125E2],"tree_param":{"num_deleted":"0","num_feature":"106","num_nodes":"15","size_leaf_vector":"1"}},{"base_weights":[-1.087211E-1,-2.6830825E-1,4.314393E-2,-3.5758296E-1,-8.880178E-2,-1.5573585E-1,1.5137991E-1,-2.9369544E-3,-5.1511484E-3,-1.7724066E-3,1.7175807E-4,4.7367226E-4,-2.662912E-3,5.661714E-4,2.7722833E-3],"categories":[],"categories_nodes":[],"categories_segments":[],"categories_sizes":[],"default_left":[0,0,0,0,0,0,0,0,0,0,0,0,0,0,0],"id":62,"left_children":[1,3,5,7,9,11,13,-1,-1,-1,-1,-1,-1,-1,-1],"loss_changes":[1.6405109E2,5.2859802E1,7.469759E1,2.2029541E1,1.0290102E1,2.747562E1,2.6780884E1,0E0,0E0,0E0,0E0,0E0,0E0,0E0,0E0],"parents":[2147483647,0,0,1,1,2,2,3,3,4,4,5,5,6,6],"right_children":[2,4,6,8,10,12,14,-1,-1,-1,-1,-1,-1,-1,-1],"split_conditions":[1.5E1,2.9E0,-1.4E0,2.3E1,1.15E1,-4.8E0,2.4E1,-2.9369544E-3,-5.1511484E-3,-1.7724066E-3,1.7175807E-4,4.7367226E-4,-2.662912E-3,5.661714E-4,2.7722833E-3],"split_indices":[51,77,77,80,60,25,51,0,0,0,0,0,0,0,0],"split_type":[0,0,0,0,0,0,0,0,0,0,0,0,0,0,0],"sum_hessian":[6.7675063E3,3.299483E3,3.4680234E3,2.202909E3,1.096574E3,1.2220715E3,2.2459521E3,1.5693279E3,6.33581E2,5.9738245E2,4.991915E2,4.3094565E2,7.9112585E2,1.2820383E3,9.6391376E2],"tree_param":{"num_deleted":"0","num_feature":"106","num_nodes":"15","size_leaf_vector":"1"}},{"base_weights":[1.087211E-1,2.6830822E-1,-4.3143924E-2,3.5758293E-1,8.880178E-2,1.5573591E-1,-1.5137993E-1,2.9369541E-3,5.1511484E-3,1.772407E-3,-1.7175829E-4,-4.7367153E-4,2.6629125E-3,-5.6617183E-4,-2.7722833E-3],"categories":[],"categories_nodes":[],"categories_segments":[],"categories_sizes":[],"default_left":[0,0,0,0,0,0,0,0,0,0,0,0,0,0,0],"id":63,"left_children":[1,3,5,7,9,11,13,-1,-1,-1,-1,-1,-1,-1,-1],"loss_changes":[1.6405109E2,5.2859787E1,7.469763E1,2.2029572E1,1.0290106E1,2.7475626E1,2.6780865E1,0E0,0E0,0E0,0E0,0E0,0E0,0E0,0E0],"parents":[2147483647,0,0,1,1,2,2,3,3,4,4,5,5,6,6],"right_children":[2,4,6,8,10,12,14,-1,-1,-1,-1,-1,-1,-1,-1],"split_conditions":[1.5E1,2.9E0,-1.4E0,2.3E1,1.15E1,-4.8E0,2.4E1,2.9369541E-3,5.1511484E-3,1.772407E-3,-1.7175829E-4,-4.7367153E-4,2.6629125E-3,-5.6617183E-4,-2.7722833E-3],"split_indices":[51,77,77,80,60,25,51,0,0,0,0,0,0,0,0],"split_type":[0,0,0,0,0,0,0,0,0,0,0,0,0,0,0],"sum_hessian":[6.7675063E3,3.299483E3,3.4680234E3,2.202909E3,1.096574E3,1.2220715E3,2.245952E3,1.5693279E3,6.33581E2,5.9738245E2,4.991915E2,4.3094565E2,7.911258E2,1.2820383E3,9.6391376E2],"tree_param":{"num_deleted":"0","num_feature":"106","num_nodes":"15","size_leaf_vector":"1"}},{"base_weights":[-1.0768207E-1,-2.65793E-1,4.2723704E-2,-3.5432407E-1,-8.79229E-2,-9.230274E-2,1.9966899E-1,-2.9092275E-3,-5.108334E-3,-1.7486652E-3,1.859014E-4,1.060825E-3,-2.0023945E-3,3.6865487E-3,1.4058176E-3],"categories":[],"categories_nodes":[],"categories_segments":[],"categories_sizes":[],"default_left":[0,0,0,0,0,0,0,0,0,0,0,0,0,0,0],"id":64,"left_children":[1,3,5,7,9,11,13,-1,-1,-1,-1,-1,-1,-1,-1],"loss_changes":[1.6090256E2,5.1909622E1,7.3514496E1,2.1701355E1,1.0166598E1,3.9955196E1,1.5966038E1,0E0,0E0,0E0,0E0,0E0,0E0,0E0,0E0],"parents":[2147483647,0,0,1,1,2,2,3,3,4,4,5,5,6,6],"right_children":[2,4,6,8,10,12,14,-1,-1,-1,-1,-1,-1,-1,-1],"split_conditions":[1.5E1,2.9E0,5.25E-1,2.3E1,6E0,-4.8E0,-5.9E0,-2.9092275E-3,-5.108334E-3,-1.7486652E-3,1.859014E-4,1.060825E-3,-2.0023945E-3,3.6865487E-3,1.4058176E-3],"split_indices":[51,77,55,80,77,25,25,0,0,0,0,0,0,0,0],"split_type":[0,0,0,0,0,0,0,0,0,0,0,0,0,0,0],"sum_hessian":[6.7645938E3,3.2974507E3,3.467143E3,2.2009717E3,1.096479E3,1.8639352E3,1.6032078E3,1.5684556E3,6.3251605E2,6.0334424E2,4.9313483E2,6.56789E2,1.2071461E3,4.1398804E2,1.1892197E3],"tree_param":{"num_deleted":"0","num_feature":"106","num_nodes":"15","size_leaf_vector":"1"}},{"base_weights":[1.0768207E-1,2.65793E-1,-4.2723704E-2,3.5432407E-1,8.79229E-2,9.230273E-2,-1.9966897E-1,2.9092277E-3,5.1083337E-3,1.7486652E-3,-1.8590146E-4,-1.0608251E-3,2.0023945E-3,-3.6865477E-3,-1.4058177E-3],"categories":[],"categories_nodes":[],"categories_segments":[],"categories_sizes":[],"default_left":[0,0,0,0,0,0,0,0,0,0,0,0,0,0,0],"id":65,"left_children":[1,3,5,7,9,11,13,-1,-1,-1,-1,-1,-1,-1,-1],"loss_changes":[1.6090259E2,5.1909622E1,7.351449E1,2.1701324E1,1.0166601E1,3.9955196E1,1.5966026E1,0E0,0E0,0E0,0E0,0E0,0E0,0E0,0E0],"parents":[2147483647,0,0,1,1,2,2,3,3,4,4,5,5,6,6],"right_children":[2,4,6,8,10,12,14,-1,-1,-1,-1,-1,-1,-1,-1],"split_conditions":[1.5E1,2.9E0,5.25E-1,2.3E1,6E0,-4.8E0,-5.9E0,2.9092277E-3,5.1083337E-3,1.7486652E-3,-1.8590146E-4,-1.0608251E-3,2.0023945E-3,-3.6865477E-3,-1.4058177E-3],"split_indices":[51,77,55,80,77,25,25,0,0,0,0,0,0,0,0],"split_type":[0,0,0,0,0,0,0,0,0,0,0,0,0,0,0],"sum_hessian":[6.7645938E3,3.2974507E3,3.467143E3,2.2009717E3,1.096479E3,1.8639352E3,1.6032078E3,1.5684556E3,6.3251605E2,6.0334424E2,4.9313483E2,6.5678906E2,1.2071461E3,4.1398804E2,1.1892197E3],"tree_param":{"num_deleted":"0","num_feature":"106","num_nodes":"15","size_leaf_vector":"1"}},{"base_weights":[-1.0665199E-1,-2.0696194E-1,1.266635E-1,-1.18500665E-1,-4.0546018E-1,-1.2689535E-1,2.0232819E-1,-2.7480763E-3,-2.7986008E-4,-3.5054048E-3,-5.3063342E-3,-2.157139E-3,7.192274E-4,3.2726806E-3,1.1064783E-3],"categories":[],"categories_nodes":[],"categories_segments":[],"categories_sizes":[],"default_left":[0,0,0,0,0,0,0,0,0,0,0,0,0,0,0],"id":66,"left_children":[1,3,5,7,9,11,13,-1,-1,-1,-1,-1,-1,-1,-1],"loss_changes":[1.5829987E2,8.300398E1,3.9047752E1,4.630085E1,9.834473E0,8.281048E0,1.7911545E1,0E0,0E0,0E0,0E0,0E0,0E0,0E0,0E0],"parents":[2147483647,0,0,1,1,2,2,3,3,4,4,5,5,6,6],"right_children":[2,4,6,8,10,12,14,-1,-1,-1,-1,-1,-1,-1,-1],"split_conditions":[2E1,1.9E1,3.73E-1,8E0,3.7E1,2.7E1,-5.9E0,-2.7480763E-3,-2.7986008E-4,-3.5054048E-3,-5.3063342E-3,-2.157139E-3,7.192274E-4,3.2726806E-3,1.1064783E-3],"split_indices":[28,80,55,51,54,28,25,0,0,0,0,0,0,0,0],"split_type":[0,0,0,0,0,0,0,0,0,0,0,0,0,0,0],"sum_hessian":[6.7617144E3,4.728773E3,2.032941E3,3.2721345E3,1.4566387E3,4.6707053E2,1.5658705E3,1.1992135E3,2.072921E3,1.0150755E3,4.415632E2,3.2278635E2,1.442842E2,6.6163715E2,9.042334E2],"tree_param":{"num_deleted":"0","num_feature":"106","num_nodes":"15","size_leaf_vector":"1"}},{"base_weights":[1.0665199E-1,2.0696194E-1,-1.266635E-1,1.1850066E-1,4.0546018E-1,1.2689538E-1,-2.023282E-1,2.7480763E-3,2.7986008E-4,3.5054048E-3,5.306335E-3,2.1571391E-3,-7.192272E-4,-3.2726806E-3,-1.1064783E-3],"categories":[],"categories_nodes":[],"categories_segments":[],"categories_sizes":[],"default_left":[0,0,0,0,0,0,0,0,0,0,0,0,0,0,0],"id":67,"left_children":[1,3,5,7,9,11,13,-1,-1,-1,-1,-1,-1,-1,-1],"loss_changes":[1.582999E2,8.3004E1,3.904776E1,4.630084E1,9.834488E0,8.281048E0,1.7911552E1,0E0,0E0,0E0,0E0,0E0,0E0,0E0,0E0],"parents":[2147483647,0,0,1,1,2,2,3,3,4,4,5,5,6,6],"right_children":[2,4,6,8,10,12,14,-1,-1,-1,-1,-1,-1,-1,-1],"split_conditions":[2E1,1.9E1,3.73E-1,8E0,3.7E1,2.7E1,-5.9E0,2.7480763E-3,2.7986008E-4,3.5054048E-3,5.306335E-3,2.1571391E-3,-7.192272E-4,-3.2726806E-3,-1.1064783E-3],"split_indices":[28,80,55,51,54,28,25,0,0,0,0,0,0,0,0],"split_type":[0,0,0,0,0,0,0,0,0,0,0,0,0,0,0],"sum_hessian":[6.7617144E3,4.728773E3,2.032941E3,3.2721345E3,1.4566387E3,4.6707053E2,1.5658705E3,1.1992135E3,2.072921E3,1.0150755E3,4.415632E2,3.2278632E2,1.4428418E2,6.6163715E2,9.0423334E2],"tree_param":{"num_deleted":"0","num_feature":"106","num_nodes":"15","size_leaf_vector":"1"}},{"base_weights":[-1.0563142E-1,-2.61161E-1,4.2219255E-2,-3.3777645E-1,-6.0426004E-2,-1.7138617E-1,1.3863856E-1,-2.780093E-3,-5.0321124E-3,3.095152E-4,-1.7758327E-3,5.0696766E-4,-2.693207E-3,4.6307468E-4,2.5983206E-3],"categories":[],"categories_nodes":[],"categories_segments":[],"categories_sizes":[],"default_left":[0,0,0,0,0,0,0,0,0,0,0,0,0,0,0],"id":68,"left_children":[1,3,5,7,9,11,13,-1,-1,-1,-1,-1,-1,-1,-1],"loss_changes":[1.554558E2,5.0647583E1,7.1415764E1,2.3434357E1,9.761478E0,2.3470636E1,2.6719086E1,0E0,0E0,0E0,0E0,0E0,0E0,0E0,0E0],"parents":[2147483647,0,0,1,1,2,2,3,3,4,4,5,5,6,6],"right_children":[2,4,6,8,10,12,14,-1,-1,-1,-1,-1,-1,-1,-1],"split_conditions":[1.5E1,3.8E0,-2E0,2.3E1,6.54E-1,3.26E-1,2.4E1,-2.780093E-3,-5.0321124E-3,3.095152E-4,-1.7758327E-3,5.0696766E-4,-2.693207E-3,4.6307468E-4,2.5983206E-3],"split_indices":[51,77,77,80,3,3,51,0,0,0,0,0,0,0,0],"split_type":[0,0,0,0,0,0,0,0,0,0,0,0,0,0,0],"sum_hessian":[6.758892E3,3.2935347E3,3.4653574E3,2.3832327E3,9.1030206E2,1.0775024E3,2.387855E3,1.752707E3,6.305256E2,5.118317E2,3.984704E2,3.298943E2,7.476081E2,1.3560969E3,1.0317582E3],"tree_param":{"num_deleted":"0","num_feature":"106","num_nodes":"15","size_leaf_vector":"1"}},{"base_weights":[1.0563142E-1,2.61161E-1,-4.2219255E-2,3.3777645E-1,6.042601E-2,1.713862E-1,-1.3863857E-1,2.780093E-3,5.0321124E-3,-3.0951548E-4,1.7758334E-3,-5.0696713E-4,2.6932072E-3,-4.6307474E-4,-2.598321E-3],"categories":[],"categories_nodes":[],"categories_segments":[],"categories_sizes":[],"default_left":[0,0,0,0,0,0,0,0,0,0,0,0,0,0,0],"id":69,"left_children":[1,3,5,7,9,11,13,-1,-1,-1,-1,-1,-1,-1,-1],"loss_changes":[1.554558E2,5.0647583E1,7.141579E1,2.3434387E1,9.761488E0,2.3470633E1,2.6719093E1,0E0,0E0,0E0,0E0,0E0,0E0,0E0,0E0],"parents":[2147483647,0,0,1,1,2,2,3,3,4,4,5,5,6,6],"right_children":[2,4,6,8,10,12,14,-1,-1,-1,-1,-1,-1,-1,-1],"split_conditions":[1.5E1,3.8E0,-2E0,2.3E1,6.54E-1,3.26E-1,2.4E1,2.780093E-3,5.0321124E-3,-3.0951548E-4,1.7758334E-3,-5.0696713E-4,2.6932072E-3,-4.6307474E-4,-2.598321E-3],"split_indices":[51,77,77,80,3,3,51,0,0,0,0,0,0,0,0],"split_type":[0,0,0,0,0,0,0,0,0,0,0,0,0,0,0],"sum_hessian":[6.758892E3,3.2935347E3,3.4653574E3,2.3832327E3,9.1030206E2,1.0775024E3,2.387855E3,1.752707E3,6.305256E2,5.118317E2,3.9847037E2,3.298943E2,7.476081E2,1.3560969E3,1.0317582E3],"tree_param":{"num_deleted":"0","num_feature":"106","num_nodes":"15","size_leaf_vector":"1"}},{"base_weights":[-1.0462377E-1,-2.0320618E-1,1.2457991E-1,-8.132783E-2,-3.4338424E-1,-5.5058138E-3,2.6822087E-1,-2.4038244E-3,3.3045835E-5,-4.9123648E-3,-2.796188E-3,1.2105962E-3,-1.4450818E-3,4.235584E-3,2.000103E-3],"categories":[],"categories_nodes":[],"categories_segments":[],"categories_sizes":[],"default_left":[0,0,0,0,0,0,0,0,0,0,0,0,0,0,0],"id":70,"left_children":[1,3,5,7,9,11,13,-1,-1,-1,-1,-1,-1,-1,-1],"loss_changes":[1.5269977E2,8.069893E1,3.7984947E1,3.4041992E1,2.0578094E1,1.880132E1,1.0151428E1,0E0,0E0,0E0,0E0,0E0,0E0,0E0,0E0],"parents":[2147483647,0,0,1,1,2,2,3,3,4,4,5,5,6,6],"right_children":[2,4,6,8,10,12,14,-1,-1,-1,-1,-1,-1,-1,-1],"split_conditions":[2E1,1.4E1,5.14E-1,7E0,7E0,-4.9E0,-7E0,-2.4038244E-3,3.3045835E-5,-4.9123648E-3,-2.796188E-3,1.2105962E-3,-1.4450818E-3,4.235584E-3,2.000103E-3],"split_indices":[28,80,55,29,51,25,25,0,0,0,0,0,0,0,0],"split_type":[0,0,0,0,0,0,0,0,0,0,0,0,0,0,0],"sum_hessian":[6.7558667E3,4.724104E3,2.031763E3,2.527842E3,2.1962617E3,1.0666937E3,9.650693E2,8.772795E2,1.6505626E3,6.597656E2,1.5364962E3,5.583918E2,5.0830188E2,2.9287912E2,6.721902E2],"tree_param":{"num_deleted":"0","num_feature":"106","num_nodes":"15","size_leaf_vector":"1"}},{"base_weights":[1.0462376E-1,2.0320617E-1,-1.2457992E-1,8.132782E-2,3.433842E-1,5.5058096E-3,-2.682209E-1,2.4038244E-3,-3.304604E-5,4.9123648E-3,2.796188E-3,-1.2105964E-3,1.4450819E-3,-4.235584E-3,-2.0001035E-3],"categories":[],"categories_nodes":[],"categories_segments":[],"categories_sizes":[],"default_left":[0,0,0,0,0,0,0,0,0,0,0,0,0,0,0],"id":71,"left_children":[1,3,5,7,9,11,13,-1,-1,-1,-1,-1,-1,-1,-1],"loss_changes":[1.5269975E2,8.06989E1,3.7984955E1,3.4041992E1,2.0578125E1,1.8801323E1,1.0151421E1,0E0,0E0,0E0,0E0,0E0,0E0,0E0,0E0],"parents":[2147483647,0,0,1,1,2,2,3,3,4,4,5,5,6,6],"right_children":[2,4,6,8,10,12,14,-1,-1,-1,-1,-1,-1,-1,-1],"split_conditions":[2E1,1.4E1,5.14E-1,7E0,7E0,-4.9E0,-7E0,2.4038244E-3,-3.304604E-5,4.9123648E-3,2.796188E-3,-1.2105964E-3,1.4450819E-3,-4.235584E-3,-2.0001035E-3],"split_indices":[28,80,55,29,51,25,25,0,0,0,0,0,0,0,0],"split_type":[0,0,0,0,0,0,0,0,0,0,0,0,0,0,0],"sum_hessian":[6.7558667E3,4.724104E3,2.031763E3,2.527842E3,2.1962617E3,1.0666937E3,9.650693E2,8.772795E2,1.6505626E3,6.597656E2,1.5364962E3,5.5839185E2,5.0830185E2,2.9287912E2,6.721902E2],"tree_param":{"num_deleted":"0","num_feature":"106","num_nodes":"15","size_leaf_vector":"1"}},{"base_weights":[-1.0362394E-1,-2.5656298E-1,4.1660458E-2,-3.3218417E-1,-5.8713056E-2,-8.947247E-2,1.9407138E-1,-2.7309936E-3,-4.9606687E-3,3.0917954E-4,-1.7368805E-3,1.0204418E-3,-1.9374049E-3,3.5725988E-3,1.371561E-3],"categories":[],"categories_nodes":[],"categories_segments":[],"categories_sizes":[],"default_left":[0,0,0,0,0,0,0,0,0,0,0,0,0,0,0],"id":72,"left_children":[1,3,5,7,9,11,13,-1,-1,-1,-1,-1,-1,-1,-1],"loss_changes":[1.500803E2,4.921057E1,6.925906E1,2.2913147E1,9.394473E0,3.7220627E1,1.4835541E1,0E0,0E0,0E0,0E0,0E0,0E0,0E0,0E0],"parents":[2147483647,0,0,1,1,2,2,3,3,4,4,5,5,6,6],"right_children":[2,4,6,8,10,12,14,-1,-1,-1,-1,-1,-1,-1,-1],"split_conditions":[1.5E1,3.8E0,5.25E-1,2.3E1,6.54E-1,-4.8E0,-5.9E0,-2.7309936E-3,-4.9606687E-3,3.0917954E-4,-1.7368805E-3,1.0204418E-3,-1.9374049E-3,3.5725988E-3,1.371561E-3],"split_indices":[51,77,55,80,3,25,25,0,0,0,0,0,0,0,0],"split_type":[0,0,0,0,0,0,0,0,0,0,0,0,0,0,0],"sum_hessian":[6.752912E3,3.2894177E3,3.4634946E3,2.3793254E3,9.1009235E2,1.8619248E3,1.6015698E3,1.7507809E3,6.285445E2,5.1182233E2,3.9827002E2,6.5636066E2,1.2055641E3,4.1277545E2,1.1887943E3],"tree_param":{"num_deleted":"0","num_feature":"106","num_nodes":"15","size_leaf_vector":"1"}},{"base_weights":[1.0362394E-1,2.5656298E-1,-4.1660447E-2,3.3218414E-1,5.8713056E-2,8.947249E-2,-1.9407137E-1,2.7309933E-3,4.9606687E-3,-3.0917962E-4,1.7368805E-3,-1.0204416E-3,1.9374049E-3,-3.572598E-3,-1.371561E-3],"categories":[],"categories_nodes":[],"categories_segments":[],"categories_sizes":[],"default_left":[0,0,0,0,0,0,0,0,0,0,0,0,0,0,0],"id":73,"left_children":[1,3,5,7,9,11,13,-1,-1,-1,-1,-1,-1,-1,-1],"loss_changes":[1.5008029E2,4.9210556E1,6.925906E1,2.2913177E1,9.394474E0,3.7220627E1,1.4835533E1,0E0,0E0,0E0,0E0,0E0,0E0,0E0,0E0],"parents":[2147483647,0,0,1,1,2,2,3,3,4,4,5,5,6,6],"right_children":[2,4,6,8,10,12,14,-1,-1,-1,-1,-1,-1,-1,-1],"split_conditions":[1.5E1,3.8E0,5.25E-1,2.3E1,6.54E-1,-4.8E0,-5.9E0,2.7309933E-3,4.9606687E-3,-3.0917962E-4,1.7368805E-3,-1.0204416E-3,1.9374049E-3,-3.572598E-3,-1.371561E-3],"split_indices":[51,77,55,80,3,25,25,0,0,0,0,0,0,0,0],"split_type":[0,0,0,0,0,0,0,0,0,0,0,0,0,0,0],"sum_hessian":[6.7529126E3,3.2894177E3,3.4634946E3,2.3793254E3,9.1009235E2,1.8619248E3,1.6015698E3,1.7507809E3,6.2854456E2,5.1182233E2,3.9827002E2,6.5636066E2,1.2055641E3,4.1277545E2,1.1887943E3],"tree_param":{"num_deleted":"0","num_feature":"106","num_nodes":"15","size_leaf_vector":"1"}},{"base_weights":[-1.02635846E-1,8.295887E-2,-2.2032778E-1,-1.07290395E-1,1.7050461E-1,-5.116043E-2,-3.2181677E-1,4.124388E-4,-2.2497242E-3,3.527673E-4,2.480831E-3,-1.7102663E-3,5.741192E-4,-2.595658E-3,-4.5627E-3],"categories":[],"categories_nodes":[],"categories_segments":[],"categories_sizes":[],"default_left":[0,0,0,0,0,0,0,0,0,0,0,0,0,0,0],"id":74,"left_children":[1,3,5,7,9,11,13,-1,-1,-1,-1,-1,-1,-1,-1],"loss_changes":[1.4747668E2,4.366275E1,7.0914154E1,1.4455065E1,1.8822132E1,2.0186432E1,2.149292E1,0E0,0E0,0E0,0E0,0E0,0E0,0E0,0E0],"parents":[2147483647,0,0,1,1,2,2,3,3,4,4,5,5,6,6],"right_children":[2,4,6,8,10,12,14,-1,-1,-1,-1,-1,-1,-1,-1],"split_conditions":[4.68E-1,-2E0,1.1E1,-4.8E0,1.7E1,9E0,2.3E1,4.124388E-4,-2.2497242E-3,3.527673E-4,2.480831E-3,-1.7102663E-3,5.741192E-4,-2.595658E-3,-4.5627E-3],"split_indices":[3,77,103,25,47,51,80,0,0,0,0,0,0,0,0],"split_type":[0,0,0,0,0,0,0,0,0,0,0,0,0,0,0],"sum_hessian":[6.749831E3,2.619421E3,4.13041E3,8.254267E2,1.7939943E3,1.5493588E3,2.5810515E3,3.6517047E2,4.6025626E2,6.5453033E2,1.139464E3,7.361063E2,8.1325244E2,1.7662295E3,8.1482196E2],"tree_param":{"num_deleted":"0","num_feature":"106","num_nodes":"15","size_leaf_vector":"1"}},{"base_weights":[1.0263585E-1,-8.295886E-2,2.203278E-1,1.07290395E-1,-1.7050461E-1,5.1160447E-2,3.2181677E-1,-4.1243885E-4,2.2497242E-3,-3.5276724E-4,-2.480831E-3,1.7102665E-3,-5.74119E-4,2.5956582E-3,4.5626997E-3],"categories":[],"categories_nodes":[],"categories_segments":[],"categories_sizes":[],"default_left":[0,0,0,0,0,0,0,0,0,0,0,0,0,0,0],"id":75,"left_children":[1,3,5,7,9,11,13,-1,-1,-1,-1,-1,-1,-1,-1],"loss_changes":[1.474767E2,4.366275E1,7.091414E1,1.4455065E1,1.8822128E1,2.0186426E1,2.149292E1,0E0,0E0,0E0,0E0,0E0,0E0,0E0,0E0],"parents":[2147483647,0,0,1,1,2,2,3,3,4,4,5,5,6,6],"right_children":[2,4,6,8,10,12,14,-1,-1,-1,-1,-1,-1,-1,-1],"split_conditions":[4.68E-1,-2E0,1.1E1,-4.8E0,1.7E1,9E0,2.3E1,-4.1243885E-4,2.2497242E-3,-3.5276724E-4,-2.480831E-3,1.7102665E-3,-5.74119E-4,2.5956582E-3,4.5626997E-3],"split_indices":[3,77,103,25,47,51,80,0,0,0,0,0,0,0,0],"split_type":[0,0,0,0,0,0,0,0,0,0,0,0,0,0,0],"sum_hessian":[6.749831E3,2.619421E3,4.13041E3,8.254267E2,1.7939943E3,1.5493588E3,2.5810515E3,3.6517047E2,4.6025626E2,6.5453033E2,1.139464E3,7.361063E2,8.132524E2,1.7662295E3,8.14822E2],"tree_param":{"num_deleted":"0","num_feature":"106","num_nodes":"15","size_leaf_vector":"1"}},{"base_weights":[-1.0165706E-1,-2.5213945E-1,4.1186173E-2,-3.3734617E-1,-8.170125E-2,-1.6618274E-1,1.3473995E-1,-2.765564E-3,-4.883909E-3,-1.6905497E-3,2.2917503E-4,4.899659E-4,-2.6122963E-3,4.5434252E-4,2.5213875E-3],"categories":[],"categories_nodes":[],"categories_segments":[],"categories_sizes":[],"default_left":[0,0,0,0,0,0,0,0,0,0,0,0,0,0,0],"id":76,"left_children":[1,3,5,7,9,11,13,-1,-1,-1,-1,-1,-1,-1,-1],"loss_changes":[1.4505664E2,4.769571E1,6.71977E1,1.9978622E1,1.0025538E1,2.2038519E1,2.5011398E1,0E0,0E0,0E0,0E0,0E0,0E0,0E0,0E0],"parents":[2147483647,0,0,1,1,2,2,3,3,4,4,5,5,6,6],"right_children":[2,4,6,8,10,12,14,-1,-1,-1,-1,-1,-1,-1,-1],"split_conditions":[1.5E1,2.9E0,-2E0,2.3E1,1.15E1,3.26E-1,2.4E1,-2.765564E-3,-4.883909E-3,-1.6905497E-3,2.2917503E-4,4.899659E-4,-2.6122963E-3,4.5434252E-4,2.5213875E-3],"split_indices":[51,77,77,80,60,3,51,0,0,0,0,0,0,0,0],"split_type":[0,0,0,0,0,0,0,0,0,0,0,0,0,0,0],"sum_hessian":[6.7467837E3,3.2851653E3,3.4616187E3,2.1895635E3,1.0956018E3,1.0759403E3,2.3856782E3,1.5632472E3,6.2631635E2,5.967317E2,4.988701E2,3.297943E2,7.4614606E2,1.3557451E3,1.0299331E3],"tree_param":{"num_deleted":"0","num_feature":"106","num_nodes":"15","size_leaf_vector":"1"}},{"base_weights":[1.0165706E-1,2.5213945E-1,-4.118617E-2,3.3734614E-1,8.170126E-2,1.6618274E-1,-1.3473995E-1,2.765564E-3,4.883909E-3,1.6905498E-3,-2.2917496E-4,-4.899658E-4,2.6122963E-3,-4.543423E-4,-2.5213878E-3],"categories":[],"categories_nodes":[],"categories_segments":[],"categories_sizes":[],"default_left":[0,0,0,0,0,0,0,0,0,0,0,0,0,0,0],"id":77,"left_children":[1,3,5,7,9,11,13,-1,-1,-1,-1,-1,-1,-1,-1],"loss_changes":[1.4505661E2,4.769571E1,6.71977E1,1.9978622E1,1.0025539E1,2.2038523E1,2.5011398E1,0E0,0E0,0E0,0E0,0E0,0E0,0E0,0E0],"parents":[2147483647,0,0,1,1,2,2,3,3,4,4,5,5,6,6],"right_children":[2,4,6,8,10,12,14,-1,-1,-1,-1,-1,-1,-1,-1],"split_conditions":[1.5E1,2.9E0,-2E0,2.3E1,