{"learner":{"attributes":{},"feature_names":[],"feature_types":[],"gradient_booster":{"model":{"gbtree_model_param":{"num_parallel_tree":"1","num_trees":"1500"},"iteration_indptr":[0,2,4,6,8,10,12,14,16,18,20,22,24,26,28,30,32,34,36,38,40,42,44,46,48,50,52,54,56,58,60,62,64,66,68,70,72,74,76,78,80,82,84,86,88,90,92,94,96,98,100,102,104,106,108,110,112,114,116,118,120,122,124,126,128,130,132,134,136,138,140,142,144,146,148,150,152,154,156,158,160,162,164,166,168,170,172,174,176,178,180,182,184,186,188,190,192,194,196,198,200,202,204,206,208,210,212,214,216,218,220,222,224,226,228,230,232,234,236,238,240,242,244,246,248,250,252,254,256,258,260,262,264,266,268,270,272,274,276,278,280,282,284,286,288,290,292,294,296,298,300,302,304,306,308,310,312,314,316,318,320,322,324,326,328,330,332,334,336,338,340,342,344,346,348,350,352,354,356,358,360,362,364,366,368,370,372,374,376,378,380,382,384,386,388,390,392,394,396,398,400,402,404,406,408,410,412,414,416,418,420,422,424,426,428,430,432,434,436,438,440,442,444,446,448,450,452,454,456,458,460,462,464,466,468,470,472,474,476,478,480,482,484,486,488,490,492,494,496,498,500,502,504,506,508,510,512,514,516,518,520,522,524,526,528,530,532,534,536,538,540,542,544,546,548,550,552,554,556,558,560,562,564,566,568,570,572,574,576,578,580,582,584,586,588,590,592,594,596,598,600,602,604,606,608,610,612,614,616,618,620,622,624,626,628,630,632,634,636,638,640,642,644,646,648,650,652,654,656,658,660,662,664,666,668,670,672,674,676,678,680,682,684,686,688,690,692,694,696,698,700,702,704,706,708,710,712,714,716,718,720,722,724,726,728,730,732,734,736,738,740,742,744,746,748,750,752,754,756,758,760,762,764,766,768,770,772,774,776,778,780,782,784,786,788,790,792,794,796,798,800,802,804,806,808,810,812,814,816,818,820,822,824,826,828,830,832,834,836,838,840,842,844,846,848,850,852,854,856,858,860,862,864,866,868,870,872,874,876,878,880,882,884,886,888,890,892,894,896,898,900,902,904,906,908,910,912,914,916,918,920,922,924,926,928,930,932,934,936,938,940,942,944,946,948,950,952,954,956,958,960,962,964,966,968,970,972,974,976,978,980,982,984,986,988,990,992,994,996,998,1000,1002,1004,1006,1008,1010,1012,1014,1016,1018,1020,1022,1024,1026,1028,1030,1032,1034,1036,1038,1040,1042,1044,1046,1048,1050,1052,1054,1056,1058,1060,1062,1064,1066,1068,1070,1072,1074,1076,1078,1080,1082,1084,1086,1088,1090,1092,1094,1096,1098,1100,1102,1104,1106,1108,1110,1112,1114,1116,1118,1120,1122,1124,1126,1128,1130,1132,1134,1136,1138,1140,1142,1144,1146,1148,1150,1152,1154,1156,1158,1160,1162,1164,1166,1168,1170,1172,1174,1176,1178,1180,1182,1184,1186,1188,1190,1192,1194,1196,1198,1200,1202,1204,1206,1208,1210,1212,1214,1216,1218,1220,1222,1224,1226,1228,1230,1232,1234,1236,1238,1240,1242,1244,1246,1248,1250,1252,1254,1256,1258,1260,1262,1264,1266,1268,1270,1272,1274,1276,1278,1280,1282,1284,1286,1288,1290,1292,1294,1296,1298,1300,1302,1304,1306,1308,1310,1312,1314,1316,1318,1320,1322,1324,1326,1328,1330,1332,1334,1336,1338,1340,1342,1344,1346,1348,1350,1352,1354,1356,1358,1360,1362,1364,1366,1368,1370,1372,1374,1376,1378,1380,1382,1384,1386,1388,1390,1392,1394,1396,1398,1400,1402,1404,1406,1408,1410,1412,1414,1416,1418,1420,1422,1424,1426,1428,1430,1432,1434,1436,1438,1440,1442,1444,1446,1448,1450,1452,1454,1456,1458,1460,1462,1464,1466,1468,1470,1472,1474,1476,1478,1480,1482,1484,1486,1488,1490,1492,1494,1496,1498,1500],"tree_info":[0,1,0,1,0,1,0,1,0,1,0,1,0,1,0,1,0,1,0,1,0,1,0,1,0,1,0,1,0,1,0,1,0,1,0,1,0,1,0,1,0,1,0,1,0,1,0,1,0,1,0,1,0,1,0,1,0,1,0,1,0,1,0,1,0,1,0,1,0,1,0,1,0,1,0,1,0,1,0,1,0,1,0,1,0,1,0,1,0,1,0,1,0,1,0,1,0,1,0,1,0,1,0,1,0,1,0,1,0,1,0,1,0,1,0,1,0,1,0,1,0,1,0,1,0,1,0,1,0,1,0,1,0,1,0,1,0,1,0,1,0,1,0,1,0,1,0,1,0,1,0,1,0,1,0,1,0,1,0,1,0,1,0,1,0,1,0,1,0,1,0,1,0,1,0,1,0,1,0,1,0,1,0,1,0,1,0,1,0,1,0,1,0,1,0,1,0,1,0,1,0,1,0,1,0,1,0,1,0,1,0,1,0,1,0,1,0,1,0,1,0,1,0,1,0,1,0,1,0,1,0,1,0,1,0,1,0,1,0,1,0,1,0,1,0,1,0,1,0,1,0,1,0,1,0,1,0,1,0,1,0,1,0,1,0,1,0,1,0,1,0,1,0,1,0,1,0,1,0,1,0,1,0,1,0,1,0,1,0,1,0,1,0,1,0,1,0,1,0,1,0,1,0,1,0,1,0,1,0,1,0,1,0,1,0,1,0,1,0,1,0,1,0,1,0,1,0,1,0,1,0,1,0,1,0,1,0,1,0,1,0,1,0,1,0,1,0,1,0,1,0,1,0,1,0,1,0,1,0,1,0,1,0,1,0,1,0,1,0,1,0,1,0,1,0,1,0,1,0,1,0,1,0,1,0,1,0,1,0,1,0,1,0,1,0,1,0,1,0,1,0,1,0,1,0,1,0,1,0,1,0,1,0,1,0,1,0,1,0,1,0,1,0,1,0,1,0,1,0,1,0,1,0,1,0,1,0,1,0,1,0,1,0,1,0,1,0,1,0,1,0,1,0,1,0,1,0,1,0,1,0,1,0,1,0,1,0,1,0,1,0,1,0,1,0,1,0,1,0,1,0,1,0,1,0,1,0,1,0,1,0,1,0,1,0,1,0,1,0,1,0,1,0,1,0,1,0,1,0,1,0,1,0,1,0,1,0,1,0,1,0,1,0,1,0,1,0,1,0,1,0,1,0,1,0,1,0,1,0,1,0,1,0,1,0,1,0,1,0,1,0,1,0,1,0,1,0,1,0,1,0,1,0,1,0,1,0,1,0,1,0,1,0,1,0,1,0,1,0,1,0,1,0,1,0,1,0,1,0,1,0,1,0,1,0,1,0,1,0,1,0,1,0,1,0,1,0,1,0,1,0,1,0,1,0,1,0,1,0,1,0,1,0,1,0,1,0,1,0,1,0,1,0,1,0,1,0,1,0,1,0,1,0,1,0,1,0,1,0,1,0,1,0,1,0,1,0,1,0,1,0,1,0,1,0,1,0,1,0,1,0,1,0,1,0,1,0,1,0,1,0,1,0,1,0,1,0,1,0,1,0,1,0,1,0,1,0,1,0,1,0,1,0,1,0,1,0,1,0,1,0,1,0,1,0,1,0,1,0,1,0,1,0,1,0,1,0,1,0,1,0,1,0,1,0,1,0,1,0,1,0,1,0,1,0,1,0,1,0,1,0,1,0,1,0,1,0,1,0,1,0,1,0,1,0,1,0,1,0,1,0,1,0,1,0,1,0,1,0,1,0,1,0,1,0,1,0,1,0,1,0,1,0,1,0,1,0,1,0,1,0,1,0,1,0,1,0,1,0,1,0,1,0,1,0,1,0,1,0,1,0,1,0,1,0,1,0,1,0,1,0,1,0,1,0,1,0,1,0,1,0,1,0,1,0,1,0,1,0,1,0,1,0,1,0,1,0,1,0,1,0,1,0,1,0,1,0,1,0,1,0,1,0,1,0,1,0,1,0,1,0,1,0,1,0,1,0,1,0,1,0,1,0,1,0,1,0,1,0,1,0,1,0,1,0,1,0,1,0,1,0,1,0,1,0,1,0,1,0,1,0,1,0,1,0,1,0,1,0,1,0,1,0,1,0,1,0,1,0,1,0,1,0,1,0,1,0,1,0,1,0,1,0,1,0,1,0,1,0,1,0,1,0,1,0,1,0,1,0,1,0,1,0,1,0,1,0,1,0,1,0,1,0,1,0,1,0,1,0,1,0,1,0,1,0,1,0,1,0,1,0,1,0,1,0,1,0,1,0,1,0,1,0,1,0,1,0,1,0,1,0,1,0,1,0,1,0,1,0,1,0,1,0,1,0,1,0,1,0,1,0,1,0,1,0,1,0,1,0,1,0,1,0,1,0,1,0,1,0,1,0,1,0,1,0,1,0,1,0,1,0,1,0,1,0,1,0,1,0,1,0,1,0,1,0,1,0,1,0,1,0,1,0,1,0,1,0,1,0,1,0,1,0,1,0,1,0,1,0,1,0,1,0,1,0,1,0,1,0,1,0,1,0,1,0,1,0,1,0,1,0,1,0,1,0,1,0,1,0,1,0,1,0,1,0,1,0,1,0,1,0,1,0,1,0,1,0,1,0,1,0,1,0,1,0,1,0,1,0,1,0,1,0,1,0,1,0,1,0,1,0,1,0,1,0,1,0,1,0,1,0,1,0,1,0,1,0,1,0,1,0,1,0,1,0,1,0,1,0,1,0,1,0,1,0,1,0,1,0,1,0,1,0,1,0,1,0,1,0,1,0,1,0,1,0,1,0,1,0,1,0,1,0,1,0,1,0,1,0,1,0,1,0,1,0,1,0,1,0,1,0,1,0,1,0,1,0,1,0,1,0,1,0,1,0,1,0,1,0,1,0,1,0,1,0,1,0,1,0,1,0,1,0,1,0,1,0,1,0,1,0,1,0,1,0,1,0,1,0,1,0,1,0,1,0,1,0,1,0,1,0,1,0,1,0,1,0,1,0,1,0,1,0,1,0,1,0,1,0,1,0,1,0,1,0,1,0,1,0,1,0,1,0,1,0,1,0,1,0,1,0,1,0,1,0,1,0,1,0,1,0,1,0,1,0,1,0,1,0,1,0,1,0,1,0,1,0,1,0,1,0,1,0,1,0,1,0,1,0,1,0,1,0,1,0,1,0,1,0,1,0,1,0,1,0,1,0,1,0,1,0,1,0,1,0,1,0,1,0,1,0,1,0,1,0,1,0,1,0,1,0,1,0,1,0,1,0,1,0,1,0,1,0,1,0,1,0,1,0,1,0,1,0,1,0,1,0,1,0,1,0,1,0,1,0,1,0,1,0,1,0,1,0,1,0,1,0,1,0,1,0,1,0,1,0,1,0,1,0,1],"trees":[{"base_weights":[-1.4873372E-1,-2.8464106E-1,1.7058824E-1,-1.2196086E-1,-4.6631324E-1,-8.672295E-2,2.9111192E-1,-2.7858028E-3,2.1986353E-4,-6.366279E-3,-3.9169043E-3,7.324365E-4,-2.5471698E-3,4.4995793E-3,1.7211055E-3],"categories":[],"categories_nodes":[],"categories_segments":[],"categories_sizes":[],"default_left":[0,0,0,0,0,0,0,0,0,0,0,0,0,0,0],"id":0,"left_children":[1,3,5,7,9,11,13,-1,-1,-1,-1,-1,-1,-1,-1],"loss_changes":[2.9650165E2,1.4156812E2,6.3289913E1,5.703352E1,2.851825E1,1.7526697E1,2.6188133E1,0E0,0E0,0E0,0E0,0E0,0E0,0E0,0E0],"parents":[2147483647,0,0,1,1,2,2,3,3,4,4,5,5,6,6],"right_children":[2,4,6,8,10,12,14,-1,-1,-1,-1,-1,-1,-1,-1],"split_conditions":[2E1,1.4E1,-1.9E0,1E1,7E0,-4.8E0,-5.9E0,-2.7858028E-3,2.1986353E-4,-6.366279E-3,-3.9169043E-3,7.324365E-4,-2.5471698E-3,4.4995793E-3,1.7211055E-3],"split_indices":[28,80,77,51,51,25,25,0,0,0,0,0,0,0,0],"split_type":[0,0,0,0,0,0,0,0,0,0,0,0,0,0,0],"sum_hessian":[6.83E3,4.791E3,2.039E3,2.5285E3,2.2625E3,6.505E2,1.3885E3,1.2105E3,1.318E3,6.87E2,1.5755E3,3.335E2,3.17E2,5.935E2,7.95E2],"tree_param":{"num_deleted":"0","num_feature":"106","num_nodes":"15","size_leaf_vector":"1"}},{"base_weights":[1.4873372E-1,2.8464106E-1,-1.7058824E-1,1.2196086E-1,4.6631324E-1,8.672295E-2,-2.9111192E-1,2.7858028E-3,-2.1986353E-4,6.366279E-3,3.9169043E-3,-7.324365E-4,2.5471698E-3,-4.4995793E-3,-1.7211055E-3],"categories":[],"categories_nodes":[],"categories_segments":[],"categories_sizes":[],"default_left":[0,0,0,0,0,0,0,0,0,0,0,0,0,0,0],"id":1,"left_children":[1,3,5,7,9,11,13,-1,-1,-1,-1,-1,-1,-1,-1],"loss_changes":[2.9650165E2,1.4156812E2,6.3289913E1,5.703352E1,2.851825E1,1.7526697E1,2.6188133E1,0E0,0E0,0E0,0E0,0E0,0E0,0E0,0E0],"parents":[2147483647,0,0,1,1,2,2,3,3,4,4,5,5,6,6],"right_children":[2,4,6,8,10,12,14,-1,-1,-1,-1,-1,-1,-1,-1],"split_conditions":[2E1,1.4E1,-1.9E0,1E1,7E0,-4.8E0,-5.9E0,2.7858028E-3,-2.1986353E-4,6.366279E-3,3.9169043E-3,-7.324365E-4,2.5471698E-3,-4.4995793E-3,-1.7211055E-3],"split_indices":[28,80,77,51,51,25,25,0,0,0,0,0,0,0,0],"split_type":[0,0,0,0,0,0,0,0,0,0,0,0,0,0,0],"sum_hessian":[6.83E3,4.791E3,2.039E3,2.5285E3,2.2625E3,6.505E2,1.3885E3,1.2105E3,1.318E3,6.87E2,1.5755E3,3.335E2,3.17E2,5.935E2,7.95E2],"tree_param":{"num_deleted":"0","num_feature":"106","num_nodes":"15","size_leaf_vector":"1"}},{"base_weights":[-1.4724928E-1,-2.8180093E-1,1.6888589E-1,-1.207427E-1,-4.616652E-1,-8.585876E-2,2.8820825E-1,-2.757989E-3,2.17667E-4,-6.302964E-3,-3.877819E-3,7.251345E-4,-2.5217938E-3,4.4547496E-3,1.7039208E-3],"categories":[],"categories_nodes":[],"categories_segments":[],"categories_sizes":[],"default_left":[0,0,0,0,0,0,0,0,0,0,0,0,0,0,0],"id":2,"left_children":[1,3,5,7,9,11,13,-1,-1,-1,-1,-1,-1,-1,-1],"loss_changes":[2.9061115E2,1.3876013E2,6.2033573E1,5.5900074E1,2.7955994E1,1.7179108E1,2.5669258E1,0E0,0E0,0E0,0E0,0E0,0E0,0E0,0E0],"parents":[2147483647,0,0,1,1,2,2,3,3,4,4,5,5,6,6],"right_children":[2,4,6,8,10,12,14,-1,-1,-1,-1,-1,-1,-1,-1],"split_conditions":[2E1,1.4E1,-1.9E0,1E1,7E0,-4.8E0,-5.9E0,-2.757989E-3,2.17667E-4,-6.302964E-3,-3.877819E-3,7.251345E-4,-2.5217938E-3,4.4547496E-3,1.7039208E-3],"split_indices":[28,80,77,51,51,25,25,0,0,0,0,0,0,0,0],"split_type":[0,0,0,0,0,0,0,0,0,0,0,0,0,0,0],"sum_hessian":[6.829922E3,4.7909385E3,2.0389834E3,2.5284905E3,2.2624482E3,6.504978E2,1.3884856E3,1.2104906E3,1.3179999E3,6.8697217E2,1.575476E3,3.3349982E2,3.1699796E2,5.93488E2,7.949976E2],"tree_param":{"num_deleted":"0","num_feature":"106","num_nodes":"15","size_leaf_vector":"1"}},{"base_weights":[1.4724931E-1,2.81801E-1,-1.6888589E-1,1.20742716E-1,4.6166533E-1,8.58588E-2,-2.8820825E-1,2.757989E-3,-2.1766669E-4,6.3029653E-3,3.87782E-3,-7.251345E-4,2.5217948E-3,-4.4547496E-3,-1.7039209E-3],"categories":[],"categories_nodes":[],"categories_segments":[],"categories_sizes":[],"default_left":[0,0,0,0,0,0,0,0,0,0,0,0,0,0,0],"id":3,"left_children":[1,3,5,7,9,11,13,-1,-1,-1,-1,-1,-1,-1,-1],"loss_changes":[2.9061127E2,1.387602E2,6.2033596E1,5.5900055E1,2.7955902E1,1.7179115E1,2.5669266E1,0E0,0E0,0E0,0E0,0E0,0E0,0E0,0E0],"parents":[2147483647,0,0,1,1,2,2,3,3,4,4,5,5,6,6],"right_children":[2,4,6,8,10,12,14,-1,-1,-1,-1,-1,-1,-1,-1],"split_conditions":[2E1,1.4E1,-1.9E0,1E1,7E0,-4.8E0,-5.9E0,2.757989E-3,-2.1766669E-4,6.3029653E-3,3.87782E-3,-7.251345E-4,2.5217948E-3,-4.4547496E-3,-1.7039209E-3],"split_indices":[28,80,77,51,51,25,25,0,0,0,0,0,0,0,0],"split_type":[0,0,0,0,0,0,0,0,0,0,0,0,0,0,0],"sum_hessian":[6.829922E3,4.7909385E3,2.0389834E3,2.5284905E3,2.262448E3,6.5049774E2,1.3884856E3,1.2104906E3,1.3179999E3,6.8697217E2,1.5754758E3,3.3349982E2,3.1699796E2,5.93488E2,7.949977E2],"tree_param":{"num_deleted":"0","num_feature":"106","num_nodes":"15","size_leaf_vector":"1"}},{"base_weights":[-1.4578304E-1,-2.7899632E-1,1.6720322E-1,-1.19537696E-1,-4.5708436E-1,-8.500386E-2,2.853394E-1,-2.7304953E-3,2.1549071E-4,-3.617092E-3,-5.8562583E-3,7.179058E-4,-2.496704E-3,4.410541E-3,1.6869182E-3],"categories":[],"categories_nodes":[],"categories_segments":[],"categories_sizes":[],"default_left":[0,0,0,0,0,0,0,0,0,0,0,0,0,0,0],"id":4,"left_children":[1,3,5,7,9,11,13,-1,-1,-1,-1,-1,-1,-1,-1],"loss_changes":[2.8484494E2,1.3602014E2,6.080363E1,5.4790215E1,2.75354E1,1.6838646E1,2.5163094E1,0E0,0E0,0E0,0E0,0E0,0E0,0E0,0E0],"parents":[2147483647,0,0,1,1,2,2,3,3,4,4,5,5,6,6],"right_children":[2,4,6,8,10,12,14,-1,-1,-1,-1,-1,-1,-1,-1],"split_conditions":[2E1,1.4E1,-1.9E0,1E1,2.3E1,-4.8E0,-5.9E0,-2.7304953E-3,2.1549071E-4,-3.617092E-3,-5.8562583E-3,7.179058E-4,-2.496704E-3,4.410541E-3,1.6869182E-3],"split_indices":[28,80,77,51,80,25,25,0,0,0,0,0,0,0,0],"split_type":[0,0,0,0,0,0,0,0,0,0,0,0,0,0,0],"sum_hessian":[6.829691E3,4.790757E3,2.0389342E3,2.5284626E3,2.2622942E3,6.5049115E2,1.3884431E3,1.2104628E3,1.3179998E3,1.300881E3,9.6141315E2,3.334993E2,3.1699185E2,5.934524E2,7.9499066E2],"tree_param":{"num_deleted":"0","num_feature":"106","num_nodes":"15","size_leaf_vector":"1"}},{"base_weights":[1.45783E-1,2.789963E-1,-1.6720323E-1,1.1953763E-1,4.5708436E-1,8.50039E-2,-2.8533942E-1,2.7304953E-3,-2.154919E-4,3.6170923E-3,5.8562583E-3,-7.1790494E-4,2.496704E-3,-4.4105425E-3,-1.6869182E-3],"categories":[],"categories_nodes":[],"categories_segments":[],"categories_sizes":[],"default_left":[0,0,0,0,0,0,0,0,0,0,0,0,0,0,0],"id":5,"left_children":[1,3,5,7,9,11,13,-1,-1,-1,-1,-1,-1,-1,-1],"loss_changes":[2.8484497E2,1.3602017E2,6.0803673E1,5.479026E1,2.753537E1,1.6838638E1,2.5163116E1,0E0,0E0,0E0,0E0,0E0,0E0,0E0,0E0],"parents":[2147483647,0,0,1,1,2,2,3,3,4,4,5,5,6,6],"right_children":[2,4,6,8,10,12,14,-1,-1,-1,-1,-1,-1,-1,-1],"split_conditions":[2E1,1.4E1,-1.9E0,1E1,2.3E1,-4.8E0,-5.9E0,2.7304953E-3,-2.154919E-4,3.6170923E-3,5.8562583E-3,-7.1790494E-4,2.496704E-3,-4.4105425E-3,-1.6869182E-3],"split_indices":[28,80,77,51,80,25,25,0,0,0,0,0,0,0,0],"split_type":[0,0,0,0,0,0,0,0,0,0,0,0,0,0,0],"sum_hessian":[6.829691E3,4.7907563E3,2.0389342E3,2.5284626E3,2.262294E3,6.5049115E2,1.3884431E3,1.2104628E3,1.3179998E3,1.3008809E3,9.614131E2,3.334993E2,3.1699185E2,5.934524E2,7.9499066E2],"tree_param":{"num_deleted":"0","num_feature":"106","num_nodes":"15","size_leaf_vector":"1"}},{"base_weights":[-1.4433415E-1,-3.5020977E-1,5.504822E-2,-1.8197091E-1,-4.9787366E-1,-1.9808048E-1,1.8846107E-1,-2.7183534E-3,-5.283533E-4,-4.077803E-3,-6.5071573E-3,6.733568E-4,-3.3747097E-3,6.526861E-4,3.4912622E-3],"categories":[],"categories_nodes":[],"categories_segments":[],"categories_sizes":[],"default_left":[0,0,0,0,0,0,0,0,0,0,0,0,0,0,0],"id":6,"left_children":[1,3,5,7,9,11,13,-1,-1,-1,-1,-1,-1,-1,-1],"loss_changes":[2.8039014E2,8.33956E1,1.1724653E2,1.8233166E1,2.4371368E1,4.4359238E1,4.4972984E1,0E0,0E0,0E0,0E0,0E0,0E0,0E0,0E0],"parents":[2147483647,0,0,1,1,2,2,3,3,4,4,5,5,6,6],"right_children":[2,4,6,8,10,12,14,-1,-1,-1,-1,-1,-1,-1,-1],"split_conditions":[1.5E1,1.2E1,-1.5E0,4.9E0,2.3E1,-4.8E0,2.4E1,-2.7183534E-3,-5.283533E-4,-4.077803E-3,-6.5071573E-3,6.733568E-4,-3.3747097E-3,6.526861E-4,3.4912622E-3],"split_indices":[51,80,77,77,80,25,51,0,0,0,0,0,0,0,0],"split_type":[0,0,0,0,0,0,0,0,0,0,0,0,0,0,0],"sum_hessian":[6.8293228E3,3.359578E3,3.4697449E3,1.5714265E3,1.7881512E3,1.1973975E3,2.2723474E3,9.25956E2,6.454706E2,1.1273177E3,6.6083356E2,4.12488E2,7.849094E2,1.2869586E3,9.8538873E2],"tree_param":{"num_deleted":"0","num_feature":"106","num_nodes":"15","size_leaf_vector":"1"}},{"base_weights":[1.4433417E-1,3.502098E-1,-5.5048227E-2,1.8197091E-1,4.9787372E-1,1.9808045E-1,-1.8846107E-1,2.7183534E-3,5.2835327E-4,4.077804E-3,6.5071583E-3,-6.733567E-4,3.3747095E-3,-6.5268605E-4,-3.4912624E-3],"categories":[],"categories_nodes":[],"categories_segments":[],"categories_sizes":[],"default_left":[0,0,0,0,0,0,0,0,0,0,0,0,0,0,0],"id":7,"left_children":[1,3,5,7,9,11,13,-1,-1,-1,-1,-1,-1,-1,-1],"loss_changes":[2.8039014E2,8.33956E1,1.17246506E2,1.823317E1,2.4371338E1,4.4359222E1,4.497297E1,0E0,0E0,0E0,0E0,0E0,0E0,0E0,0E0],"parents":[2147483647,0,0,1,1,2,2,3,3,4,4,5,5,6,6],"right_children":[2,4,6,8,10,12,14,-1,-1,-1,-1,-1,-1,-1,-1],"split_conditions":[1.5E1,1.2E1,-1.5E0,4.9E0,2.3E1,-4.8E0,2.4E1,2.7183534E-3,5.2835327E-4,4.077804E-3,6.5071583E-3,-6.733567E-4,3.3747095E-3,-6.5268605E-4,-3.4912624E-3],"split_indices":[51,80,77,77,80,25,51,0,0,0,0,0,0,0,0],"split_type":[0,0,0,0,0,0,0,0,0,0,0,0,0,0,0],"sum_hessian":[6.8293228E3,3.359578E3,3.4697449E3,1.5714265E3,1.7881512E3,1.1973975E3,2.2723474E3,9.25956E2,6.454706E2,1.1273177E3,6.6083356E2,4.12488E2,7.849094E2,1.2869586E3,9.853888E2],"tree_param":{"num_deleted":"0","num_feature":"106","num_nodes":"15","size_leaf_vector":"1"}},{"base_weights":[-1.4290254E-1,-3.467459E-1,5.4500315E-2,-1.8015763E-1,-4.929813E-1,-1.9611228E-1,1.8658458E-1,-2.691299E-3,-5.230809E-4,-4.037522E-3,-6.443774E-3,6.666407E-4,-3.3412685E-3,6.461644E-4,3.4566515E-3],"categories":[],"categories_nodes":[],"categories_segments":[],"categories_sizes":[],"default_left":[0,0,0,0,0,0,0,0,0,0,0,0,0,0,0],"id":8,"left_children":[1,3,5,7,9,11,13,-1,-1,-1,-1,-1,-1,-1,-1],"loss_changes":[2.7484726E2,8.177057E1,1.1492053E2,1.787194E1,2.3905487E1,4.348225E1,4.408542E1,0E0,0E0,0E0,0E0,0E0,0E0,0E0,0E0],"parents":[2147483647,0,0,1,1,2,2,3,3,4,4,5,5,6,6],"right_children":[2,4,6,8,10,12,14,-1,-1,-1,-1,-1,-1,-1,-1],"split_conditions":[1.5E1,1.2E1,-1.5E0,4.9E0,2.3E1,-4.8E0,2.4E1,-2.691299E-3,-5.230809E-4,-4.037522E-3,-6.443774E-3,6.666407E-4,-3.3412685E-3,6.461644E-4,3.4566515E-3],"split_indices":[51,80,77,77,80,25,51,0,0,0,0,0,0,0,0],"split_type":[0,0,0,0,0,0,0,0,0,0,0,0,0,0,0],"sum_hessian":[6.8288555E3,3.3592495E3,3.469606E3,1.5713888E3,1.7878608E3,1.197335E3,2.272271E3,9.259219E2,6.4546686E2,1.1271897E3,6.606711E2,4.1248694E2,7.84848E2,1.286958E3,9.85313E2],"tree_param":{"num_deleted":"0","num_feature":"106","num_nodes":"15","size_leaf_vector":"1"}},{"base_weights":[1.4290252E-1,3.4674594E-1,-5.450035E-2,1.8015763E-1,4.9298137E-1,1.9611226E-1,-1.8658462E-1,2.691299E-3,5.2308076E-4,4.037522E-3,6.4437743E-3,-6.6664093E-4,3.3412683E-3,-6.461649E-4,-3.4566522E-3],"categories":[],"categories_nodes":[],"categories_segments":[],"categories_sizes":[],"default_left":[0,0,0,0,0,0,0,0,0,0,0,0,0,0,0],"id":9,"left_children":[1,3,5,7,9,11,13,-1,-1,-1,-1,-1,-1,-1,-1],"loss_changes":[2.7484732E2,8.17706E1,1.1492053E2,1.787194E1,2.3905426E1,4.348225E1,4.408541E1,0E0,0E0,0E0,0E0,0E0,0E0,0E0,0E0],"parents":[2147483647,0,0,1,1,2,2,3,3,4,4,5,5,6,6],"right_children":[2,4,6,8,10,12,14,-1,-1,-1,-1,-1,-1,-1,-1],"split_conditions":[1.5E1,1.2E1,-1.5E0,4.9E0,2.3E1,-4.8E0,2.4E1,2.691299E-3,5.2308076E-4,4.037522E-3,6.4437743E-3,-6.6664093E-4,3.3412683E-3,-6.461649E-4,-3.4566522E-3],"split_indices":[51,80,77,77,80,25,51,0,0,0,0,0,0,0,0],"split_type":[0,0,0,0,0,0,0,0,0,0,0,0,0,0,0],"sum_hessian":[6.8288555E3,3.3592495E3,3.469606E3,1.5713888E3,1.7878608E3,1.197335E3,2.272271E3,9.259219E2,6.4546686E2,1.1271898E3,6.606711E2,4.1248694E2,7.84848E2,1.286958E3,9.85313E2],"tree_param":{"num_deleted":"0","num_feature":"106","num_nodes":"15","size_leaf_vector":"1"}},{"base_weights":[-1.4148809E-1,1.2024899E-1,-2.9257053E-1,-1.2627473E-1,2.3513544E-1,-5.2841127E-1,-1.7909181E-1,6.2786747E-4,-2.8234571E-3,8.237588E-4,3.4150197E-3,-2.7598636E-3,-5.6940946E-3,-3.328776E-3,-4.3175524E-4],"categories":[],"categories_nodes":[],"categories_segments":[],"categories_sizes":[],"default_left":[0,0,0,0,0,0,0,0,0,0,0,0,0,0,0],"id":10,"left_children":[1,3,5,7,9,11,13,-1,-1,-1,-1,-1,-1,-1,-1],"loss_changes":[2.7009003E2,7.083683E1,1.1579382E2,2.3486946E1,2.768657E1,1.4395355E1,6.1124207E1,0E0,0E0,0E0,0E0,0E0,0E0,0E0,0E0],"parents":[2147483647,0,0,1,1,2,2,3,3,4,4,5,5,6,6],"right_children":[2,4,6,8,10,12,14,-1,-1,-1,-1,-1,-1,-1,-1],"split_conditions":[4.59E-1,-2E0,-1.4E0,-4.8E0,2.4E1,1.1E1,9E0,6.2786747E-4,-2.8234571E-3,8.237588E-4,3.4150197E-3,-2.7598636E-3,-5.6940946E-3,-3.328776E-3,-4.3175524E-4],"split_indices":[3,77,77,25,51,52,51,0,0,0,0,0,0,0,0],"split_type":[0,0,0,0,0,0,0,0,0,0,0,0,0,0,0],"sum_hessian":[6.8282446E3,2.4990552E3,4.3291895E3,7.943777E2,1.7046775E3,1.405178E3,2.9240117E3,3.5949265E2,4.3488507E2,7.004674E2,1.0042101E3,1.9741736E2,1.2077606E3,1.371146E3,1.5528657E3],"tree_param":{"num_deleted":"0","num_feature":"106","num_nodes":"15","size_leaf_vector":"1"}},{"base_weights":[1.4148809E-1,-1.2024895E-1,2.925705E-1,1.2627476E-1,-2.351354E-1,5.284112E-1,1.790918E-1,-6.2786636E-4,2.8234564E-3,-8.2375883E-4,-3.4150193E-3,2.7598634E-3,5.6940946E-3,3.328776E-3,4.3175518E-4],"categories":[],"categories_nodes":[],"categories_segments":[],"categories_sizes":[],"default_left":[0,0,0,0,0,0,0,0,0,0,0,0,0,0,0],"id":11,"left_children":[1,3,5,7,9,11,13,-1,-1,-1,-1,-1,-1,-1,-1],"loss_changes":[2.7008994E2,7.083682E1,1.1579382E2,2.3486921E1,2.768657E1,1.4395355E1,6.112422E1,0E0,0E0,0E0,0E0,0E0,0E0,0E0,0E0],"parents":[2147483647,0,0,1,1,2,2,3,3,4,4,5,5,6,6],"right_children":[2,4,6,8,10,12,14,-1,-1,-1,-1,-1,-1,-1,-1],"split_conditions":[4.59E-1,-2E0,-1.4E0,-4.8E0,2.4E1,1.1E1,9E0,-6.2786636E-4,2.8234564E-3,-8.2375883E-4,-3.4150193E-3,2.7598634E-3,5.6940946E-3,3.328776E-3,4.3175518E-4],"split_indices":[3,77,77,25,51,52,51,0,0,0,0,0,0,0,0],"split_type":[0,0,0,0,0,0,0,0,0,0,0,0,0,0,0],"sum_hessian":[6.8282446E3,2.4990552E3,4.32919E3,7.943777E2,1.7046775E3,1.405178E3,2.9240117E3,3.5949265E2,4.3488507E2,7.004674E2,1.00421E3,1.9741736E2,1.2077606E3,1.371146E3,1.5528657E3],"tree_param":{"num_deleted":"0","num_feature":"106","num_nodes":"15","size_leaf_vector":"1"}},{"base_weights":[-1.400897E-1,-2.686252E-1,1.6186714E-1,-1.14406876E-1,-4.4094968E-1,-8.042185E-2,2.7537066E-1,-2.631245E-3,2.2245364E-4,-6.053384E-3,-3.689621E-3,6.9055695E-4,-2.3744733E-3,4.268164E-3,1.6196375E-3],"categories":[],"categories_nodes":[],"categories_segments":[],"categories_sizes":[],"default_left":[0,0,0,0,0,0,0,0,0,0,0,0,0,0,0],"id":12,"left_children":[1,3,5,7,9,11,13,-1,-1,-1,-1,-1,-1,-1,-1],"loss_changes":[2.6507324E2,1.2724808E2,5.6108887E1,5.1405266E1,2.654361E1,1.5305855E1,2.3788162E1,0E0,0E0,0E0,0E0,0E0,0E0,0E0,0E0],"parents":[2147483647,0,0,1,1,2,2,3,3,4,4,5,5,6,6],"right_children":[2,4,6,8,10,12,14,-1,-1,-1,-1,-1,-1,-1,-1],"split_conditions":[2E1,1.4E1,-1.9E0,1E1,7E0,-4.8E0,-5.9E0,-2.631245E-3,2.2245364E-4,-6.053384E-3,-3.689621E-3,6.9055695E-4,-2.3744733E-3,4.268164E-3,1.6196375E-3],"split_indices":[28,80,77,51,51,25,25,0,0,0,0,0,0,0,0],"split_type":[0,0,0,0,0,0,0,0,0,0,0,0,0,0,0],"sum_hessian":[6.827521E3,4.789052E3,2.0384695E3,2.5281755E3,2.260876E3,6.5039746E2,1.3880721E3,1.2101992E3,1.3179764E3,6.862856E2,1.5745905E3,3.3349405E2,3.169034E2,5.931735E2,7.9489856E2],"tree_param":{"num_deleted":"0","num_feature":"106","num_nodes":"15","size_leaf_vector":"1"}},{"base_weights":[1.4008972E-1,2.6862523E-1,-1.6186714E-1,1.1440693E-1,4.4094968E-1,8.0421895E-2,-2.753707E-1,2.6312454E-3,-2.2245305E-4,6.053384E-3,3.6896206E-3,-6.905558E-4,2.3744728E-3,-4.268164E-3,-1.6196377E-3],"categories":[],"categories_nodes":[],"categories_segments":[],"categories_sizes":[],"default_left":[0,0,0,0,0,0,0,0,0,0,0,0,0,0,0],"id":13,"left_children":[1,3,5,7,9,11,13,-1,-1,-1,-1,-1,-1,-1,-1],"loss_changes":[2.6507324E2,1.27247955E2,5.6108906E1,5.1405273E1,2.654358E1,1.5305842E1,2.378817E1,0E0,0E0,0E0,0E0,0E0,0E0,0E0,0E0],"parents":[2147483647,0,0,1,1,2,2,3,3,4,4,5,5,6,6],"right_children":[2,4,6,8,10,12,14,-1,-1,-1,-1,-1,-1,-1,-1],"split_conditions":[2E1,1.4E1,-1.9E0,1E1,7E0,-4.8E0,-5.9E0,2.6312454E-3,-2.2245305E-4,6.053384E-3,3.6896206E-3,-6.905558E-4,2.3744728E-3,-4.268164E-3,-1.6196377E-3],"split_indices":[28,80,77,51,51,25,25,0,0,0,0,0,0,0,0],"split_type":[0,0,0,0,0,0,0,0,0,0,0,0,0,0,0],"sum_hessian":[6.827521E3,4.789052E3,2.0384695E3,2.5281755E3,2.2608762E3,6.5039746E2,1.388072E3,1.2101991E3,1.3179764E3,6.862856E2,1.5745906E3,3.3349405E2,3.1690338E2,5.931735E2,7.948985E2],"tree_param":{"num_deleted":"0","num_feature":"106","num_nodes":"15","size_leaf_vector":"1"}},{"base_weights":[-1.387079E-1,-3.372277E-1,5.349461E-2,-1.7451082E-1,-4.8014453E-1,-1.9032076E-1,1.8198414E-1,-2.6252242E-3,-4.8058096E-4,-3.9268057E-3,-6.2862188E-3,6.471811E-4,-3.2431807E-3,6.386129E-4,3.3609965E-3],"categories":[],"categories_nodes":[],"categories_segments":[],"categories_sizes":[],"default_left":[0,0,0,0,0,0,0,0,0,0,0,0,0,0,0],"id":14,"left_children":[1,3,5,7,9,11,13,-1,-1,-1,-1,-1,-1,-1,-1],"loss_changes":[2.6053375E2,7.802423E1,1.08738144E2,1.7484406E1,2.2967804E1,4.0962467E1,4.1355164E1,0E0,0E0,0E0,0E0,0E0,0E0,0E0,0E0],"parents":[2147483647,0,0,1,1,2,2,3,3,4,4,5,5,6,6],"right_children":[2,4,6,8,10,12,14,-1,-1,-1,-1,-1,-1,-1,-1],"split_conditions":[1.5E1,1.2E1,-1.5E0,4.9E0,2.3E1,-4.8E0,2.4E1,-2.6252242E-3,-4.8058096E-4,-3.9268057E-3,-6.2862188E-3,6.471811E-4,-3.2431807E-3,6.386129E-4,3.3609965E-3],"split_indices":[51,80,77,77,80,25,51,0,0,0,0,0,0,0,0],"split_type":[0,0,0,0,0,0,0,0,0,0,0,0,0,0,0],"sum_hessian":[6.8266475E3,3.3577651E3,3.4688823E3,1.5711572E3,1.786608E3,1.1970115E3,2.2718708E3,9.257532E2,6.4540405E2,1.1266019E3,6.6000604E2,4.124696E2,7.845419E2,1.2869183E3,9.849526E2],"tree_param":{"num_deleted":"0","num_feature":"106","num_nodes":"15","size_leaf_vector":"1"}},{"base_weights":[1.387079E-1,3.372277E-1,-5.3494602E-2,1.7451084E-1,4.8014453E-1,1.9032079E-1,-1.8198414E-1,2.6252249E-3,4.8058087E-4,3.9268057E-3,6.286218E-3,-6.471811E-4,3.243181E-3,-6.386128E-4,-3.3609965E-3],"categories":[],"categories_nodes":[],"categories_segments":[],"categories_sizes":[],"default_left":[0,0,0,0,0,0,0,0,0,0,0,0,0,0,0],"id":15,"left_children":[1,3,5,7,9,11,13,-1,-1,-1,-1,-1,-1,-1,-1],"loss_changes":[2.6053375E2,7.802423E1,1.0873817E2,1.7484413E1,2.2967773E1,4.096247E1,4.1355164E1,0E0,0E0,0E0,0E0,0E0,0E0,0E0,0E0],"parents":[2147483647,0,0,1,1,2,2,3,3,4,4,5,5,6,6],"right_children":[2,4,6,8,10,12,14,-1,-1,-1,-1,-1,-1,-1,-1],"split_conditions":[1.5E1,1.2E1,-1.5E0,4.9E0,2.3E1,-4.8E0,2.4E1,2.6252249E-3,4.8058087E-4,3.9268057E-3,6.286218E-3,-6.471811E-4,3.243181E-3,-6.386128E-4,-3.3609965E-3],"split_indices":[51,80,77,77,80,25,51,0,0,0,0,0,0,0,0],"split_type":[0,0,0,0,0,0,0,0,0,0,0,0,0,0,0],"sum_hessian":[6.8266475E3,3.3577651E3,3.4688823E3,1.5711572E3,1.786608E3,1.1970115E3,2.2718708E3,9.257532E2,6.4540405E2,1.1266019E3,6.6000604E2,4.124696E2,7.845418E2,1.2869183E3,9.849526E2],"tree_param":{"num_deleted":"0","num_feature":"106","num_nodes":"15","size_leaf_vector":"1"}},{"base_weights":[-1.3734251E-1,-2.635711E-1,1.5916222E-1,-1.6201845E-1,-5.176495E-1,-7.8333534E-2,2.70432E-1,-3.4114516E-3,-5.7151227E-4,-3.8280883E-3,-5.8686016E-3,6.772278E-4,-2.3179948E-3,4.19512E-3,1.5883219E-3],"categories":[],"categories_nodes":[],"categories_segments":[],"categories_sizes":[],"default_left":[0,0,0,0,0,0,0,0,0,0,0,0,0,0,0],"id":16,"left_children":[1,3,5,7,9,11,13,-1,-1,-1,-1,-1,-1,-1,-1],"loss_changes":[2.5554622E2,1.2347305E2,5.3905945E1,6.4273094E1,1.2532379E1,1.4614806E1,2.3038498E1,0E0,0E0,0E0,0E0,0E0,0E0,0E0,0E0],"parents":[2147483647,0,0,1,1,2,2,3,3,4,4,5,5,6,6],"right_children":[2,4,6,8,10,12,14,-1,-1,-1,-1,-1,-1,-1,-1],"split_conditions":[2E1,2E1,-1.9E0,8E0,5.3E-1,-4.8E0,-5.9E0,-3.4114516E-3,-5.7151227E-4,-3.8280883E-3,-5.8686016E-3,6.772278E-4,-2.3179948E-3,4.19512E-3,1.5883219E-3],"split_indices":[28,80,77,51,3,25,25,0,0,0,0,0,0,0,0],"split_type":[0,0,0,0,0,0,0,0,0,0,0,0,0,0,0],"sum_hessian":[6.8256675E3,4.787594E3,2.0380732E3,3.4216367E3,1.3659574E3,6.5031915E2,1.387754E3,1.2626371E3,2.1589998E3,4.655245E2,9.00433E2,3.3348972E2,3.1682944E2,5.929311E2,7.9482294E2],"tree_param":{"num_deleted":"0","num_feature":"106","num_nodes":"15","size_leaf_vector":"1"}},{"base_weights":[1.373425E-1,2.635711E-1,-1.5916225E-1,1.6201843E-1,5.1764953E-1,7.833348E-2,-2.7043203E-1,3.411451E-3,5.7151244E-4,3.8280885E-3,5.868602E-3,-6.7722786E-4,2.3179941E-3,-4.1951207E-3,-1.5883219E-3],"categories":[],"categories_nodes":[],"categories_segments":[],"categories_sizes":[],"default_left":[0,0,0,0,0,0,0,0,0,0,0,0,0,0,0],"id":17,"left_children":[1,3,5,7,9,11,13,-1,-1,-1,-1,-1,-1,-1,-1],"loss_changes":[2.5554626E2,1.2347308E2,5.3905926E1,6.427306E1,1.2532349E1,1.4614796E1,2.3038506E1,0E0,0E0,0E0,0E0,0E0,0E0,0E0,0E0],"parents":[2147483647,0,0,1,1,2,2,3,3,4,4,5,5,6,6],"right_children":[2,4,6,8,10,12,14,-1,-1,-1,-1,-1,-1,-1,-1],"split_conditions":[2E1,2E1,-1.9E0,8E0,5.3E-1,-4.8E0,-5.9E0,3.411451E-3,5.7151244E-4,3.8280885E-3,5.868602E-3,-6.7722786E-4,2.3179941E-3,-4.1951207E-3,-1.5883219E-3],"split_indices":[28,80,77,51,3,25,25,0,0,0,0,0,0,0,0],"split_type":[0,0,0,0,0,0,0,0,0,0,0,0,0,0,0],"sum_hessian":[6.8256675E3,4.787594E3,2.0380732E3,3.4216367E3,1.3659574E3,6.5031915E2,1.3877542E3,1.2626371E3,2.1589998E3,4.655245E2,9.004329E2,3.3348972E2,3.1682944E2,5.929311E2,7.94823E2],"tree_param":{"num_deleted":"0","num_feature":"106","num_nodes":"15","size_leaf_vector":"1"}},{"base_weights":[-1.3599205E-1,-3.3098996E-1,5.2756794E-2,-1.7077756E-1,-4.717826E-1,-1.8677536E-1,1.7897959E-1,-2.5789624E-3,-4.5623962E-4,-3.8600822E-3,-6.174791E-3,6.347573E-4,-3.1829756E-3,6.327813E-4,3.2998414E-3],"categories":[],"categories_nodes":[],"categories_segments":[],"categories_sizes":[],"default_left":[0,0,0,0,0,0,0,0,0,0,0,0,0,0,0],"id":18,"left_children":[1,3,5,7,9,11,13,-1,-1,-1,-1,-1,-1,-1,-1],"loss_changes":[2.5123782E2,7.565045E1,1.0492376E2,1.7127495E1,2.2086548E1,3.9441788E1,3.9683098E1,0E0,0E0,0E0,0E0,0E0,0E0,0E0,0E0],"parents":[2147483647,0,0,1,1,2,2,3,3,4,4,5,5,6,6],"right_children":[2,4,6,8,10,12,14,-1,-1,-1,-1,-1,-1,-1,-1],"split_conditions":[1.5E1,1.2E1,-1.5E0,4.9E0,2.3E1,-4.8E0,2.4E1,-2.5789624E-3,-4.5623962E-4,-3.8600822E-3,-6.174791E-3,6.347573E-4,-3.1829756E-3,6.327813E-4,3.2998414E-3],"split_indices":[51,80,77,77,80,25,51,0,0,0,0,0,0,0,0],"split_type":[0,0,0,0,0,0,0,0,0,0,0,0,0,0,0],"sum_hessian":[6.824597E3,3.3563608E3,3.468236E3,1.5709454E3,1.7854153E3,1.19673E3,2.271506E3,9.2558826E2,6.453572E2,1.126105E3,6.593103E2,4.124558E2,7.842742E2,1.286893E3,9.846133E2],"tree_param":{"num_deleted":"0","num_feature":"106","num_nodes":"15","size_leaf_vector":"1"}},{"base_weights":[1.3599205E-1,3.3098996E-1,-5.27568E-2,1.7077759E-1,4.717826E-1,1.8677536E-1,-1.7897959E-1,2.578963E-3,4.562394E-4,3.860082E-3,6.174791E-3,-6.347579E-4,3.1829758E-3,-6.327816E-4,-3.2998412E-3],"categories":[],"categories_nodes":[],"categories_segments":[],"categories_sizes":[],"default_left":[0,0,0,0,0,0,0,0,0,0,0,0,0,0,0],"id":19,"left_children":[1,3,5,7,9,11,13,-1,-1,-1,-1,-1,-1,-1,-1],"loss_changes":[2.5123785E2,7.565048E1,1.0492376E2,1.712751E1,2.2086517E1,3.944179E1,3.9683083E1,0E0,0E0,0E0,0E0,0E0,0E0,0E0,0E0],"parents":[2147483647,0,0,1,1,2,2,3,3,4,4,5,5,6,6],"right_children":[2,4,6,8,10,12,14,-1,-1,-1,-1,-1,-1,-1,-1],"split_conditions":[1.5E1,1.2E1,-1.5E0,4.9E0,2.3E1,-4.8E0,2.4E1,2.578963E-3,4.562394E-4,3.860082E-3,6.174791E-3,-6.347579E-4,3.1829758E-3,-6.327816E-4,-3.2998412E-3],"split_indices":[51,80,77,77,80,25,51,0,0,0,0,0,0,0,0],"split_type":[0,0,0,0,0,0,0,0,0,0,0,0,0,0,0],"sum_hessian":[6.8245967E3,3.3563608E3,3.468236E3,1.5709454E3,1.7854154E3,1.19673E3,2.271506E3,9.2558826E2,6.453572E2,1.126105E3,6.5931036E2,4.124558E2,7.842742E2,1.2868928E3,9.846133E2],"tree_param":{"num_deleted":"0","num_feature":"106","num_nodes":"15","size_leaf_vector":"1"}},{"base_weights":[-1.3465804E-1,1.1544914E-1,-2.7908114E-1,-3.6370594E-2,2.8538686E-1,-4.1230786E-1,-9.306618E-2,1.4092968E-3,-1.8767933E-3,2.054157E-3,4.402727E-3,-5.3473082E-3,-3.1031652E-3,-2.2641702E-3,5.0651946E-4],"categories":[],"categories_nodes":[],"categories_segments":[],"categories_sizes":[],"default_left":[0,0,0,0,0,0,0,0,0,0,0,0,0,0,0],"id":20,"left_children":[1,3,5,7,9,11,13,-1,-1,-1,-1,-1,-1,-1,-1],"loss_changes":[2.4653757E2,6.448085E1,1.0718219E2,3.5456287E1,1.4515495E1,3.1307434E1,3.4639545E1,0E0,0E0,0E0,0E0,0E0,0E0,0E0,0E0],"parents":[2147483647,0,0,1,1,2,2,3,3,4,4,5,5,6,6],"right_children":[2,4,6,8,10,12,14,-1,-1,-1,-1,-1,-1,-1,-1],"split_conditions":[4.59E-1,5.17E-1,1.6E0,-4.8E0,3.5E1,-2.4E0,1E1,1.4092968E-3,-1.8767933E-3,2.054157E-3,4.402727E-3,-5.3473082E-3,-3.1031652E-3,-2.2641702E-3,5.0651946E-4],"split_indices":[3,55,77,25,2,77,51,0,0,0,0,0,0,0,0],"split_type":[0,0,0,0,0,0,0,0,0,0,0,0,0,0,0],"sum_hessian":[6.8233843E3,2.4978647E3,4.3255195E3,1.3196742E3,1.1781904E3,2.5196743E3,1.8058455E3,6.0767847E2,7.119957E2,7.785388E2,3.9965164E2,1.1432078E3,1.3764666E3,9.364094E2,8.69436E2],"tree_param":{"num_deleted":"0","num_feature":"106","num_nodes":"15","size_leaf_vector":"1"}},{"base_weights":[1.3465805E-1,-1.15449116E-1,2.7908114E-1,3.637064E-2,-2.8538686E-1,4.123079E-1,9.306618E-2,-1.4092964E-3,1.8767939E-3,-2.0541567E-3,-4.402727E-3,5.3473082E-3,3.1031652E-3,2.2641704E-3,-5.065196E-4],"categories":[],"categories_nodes":[],"categories_segments":[],"categories_sizes":[],"default_left":[0,0,0,0,0,0,0,0,0,0,0,0,0,0,0],"id":21,"left_children":[1,3,5,7,9,11,13,-1,-1,-1,-1,-1,-1,-1,-1],"loss_changes":[2.4653757E2,6.448085E1,1.0718216E2,3.545629E1,1.4515495E1,3.1307404E1,3.4639545E1,0E0,0E0,0E0,0E0,0E0,0E0,0E0,0E0],"parents":[2147483647,0,0,1,1,2,2,3,3,4,4,5,5,6,6],"right_children":[2,4,6,8,10,12,14,-1,-1,-1,-1,-1,-1,-1,-1],"split_conditions":[4.59E-1,5.17E-1,1.6E0,-4.8E0,3.5E1,-2.4E0,1E1,-1.4092964E-3,1.8767939E-3,-2.0541567E-3,-4.402727E-3,5.3473082E-3,3.1031652E-3,2.2641704E-3,-5.065196E-4],"split_indices":[3,55,77,25,2,77,51,0,0,0,0,0,0,0,0],"split_type":[0,0,0,0,0,0,0,0,0,0,0,0,0,0,0],"sum_hessian":[6.8233843E3,2.4978647E3,4.3255195E3,1.3196742E3,1.1781906E3,2.5196743E3,1.8058453E3,6.076785E2,7.119957E2,7.785388E2,3.9965167E2,1.1432078E3,1.3764666E3,9.364094E2,8.694359E2],"tree_param":{"num_deleted":"0","num_feature":"106","num_nodes":"15","size_leaf_vector":"1"}},{"base_weights":[-1.3333645E-1,-3.2497418E-1,5.2106176E-2,-1.6745828E-1,-4.6348864E-1,-1.8332735E-1,1.7615423E-1,-2.5348119E-3,-4.3898373E-4,-3.7904691E-3,-6.0702413E-3,6.1641756E-4,-3.1212403E-3,6.2446663E-4,3.2460466E-3],"categories":[],"categories_nodes":[],"categories_segments":[],"categories_sizes":[],"default_left":[0,0,0,0,0,0,0,0,0,0,0,0,0,0,0],"id":22,"left_children":[1,3,5,7,9,11,13,-1,-1,-1,-1,-1,-1,-1,-1],"loss_changes":[2.424968E2,7.3137085E1,1.01329704E2,1.6694466E1,2.1404358E1,3.779796E1,3.83328E1,0E0,0E0,0E0,0E0,0E0,0E0,0E0,0E0],"parents":[2147483647,0,0,1,1,2,2,3,3,4,4,5,5,6,6],"right_children":[2,4,6,8,10,12,14,-1,-1,-1,-1,-1,-1,-1,-1],"split_conditions":[1.5E1,1.2E1,-1.5E0,4.9E0,2.3E1,-4.8E0,2.4E1,-2.5348119E-3,-4.3898373E-4,-3.7904691E-3,-6.0702413E-3,6.1641756E-4,-3.1212403E-3,6.2446663E-4,3.2460466E-3],"split_indices":[51,80,77,77,80,25,51,0,0,0,0,0,0,0,0],"split_type":[0,0,0,0,0,0,0,0,0,0,0,0,0,0,0],"sum_hessian":[6.8221523E3,3.354665E3,3.4674873E3,1.5707024E3,1.7839626E3,1.1963777E3,2.2711096E3,9.2539044E2,6.4531195E2,1.1254832E3,6.5847943E2,4.1244186E2,7.8393585E2,1.2868503E3,9.842592E2],"tree_param":{"num_deleted":"0","num_feature":"106","num_nodes":"15","size_leaf_vector":"1"}},{"base_weights":[1.3333644E-1,3.2497418E-1,-5.2106183E-2,1.6745824E-1,4.6348867E-1,1.8332733E-1,-1.7615423E-1,2.5348112E-3,4.3898355E-4,3.7904691E-3,6.070242E-3,-6.164175E-4,3.12124E-3,-6.244667E-4,-3.2460466E-3],"categories":[],"categories_nodes":[],"categories_segments":[],"categories_sizes":[],"default_left":[0,0,0,0,0,0,0,0,0,0,0,0,0,0,0],"id":23,"left_children":[1,3,5,7,9,11,13,-1,-1,-1,-1,-1,-1,-1,-1],"loss_changes":[2.4249678E2,7.3137115E1,1.013297E2,1.6694466E1,2.1404358E1,3.779795E1,3.83328E1,0E0,0E0,0E0,0E0,0E0,0E0,0E0,0E0],"parents":[2147483647,0,0,1,1,2,2,3,3,4,4,5,5,6,6],"right_children":[2,4,6,8,10,12,14,-1,-1,-1,-1,-1,-1,-1,-1],"split_conditions":[1.5E1,1.2E1,-1.5E0,4.9E0,2.3E1,-4.8E0,2.4E1,2.5348112E-3,4.3898355E-4,3.7904691E-3,6.070242E-3,-6.164175E-4,3.12124E-3,-6.244667E-4,-3.2460466E-3],"split_indices":[51,80,77,77,80,25,51,0,0,0,0,0,0,0,0],"split_type":[0,0,0,0,0,0,0,0,0,0,0,0,0,0,0],"sum_hessian":[6.8221523E3,3.354665E3,3.4674873E3,1.5707024E3,1.7839626E3,1.1963778E3,2.2711094E3,9.2539044E2,6.4531195E2,1.1254832E3,6.5847943E2,4.1244186E2,7.839359E2,1.2868503E3,9.8425916E2],"tree_param":{"num_deleted":"0","num_feature":"106","num_nodes":"15","size_leaf_vector":"1"}},{"base_weights":[-1.3203277E-1,-2.5392893E-1,1.542025E-1,-1.5573335E-1,-4.999648E-1,-7.961103E-2,2.6033968E-1,-3.3030321E-3,-5.358638E-4,-3.690847E-3,-5.67214E-3,5.2569463E-4,-2.2130131E-3,3.8809634E-3,1.331825E-3],"categories":[],"categories_nodes":[],"categories_segments":[],"categories_sizes":[],"default_left":[0,0,0,0,0,0,0,0,0,0,0,0,0,0,0],"id":24,"left_children":[1,3,5,7,9,11,13,-1,-1,-1,-1,-1,-1,-1,-1],"loss_changes":[2.3805573E2,1.1551788E2,5.0597816E1,6.0989143E1,1.1799744E1,1.1943214E1,2.2723785E1,0E0,0E0,0E0,0E0,0E0,0E0,0E0,0E0],"parents":[2147483647,0,0,1,1,2,2,3,3,4,4,5,5,6,6],"right_children":[2,4,6,8,10,12,14,-1,-1,-1,-1,-1,-1,-1,-1],"split_conditions":[2E1,2E1,4.24E-1,8E0,5.3E-1,-4.7E0,-5.1E0,-3.3030321E-3,-5.358638E-4,-3.690847E-3,-5.67214E-3,5.2569463E-4,-2.2130131E-3,3.8809634E-3,1.331825E-3],"split_indices":[28,80,55,51,3,25,25,0,0,0,0,0,0,0,0],"split_type":[0,0,0,0,0,0,0,0,0,0,0,0,0,0,0],"sum_hessian":[6.820722E3,4.783664E3,2.0370585E3,3.4202415E3,1.3634225E3,6.36075E2,1.4009834E3,1.2617197E3,2.1585217E3,4.649762E2,8.984462E2,3.2940634E2,3.0666867E2,6.9782056E2,7.031629E2],"tree_param":{"num_deleted":"0","num_feature":"106","num_nodes":"15","size_leaf_vector":"1"}},{"base_weights":[1.3203275E-1,2.539289E-1,-1.5420246E-1,1.557333E-1,4.999648E-1,7.961107E-2,-2.6033962E-1,3.3030312E-3,5.3586357E-4,3.690847E-3,5.67214E-3,-5.256946E-4,2.213014E-3,-3.8809632E-3,-1.3318245E-3],"categories":[],"categories_nodes":[],"categories_segments":[],"categories_sizes":[],"default_left":[0,0,0,0,0,0,0,0,0,0,0,0,0,0,0],"id":25,"left_children":[1,3,5,7,9,11,13,-1,-1,-1,-1,-1,-1,-1,-1],"loss_changes":[2.3805566E2,1.1551788E2,5.05978E1,6.0989113E1,1.1799713E1,1.194322E1,2.2723785E1,0E0,0E0,0E0,0E0,0E0,0E0,0E0,0E0],"parents":[2147483647,0,0,1,1,2,2,3,3,4,4,5,5,6,6],"right_children":[2,4,6,8,10,12,14,-1,-1,-1,-1,-1,-1,-1,-1],"split_conditions":[2E1,2E1,4.24E-1,8E0,5.3E-1,-4.7E0,-5.1E0,3.3030312E-3,5.3586357E-4,3.690847E-3,5.67214E-3,-5.256946E-4,2.213014E-3,-3.8809632E-3,-1.3318245E-3],"split_indices":[28,80,55,51,3,25,25,0,0,0,0,0,0,0,0],"split_type":[0,0,0,0,0,0,0,0,0,0,0,0,0,0,0],"sum_hessian":[6.820722E3,4.783664E3,2.0370585E3,3.4202415E3,1.3634225E3,6.3607495E2,1.4009835E3,1.2617197E3,2.1585217E3,4.649762E2,8.984463E2,3.2940634E2,3.0666864E2,6.9782056E2,7.031629E2],"tree_param":{"num_deleted":"0","num_feature":"106","num_nodes":"15","size_leaf_vector":"1"}},{"base_weights":[-1.3074224E-1,-3.1901786E-1,5.138391E-2,-1.6387728E-1,-4.5554864E-1,-1.801211E-1,1.7334896E-1,-2.4904057E-3,-4.1575002E-4,-3.7267443E-3,-5.9654787E-3,6.020535E-4,-3.0652992E-3,6.197285E-4,3.1881952E-3],"categories":[],"categories_nodes":[],"categories_segments":[],"categories_sizes":[],"default_left":[0,0,0,0,0,0,0,0,0,0,0,0,0,0,0],"id":26,"left_children":[1,3,5,7,9,11,13,-1,-1,-1,-1,-1,-1,-1,-1],"loss_changes":[2.3388249E2,7.096063E1,9.7940895E1,1.6356827E1,2.0615356E1,3.638227E1,3.6784843E1,0E0,0E0,0E0,0E0,0E0,0E0,0E0,0E0],"parents":[2147483647,0,0,1,1,2,2,3,3,4,4,5,5,6,6],"right_children":[2,4,6,8,10,12,14,-1,-1,-1,-1,-1,-1,-1,-1],"split_conditions":[1.5E1,1.2E1,-1.5E0,4.9E0,2.3E1,-4.8E0,2.4E1,-2.4904057E-3,-4.1575002E-4,-3.7267443E-3,-5.9654787E-3,6.020535E-4,-3.0652992E-3,6.197285E-4,3.1881952E-3],"split_indices":[51,80,77,77,80,25,51,0,0,0,0,0,0,0,0],"split_type":[0,0,0,0,0,0,0,0,0,0,0,0,0,0,0],"sum_hessian":[6.819259E3,3.3526526E3,3.466606E3,1.5704001E3,1.7822524E3,1.19599E3,2.270616E3,9.2515E2,6.452502E2,1.124787E3,6.574655E2,4.1242255E2,7.8356744E2,1.2868192E3,9.837968E2],"tree_param":{"num_deleted":"0","num_feature":"106","num_nodes":"15","size_leaf_vector":"1"}},{"base_weights":[1.3074224E-1,3.1901786E-1,-5.138393E-2,1.638773E-1,4.5554867E-1,1.8012111E-1,-1.7334901E-1,2.4904062E-3,4.157498E-4,3.7267443E-3,5.9654796E-3,-6.020541E-4,3.0652997E-3,-6.197292E-4,-3.1881952E-3],"categories":[],"categories_nodes":[],"categories_segments":[],"categories_sizes":[],"default_left":[0,0,0,0,0,0,0,0,0,0,0,0,0,0,0],"id":27,"left_children":[1,3,5,7,9,11,13,-1,-1,-1,-1,-1,-1,-1,-1],"loss_changes":[2.3388254E2,7.096066E1,9.794092E1,1.6356834E1,2.0615326E1,3.638229E1,3.678482E1,0E0,0E0,0E0,0E0,0E0,0E0,0E0,0E0],"parents":[2147483647,0,0,1,1,2,2,3,3,4,4,5,5,6,6],"right_children":[2,4,6,8,10,12,14,-1,-1,-1,-1,-1,-1,-1,-1],"split_conditions":[1.5E1,1.2E1,-1.5E0,4.9E0,2.3E1,-4.8E0,2.4E1,2.4904062E-3,4.157498E-4,3.7267443E-3,5.9654796E-3,-6.020541E-4,3.0652997E-3,-6.197292E-4,-3.1881952E-3],"split_indices":[51,80,77,77,80,25,51,0,0,0,0,0,0,0,0],"split_type":[0,0,0,0,0,0,0,0,0,0,0,0,0,0,0],"sum_hessian":[6.819259E3,3.3526526E3,3.466606E3,1.5704001E3,1.7822524E3,1.19599E3,2.270616E3,9.2514996E2,6.452502E2,1.124787E3,6.574656E2,4.1242252E2,7.8356744E2,1.2868192E3,9.837968E2],"tree_param":{"num_deleted":"0","num_feature":"106","num_nodes":"15","size_leaf_vector":"1"}},{"base_weights":[-1.294679E-1,-2.4920699E-1,1.516466E-1,-1.04502685E-1,-4.1128102E-1,4.8696157E-3,3.1523585E-1,-2.449077E-3,2.4399381E-4,-5.6885253E-3,-3.42407E-3,1.4911977E-3,-1.517009E-3,4.6166712E-3,2.1867657E-3],"categories":[],"categories_nodes":[],"categories_segments":[],"categories_sizes":[],"default_left":[0,0,0,0,0,0,0,0,0,0,0,0,0,0,0],"id":28,"left_children":[1,3,5,7,9,11,13,-1,-1,-1,-1,-1,-1,-1,-1],"loss_changes":[2.2955536E2,1.1211325E2,4.891911E1,4.5755882E1,2.4281952E1,2.429971E1,1.3522392E1,0E0,0E0,0E0,0E0,0E0,0E0,0E0,0E0],"parents":[2147483647,0,0,1,1,2,2,3,3,4,4,5,5,6,6],"right_children":[2,4,6,8,10,12,14,-1,-1,-1,-1,-1,-1,-1,-1],"split_conditions":[2E1,1.4E1,5.17E-1,1E1,7E0,-4.8E0,-6.1E0,-2.449077E-3,2.4399381E-4,-5.6885253E-3,-3.42407E-3,1.4911977E-3,-1.517009E-3,4.6166712E-3,2.1867657E-3],"split_indices":[28,80,55,51,51,25,25,0,0,0,0,0,0,0,0],"split_type":[0,0,0,0,0,0,0,0,0,0,0,0,0,0,0],"sum_hessian":[6.8176235E3,4.781209E3,2.0364147E3,2.526829E3,2.25438E3,1.0739055E3,9.6250916E2,1.2090193E3,1.3178097E3,6.834677E2,1.5709121E3,5.5896893E2,5.1493665E2,3.809781E2,5.8153107E2],"tree_param":{"num_deleted":"0","num_feature":"106","num_nodes":"15","size_leaf_vector":"1"}},{"base_weights":[1.2946789E-1,2.4920698E-1,-1.5164663E-1,1.0450267E-1,4.1128102E-1,-4.869637E-3,-3.1523588E-1,2.4490769E-3,-2.4399397E-4,5.6885253E-3,3.42407E-3,-1.4911981E-3,1.517009E-3,-4.6166717E-3,-2.1867661E-3],"categories":[],"categories_nodes":[],"categories_segments":[],"categories_sizes":[],"default_left":[0,0,0,0,0,0,0,0,0,0,0,0,0,0,0],"id":29,"left_children":[1,3,5,7,9,11,13,-1,-1,-1,-1,-1,-1,-1,-1],"loss_changes":[2.2955539E2,1.1211328E2,4.8919113E1,4.5755882E1,2.4281952E1,2.4299713E1,1.35224E1,0E0,0E0,0E0,0E0,0E0,0E0,0E0,0E0],"parents":[2147483647,0,0,1,1,2,2,3,3,4,4,5,5,6,6],"right_children":[2,4,6,8,10,12,14,-1,-1,-1,-1,-1,-1,-1,-1],"split_conditions":[2E1,1.4E1,5.17E-1,1E1,7E0,-4.8E0,-6.1E0,2.4490769E-3,-2.4399397E-4,5.6885253E-3,3.42407E-3,-1.4911981E-3,1.517009E-3,-4.6166717E-3,-2.1867661E-3],"split_indices":[28,80,55,51,51,25,25,0,0,0,0,0,0,0,0],"split_type":[0,0,0,0,0,0,0,0,0,0,0,0,0,0,0],"sum_hessian":[6.8176235E3,4.781209E3,2.0364147E3,2.526829E3,2.25438E3,1.0739055E3,9.6250916E2,1.2090193E3,1.3178097E3,6.834677E2,1.5709121E3,5.589689E2,5.149367E2,3.809781E2,5.8153107E2],"tree_param":{"num_deleted":"0","num_feature":"106","num_nodes":"15","size_leaf_vector":"1"}},{"base_weights":[-1.2820554E-1,-3.1316897E-1,5.064515E-2,-1.6072324E-1,-4.4745076E-1,-1.9127151E-1,1.6379668E-1,-2.4504194E-3,-3.9657863E-4,-3.6538679E-3,-5.871893E-3,4.5070282E-4,-3.153928E-3,5.420745E-4,3.0618452E-3],"categories":[],"categories_nodes":[],"categories_segments":[],"categories_sizes":[],"default_left":[0,0,0,0,0,0,0,0,0,0,0,0,0,0,0],"id":30,"left_children":[1,3,5,7,9,11,13,-1,-1,-1,-1,-1,-1,-1,-1],"loss_changes":[2.2552652E2,6.85325E1,9.492364E1,1.6028015E1,2.0212128E1,3.2434864E1,3.684708E1,0E0,0E0,0E0,0E0,0E0,0E0,0E0,0E0],"parents":[2147483647,0,0,1,1,2,2,3,3,4,4,5,5,6,6],"right_children":[2,4,6,8,10,12,14,-1,-1,-1,-1,-1,-1,-1,-1],"split_conditions":[1.5E1,1.2E1,-1.9E0,4.9E0,2.3E1,-4.8E0,2.4E1,-2.4504194E-3,-3.9657863E-4,-3.6538679E-3,-5.871893E-3,4.5070282E-4,-3.153928E-3,5.420745E-4,3.0618452E-3],"split_indices":[51,80,77,77,80,25,51,0,0,0,0,0,0,0,0],"split_type":[0,0,0,0,0,0,0,0,0,0,0,0,0,0,0],"sum_hessian":[6.8159575E3,3.3503494E3,3.4656084E3,1.5700828E3,1.7802665E3,1.1041844E3,2.3614238E3,9.2489484E2,6.451879E2,1.123869E3,6.563975E2,3.8043243E2,7.2375195E2,1.3351796E3,1.0262443E3],"tree_param":{"num_deleted":"0","num_feature":"106","num_nodes":"15","size_leaf_vector":"1"}},{"base_weights":[1.2820554E-1,3.1316897E-1,-5.0645158E-2,1.6072325E-1,4.474508E-1,1.9127153E-1,-1.637967E-1,2.4504198E-3,3.9657872E-4,3.653868E-3,5.871893E-3,-4.507026E-4,3.153928E-3,-5.420748E-4,-3.0618452E-3],"categories":[],"categories_nodes":[],"categories_segments":[],"categories_sizes":[],"default_left":[0,0,0,0,0,0,0,0,0,0,0,0,0,0,0],"id":31,"left_children":[1,3,5,7,9,11,13,-1,-1,-1,-1,-1,-1,-1,-1],"loss_changes":[2.2552655E2,6.853253E1,9.4923645E1,1.6028015E1,2.0212128E1,3.2434853E1,3.6847076E1,0E0,0E0,0E0,0E0,0E0,0E0,0E0,0E0],"parents":[2147483647,0,0,1,1,2,2,3,3,4,4,5,5,6,6],"right_children":[2,4,6,8,10,12,14,-1,-1,-1,-1,-1,-1,-1,-1],"split_conditions":[1.5E1,1.2E1,-1.9E0,4.9E0,2.3E1,-4.8E0,2.4E1,2.4504198E-3,3.9657872E-4,3.653868E-3,5.871893E-3,-4.507026E-4,3.153928E-3,-5.420748E-4,-3.0618452E-3],"split_indices":[51,80,77,77,80,25,51,0,0,0,0,0,0,0,0],"split_type":[0,0,0,0,0,0,0,0,0,0,0,0,0,0,0],"sum_hessian":[6.8159575E3,3.3503494E3,3.4656082E3,1.5700828E3,1.7802665E3,1.1041844E3,2.3614238E3,9.2489484E2,6.451879E2,1.123869E3,6.563975E2,3.8043243E2,7.2375195E2,1.3351796E3,1.0262443E3],"tree_param":{"num_deleted":"0","num_feature":"106","num_nodes":"15","size_leaf_vector":"1"}},{"base_weights":[-1.2695949E-1,-2.4459018E-1,1.4914045E-1,-1.4943764E-1,-4.834543E-1,3.3438841E-3,3.088277E-1,-3.1937961E-3,-5.007324E-4,-3.5629226E-3,-5.4889E-3,1.3244004E-3,-1.3428241E-3,2.068649E-3,4.653746E-3],"categories":[],"categories_nodes":[],"categories_segments":[],"categories_sizes":[],"default_left":[0,0,0,0,0,0,0,0,0,0,0,0,0,0,0],"id":32,"left_children":[1,3,5,7,9,11,13,-1,-1,-1,-1,-1,-1,-1,-1],"loss_changes":[2.2137735E2,1.0855719E2,4.7417286E1,5.7723686E1,1.1129944E1,1.8951576E1,1.541935E1,0E0,0E0,0E0,0E0,0E0,0E0,0E0,0E0],"parents":[2147483647,0,0,1,1,2,2,3,3,4,4,5,5,6,6],"right_children":[2,4,6,8,10,12,14,-1,-1,-1,-1,-1,-1,-1,-1],"split_conditions":[2E1,2E1,4E-1,8E0,5.3E-1,-4.8E0,3.5E1,-3.1937961E-3,-5.007324E-4,-3.5629226E-3,-5.4889E-3,1.3244004E-3,-1.3428241E-3,2.068649E-3,4.653746E-3],"split_indices":[28,80,77,51,3,25,2,0,0,0,0,0,0,0,0],"split_type":[0,0,0,0,0,0,0,0,0,0,0,0,0,0,0],"sum_hessian":[6.8141377E3,4.7784307E3,2.035707E3,3.4183442E3,1.3600865E3,1.0646702E3,9.710369E2,1.2604294E3,2.1579148E3,4.6428348E2,8.958031E2,5.493793E2,5.1529083E2,5.8944104E2,3.8159586E2],"tree_param":{"num_deleted":"0","num_feature":"106","num_nodes":"15","size_leaf_vector":"1"}},{"base_weights":[1.2695949E-1,2.4459018E-1,-1.4914045E-1,1.4943764E-1,4.834543E-1,-3.343857E-3,-3.0882773E-1,3.1937961E-3,5.0073233E-4,3.5629226E-3,5.488899E-3,-1.3244003E-3,1.3428245E-3,-2.0686493E-3,-4.653746E-3],"categories":[],"categories_nodes":[],"categories_segments":[],"categories_sizes":[],"default_left":[0,0,0,0,0,0,0,0,0,0,0,0,0,0,0],"id":33,"left_children":[1,3,5,7,9,11,13,-1,-1,-1,-1,-1,-1,-1,-1],"loss_changes":[2.2137732E2,1.0855722E2,4.74173E1,5.7723694E1,1.1129944E1,1.895158E1,1.5419342E1,0E0,0E0,0E0,0E0,0E0,0E0,0E0,0E0],"parents":[2147483647,0,0,1,1,2,2,3,3,4,4,5,5,6,6],"right_children":[2,4,6,8,10,12,14,-1,-1,-1,-1,-1,-1,-1,-1],"split_conditions":[2E1,2E1,4E-1,8E0,5.3E-1,-4.8E0,3.5E1,3.1937961E-3,5.0073233E-4,3.5629226E-3,5.488899E-3,-1.3244003E-3,1.3428245E-3,-2.0686493E-3,-4.653746E-3],"split_indices":[28,80,77,51,3,25,2,0,0,0,0,0,0,0,0],"split_type":[0,0,0,0,0,0,0,0,0,0,0,0,0,0,0],"sum_hessian":[6.814138E3,4.778431E3,2.035707E3,3.4183445E3,1.3600865E3,1.0646702E3,9.710369E2,1.2604294E3,2.1579148E3,4.642835E2,8.958031E2,5.493793E2,5.1529083E2,5.8944104E2,3.815959E2],"tree_param":{"num_deleted":"0","num_feature":"106","num_nodes":"15","size_leaf_vector":"1"}},{"base_weights":[-1.2572423E-1,-3.0747795E-1,4.9942408E-2,-1.5729707E-1,-4.398946E-1,-1.9197577E-1,1.595115E-1,-2.4077906E-3,-3.7461537E-4,-3.5928632E-3,-5.773146E-3,4.4958218E-4,-3.166068E-3,5.213684E-4,2.9942915E-3],"categories":[],"categories_nodes":[],"categories_segments":[],"categories_sizes":[],"default_left":[0,0,0,0,0,0,0,0,0,0,0,0,0,0,0],"id":34,"left_children":[1,3,5,7,9,11,13,-1,-1,-1,-1,-1,-1,-1,-1],"loss_changes":[2.1755228E2,6.65264E1,9.189114E1,1.5704441E1,1.949997E1,3.1928646E1,3.5827435E1,0E0,0E0,0E0,0E0,0E0,0E0,0E0,0E0],"parents":[2147483647,0,0,1,1,2,2,3,3,4,4,5,5,6,6],"right_children":[2,4,6,8,10,12,14,-1,-1,-1,-1,-1,-1,-1,-1],"split_conditions":[1.5E1,1.2E1,-2E0,4.9E0,2.3E1,-4.8E0,2.4E1,-2.4077906E-3,-3.7461537E-4,-3.5928632E-3,-5.773146E-3,4.4958218E-4,-3.166068E-3,5.213684E-4,2.9942915E-3],"split_indices":[51,80,77,77,80,25,51,0,0,0,0,0,0,0,0],"split_type":[0,0,0,0,0,0,0,0,0,0,0,0,0,0,0],"sum_hessian":[6.8123457E3,3.347795E3,3.464551E3,1.5697004E3,1.7780945E3,1.0797698E3,2.3847812E3,9.245881E2,6.4511237E2,1.122985E3,6.551095E2,3.7241577E2,7.07354E2,1.3500826E3,1.0346987E3],"tree_param":{"num_deleted":"0","num_feature":"106","num_nodes":"15","size_leaf_vector":"1"}},{"base_weights":[1.2572424E-1,3.0747798E-1,-4.9942397E-2,1.5729709E-1,4.398946E-1,1.9197574E-1,-1.5951148E-1,2.4077906E-3,3.7461577E-4,3.5928637E-3,5.773146E-3,-4.4958285E-4,3.166068E-3,-5.213681E-4,-2.9942915E-3],"categories":[],"categories_nodes":[],"categories_segments":[],"categories_sizes":[],"default_left":[0,0,0,0,0,0,0,0,0,0,0,0,0,0,0],"id":35,"left_children":[1,3,5,7,9,11,13,-1,-1,-1,-1,-1,-1,-1,-1],"loss_changes":[2.1755229E2,6.652637E1,9.1891106E1,1.570443E1,1.9499939E1,3.1928661E1,3.5827435E1,0E0,0E0,0E0,0E0,0E0,0E0,0E0,0E0],"parents":[2147483647,0,0,1,1,2,2,3,3,4,4,5,5,6,6],"right_children":[2,4,6,8,10,12,14,-1,-1,-1,-1,-1,-1,-1,-1],"split_conditions":[1.5E1,1.2E1,-2E0,4.9E0,2.3E1,-4.8E0,2.4E1,2.4077906E-3,3.7461577E-4,3.5928637E-3,5.773146E-3,-4.4958285E-4,3.166068E-3,-5.213681E-4,-2.9942915E-3],"split_indices":[51,80,77,77,80,25,51,0,0,0,0,0,0,0,0],"split_type":[0,0,0,0,0,0,0,0,0,0,0,0,0,0,0],"sum_hessian":[6.8123457E3,3.347795E3,3.464551E3,1.5697004E3,1.7780945E3,1.0797698E3,2.3847812E3,9.245881E2,6.4511237E2,1.122985E3,6.5510944E2,3.7241574E2,7.07354E2,1.3500826E3,1.0346987E3],"tree_param":{"num_deleted":"0","num_feature":"106","num_nodes":"15","size_leaf_vector":"1"}},{"base_weights":[-1.245056E-1,1.0841724E-1,-2.5915745E-1,-3.467786E-2,2.6865566E-1,-3.8542488E-1,-8.335592E-2,1.2948749E-3,-1.7483241E-3,1.9165871E-3,4.179355E-3,-5.005929E-3,-2.897666E-3,-2.100218E-3,5.3011253E-4],"categories":[],"categories_nodes":[],"categories_segments":[],"categories_sizes":[],"default_left":[0,0,0,0,0,0,0,0,0,0,0,0,0,0,0],"id":36,"left_children":[1,3,5,7,9,11,13,-1,-1,-1,-1,-1,-1,-1,-1],"loss_changes":[2.1365582E2,5.7238037E1,9.5785065E1,3.037896E1,1.345446E1,2.752771E1,3.1199387E1,0E0,0E0,0E0,0E0,0E0,0E0,0E0,0E0],"parents":[2147483647,0,0,1,1,2,2,3,3,4,4,5,5,6,6],"right_children":[2,4,6,8,10,12,14,-1,-1,-1,-1,-1,-1,-1,-1],"split_conditions":[4.59E-1,5.17E-1,1.6E0,-4.8E0,3.5E1,-2.4E0,1E1,1.2948749E-3,-1.7483241E-3,1.9165871E-3,4.179355E-3,-5.005929E-3,-2.897666E-3,-2.100218E-3,5.3011253E-4],"split_indices":[3,55,77,25,2,77,51,0,0,0,0,0,0,0,0],"split_type":[0,0,0,0,0,0,0,0,0,0,0,0,0,0,0],"sum_hessian":[6.810349E3,2.4948735E3,4.3154756E3,1.3183513E3,1.1765222E3,2.5108757E3,1.8046001E3,6.0720184E2,7.1114954E2,7.7768475E2,3.9883746E2,1.1373392E3,1.3735365E3,9.3529895E2,8.693011E2],"tree_param":{"num_deleted":"0","num_feature":"106","num_nodes":"15","size_leaf_vector":"1"}},{"base_weights":[1.245056E-1,-1.0841725E-1,2.5915745E-1,3.4677822E-2,-2.6865566E-1,3.8542488E-1,8.335593E-2,-1.2948754E-3,1.7483237E-3,-1.9165868E-3,-4.1793557E-3,5.00593E-3,2.897666E-3,2.100218E-3,-5.301124E-4],"categories":[],"categories_nodes":[],"categories_segments":[],"categories_sizes":[],"default_left":[0,0,0,0,0,0,0,0,0,0,0,0,0,0,0],"id":37,"left_children":[1,3,5,7,9,11,13,-1,-1,-1,-1,-1,-1,-1,-1],"loss_changes":[2.1365584E2,5.7238007E1,9.5785065E1,3.0378963E1,1.345446E1,2.752771E1,3.1199387E1,0E0,0E0,0E0,0E0,0E0,0E0,0E0,0E0],"parents":[2147483647,0,0,1,1,2,2,3,3,4,4,5,5,6,6],"right_children":[2,4,6,8,10,12,14,-1,-1,-1,-1,-1,-1,-1,-1],"split_conditions":[4.59E-1,5.17E-1,1.6E0,-4.8E0,3.5E1,-2.4E0,1E1,-1.2948754E-3,1.7483237E-3,-1.9165868E-3,-4.1793557E-3,5.00593E-3,2.897666E-3,2.100218E-3,-5.301124E-4],"split_indices":[3,55,77,25,2,77,51,0,0,0,0,0,0,0,0],"split_type":[0,0,0,0,0,0,0,0,0,0,0,0,0,0,0],"sum_hessian":[6.810349E3,2.4948735E3,4.3154756E3,1.3183513E3,1.1765222E3,2.5108757E3,1.8046001E3,6.0720184E2,7.1114954E2,7.7768475E2,3.9883746E2,1.1373392E3,1.3735365E3,9.35299E2,8.693011E2],"tree_param":{"num_deleted":"0","num_feature":"106","num_nodes":"15","size_leaf_vector":"1"}},{"base_weights":[-1.2329702E-1,-3.0198503E-1,4.9323663E-2,-1.5425631E-1,-4.3238088E-1,-1.7125916E-1,1.6548434E-1,-2.367088E-3,-3.5930058E-4,-3.529185E-3,-5.6801173E-3,5.5132364E-4,-2.905216E-3,6.010068E-4,3.0333253E-3],"categories":[],"categories_nodes":[],"categories_segments":[],"categories_sizes":[],"default_left":[0,0,0,0,0,0,0,0,0,0,0,0,0,0,0],"id":38,"left_children":[1,3,5,7,9,11,13,-1,-1,-1,-1,-1,-1,-1,-1],"loss_changes":[2.1005214E2,6.438864E1,8.879567E1,1.531189E1,1.8948303E1,3.229536E1,3.2955383E1,0E0,0E0,0E0,0E0,0E0,0E0,0E0,0E0],"parents":[2147483647,0,0,1,1,2,2,3,3,4,4,5,5,6,6],"right_children":[2,4,6,8,10,12,14,-1,-1,-1,-1,-1,-1,-1,-1],"split_conditions":[1.5E1,1.2E1,-1.5E0,4.9E0,2.3E1,-4.8E0,2.4E1,-2.367088E-3,-3.5930058E-4,-3.529185E-3,-5.6801173E-3,5.5132364E-4,-2.905216E-3,6.010068E-4,3.0333253E-3],"split_indices":[51,80,77,77,80,25,51,0,0,0,0,0,0,0,0],"split_type":[0,0,0,0,0,0,0,0,0,0,0,0,0,0,0],"sum_hessian":[6.808388E3,3.3450334E3,3.4633547E3,1.5693083E3,1.7757252E3,1.1945309E3,2.2688237E3,9.2426117E2,6.450472E2,1.1219863E3,6.537388E2,4.123396E2,7.821913E2,1.2866375E3,9.8218634E2],"tree_param":{"num_deleted":"0","num_feature":"106","num_nodes":"15","size_leaf_vector":"1"}},{"base_weights":[1.2329702E-1,3.01985E-1,-4.9323663E-2,1.5425631E-1,4.3238086E-1,1.7125918E-1,-1.6548432E-1,2.367088E-3,3.5930055E-4,3.529185E-3,5.680117E-3,-5.5132306E-4,2.905216E-3,-6.0100685E-4,-3.033325E-3],"categories":[],"categories_nodes":[],"categories_segments":[],"categories_sizes":[],"default_left":[0,0,0,0,0,0,0,0,0,0,0,0,0,0,0],"id":39,"left_children":[1,3,5,7,9,11,13,-1,-1,-1,-1,-1,-1,-1,-1],"loss_changes":[2.1005211E2,6.438867E1,8.879567E1,1.531189E1,1.8948273E1,3.2295357E1,3.2955376E1,0E0,0E0,0E0,0E0,0E0,0E0,0E0,0E0],"parents":[2147483647,0,0,1,1,2,2,3,3,4,4,5,5,6,6],"right_children":[2,4,6,8,10,12,14,-1,-1,-1,-1,-1,-1,-1,-1],"split_conditions":[1.5E1,1.2E1,-1.5E0,4.9E0,2.3E1,-4.8E0,2.4E1,2.367088E-3,3.5930055E-4,3.529185E-3,5.680117E-3,-5.5132306E-4,2.905216E-3,-6.0100685E-4,-3.033325E-3],"split_indices":[51,80,77,77,80,25,51,0,0,0,0,0,0,0,0],"split_type":[0,0,0,0,0,0,0,0,0,0,0,0,0,0,0],"sum_hessian":[6.808388E3,3.3450334E3,3.4633547E3,1.5693083E3,1.7757251E3,1.1945309E3,2.268824E3,9.2426117E2,6.450472E2,1.1219863E3,6.537388E2,4.1233963E2,7.821912E2,1.2866376E3,9.8218634E2],"tree_param":{"num_deleted":"0","num_feature":"106","num_nodes":"15","size_leaf_vector":"1"}},{"base_weights":[-1.2210509E-1,-2.3577127E-1,1.4453806E-1,-9.781738E-2,-3.9070913E-1,-7.512892E-2,2.4432427E-1,-2.7328606E-3,-3.123098E-5,-5.438961E-3,-3.2389471E-3,4.4854978E-4,-2.0389233E-3,3.9518806E-3,1.4604772E-3],"categories":[],"categories_nodes":[],"categories_segments":[],"categories_sizes":[],"default_left":[0,0,0,0,0,0,0,0,0,0,0,0,0,0,0],"id":40,"left_children":[1,3,5,7,9,11,13,-1,-1,-1,-1,-1,-1,-1,-1],"loss_changes":[2.0634921E2,1.01982605E2,4.4628242E1,4.1975105E1,2.2830383E1,9.84239E0,2.0694351E1,0E0,0E0,0E0,0E0,0E0,0E0,0E0,0E0],"parents":[2147483647,0,0,1,1,2,2,3,3,4,4,5,5,6,6],"right_children":[2,4,6,8,10,12,14,-1,-1,-1,-1,-1,-1,-1,-1],"split_conditions":[2E1,1.4E1,4.24E-1,7E0,7E0,-4.7E0,-6.2E0,-2.7328606E-3,-3.123098E-5,-5.438961E-3,-3.2389471E-3,4.4854978E-4,-2.0389233E-3,3.9518806E-3,1.4604772E-3],"split_indices":[28,80,55,29,51,25,25,0,0,0,0,0,0,0,0],"split_type":[0,0,0,0,0,0,0,0,0,0,0,0,0,0,0],"sum_hessian":[6.8062134E3,4.772066E3,2.0341477E3,2.5252554E3,2.2468105E3,6.3547504E2,1.3986727E3,8.8446124E2,1.6407942E3,6.801877E2,1.5666228E3,3.2928937E2,3.0618567E2,5.505322E2,8.4814044E2],"tree_param":{"num_deleted":"0","num_feature":"106","num_nodes":"15","size_leaf_vector":"1"}},{"base_weights":[1.221051E-1,2.3577128E-1,-1.4453807E-1,9.781738E-2,3.9070916E-1,7.5128905E-2,-2.4432425E-1,2.732861E-3,3.123082E-5,5.438962E-3,3.2389474E-3,-4.4854978E-4,2.038923E-3,-3.9518806E-3,-1.4604772E-3],"categories":[],"categories_nodes":[],"categories_segments":[],"categories_sizes":[],"default_left":[0,0,0,0,0,0,0,0,0,0,0,0,0,0,0],"id":41,"left_children":[1,3,5,7,9,11,13,-1,-1,-1,-1,-1,-1,-1,-1],"loss_changes":[2.063492E2,1.01982605E2,4.462824E1,4.197512E1,2.2830444E1,9.842388E0,2.0694344E1,0E0,0E0,0E0,0E0,0E0,0E0,0E0,0E0],"parents":[2147483647,0,0,1,1,2,2,3,3,4,4,5,5,6,6],"right_children":[2,4,6,8,10,12,14,-1,-1,-1,-1,-1,-1,-1,-1],"split_conditions":[2E1,1.4E1,4.24E-1,7E0,7E0,-4.7E0,-6.2E0,2.732861E-3,3.123082E-5,5.438962E-3,3.2389474E-3,-4.4854978E-4,2.038923E-3,-3.9518806E-3,-1.4604772E-3],"split_indices":[28,80,55,29,51,25,25,0,0,0,0,0,0,0,0],"split_type":[0,0,0,0,0,0,0,0,0,0,0,0,0,0,0],"sum_hessian":[6.8062134E3,4.772066E3,2.0341477E3,2.5252554E3,2.2468105E3,6.35475E2,1.3986727E3,8.8446124E2,1.6407942E3,6.801877E2,1.5666228E3,3.2928937E2,3.0618564E2,5.505323E2,8.4814044E2],"tree_param":{"num_deleted":"0","num_feature":"106","num_nodes":"15","size_leaf_vector":"1"}},{"base_weights":[-1.2092344E-1,-2.9658654E-1,4.868654E-2,-1.5142015E-1,-4.2487833E-1,-1.8548492E-1,1.547079E-1,-2.330566E-3,-3.4295354E-4,-3.4615484E-3,-5.5940007E-3,4.2378984E-4,-3.0550228E-3,5.135789E-4,2.8952556E-3],"categories":[],"categories_nodes":[],"categories_segments":[],"categories_sizes":[],"default_left":[0,0,0,0,0,0,0,0,0,0,0,0,0,0,0],"id":42,"left_children":[1,3,5,7,9,11,13,-1,-1,-1,-1,-1,-1,-1,-1],"loss_changes":[2.0276654E2,6.219516E1,8.600649E1,1.5003067E1,1.8594208E1,2.954066E1,3.3207043E1,0E0,0E0,0E0,0E0,0E0,0E0,0E0,0E0],"parents":[2147483647,0,0,1,1,2,2,3,3,4,4,5,5,6,6],"right_children":[2,4,6,8,10,12,14,-1,-1,-1,-1,-1,-1,-1,-1],"split_conditions":[1.5E1,1.2E1,-2E0,4.9E0,2.3E1,-4.8E0,2.4E1,-2.330566E-3,-3.4295354E-4,-3.4615484E-3,-5.5940007E-3,4.2378984E-4,-3.0550228E-3,5.135789E-4,2.8952556E-3],"split_indices":[51,80,77,77,80,25,51,0,0,0,0,0,0,0,0],"split_type":[0,0,0,0,0,0,0,0,0,0,0,0,0,0,0],"sum_hessian":[6.804083E3,3.342031E3,3.4620518E3,1.5689229E3,1.773108E3,1.0787175E3,2.3833342E3,9.2394183E2,6.449811E2,1.1207861E3,6.5232196E2,3.7237558E2,7.06342E2,1.3498967E3,1.0334375E3],"tree_param":{"num_deleted":"0","num_feature":"106","num_nodes":"15","size_leaf_vector":"1"}},{"base_weights":[1.20923445E-1,2.9658657E-1,-4.8686538E-2,1.5142019E-1,4.248783E-1,1.8548492E-1,-1.547079E-1,2.3305665E-3,3.429541E-4,3.4615484E-3,5.594E-3,-4.2378972E-4,3.0550228E-3,-5.135787E-4,-2.8952558E-3],"categories":[],"categories_nodes":[],"categories_segments":[],"categories_sizes":[],"default_left":[0,0,0,0,0,0,0,0,0,0,0,0,0,0,0],"id":43,"left_children":[1,3,5,7,9,11,13,-1,-1,-1,-1,-1,-1,-1,-1],"loss_changes":[2.0276657E2,6.219507E1,8.6006485E1,1.5003067E1,1.8594177E1,2.954065E1,3.320704E1,0E0,0E0,0E0,0E0,0E0,0E0,0E0,0E0],"parents":[2147483647,0,0,1,1,2,2,3,3,4,4,5,5,6,6],"right_children":[2,4,6,8,10,12,14,-1,-1,-1,-1,-1,-1,-1,-1],"split_conditions":[1.5E1,1.2E1,-2E0,4.9E0,2.3E1,-4.8E0,2.4E1,2.3305665E-3,3.429541E-4,3.4615484E-3,5.594E-3,-4.2378972E-4,3.0550228E-3,-5.135787E-4,-2.8952558E-3],"split_indices":[51,80,77,77,80,25,51,0,0,0,0,0,0,0,0],"split_type":[0,0,0,0,0,0,0,0,0,0,0,0,0,0,0],"sum_hessian":[6.8040825E3,3.342031E3,3.4620518E3,1.568923E3,1.773108E3,1.0787175E3,2.3833342E3,9.2394183E2,6.449811E2,1.1207861E3,6.5232196E2,3.7237558E2,7.06342E2,1.3498967E3,1.0334375E3],"tree_param":{"num_deleted":"0","num_feature":"106","num_nodes":"15","size_leaf_vector":"1"}},{"base_weights":[-1.1975722E-1,-2.3144396E-1,1.4216577E-1,-1.3444895E-1,-4.4577038E-1,3.821132E-3,2.9650465E-1,-3.030193E-3,-3.6069631E-4,-5.001964E-3,-2.944057E-3,1.3734305E-3,-1.4113948E-3,4.370092E-3,2.040688E-3],"categories":[],"categories_nodes":[],"categories_segments":[],"categories_sizes":[],"default_left":[0,0,0,0,0,0,0,0,0,0,0,0,0,0,0],"id":44,"left_children":[1,3,5,7,9,11,13,-1,-1,-1,-1,-1,-1,-1,-1],"loss_changes":[1.990362E2,9.909181E1,4.3433735E1,5.4466454E1,1.2091034E1,2.080153E1,1.2398727E1,0E0,0E0,0E0,0E0,0E0,0E0,0E0,0E0],"parents":[2147483647,0,0,1,1,2,2,3,3,4,4,5,5,6,6],"right_children":[2,4,6,8,10,12,14,-1,-1,-1,-1,-1,-1,-1,-1],"split_conditions":[2E1,1.9E1,5.17E-1,8E0,-2.4E0,-4.8E0,-6.1E0,-3.030193E-3,-3.6069631E-4,-5.001964E-3,-2.944057E-3,1.3734305E-3,-1.4113948E-3,4.370092E-3,2.040688E-3],"split_indices":[28,80,55,51,77,25,25,0,0,0,0,0,0,0,0],"split_type":[0,0,0,0,0,0,0,0,0,0,0,0,0,0,0],"sum_hessian":[6.801759E3,4.7685254E3,2.0332333E3,3.2839685E3,1.4845569E3,1.072712E3,9.605213E2,1.2094785E3,2.07449E3,1.0902369E3,3.9431992E2,5.5841425E2,5.142977E2,3.796767E2,5.8084467E2],"tree_param":{"num_deleted":"0","num_feature":"106","num_nodes":"15","size_leaf_vector":"1"}},{"base_weights":[1.19757235E-1,2.3144397E-1,-1.4216578E-1,1.3444895E-1,4.4577044E-1,-3.8211292E-3,-2.9650468E-1,3.030193E-3,3.6069637E-4,5.0019645E-3,2.944057E-3,-1.3734304E-3,1.4113948E-3,-4.370092E-3,-2.0406882E-3],"categories":[],"categories_nodes":[],"categories_segments":[],"categories_sizes":[],"default_left":[0,0,0,0,0,0,0,0,0,0,0,0,0,0,0],"id":45,"left_children":[1,3,5,7,9,11,13,-1,-1,-1,-1,-1,-1,-1,-1],"loss_changes":[1.9903624E2,9.909184E1,4.343375E1,5.446645E1,1.2091064E1,2.0801525E1,1.2398727E1,0E0,0E0,0E0,0E0,0E0,0E0,0E0,0E0],"parents":[2147483647,0,0,1,1,2,2,3,3,4,4,5,5,6,6],"right_children":[2,4,6,8,10,12,14,-1,-1,-1,-1,-1,-1,-1,-1],"split_conditions":[2E1,1.9E1,5.17E-1,8E0,-2.4E0,-4.8E0,-6.1E0,3.030193E-3,3.6069637E-4,5.0019645E-3,2.944057E-3,-1.3734304E-3,1.4113948E-3,-4.370092E-3,-2.0406882E-3],"split_indices":[28,80,55,51,77,25,25,0,0,0,0,0,0,0,0],"split_type":[0,0,0,0,0,0,0,0,0,0,0,0,0,0,0],"sum_hessian":[6.801759E3,4.7685254E3,2.0332333E3,3.2839685E3,1.4845569E3,1.072712E3,9.605213E2,1.2094785E3,2.07449E3,1.0902369E3,3.9431992E2,5.5841425E2,5.142977E2,3.796767E2,5.8084467E2],"tree_param":{"num_deleted":"0","num_feature":"106","num_nodes":"15","size_leaf_vector":"1"}},{"base_weights":[-1.186007E-1,-2.913555E-1,4.8112143E-2,-1.4824238E-1,-4.179871E-1,-1.9751157E-1,1.4578952E-1,-2.290801E-3,-3.22986E-4,-3.4059854E-3,-5.5042705E-3,3.983375E-4,-3.2142347E-3,6.891003E-4,3.1299244E-3],"categories":[],"categories_nodes":[],"categories_segments":[],"categories_sizes":[],"default_left":[0,0,0,0,0,0,0,0,0,0,0,0,0,0,0],"id":46,"left_children":[1,3,5,7,9,11,13,-1,-1,-1,-1,-1,-1,-1,-1],"loss_changes":[1.958707E2,6.046515E1,8.307941E1,1.4702438E1,1.7968353E1,2.8991463E1,3.1822529E1,0E0,0E0,0E0,0E0,0E0,0E0,0E0,0E0],"parents":[2147483647,0,0,1,1,2,2,3,3,4,4,5,5,6,6],"right_children":[2,4,6,8,10,12,14,-1,-1,-1,-1,-1,-1,-1,-1],"split_conditions":[1.5E1,1.2E1,-2.4E0,4.9E0,2.3E1,-4.8E0,2.6E1,-2.290801E-3,-3.22986E-4,-3.4059854E-3,-5.5042705E-3,3.983375E-4,-3.2142347E-3,6.891003E-4,3.1299244E-3],"split_indices":[51,80,77,77,80,25,51,0,0,0,0,0,0,0,0],"split_type":[0,0,0,0,0,0,0,0,0,0,0,0,0,0,0],"sum_hessian":[6.7994736E3,3.3388599E3,3.4606138E3,1.5684462E3,1.7704137E3,9.843367E2,2.476277E3,9.2355457E2,6.448916E2,1.1197075E3,6.5070624E2,3.3786206E2,6.464746E2,1.6972828E3,7.789942E2],"tree_param":{"num_deleted":"0","num_feature":"106","num_nodes":"15","size_leaf_vector":"1"}},{"base_weights":[1.186007E-1,2.9135552E-1,-4.8112158E-2,1.4824237E-1,4.1798714E-1,1.9751154E-1,-1.4578952E-1,2.2908007E-3,3.2298602E-4,3.4059857E-3,5.5042715E-3,-3.9833816E-4,3.2142347E-3,-6.8910036E-4,-3.1299244E-3],"categories":[],"categories_nodes":[],"categories_segments":[],"categories_sizes":[],"default_left":[0,0,0,0,0,0,0,0,0,0,0,0,0,0,0],"id":47,"left_children":[1,3,5,7,9,11,13,-1,-1,-1,-1,-1,-1,-1,-1],"loss_changes":[1.9587073E2,6.046518E1,8.30794E1,1.4702435E1,1.7968323E1,2.8991467E1,3.1822529E1,0E0,0E0,0E0,0E0,0E0,0E0,0E0,0E0],"parents":[2147483647,0,0,1,1,2,2,3,3,4,4,5,5,6,6],"right_children":[2,4,6,8,10,12,14,-1,-1,-1,-1,-1,-1,-1,-1],"split_conditions":[1.5E1,1.2E1,-2.4E0,4.9E0,2.3E1,-4.8E0,2.6E1,2.2908007E-3,3.2298602E-4,3.4059857E-3,5.5042715E-3,-3.9833816E-4,3.2142347E-3,-6.8910036E-4,-3.1299244E-3],"split_indices":[51,80,77,77,80,25,51,0,0,0,0,0,0,0,0],"split_type":[0,0,0,0,0,0,0,0,0,0,0,0,0,0,0],"sum_hessian":[6.7994736E3,3.3388599E3,3.4606138E3,1.5684462E3,1.7704137E3,9.843366E2,2.476277E3,9.2355457E2,6.448916E2,1.1197075E3,6.5070624E2,3.3786203E2,6.4647455E2,1.6972828E3,7.789942E2],"tree_param":{"num_deleted":"0","num_feature":"106","num_nodes":"15","size_leaf_vector":"1"}},{"base_weights":[-1.1745892E-1,1.035664E-1,-2.4537933E-1,-3.3288773E-2,2.5688526E-1,-3.6670592E-1,-7.6952584E-2,1.2136375E-3,-1.6537801E-3,1.8158051E-3,4.030347E-3,-4.7678314E-3,-2.755758E-3,-1.9916494E-3,5.448732E-4],"categories":[],"categories_nodes":[],"categories_segments":[],"categories_sizes":[],"default_left":[0,0,0,0,0,0,0,0,0,0,0,0,0,0,0],"id":48,"left_children":[1,3,5,7,9,11,13,-1,-1,-1,-1,-1,-1,-1,-1],"loss_changes":[1.9223065E2,5.231373E1,8.796805E1,2.694417E1,1.2867363E1,2.4975525E1,2.8995762E1,0E0,0E0,0E0,0E0,0E0,0E0,0E0,0E0],"parents":[2147483647,0,0,1,1,2,2,3,3,4,4,5,5,6,6],"right_children":[2,4,6,8,10,12,14,-1,-1,-1,-1,-1,-1,-1,-1],"split_conditions":[4.59E-1,5.17E-1,1.6E0,-4.8E0,3.5E1,-2.4E0,1E1,1.2136375E-3,-1.6537801E-3,1.8158051E-3,4.030347E-3,-4.7678314E-3,-2.755758E-3,-1.9916494E-3,5.448732E-4],"split_indices":[3,55,77,25,2,77,51,0,0,0,0,0,0,0,0],"split_type":[0,0,0,0,0,0,0,0,0,0,0,0,0,0,0],"sum_hessian":[6.7970337E3,2.4918022E3,4.3052314E3,1.3170039E3,1.1747983E3,2.501845E3,1.8033867E3,6.067228E2,7.1028107E2,7.7679193E2,3.980064E2,1.1312102E3,1.3706346E3,9.342288E2,8.6915796E2],"tree_param":{"num_deleted":"0","num_feature":"106","num_nodes":"15","size_leaf_vector":"1"}},{"base_weights":[1.1745892E-1,-1.0356639E-1,2.4537933E-1,3.3288766E-2,-2.5688526E-1,3.6670592E-1,7.695256E-2,-1.2136374E-3,1.65378E-3,-1.815805E-3,-4.0303464E-3,4.7678314E-3,2.7557574E-3,1.9916494E-3,-5.448735E-4],"categories":[],"categories_nodes":[],"categories_segments":[],"categories_sizes":[],"default_left":[0,0,0,0,0,0,0,0,0,0,0,0,0,0,0],"id":49,"left_children":[1,3,5,7,9,11,13,-1,-1,-1,-1,-1,-1,-1,-1],"loss_changes":[1.9223065E2,5.2313713E1,8.796808E1,2.6944164E1,1.2867355E1,2.4975494E1,2.899577E1,0E0,0E0,0E0,0E0,0E0,0E0,0E0,0E0],"parents":[2147483647,0,0,1,1,2,2,3,3,4,4,5,5,6,6],"right_children":[2,4,6,8,10,12,14,-1,-1,-1,-1,-1,-1,-1,-1],"split_conditions":[4.59E-1,5.17E-1,1.6E0,-4.8E0,3.5E1,-2.4E0,1E1,-1.2136374E-3,1.65378E-3,-1.815805E-3,-4.0303464E-3,4.7678314E-3,2.7557574E-3,1.9916494E-3,-5.448735E-4],"split_indices":[3,55,77,25,2,77,51,0,0,0,0,0,0,0,0],"split_type":[0,0,0,0,0,0,0,0,0,0,0,0,0,0,0],"sum_hessian":[6.7970337E3,2.4918022E3,4.3052314E3,1.3170039E3,1.1747983E3,2.501845E3,1.8033867E3,6.067228E2,7.1028107E2,7.7679193E2,3.980064E2,1.1312102E3,1.3706348E3,9.342288E2,8.6915796E2],"tree_param":{"num_deleted":"0","num_feature":"106","num_nodes":"15","size_leaf_vector":"1"}},{"base_weights":[-1.1632645E-1,-2.8620565E-1,4.7513112E-2,-1.4538564E-1,-4.10976E-1,-1.6258158E-1,1.5808338E-1,-2.2523864E-3,-3.0892334E-4,-3.3462408E-3,-5.418395E-3,5.04434E-4,-2.7502812E-3,5.831449E-4,2.8883554E-3],"categories":[],"categories_nodes":[],"categories_segments":[],"categories_sizes":[],"default_left":[0,0,0,0,0,0,0,0,0,0,0,0,0,0,0],"id":50,"left_children":[1,3,5,7,9,11,13,-1,-1,-1,-1,-1,-1,-1,-1],"loss_changes":[1.8915594E2,5.856244E1,8.040614E1,1.433754E1,1.7488922E1,2.8605574E1,2.95634E1,0E0,0E0,0E0,0E0,0E0,0E0,0E0,0E0],"parents":[2147483647,0,0,1,1,2,2,3,3,4,4,5,5,6,6],"right_children":[2,4,6,8,10,12,14,-1,-1,-1,-1,-1,-1,-1,-1],"split_conditions":[1.5E1,1.2E1,-1.5E0,4.9E0,2.3E1,-4.8E0,2.4E1,-2.2523864E-3,-3.0892334E-4,-3.3462408E-3,-5.418395E-3,5.04434E-4,-2.7502812E-3,5.831449E-4,2.8883554E-3],"split_indices":[51,80,77,77,80,25,51,0,0,0,0,0,0,0,0],"split_type":[0,0,0,0,0,0,0,0,0,0,0,0,0,0,0],"sum_hessian":[6.7946304E3,3.3354639E3,3.4591665E3,1.5679678E3,1.7674962E3,1.1926122E3,2.2665544E3,9.231513E2,6.448164E2,1.11848E3,6.490163E2,4.122239E2,7.803883E2,1.286416E3,9.801383E2],"tree_param":{"num_deleted":"0","num_feature":"106","num_nodes":"15","size_leaf_vector":"1"}},{"base_weights":[1.1632646E-1,2.8620565E-1,-4.7513112E-2,1.4538564E-1,4.10976E-1,1.6258158E-1,-1.5808336E-1,2.2523864E-3,3.0892337E-4,3.346241E-3,5.418395E-3,-5.0443393E-4,2.7502812E-3,-5.8314495E-4,-2.8883554E-3],"categories":[],"categories_nodes":[],"categories_segments":[],"categories_sizes":[],"default_left":[0,0,0,0,0,0,0,0,0,0,0,0,0,0,0],"id":51,"left_children":[1,3,5,7,9,11,13,-1,-1,-1,-1,-1,-1,-1,-1],"loss_changes":[1.8915593E2,5.856247E1,8.040615E1,1.43375435E1,1.7488922E1,2.8605576E1,2.9563396E1,0E0,0E0,0E0,0E0,0E0,0E0,0E0,0E0],"parents":[2147483647,0,0,1,1,2,2,3,3,4,4,5,5,6,6],"right_children":[2,4,6,8,10,12,14,-1,-1,-1,-1,-1,-1,-1,-1],"split_conditions":[1.5E1,1.2E1,-1.5E0,4.9E0,2.3E1,-4.8E0,2.4E1,2.2523864E-3,3.0892337E-4,3.346241E-3,5.418395E-3,-5.0443393E-4,2.7502812E-3,-5.8314495E-4,-2.8883554E-3],"split_indices":[51,80,77,77,80,25,51,0,0,0,0,0,0,0,0],"split_type":[0,0,0,0,0,0,0,0,0,0,0,0,0,0,0],"sum_hessian":[6.7946304E3,3.335464E3,3.4591665E3,1.5679678E3,1.7674962E3,1.1926122E3,2.2665542E3,9.231513E2,6.448164E2,1.11848E3,6.490163E2,4.122239E2,7.803883E2,1.286416E3,9.801383E2],"tree_param":{"num_deleted":"0","num_feature":"106","num_nodes":"15","size_leaf_vector":"1"}},{"base_weights":[-1.15209624E-1,-2.2319673E-1,1.3786273E-1,-1.3521422E-1,-4.455261E-1,-1.376487E-1,2.1131866E-1,-2.9514034E-3,-4.1923465E-4,-3.2510408E-3,-5.077875E-3,-2.2782108E-3,7.4826664E-4,3.5150694E-3,1.198028E-3],"categories":[],"categories_nodes":[],"categories_segments":[],"categories_sizes":[],"default_left":[0,0,0,0,0,0,0,0,0,0,0,0,0,0,0],"id":52,"left_children":[1,3,5,7,9,11,13,-1,-1,-1,-1,-1,-1,-1,-1],"loss_changes":[1.8567395E2,9.3084076E1,4.1158657E1,5.090928E1,9.954102E0,8.224836E0,2.0547943E1,0E0,0E0,0E0,0E0,0E0,0E0,0E0,0E0],"parents":[2147483647,0,0,1,1,2,2,3,3,4,4,5,5,6,6],"right_children":[2,4,6,8,10,12,14,-1,-1,-1,-1,-1,-1,-1,-1],"split_conditions":[2E1,2E1,3.6E-1,8E0,5.3E-1,2.7E1,-6.2E0,-2.9514034E-3,-4.1923465E-4,-3.2510408E-3,-5.077875E-3,-2.2782108E-3,7.4826664E-4,3.5150694E-3,1.198028E-3],"split_indices":[28,80,55,51,3,28,25,0,0,0,0,0,0,0,0],"split_type":[0,0,0,0,0,0,0,0,0,0,0,0,0,0,0],"sum_hessian":[6.792012E3,4.760713E3,2.0312993E3,3.4120637E3,1.3486493E3,4.2739465E2,1.6039047E3,1.2562833E3,2.1557803E3,4.6176157E2,8.868877E2,3.0000385E2,1.2739081E2,6.323698E2,9.7153485E2],"tree_param":{"num_deleted":"0","num_feature":"106","num_nodes":"15","size_leaf_vector":"1"}},{"base_weights":[1.15209624E-1,2.2319673E-1,-1.3786273E-1,1.3521424E-1,4.455261E-1,1.3764866E-1,-2.1131864E-1,2.9514034E-3,4.1923474E-4,3.2510408E-3,5.077875E-3,2.2782104E-3,-7.4826664E-4,-3.5150694E-3,-1.1980279E-3],"categories":[],"categories_nodes":[],"categories_segments":[],"categories_sizes":[],"default_left":[0,0,0,0,0,0,0,0,0,0,0,0,0,0,0],"id":53,"left_children":[1,3,5,7,9,11,13,-1,-1,-1,-1,-1,-1,-1,-1],"loss_changes":[1.8567395E2,9.3084076E1,4.115864E1,5.090928E1,9.954102E0,8.224834E0,2.054795E1,0E0,0E0,0E0,0E0,0E0,0E0,0E0,0E0],"parents":[2147483647,0,0,1,1,2,2,3,3,4,4,5,5,6,6],"right_children":[2,4,6,8,10,12,14,-1,-1,-1,-1,-1,-1,-1,-1],"split_conditions":[2E1,2E1,3.6E-1,8E0,5.3E-1,2.7E1,-6.2E0,2.9514034E-3,4.1923474E-4,3.2510408E-3,5.077875E-3,2.2782104E-3,-7.4826664E-4,-3.5150694E-3,-1.1980279E-3],"split_indices":[28,80,55,51,3,28,25,0,0,0,0,0,0,0,0],"split_type":[0,0,0,0,0,0,0,0,0,0,0,0,0,0,0],"sum_hessian":[6.792012E3,4.760713E3,2.0312993E3,3.4120637E3,1.3486492E3,4.2739465E2,1.6039047E3,1.2562833E3,2.1557803E3,4.6176157E2,8.8688763E2,3.0000385E2,1.2739081E2,6.323698E2,9.7153485E2],"tree_param":{"num_deleted":"0","num_feature":"106","num_nodes":"15","size_leaf_vector":"1"}},{"base_weights":[-1.14101544E-1,-2.8109187E-1,4.6846643E-2,-1.422786E-1,-4.042575E-1,-1.9112493E-1,1.414287E-1,-2.2136022E-3,-2.8930485E-4,-3.2916148E-3,-5.3319144E-3,3.7625598E-4,-3.107532E-3,6.7266717E-4,3.0294543E-3],"categories":[],"categories_nodes":[],"categories_segments":[],"categories_sizes":[],"default_left":[0,0,0,0,0,0,0,0,0,0,0,0,0,0,0],"id":54,"left_children":[1,3,5,7,9,11,13,-1,-1,-1,-1,-1,-1,-1,-1],"loss_changes":[1.8251993E2,5.692404E1,7.7874054E1,1.4052595E1,1.6917908E1,2.6941849E1,2.9632797E1,0E0,0E0,0E0,0E0,0E0,0E0,0E0,0E0],"parents":[2147483647,0,0,1,1,2,2,3,3,4,4,5,5,6,6],"right_children":[2,4,6,8,10,12,14,-1,-1,-1,-1,-1,-1,-1,-1],"split_conditions":[1.5E1,1.2E1,-2.4E0,4.9E0,2.3E1,-4.8E0,2.6E1,-2.2136022E-3,-2.8930485E-4,-3.2916148E-3,-5.3319144E-3,3.7625598E-4,-3.107532E-3,6.7266717E-4,3.0294543E-3],"split_indices":[51,80,77,77,80,25,51,0,0,0,0,0,0,0,0],"split_type":[0,0,0,0,0,0,0,0,0,0,0,0,0,0,0],"sum_hessian":[6.789498E3,3.331836E3,3.4576624E3,1.5674283E3,1.7644076E3,9.831084E2,2.474554E3,9.2271094E2,6.447174E2,1.1172385E3,6.471691E2,3.3782065E2,6.452877E2,1.6968468E3,7.777072E2],"tree_param":{"num_deleted":"0","num_feature":"106","num_nodes":"15","size_leaf_vector":"1"}},{"base_weights":[1.14101544E-1,2.8109187E-1,-4.6846643E-2,1.4227861E-1,4.042575E-1,1.9112493E-1,-1.414287E-1,2.2136024E-3,2.8930506E-4,3.2916148E-3,5.3319144E-3,-3.7625563E-4,3.1075317E-3,-6.72667E-4,-3.0294545E-3],"categories":[],"categories_nodes":[],"categories_segments":[],"categories_sizes":[],"default_left":[0,0,0,0,0,0,0,0,0,0,0,0,0,0,0],"id":55,"left_children":[1,3,5,7,9,11,13,-1,-1,-1,-1,-1,-1,-1,-1],"loss_changes":[1.8251997E2,5.6924072E1,7.7874054E1,1.4052601E1,1.6917877E1,2.6941837E1,2.9632816E1,0E0,0E0,0E0,0E0,0E0,0E0,0E0,0E0],"parents":[2147483647,0,0,1,1,2,2,3,3,4,4,5,5,6,6],"right_children":[2,4,6,8,10,12,14,-1,-1,-1,-1,-1,-1,-1,-1],"split_conditions":[1.5E1,1.2E1,-2.4E0,4.9E0,2.3E1,-4.8E0,2.6E1,2.2136024E-3,2.8930506E-4,3.2916148E-3,5.3319144E-3,-3.7625563E-4,3.1075317E-3,-6.72667E-4,-3.0294545E-3],"split_indices":[51,80,77,77,80,25,51,0,0,0,0,0,0,0,0],"split_type":[0,0,0,0,0,0,0,0,0,0,0,0,0,0,0],"sum_hessian":[6.789498E3,3.331836E3,3.4576624E3,1.5674283E3,1.7644076E3,9.8310834E2,2.474554E3,9.2271094E2,6.447174E2,1.1172385E3,6.471691E2,3.3782065E2,6.452877E2,1.6968468E3,7.7770715E2],"tree_param":{"num_deleted":"0","num_feature":"106","num_nodes":"15","size_leaf_vector":"1"}},{"base_weights":[-1.13007694E-1,-2.191579E-1,1.3566422E-1,-8.938646E-2,-3.655945E-1,1.4246113E-3,2.829228E-1,-2.571054E-3,9.931871E-6,-5.1395455E-3,-3.0111172E-3,1.1503635E-3,-1.1973738E-3,1.8450351E-3,4.34327E-3],"categories":[],"categories_nodes":[],"categories_segments":[],"categories_sizes":[],"default_left":[0,0,0,0,0,0,0,0,0,0,0,0,0,0,0],"id":56,"left_children":[1,3,5,7,9,11,13,-1,-1,-1,-1,-1,-1,-1,-1],"loss_changes":[1.7920416E2,9.0375595E1,4.0153893E1,3.8253937E1,2.122586E1,1.4654948E1,1.4354034E1,0E0,0E0,0E0,0E0,0E0,0E0,0E0,0E0],"parents":[2147483647,0,0,1,1,2,2,3,3,4,4,5,5,6,6],"right_children":[2,4,6,8,10,12,14,-1,-1,-1,-1,-1,-1,-1,-1],"split_conditions":[2E1,1.4E1,4E-1,7E0,7E0,-4.8E0,3.5E1,-2.571054E-3,9.931871E-6,-5.1395455E-3,-3.0111172E-3,1.1503635E-3,-1.1973738E-3,1.8450351E-3,4.34327E-3],"split_indices":[28,80,77,29,51,25,2,0,0,0,0,0,0,0,0],"split_type":[0,0,0,0,0,0,0,0,0,0,0,0,0,0,0],"sum_hessian":[6.78679E3,4.756506E3,2.030284E3,2.5225999E3,2.233906E3,1.0626194E3,9.6766473E2,8.827052E2,1.6398947E3,6.7467145E2,1.5592346E3,5.4842255E2,5.141968E2,5.877927E2,3.79872E2],"tree_param":{"num_deleted":"0","num_feature":"106","num_nodes":"15","size_leaf_vector":"1"}},{"base_weights":[1.1300769E-1,2.191579E-1,-1.3566422E-1,8.938644E-2,3.655945E-1,-1.4246366E-3,-2.8292277E-1,2.5710533E-3,-9.931944E-6,5.1395455E-3,3.0111172E-3,-1.1503637E-3,1.1973736E-3,-1.8450349E-3,-4.34327E-3],"categories":[],"categories_nodes":[],"categories_segments":[],"categories_sizes":[],"default_left":[0,0,0,0,0,0,0,0,0,0,0,0,0,0,0],"id":57,"left_children":[1,3,5,7,9,11,13,-1,-1,-1,-1,-1,-1,-1,-1],"loss_changes":[1.7920413E2,9.0375595E1,4.0153873E1,3.8253925E1,2.122586E1,1.4654945E1,1.4354034E1,0E0,0E0,0E0,0E0,0E0,0E0,0E0,0E0],"parents":[2147483647,0,0,1,1,2,2,3,3,4,4,5,5,6,6],"right_children":[2,4,6,8,10,12,14,-1,-1,-1,-1,-1,-1,-1,-1],"split_conditions":[2E1,1.4E1,4E-1,7E0,7E0,-4.8E0,3.5E1,2.5710533E-3,-9.931944E-6,5.1395455E-3,3.0111172E-3,-1.1503637E-3,1.1973736E-3,-1.8450349E-3,-4.34327E-3],"split_indices":[28,80,77,29,51,25,2,0,0,0,0,0,0,0,0],"split_type":[0,0,0,0,0,0,0,0,0,0,0,0,0,0,0],"sum_hessian":[6.78679E3,4.756506E3,2.030284E3,2.5225999E3,2.233906E3,1.0626193E3,9.6766473E2,8.8270526E2,1.6398948E3,6.7467145E2,1.5592346E3,5.4842255E2,5.141968E2,5.8779266E2,3.7987204E2],"tree_param":{"num_deleted":"0","num_feature":"106","num_nodes":"15","size_leaf_vector":"1"}},{"base_weights":[-1.1192187E-1,-2.761247E-1,4.6230983E-2,-1.3967194E-1,-3.973843E-1,-1.7350316E-1,1.4561686E-1,-2.1797887E-3,-2.7471472E-4,-3.2290937E-3,-5.254379E-3,3.708646E-4,-2.8477344E-3,4.930536E-4,2.7157806E-3],"categories":[],"categories_nodes":[],"categories_segments":[],"categories_sizes":[],"default_left":[0,0,0,0,0,0,0,0,0,0,0,0,0,0,0],"id":58,"left_children":[1,3,5,7,9,11,13,-1,-1,-1,-1,-1,-1,-1,-1],"loss_changes":[1.76218E2,5.5027832E1,7.552342E1,1.3770065E1,1.6635254E1,2.5250305E1,2.887157E1,0E0,0E0,0E0,0E0,0E0,0E0,0E0,0E0],"parents":[2147483647,0,0,1,1,2,2,3,3,4,4,5,5,6,6],"right_children":[2,4,6,8,10,12,14,-1,-1,-1,-1,-1,-1,-1,-1],"split_conditions":[1.5E1,1.2E1,-2E0,4.9E0,2.3E1,-4.8E0,2.4E1,-2.1797887E-3,-2.7471472E-4,-3.2290937E-3,-5.254379E-3,3.708646E-4,-2.8477344E-3,4.930536E-4,2.7157806E-3],"split_indices":[51,80,77,77,80,25,51,0,0,0,0,0,0,0,0],"split_type":[0,0,0,0,0,0,0,0,0,0,0,0,0,0,0],"sum_hessian":[6.7841772E3,3.32806E3,3.4561172E3,1.5669414E3,1.7611185E3,1.0761316E3,2.3799856E3,9.2230414E2,6.4463727E2,1.1157368E3,6.453817E2,3.7226022E2,7.0387134E2,1.3495184E3,1.0304672E3],"tree_param":{"num_deleted":"0","num_feature":"106","num_nodes":"15","size_leaf_vector":"1"}},{"base_weights":[1.1192187E-1,2.7612472E-1,-4.6230998E-2,1.3967197E-1,3.973843E-1,1.7350316E-1,-1.4561689E-1,2.1797887E-3,2.747156E-4,3.2290937E-3,5.254379E-3,-3.708646E-4,2.8477344E-3,-4.930538E-4,-2.7157806E-3],"categories":[],"categories_nodes":[],"categories_segments":[],"categories_sizes":[],"default_left":[0,0,0,0,0,0,0,0,0,0,0,0,0,0,0],"id":59,"left_children":[1,3,5,7,9,11,13,-1,-1,-1,-1,-1,-1,-1,-1],"loss_changes":[1.7621806E2,5.5027786E1,7.552342E1,1.3770054E1,1.6635254E1,2.5250309E1,2.8871563E1,0E0,0E0,0E0,0E0,0E0,0E0,0E0,0E0],"parents":[2147483647,0,0,1,1,2,2,3,3,4,4,5,5,6,6],"right_children":[2,4,6,8,10,12,14,-1,-1,-1,-1,-1,-1,-1,-1],"split_conditions":[1.5E1,1.2E1,-2E0,4.9E0,2.3E1,-4.8E0,2.4E1,2.1797887E-3,2.747156E-4,3.2290937E-3,5.254379E-3,-3.708646E-4,2.8477344E-3,-4.930538E-4,-2.7157806E-3],"split_indices":[51,80,77,77,80,25,51,0,0,0,0,0,0,0,0],"split_type":[0,0,0,0,0,0,0,0,0,0,0,0,0,0,0],"sum_hessian":[6.7841772E3,3.3280598E3,3.4561172E3,1.5669414E3,1.7611185E3,1.0761316E3,2.3799856E3,9.2230414E2,6.4463727E2,1.1157368E3,6.453817E2,3.7226025E2,7.0387134E2,1.3495184E3,1.0304672E3],"tree_param":{"num_deleted":"0","num_feature":"106","num_nodes":"15","size_leaf_vector":"1"}},{"base_weights":[-1.1085145E-1,9.888055E-2,-2.3240826E-1,-3.2497276E-2,2.4613789E-1,-3.2777482E-1,-3.358001E-2,1.136233E-3,-1.5735187E-3,1.7303283E-3,3.8822414E-3,-4.4381176E-3,-2.3903963E-3,-1.0683106E-3,1.5481837E-3],"categories":[],"categories_nodes":[],"categories_segments":[],"categories_sizes":[],"default_left":[0,0,0,0,0,0,0,0,0,0,0,0,0,0,0],"id":60,"left_children":[1,3,5,7,9,11,13,-1,-1,-1,-1,-1,-1,-1,-1],"loss_changes":[1.729338E2,4.816641E1,8.141078E1,2.4035038E1,1.2125587E1,2.977417E1,1.9241522E1,0E0,0E0,0E0,0E0,0E0,0E0,0E0,0E0],"parents":[2147483647,0,0,1,1,2,2,3,3,4,4,5,5,6,6],"right_children":[2,4,6,8,10,12,14,-1,-1,-1,-1,-1,-1,-1,-1],"split_conditions":[4.59E-1,5.17E-1,2.9E0,-4.8E0,3.5E1,-1.9E0,1.4E1,1.136233E-3,-1.5735187E-3,1.7303283E-3,3.8822414E-3,-4.4381176E-3,-2.3903963E-3,-1.0683106E-3,1.5481837E-3],"split_indices":[3,55,77,25,2,77,51,0,0,0,0,0,0,0,0],"split_type":[0,0,0,0,0,0,0,0,0,0,0,0,0,0,0],"sum_hessian":[6.781319E3,2.4882764E3,4.2930425E3,1.315454E3,1.1728225E3,2.900966E3,1.3920764E3,6.061504E2,7.093035E2,7.7585425E2,3.9696826E2,1.2553599E3,1.6456063E3,1.0026641E3,3.8941226E2],"tree_param":{"num_deleted":"0","num_feature":"106","num_nodes":"15","size_leaf_vector":"1"}},{"base_weights":[1.1085146E-1,-9.888054E-2,2.3240826E-1,3.2497272E-2,-2.4613786E-1,3.2777482E-1,3.358E-2,-1.1362331E-3,1.5735187E-3,-1.7303282E-3,-3.882241E-3,4.4381176E-3,2.390396E-3,1.0683107E-3,-1.5481844E-3],"categories":[],"categories_nodes":[],"categories_segments":[],"categories_sizes":[],"default_left":[0,0,0,0,0,0,0,0,0,0,0,0,0,0,0],"id":61,"left_children":[1,3,5,7,9,11,13,-1,-1,-1,-1,-1,-1,-1,-1],"loss_changes":[1.7293379E2,4.8166397E1,8.14108E1,2.4035042E1,1.212558E1,2.97742E1,1.9241533E1,0E0,0E0,0E0,0E0,0E0,0E0,0E0,0E0],"parents":[2147483647,0,0,1,1,2,2,3,3,4,4,5,5,6,6],"right_children":[2,4,6,8,10,12,14,-1,-1,-1,-1,-1,-1,-1,-1],"split_conditions":[4.59E-1,5.17E-1,2.9E0,-4.8E0,3.5E1,-1.9E0,1.4E1,-1.1362331E-3,1.5735187E-3,-1.7303282E-3,-3.882241E-3,4.4381176E-3,2.390396E-3,1.0683107E-3,-1.5481844E-3],"split_indices":[3,55,77,25,2,77,51,0,0,0,0,0,0,0,0],"split_type":[0,0,0,0,0,0,0,0,0,0,0,0,0,0,0],"sum_hessian":[6.781319E3,2.4882764E3,4.2930425E3,1.315454E3,1.1728225E3,2.900966E3,1.3920764E3,6.061504E2,7.093035E2,7.7585425E2,3.9696826E2,1.2553599E3,1.6456063E3,1.0026642E3,3.8941223E2],"tree_param":{"num_deleted":"0","num_feature":"106","num_nodes":"15","size_leaf_vector":"1"}},{"base_weights":[-1.0978782E-1,-2.7126533E-1,4.563572E-2,-1.3696797E-1,-3.907988E-1,-1.85049E-1,1.3726677E-1,-2.1419136E-3,-2.6367174E-4,-3.172282E-3,-5.1751803E-3,3.525953E-4,-3.0047556E-3,6.554868E-4,2.936819E-3],"categories":[],"categories_nodes":[],"categories_segments":[],"categories_sizes":[],"default_left":[0,0,0,0,0,0,0,0,0,0,0,0,0,0,0],"id":62,"left_children":[1,3,5,7,9,11,13,-1,-1,-1,-1,-1,-1,-1,-1],"loss_changes":[1.7016248E2,5.3325684E1,7.306541E1,1.3381689E1,1.623236E1,2.5001717E1,2.7729599E1,0E0,0E0,0E0,0E0,0E0,0E0,0E0,0E0],"parents":[2147483647,0,0,1,1,2,2,3,3,4,4,5,5,6,6],"right_children":[2,4,6,8,10,12,14,-1,-1,-1,-1,-1,-1,-1,-1],"split_conditions":[1.5E1,1.2E1,-2.4E0,4.9E0,2.3E1,-4.8E0,2.6E1,-2.1419136E-3,-2.6367174E-4,-3.172282E-3,-5.1751803E-3,3.525953E-4,-3.0047556E-3,6.554868E-4,2.936819E-3],"split_indices":[51,80,77,77,80,25,51,0,0,0,0,0,0,0,0],"split_type":[0,0,0,0,0,0,0,0,0,0,0,0,0,0,0],"sum_hessian":[6.778589E3,3.324181E3,3.4544077E3,1.5664266E3,1.7577543E3,9.817627E2,2.472645E3,9.218432E2,6.4458344E2,1.1143114E3,6.434429E2,3.3777124E2,6.4399146E2,1.6962943E3,7.7635077E2],"tree_param":{"num_deleted":"0","num_feature":"106","num_nodes":"15","size_leaf_vector":"1"}},{"base_weights":[1.09787814E-1,2.7126533E-1,-4.563573E-2,1.3696799E-1,3.9079878E-1,1.85049E-1,-1.3726678E-1,2.1419136E-3,2.6367194E-4,3.172282E-3,5.1751803E-3,-3.5259512E-4,3.0047554E-3,-6.5548695E-4,-2.936819E-3],"categories":[],"categories_nodes":[],"categories_segments":[],"categories_sizes":[],"default_left":[0,0,0,0,0,0,0,0,0,0,0,0,0,0,0],"id":63,"left_children":[1,3,5,7,9,11,13,-1,-1,-1,-1,-1,-1,-1,-1],"loss_changes":[1.7016249E2,5.3325653E1,7.306541E1,1.3381693E1,1.623236E1,2.5001713E1,2.7729599E1,0E0,0E0,0E0,0E0,0E0,0E0,0E0,0E0],"parents":[2147483647,0,0,1,1,2,2,3,3,4,4,5,5,6,6],"right_children":[2,4,6,8,10,12,14,-1,-1,-1,-1,-1,-1,-1,-1],"split_conditions":[1.5E1,1.2E1,-2.4E0,4.9E0,2.3E1,-4.8E0,2.6E1,2.1419136E-3,2.6367194E-4,3.172282E-3,5.1751803E-3,-3.5259512E-4,3.0047554E-3,-6.5548695E-4,-2.936819E-3],"split_indices":[51,80,77,77,80,25,51,0,0,0,0,0,0,0,0],"split_type":[0,0,0,0,0,0,0,0,0,0,0,0,0,0,0],"sum_hessian":[6.778589E3,3.324181E3,3.4544077E3,1.5664266E3,1.7577543E3,9.817627E2,2.472645E3,9.218432E2,6.4458344E2,1.1143114E3,6.434428E2,3.3777124E2,6.4399146E2,1.6962943E3,7.7635077E2],"tree_param":{"num_deleted":"0","num_feature":"106","num_nodes":"15","size_leaf_vector":"1"}},{"base_weights":[-1.08739175E-1,-2.1140608E-1,1.3157907E-1,-1.273125E-1,-4.2496473E-1,1.264303E-3,2.746347E-1,-2.8201367E-3,-3.72232E-4,-3.67655E-3,-5.484799E-3,1.0992156E-3,-1.1463836E-3,1.7808598E-3,4.2333445E-3],"categories":[],"categories_nodes":[],"categories_segments":[],"categories_sizes":[],"default_left":[0,0,0,0,0,0,0,0,0,0,0,0,0,0,0],"id":64,"left_children":[1,3,5,7,9,11,13,-1,-1,-1,-1,-1,-1,-1,-1],"loss_changes":[1.6722624E2,8.522478E1,3.7826538E1,4.7492176E1,9.291824E0,1.33976E1,1.381131E1,0E0,0E0,0E0,0E0,0E0,0E0,0E0,0E0],"parents":[2147483647,0,0,1,1,2,2,3,3,4,4,5,5,6,6],"right_children":[2,4,6,8,10,12,14,-1,-1,-1,-1,-1,-1,-1,-1],"split_conditions":[2E1,2E1,4E-1,8E0,3.7E1,-4.8E0,3.5E1,-2.8201367E-3,-3.72232E-4,-3.67655E-3,-5.484799E-3,1.0992156E-3,-1.1463836E-3,1.7808598E-3,4.2333445E-3],"split_indices":[28,80,77,51,54,25,2,0,0,0,0,0,0,0,0],"split_type":[0,0,0,0,0,0,0,0,0,0,0,0,0,0,0],"sum_hessian":[6.7756475E3,4.747554E3,2.0280933E3,3.4074062E3,1.340148E3,1.0618357E3,9.662575E2,1.2532306E3,2.1541758E3,9.1812476E2,4.2202325E2,5.480746E2,5.1376117E2,5.8719653E2,3.7906097E2],"tree_param":{"num_deleted":"0","num_feature":"106","num_nodes":"15","size_leaf_vector":"1"}},{"base_weights":[1.0873919E-1,2.1140611E-1,-1.3157907E-1,1.2731251E-1,4.2496473E-1,-1.2642952E-3,-2.746347E-1,2.8201372E-3,3.7223214E-4,3.67655E-3,5.4847994E-3,-1.0992156E-3,1.1463838E-3,-1.7808601E-3,-4.2333445E-3],"categories":[],"categories_nodes":[],"categories_segments":[],"categories_sizes":[],"default_left":[0,0,0,0,0,0,0,0,0,0,0,0,0,0,0],"id":65,"left_children":[1,3,5,7,9,11,13,-1,-1,-1,-1,-1,-1,-1,-1],"loss_changes":[1.6722626E2,8.522478E1,3.7826546E1,4.7492203E1,9.291824E0,1.3397603E1,1.3811302E1,0E0,0E0,0E0,0E0,0E0,0E0,0E0,0E0],"parents":[2147483647,0,0,1,1,2,2,3,3,4,4,5,5,6,6],"right_children":[2,4,6,8,10,12,14,-1,-1,-1,-1,-1,-1,-1,-1],"split_conditions":[2E1,2E1,4E-1,8E0,3.7E1,-4.8E0,3.5E1,2.8201372E-3,3.7223214E-4,3.67655E-3,5.4847994E-3,-1.0992156E-3,1.1463838E-3,-1.7808601E-3,-4.2333445E-3],"split_indices":[28,80,77,51,54,25,2,0,0,0,0,0,0,0,0],"split_type":[0,0,0,0,0,0,0,0,0,0,0,0,0,0,0],"sum_hessian":[6.7756475E3,4.747554E3,2.0280933E3,3.4074062E3,1.340148E3,1.0618357E3,9.6625757E2,1.2532305E3,2.1541758E3,9.1812476E2,4.2202325E2,5.480746E2,5.1376117E2,5.871966E2,3.7906097E2],"tree_param":{"num_deleted":"0","num_feature":"106","num_nodes":"15","size_leaf_vector":"1"}},{"base_weights":[-1.07698016E-1,-2.665358E-1,4.5076363E-2,-1.3404498E-1,-3.8464516E-1,-1.522606E-1,1.4883608E-1,-2.105272E-3,-2.4549355E-4,-3.1218508E-3,-5.096928E-3,4.467041E-4,-2.5653264E-3,5.5637344E-4,2.7133443E-3],"categories":[],"categories_nodes":[],"categories_segments":[],"categories_sizes":[],"default_left":[0,0,0,0,0,0,0,0,0,0,0,0,0,0,0],"id":66,"left_children":[1,3,5,7,9,11,13,-1,-1,-1,-1,-1,-1,-1,-1],"loss_changes":[1.6438815E2,5.191928E1,7.073881E1,1.3116087E1,1.5745972E1,2.4460764E1,2.583257E1,0E0,0E0,0E0,0E0,0E0,0E0,0E0,0E0],"parents":[2147483647,0,0,1,1,2,2,3,3,4,4,5,5,6,6],"right_children":[2,4,6,8,10,12,14,-1,-1,-1,-1,-1,-1,-1,-1],"split_conditions":[1.5E1,1.2E1,-1.5E0,4.9E0,2.3E1,-4.8E0,2.4E1,-2.105272E-3,-2.4549355E-4,-3.1218508E-3,-5.096928E-3,4.467041E-4,-2.5653264E-3,5.5637344E-4,2.7133443E-3],"split_indices":[51,80,77,77,80,25,51,0,0,0,0,0,0,0,0],"split_type":[0,0,0,0,0,0,0,0,0,0,0,0,0,0,0],"sum_hessian":[6.7728325E3,3.3201577E3,3.4526746E3,1.5658163E3,1.7543414E3,1.1896512E3,2.2630234E3,9.213409E2,6.444754E2,1.1129364E3,6.4140497E2,4.1203754E2,7.7761365E2,1.2860388E3,9.769847E2],"tree_param":{"num_deleted":"0","num_feature":"106","num_nodes":"15","size_leaf_vector":"1"}},{"base_weights":[1.07698016E-1,2.665358E-1,-4.507636E-2,1.3404498E-1,3.8464513E-1,1.5226062E-1,-1.4883608E-1,2.105272E-3,2.4549355E-4,3.1218503E-3,5.096928E-3,-4.467036E-4,2.5653264E-3,-5.5637344E-4,-2.7133443E-3],"categories":[],"categories_nodes":[],"categories_segments":[],"categories_sizes":[],"default_left":[0,0,0,0,0,0,0,0,0,0,0,0,0,0,0],"id":67,"left_children":[1,3,5,7,9,11,13,-1,-1,-1,-1,-1,-1,-1,-1],"loss_changes":[1.6438815E2,5.1919266E1,7.0738815E1,1.3116085E1,1.5745972E1,2.4460758E1,2.5832573E1,0E0,0E0,0E0,0E0,0E0,0E0,0E0,0E0],"parents":[2147483647,0,0,1,1,2,2,3,3,4,4,5,5,6,6],"right_children":[2,4,6,8,10,12,14,-1,-1,-1,-1,-1,-1,-1,-1],"split_conditions":[1.5E1,1.2E1,-1.5E0,4.9E0,2.3E1,-4.8E0,2.4E1,2.105272E-3,2.4549355E-4,3.1218503E-3,5.096928E-3,-4.467036E-4,2.5653264E-3,-5.5637344E-4,-2.7133443E-3],"split_indices":[51,80,77,77,80,25,51,0,0,0,0,0,0,0,0],"split_type":[0,0,0,0,0,0,0,0,0,0,0,0,0,0,0],"sum_hessian":[6.7728325E3,3.3201577E3,3.4526746E3,1.5658163E3,1.7543414E3,1.1896512E3,2.2630234E3,9.213409E2,6.444754E2,1.1129364E3,6.4140497E2,4.1203754E2,7.7761365E2,1.2860388E3,9.769847E2],"tree_param":{"num_deleted":"0","num_feature":"106","num_nodes":"15","size_leaf_vector":"1"}},{"base_weights":[-1.0667157E-1,-2.0758204E-1,1.2943782E-1,-1.192181E-1,-4.0467218E-1,-1.315773E-1,1.9908741E-1,-2.7638674E-3,-2.7801254E-4,-4.5599616E-3,-2.628514E-3,-2.173625E-3,7.027567E-4,3.3302745E-3,1.1184927E-3],"categories":[],"categories_nodes":[],"categories_segments":[],"categories_sizes":[],"default_left":[0,0,0,0,0,0,0,0,0,0,0,0,0,0,0],"id":68,"left_children":[1,3,5,7,9,11,13,-1,-1,-1,-1,-1,-1,-1,-1],"loss_changes":[1.6134616E2,8.25688E1,3.6892853E1,4.7072533E1,1.0565903E1,7.422227E0,1.8671818E1,0E0,0E0,0E0,0E0,0E0,0E0,0E0,0E0],"parents":[2147483647,0,0,1,1,2,2,3,3,4,4,5,5,6,6],"right_children":[2,4,6,8,10,12,14,-1,-1,-1,-1,-1,-1,-1,-1],"split_conditions":[2E1,1.9E1,3.6E-1,8E0,-2.4E0,2.7E1,-6.2E0,-2.7638674E-3,-2.7801254E-4,-4.5599616E-3,-2.628514E-3,-2.173625E-3,7.027567E-4,3.3302745E-3,1.1184927E-3],"split_indices":[28,80,55,51,77,28,25,0,0,0,0,0,0,0,0],"split_type":[0,0,0,0,0,0,0,0,0,0,0,0,0,0,0],"sum_hessian":[6.769751E3,4.7428374E3,2.0269138E3,3.2757732E3,1.4670641E3,4.2675195E2,1.6001619E3,1.2039154E3,2.0718577E3,1.0755974E3,3.9146667E2,2.9942355E2,1.27328415E2,6.3003217E2,9.701297E2],"tree_param":{"num_deleted":"0","num_feature":"106","num_nodes":"15","size_leaf_vector":"1"}},{"base_weights":[1.0667157E-1,2.0758204E-1,-1.2943782E-1,1.192181E-1,4.0467218E-1,1.3157731E-1,-1.9908741E-1,2.7638674E-3,2.7801248E-4,4.5599616E-3,2.6285138E-3,2.173625E-3,-7.027559E-4,-3.3302745E-3,-1.1184927E-3],"categories":[],"categories_nodes":[],"categories_segments":[],"categories_sizes":[],"default_left":[0,0,0,0,0,0,0,0,0,0,0,0,0,0,0],"id":69,"left_children":[1,3,5,7,9,11,13,-1,-1,-1,-1,-1,-1,-1,-1],"loss_changes":[1.6134616E2,8.25688E1,3.689286E1,4.707254E1,1.0565903E1,7.4222226E0,1.8671822E1,0E0,0E0,0E0,0E0,0E0,0E0,0E0,0E0],"parents":[2147483647,0,0,1,1,2,2,3,3,4,4,5,5,6,6],"right_children":[2,4,6,8,10,12,14,-1,-1,-1,-1,-1,-1,-1,-1],"split_conditions":[2E1,1.9E1,3.6E-1,8E0,-2.4E0,2.7E1,-6.2E0,2.7638674E-3,2.7801248E-4,4.5599616E-3,2.6285138E-3,2.173625E-3,-7.027559E-4,-3.3302745E-3,-1.1184927E-3],"split_indices":[28,80,55,51,77,28,25,0,0,0,0,0,0,0,0],"split_type":[0,0,0,0,0,0,0,0,0,0,0,0,0,0,0],"sum_hessian":[6.769751E3,4.7428374E3,2.0269138E3,3.2757732E3,1.4670641E3,4.2675195E2,1.6001619E3,1.2039154E3,2.0718577E3,1.0755974E3,3.9146667E2,2.9942352E2,1.2732842E2,6.3003217E2,9.701297E2],"tree_param":{"num_deleted":"0","num_feature":"106","num_nodes":"15","size_leaf_vector":"1"}},{"base_weights":[-1.0565243E-1,-2.6191714E-1,4.4539403E-2,-3.4868684E-1,-8.559013E-2,-8.7506205E-2,1.9564714E-1,-2.8649478E-3,-5.019501E-3,-1.3903009E-4,-2.1114734E-3,1.0061088E-3,-1.8850525E-3,3.6660652E-3,1.3858263E-3],"categories":[],"categories_nodes":[],"categories_segments":[],"categories_sizes":[],"default_left":[0,0,0,0,0,0,0,0,0,0,0,0,0,0,0],"id":70,"left_children":[1,3,5,7,9,11,13,-1,-1,-1,-1,-1,-1,-1,-1],"loss_changes":[1.5884999E2,5.0719604E1,6.889159E1,2.1042633E1,9.855449E0,3.5031296E1,1.5656162E1,0E0,0E0,0E0,0E0,0E0,0E0,0E0,0E0],"parents":[2147483647,0,0,1,1,2,2,3,3,4,4,5,5,6,6],"right_children":[2,4,6,8,10,12,14,-1,-1,-1,-1,-1,-1,-1,-1],"split_conditions":[1.5E1,2.9E0,5.23E-1,2.3E1,6.71E-1,-4.7E0,-6.1E0,-2.8649478E-3,-5.019501E-3,-1.3903009E-4,-2.1114734E-3,1.0061088E-3,-1.8850525E-3,3.6660652E-3,1.3858263E-3],"split_indices":[51,77,55,80,3,25,25,0,0,0,0,0,0,0,0],"split_type":[0,0,0,0,0,0,0,0,0,0,0,0,0,0,0],"sum_hessian":[6.766808E3,3.3159924E3,3.4508157E3,2.221718E3,1.0942745E3,1.8417885E3,1.6090273E3,1.5824512E3,6.3926685E2,6.9727484E2,3.969997E2,6.4340674E2,1.1983817E3,4.0131232E2,1.207715E3],"tree_param":{"num_deleted":"0","num_feature":"106","num_nodes":"15","size_leaf_vector":"1"}},{"base_weights":[1.0565243E-1,2.6191714E-1,-4.4539407E-2,3.4868684E-1,8.559014E-2,8.750619E-2,-1.9564714E-1,2.8649478E-3,5.019501E-3,1.3902986E-4,2.1114736E-3,-1.0061089E-3,1.8850523E-3,-3.6660652E-3,-1.3858263E-3],"categories":[],"categories_nodes":[],"categories_segments":[],"categories_sizes":[],"default_left":[0,0,0,0,0,0,0,0,0,0,0,0,0,0,0],"id":71,"left_children":[1,3,5,7,9,11,13,-1,-1,-1,-1,-1,-1,-1,-1],"loss_changes":[1.5885E2,5.0719604E1,6.889157E1,2.1042603E1,9.855454E0,3.5031296E1,1.5656158E1,0E0,0E0,0E0,0E0,0E0,0E0,0E0,0E0],"parents":[2147483647,0,0,1,1,2,2,3,3,4,4,5,5,6,6],"right_children":[2,4,6,8,10,12,14,-1,-1,-1,-1,-1,-1,-1,-1],"split_conditions":[1.5E1,2.9E0,5.23E-1,2.3E1,6.71E-1,-4.7E0,-6.1E0,2.8649478E-3,5.019501E-3,1.3902986E-4,2.1114736E-3,-1.0061089E-3,1.8850523E-3,-3.6660652E-3,-1.3858263E-3],"split_indices":[51,77,55,80,3,25,25,0,0,0,0,0,0,0,0],"split_type":[0,0,0,0,0,0,0,0,0,0,0,0,0,0,0],"sum_hessian":[6.766808E3,3.3159924E3,3.4508157E3,2.221718E3,1.0942745E3,1.8417885E3,1.6090273E3,1.582451E3,6.3926685E2,6.9727484E2,3.9699973E2,6.4340674E2,1.1983817E3,4.0131232E2,1.207715E3],"tree_param":{"num_deleted":"0","num_feature":"106","num_nodes":"15","size_leaf_vector":"1"}},{"base_weights":[-1.04644515E-1,-2.5947803E-1,4.4105608E-2,-1.297376E-1,-3.7542555E-1,-1.7792514E-1,1.3222791E-1,-1.9059842E-3,4.2498643E-5,-3.2570432E-3,-5.502618E-3,3.2545597E-4,-2.8847163E-3,6.365113E-4,2.8210809E-3],"categories":[],"categories_nodes":[],"categories_segments":[],"categories_sizes":[],"default_left":[0,0,0,0,0,0,0,0,0,0,0,0,0,0,0],"id":72,"left_children":[1,3,5,7,9,11,13,-1,-1,-1,-1,-1,-1,-1,-1],"loss_changes":[1.5581403E2,4.9815308E1,6.754555E1,1.2769726E1,1.5032715E1,2.2832863E1,2.5380402E1,0E0,0E0,0E0,0E0,0E0,0E0,0E0,0E0],"parents":[2147483647,0,0,1,1,2,2,3,3,4,4,5,5,6,6],"right_children":[2,4,6,8,10,12,14,-1,-1,-1,-1,-1,-1,-1,-1],"split_conditions":[1.5E1,1.2E1,-2.4E0,6E0,2.6E1,-4.8E0,2.6E1,-1.9059842E-3,4.2498643E-5,-3.2570432E-3,-5.502618E-3,3.2545597E-4,-2.8847163E-3,6.365113E-4,2.8210809E-3],"split_indices":[51,80,77,77,80,25,51,0,0,0,0,0,0,0,0],"split_type":[0,0,0,0,0,0,0,0,0,0,0,0,0,0,0],"sum_hessian":[6.7637593E3,3.3137468E3,3.4500122E3,1.5648567E3,1.7488901E3,9.799459E2,2.4700664E3,1.0757834E3,4.890733E2,1.3638822E3,3.850079E2,3.377002E2,6.422457E2,1.6956545E3,7.7441187E2],"tree_param":{"num_deleted":"0","num_feature":"106","num_nodes":"15","size_leaf_vector":"1"}},{"base_weights":[1.046445E-1,2.59478E-1,-4.4105615E-2,1.2973756E-1,3.7542555E-1,1.7792514E-1,-1.3222791E-1,1.9059841E-3,-4.2499432E-5,3.2570432E-3,5.5026175E-3,-3.2545612E-4,2.8847163E-3,-6.3651137E-4,-2.8210809E-3],"categories":[],"categories_nodes":[],"categories_segments":[],"categories_sizes":[],"default_left":[0,0,0,0,0,0,0,0,0,0,0,0,0,0,0],"id":73,"left_children":[1,3,5,7,9,11,13,-1,-1,-1,-1,-1,-1,-1,-1],"loss_changes":[1.55814E2,4.9815292E1,6.7545555E1,1.27697315E1,1.50327E1,2.2832863E1,2.538041E1,0E0,0E0,0E0,0E0,0E0,0E0,0E0,0E0],"parents":[2147483647,0,0,1,1,2,2,3,3,4,4,5,5,6,6],"right_children":[2,4,6,8,10,12,14,-1,-1,-1,-1,-1,-1,-1,-1],"split_conditions":[1.5E1,1.2E1,-2.4E0,6E0,2.6E1,-4.8E0,2.6E1,1.9059841E-3,-4.2499432E-5,3.2570432E-3,5.5026175E-3,-3.2545612E-4,2.8847163E-3,-6.3651137E-4,-2.8210809E-3],"split_indices":[51,80,77,77,80,25,51,0,0,0,0,0,0,0,0],"split_type":[0,0,0,0,0,0,0,0,0,0,0,0,0,0,0],"sum_hessian":[6.7637593E3,3.3137468E3,3.4500122E3,1.5648567E3,1.7488901E3,9.799459E2,2.4700664E3,1.0757834E3,4.890733E2,1.3638822E3,3.850079E2,3.377002E2,6.422457E2,1.6956544E3,7.7441187E2],"tree_param":{"num_deleted":"0","num_feature":"106","num_nodes":"15","size_leaf_vector":"1"}},{"base_weights":[-1.0364836E-1,-2.0213248E-1,1.2662715E-1,-8.0895096E-2,-3.398145E-1,7.156183E-4,2.6498604E-1,-2.405174E-3,4.9535865E-5,-4.839631E-3,-2.7744805E-3,1.0361932E-3,-1.0906452E-3,1.6967183E-3,4.1196058E-3],"categories":[],"categories_nodes":[],"categories_segments":[],"categories_sizes":[],"default_left":[0,0,0,0,0,0,0,0,0,0,0,0,0,0,0],"id":74,"left_children":[1,3,5,7,9,11,13,-1,-1,-1,-1,-1,-1,-1,-1],"loss_changes":[1.5336868E2,7.903467E1,3.529718E1,3.453313E1,1.9801178E1,1.2006111E1,1.3453484E1,0E0,0E0,0E0,0E0,0E0,0E0,0E0,0E0],"parents":[2147483647,0,0,1,1,2,2,3,3,4,4,5,5,6,6],"right_children":[2,4,6,8,10,12,14,-1,-1,-1,-1,-1,-1,-1,-1],"split_conditions":[2E1,1.4E1,4E-1,7E0,7E0,-4.8E0,3.5E1,-2.405174E-3,4.9535865E-5,-4.839631E-3,-2.7744805E-3,1.0361932E-3,-1.0906452E-3,1.6967183E-3,4.1196058E-3],"split_indices":[28,80,77,29,51,25,2,0,0,0,0,0,0,0,0],"split_type":[0,0,0,0,0,0,0,0,0,0,0,0,0,0,0],"sum_hessian":[6.7606123E3,4.7354707E3,2.0251416E3,2.5189607E3,2.21651E3,1.0607899E3,9.643516E2,8.8032715E2,1.6386334E3,6.6733276E2,1.5491774E3,5.475725E2,5.132174E2,5.862913E2,3.780603E2],"tree_param":{"num_deleted":"0","num_feature":"106","num_nodes":"15","size_leaf_vector":"1"}},{"base_weights":[1.03648365E-1,2.0213248E-1,-1.2662715E-1,8.089511E-2,3.398145E-1,-7.1559E-4,-2.6498604E-1,2.4051743E-3,-4.9535793E-5,4.839631E-3,2.7744805E-3,-1.0361929E-3,1.0906453E-3,-1.6967183E-3,-4.1196058E-3],"categories":[],"categories_nodes":[],"categories_segments":[],"categories_sizes":[],"default_left":[0,0,0,0,0,0,0,0,0,0,0,0,0,0,0],"id":75,"left_children":[1,3,5,7,9,11,13,-1,-1,-1,-1,-1,-1,-1,-1],"loss_changes":[1.5336868E2,7.903467E1,3.5297188E1,3.4533134E1,1.9801239E1,1.2006109E1,1.3453491E1,0E0,0E0,0E0,0E0,0E0,0E0,0E0,0E0],"parents":[2147483647,0,0,1,1,2,2,3,3,4,4,5,5,6,6],"right_children":[2,4,6,8,10,12,14,-1,-1,-1,-1,-1,-1,-1,-1],"split_conditions":[2E1,1.4E1,4E-1,7E0,7E0,-4.8E0,3.5E1,2.4051743E-3,-4.9535793E-5,4.839631E-3,2.7744805E-3,-1.0361929E-3,1.0906453E-3,-1.6967183E-3,-4.1196058E-3],"split_indices":[28,80,77,29,51,25,2,0,0,0,0,0,0,0,0],"split_type":[0,0,0,0,0,0,0,0,0,0,0,0,0,0,0],"sum_hessian":[6.7606123E3,4.7354707E3,2.0251416E3,2.5189607E3,2.21651E3,1.0607899E3,9.643516E2,8.8032715E2,1.6386334E3,6.673327E2,1.5491774E3,5.475725E2,5.132174E2,5.862913E2,3.780603E2],"tree_param":{"num_deleted":"0","num_feature":"106","num_nodes":"15","size_leaf_vector":"1"}},{"base_weights":[-1.02659374E-1,9.3168065E-2,-2.1639992E-1,-3.0879037E-2,2.3233788E-1,-3.075122E-1,-2.7379012E-2,1.0422649E-3,-1.4640216E-3,1.6217991E-3,3.6903627E-3,-4.175451E-3,-2.238874E-3,-9.706581E-4,1.5163562E-3],"categories":[],"categories_nodes":[],"categories_segments":[],"categories_sizes":[],"default_left":[0,0,0,0,0,0,0,0,0,0,0,0,0,0,0],"id":76,"left_children":[1,3,5,7,9,11,13,-1,-1,-1,-1,-1,-1,-1,-1],"loss_changes":[1.505571E2,4.2888416E1,7.362741E1,2.052692E1,1.1167889E1,2.6451996E1,1.7376585E1,0E0,0E0,0E0,0E0,0E0,0E0,0E0,0E0],"parents":[2147483647,0,0,1,1,2,2,3,3,4,4,5,5,6,6],"right_children":[2,4,6,8,10,12,14,-1,-1,-1,-1,-1,-1,-1,-1],"split_conditions":[4.59E-1,5.17E-1,2.9E0,-4.8E0,3.5E1,-1.9E0,1.4E1,1.0422649E-3,-1.4640216E-3,1.6217991E-3,3.6903627E-3,-4.175451E-3,-2.238874E-3,-9.706581E-4,1.5163562E-3],"split_indices":[3,55,77,25,2,77,51,0,0,0,0,0,0,0,0],"split_type":[0,0,0,0,0,0,0,0,0,0,0,0,0,0,0],"sum_hessian":[6.75756E3,2.4829092E3,4.2746514E3,1.3131918E3,1.1697174E3,2.8839136E3,1.3907374E3,6.0533905E2,7.0785266E2,7.7443774E2,3.9527963E2,1.2436001E3,1.6403136E3,1.00137866E3,3.893588E2],"tree_param":{"num_deleted":"0","num_feature":"106","num_nodes":"15","size_leaf_vector":"1"}},{"base_weights":[1.02659374E-1,-9.3168065E-2,2.1639992E-1,3.087904E-2,-2.3233788E-1,3.075122E-1,2.7379002E-2,-1.0422646E-3,1.4640216E-3,-1.621799E-3,-3.6903627E-3,4.175451E-3,2.238874E-3,9.7065826E-4,-1.5163571E-3],"categories":[],"categories_nodes":[],"categories_segments":[],"categories_sizes":[],"default_left":[0,0,0,0,0,0,0,0,0,0,0,0,0,0,0],"id":77,"left_children":[1,3,5,7,9,11,13,-1,-1,-1,-1,-1,-1,-1,-1],"loss_changes":[1.505571E2,4.2888416E1,7.362741E1,2.0526915E1,1.1167896E1,2.6451996E1,1.7376596E1,0E0,0E0,0E0,0E0,0E0,0E0,0E0,0E0],"parents":[2147483647,0,0,1,1,2,2,3,3,4,4,5,5,6,6],"right_children":[2,4,6,8,10,12,14,-1,-1,-1,-1,-1,-1,-1,-1],"split_conditions":[4.59E-1,5.17E-1,2.9E0,-4.8E0,3.5E1,-1.9E0,1.4E1,