{"learner":{"attributes":{},"feature_names":[],"feature_types":[],"gradient_booster":{"model":{"gbtree_model_param":{"num_parallel_tree":"1","num_trees":"1500"},"iteration_indptr":[0,2,4,6,8,10,12,14,16,18,20,22,24,26,28,30,32,34,36,38,40,42,44,46,48,50,52,54,56,58,60,62,64,66,68,70,72,74,76,78,80,82,84,86,88,90,92,94,96,98,100,102,104,106,108,110,112,114,116,118,120,122,124,126,128,130,132,134,136,138,140,142,144,146,148,150,152,154,156,158,160,162,164,166,168,170,172,174,176,178,180,182,184,186,188,190,192,194,196,198,200,202,204,206,208,210,212,214,216,218,220,222,224,226,228,230,232,234,236,238,240,242,244,246,248,250,252,254,256,258,260,262,264,266,268,270,272,274,276,278,280,282,284,286,288,290,292,294,296,298,300,302,304,306,308,310,312,314,316,318,320,322,324,326,328,330,332,334,336,338,340,342,344,346,348,350,352,354,356,358,360,362,364,366,368,370,372,374,376,378,380,382,384,386,388,390,392,394,396,398,400,402,404,406,408,410,412,414,416,418,420,422,424,426,428,430,432,434,436,438,440,442,444,446,448,450,452,454,456,458,460,462,464,466,468,470,472,474,476,478,480,482,484,486,488,490,492,494,496,498,500,502,504,506,508,510,512,514,516,518,520,522,524,526,528,530,532,534,536,538,540,542,544,546,548,550,552,554,556,558,560,562,564,566,568,570,572,574,576,578,580,582,584,586,588,590,592,594,596,598,600,602,604,606,608,610,612,614,616,618,620,622,624,626,628,630,632,634,636,638,640,642,644,646,648,650,652,654,656,658,660,662,664,666,668,670,672,674,676,678,680,682,684,686,688,690,692,694,696,698,700,702,704,706,708,710,712,714,716,718,720,722,724,726,728,730,732,734,736,738,740,742,744,746,748,750,752,754,756,758,760,762,764,766,768,770,772,774,776,778,780,782,784,786,788,790,792,794,796,798,800,802,804,806,808,810,812,814,816,818,820,822,824,826,828,830,832,834,836,838,840,842,844,846,848,850,852,854,856,858,860,862,864,866,868,870,872,874,876,878,880,882,884,886,888,890,892,894,896,898,900,902,904,906,908,910,912,914,916,918,920,922,924,926,928,930,932,934,936,938,940,942,944,946,948,950,952,954,956,958,960,962,964,966,968,970,972,974,976,978,980,982,984,986,988,990,992,994,996,998,1000,1002,1004,1006,1008,1010,1012,1014,1016,1018,1020,1022,1024,1026,1028,1030,1032,1034,1036,1038,1040,1042,1044,1046,1048,1050,1052,1054,1056,1058,1060,1062,1064,1066,1068,1070,1072,1074,1076,1078,1080,1082,1084,1086,1088,1090,1092,1094,1096,1098,1100,1102,1104,1106,1108,1110,1112,1114,1116,1118,1120,1122,1124,1126,1128,1130,1132,1134,1136,1138,1140,1142,1144,1146,1148,1150,1152,1154,1156,1158,1160,1162,1164,1166,1168,1170,1172,1174,1176,1178,1180,1182,1184,1186,1188,1190,1192,1194,1196,1198,1200,1202,1204,1206,1208,1210,1212,1214,1216,1218,1220,1222,1224,1226,1228,1230,1232,1234,1236,1238,1240,1242,1244,1246,1248,1250,1252,1254,1256,1258,1260,1262,1264,1266,1268,1270,1272,1274,1276,1278,1280,1282,1284,1286,1288,1290,1292,1294,1296,1298,1300,1302,1304,1306,1308,1310,1312,1314,1316,1318,1320,1322,1324,1326,1328,1330,1332,1334,1336,1338,1340,1342,1344,1346,1348,1350,1352,1354,1356,1358,1360,1362,1364,1366,1368,1370,1372,1374,1376,1378,1380,1382,1384,1386,1388,1390,1392,1394,1396,1398,1400,1402,1404,1406,1408,1410,1412,1414,1416,1418,1420,1422,1424,1426,1428,1430,1432,1434,1436,1438,1440,1442,1444,1446,1448,1450,1452,1454,1456,1458,1460,1462,1464,1466,1468,1470,1472,1474,1476,1478,1480,1482,1484,1486,1488,1490,1492,1494,1496,1498,1500],"tree_info":[0,1,0,1,0,1,0,1,0,1,0,1,0,1,0,1,0,1,0,1,0,1,0,1,0,1,0,1,0,1,0,1,0,1,0,1,0,1,0,1,0,1,0,1,0,1,0,1,0,1,0,1,0,1,0,1,0,1,0,1,0,1,0,1,0,1,0,1,0,1,0,1,0,1,0,1,0,1,0,1,0,1,0,1,0,1,0,1,0,1,0,1,0,1,0,1,0,1,0,1,0,1,0,1,0,1,0,1,0,1,0,1,0,1,0,1,0,1,0,1,0,1,0,1,0,1,0,1,0,1,0,1,0,1,0,1,0,1,0,1,0,1,0,1,0,1,0,1,0,1,0,1,0,1,0,1,0,1,0,1,0,1,0,1,0,1,0,1,0,1,0,1,0,1,0,1,0,1,0,1,0,1,0,1,0,1,0,1,0,1,0,1,0,1,0,1,0,1,0,1,0,1,0,1,0,1,0,1,0,1,0,1,0,1,0,1,0,1,0,1,0,1,0,1,0,1,0,1,0,1,0,1,0,1,0,1,0,1,0,1,0,1,0,1,0,1,0,1,0,1,0,1,0,1,0,1,0,1,0,1,0,1,0,1,0,1,0,1,0,1,0,1,0,1,0,1,0,1,0,1,0,1,0,1,0,1,0,1,0,1,0,1,0,1,0,1,0,1,0,1,0,1,0,1,0,1,0,1,0,1,0,1,0,1,0,1,0,1,0,1,0,1,0,1,0,1,0,1,0,1,0,1,0,1,0,1,0,1,0,1,0,1,0,1,0,1,0,1,0,1,0,1,0,1,0,1,0,1,0,1,0,1,0,1,0,1,0,1,0,1,0,1,0,1,0,1,0,1,0,1,0,1,0,1,0,1,0,1,0,1,0,1,0,1,0,1,0,1,0,1,0,1,0,1,0,1,0,1,0,1,0,1,0,1,0,1,0,1,0,1,0,1,0,1,0,1,0,1,0,1,0,1,0,1,0,1,0,1,0,1,0,1,0,1,0,1,0,1,0,1,0,1,0,1,0,1,0,1,0,1,0,1,0,1,0,1,0,1,0,1,0,1,0,1,0,1,0,1,0,1,0,1,0,1,0,1,0,1,0,1,0,1,0,1,0,1,0,1,0,1,0,1,0,1,0,1,0,1,0,1,0,1,0,1,0,1,0,1,0,1,0,1,0,1,0,1,0,1,0,1,0,1,0,1,0,1,0,1,0,1,0,1,0,1,0,1,0,1,0,1,0,1,0,1,0,1,0,1,0,1,0,1,0,1,0,1,0,1,0,1,0,1,0,1,0,1,0,1,0,1,0,1,0,1,0,1,0,1,0,1,0,1,0,1,0,1,0,1,0,1,0,1,0,1,0,1,0,1,0,1,0,1,0,1,0,1,0,1,0,1,0,1,0,1,0,1,0,1,0,1,0,1,0,1,0,1,0,1,0,1,0,1,0,1,0,1,0,1,0,1,0,1,0,1,0,1,0,1,0,1,0,1,0,1,0,1,0,1,0,1,0,1,0,1,0,1,0,1,0,1,0,1,0,1,0,1,0,1,0,1,0,1,0,1,0,1,0,1,0,1,0,1,0,1,0,1,0,1,0,1,0,1,0,1,0,1,0,1,0,1,0,1,0,1,0,1,0,1,0,1,0,1,0,1,0,1,0,1,0,1,0,1,0,1,0,1,0,1,0,1,0,1,0,1,0,1,0,1,0,1,0,1,0,1,0,1,0,1,0,1,0,1,0,1,0,1,0,1,0,1,0,1,0,1,0,1,0,1,0,1,0,1,0,1,0,1,0,1,0,1,0,1,0,1,0,1,0,1,0,1,0,1,0,1,0,1,0,1,0,1,0,1,0,1,0,1,0,1,0,1,0,1,0,1,0,1,0,1,0,1,0,1,0,1,0,1,0,1,0,1,0,1,0,1,0,1,0,1,0,1,0,1,0,1,0,1,0,1,0,1,0,1,0,1,0,1,0,1,0,1,0,1,0,1,0,1,0,1,0,1,0,1,0,1,0,1,0,1,0,1,0,1,0,1,0,1,0,1,0,1,0,1,0,1,0,1,0,1,0,1,0,1,0,1,0,1,0,1,0,1,0,1,0,1,0,1,0,1,0,1,0,1,0,1,0,1,0,1,0,1,0,1,0,1,0,1,0,1,0,1,0,1,0,1,0,1,0,1,0,1,0,1,0,1,0,1,0,1,0,1,0,1,0,1,0,1,0,1,0,1,0,1,0,1,0,1,0,1,0,1,0,1,0,1,0,1,0,1,0,1,0,1,0,1,0,1,0,1,0,1,0,1,0,1,0,1,0,1,0,1,0,1,0,1,0,1,0,1,0,1,0,1,0,1,0,1,0,1,0,1,0,1,0,1,0,1,0,1,0,1,0,1,0,1,0,1,0,1,0,1,0,1,0,1,0,1,0,1,0,1,0,1,0,1,0,1,0,1,0,1,0,1,0,1,0,1,0,1,0,1,0,1,0,1,0,1,0,1,0,1,0,1,0,1,0,1,0,1,0,1,0,1,0,1,0,1,0,1,0,1,0,1,0,1,0,1,0,1,0,1,0,1,0,1,0,1,0,1,0,1,0,1,0,1,0,1,0,1,0,1,0,1,0,1,0,1,0,1,0,1,0,1,0,1,0,1,0,1,0,1,0,1,0,1,0,1,0,1,0,1,0,1,0,1,0,1,0,1,0,1,0,1,0,1,0,1,0,1,0,1,0,1,0,1,0,1,0,1,0,1,0,1,0,1,0,1,0,1,0,1,0,1,0,1,0,1,0,1,0,1,0,1,0,1,0,1,0,1,0,1,0,1,0,1,0,1,0,1,0,1,0,1,0,1,0,1,0,1,0,1,0,1,0,1,0,1,0,1,0,1,0,1,0,1,0,1,0,1,0,1,0,1,0,1,0,1,0,1,0,1,0,1,0,1,0,1,0,1,0,1,0,1,0,1,0,1,0,1,0,1,0,1,0,1,0,1,0,1,0,1,0,1,0,1,0,1,0,1,0,1,0,1,0,1,0,1,0,1,0,1,0,1,0,1,0,1,0,1,0,1,0,1,0,1,0,1,0,1,0,1,0,1,0,1,0,1,0,1,0,1,0,1,0,1,0,1,0,1,0,1,0,1,0,1,0,1,0,1,0,1,0,1,0,1,0,1,0,1,0,1,0,1,0,1,0,1,0,1,0,1,0,1,0,1,0,1,0,1,0,1,0,1,0,1,0,1,0,1,0,1,0,1,0,1,0,1,0,1,0,1,0,1,0,1,0,1,0,1,0,1,0,1,0,1,0,1,0,1,0,1,0,1,0,1,0,1,0,1,0,1,0,1,0,1,0,1,0,1,0,1,0,1,0,1,0,1,0,1,0,1],"trees":[{"base_weights":[-1.5216874E-1,1.1006826E-1,-3.072555E-1,-2.0503597E-1,2.0793739E-1,-1.3381873E-1,-4.8225152E-1,1.2396694E-4,-3.7142858E-3,9.6267194E-4,3.5492228E-3,-2.555294E-3,5.376344E-5,-6.2210797E-3,-3.9079497E-3],"categories":[],"categories_nodes":[],"categories_segments":[],"categories_sizes":[],"default_left":[0,0,0,0,0,0,0,0,0,0,0,0,0,0,0],"id":0,"left_children":[1,3,5,7,9,11,13,-1,-1,-1,-1,-1,-1,-1,-1],"loss_changes":[2.5647528E2,7.23292E1,1.2020029E2,2.012023E1,2.9330177E1,3.374042E1,2.4980316E1,0E0,0E0,0E0,0E0,0E0,0E0,0E0,0E0],"parents":[2147483647,0,0,1,1,2,2,3,3,4,4,5,5,6,6],"right_children":[2,4,6,8,10,12,14,-1,-1,-1,-1,-1,-1,-1,-1],"split_conditions":[4.59E-1,3.73E-1,1.3E1,-4.8E0,2.6E1,1E1,8E0,1.2396694E-4,-3.7142858E-3,9.6267194E-4,3.5492228E-3,-2.555294E-3,5.376344E-5,-6.2210797E-3,-3.9079497E-3],"split_indices":[3,55,80,25,51,51,51,0,0,0,0,0,0,0,0],"split_type":[0,0,0,0,0,0,0,0,0,0,0,0,0,0,0],"sum_hessian":[6.3045E3,2.343E3,3.9615E3,5.55E2,1.788E3,1.9905E3,1.971E3,2.41E2,3.14E2,1.017E3,7.71E2,1.0615E3,9.29E2,7.77E2,1.194E3],"tree_param":{"num_deleted":"0","num_feature":"106","num_nodes":"15","size_leaf_vector":"1"}},{"base_weights":[1.5216874E-1,-1.1006826E-1,3.072555E-1,2.0503597E-1,-2.0793739E-1,1.3381873E-1,4.8225152E-1,-1.2396694E-4,3.7142858E-3,-9.6267194E-4,-3.5492228E-3,2.555294E-3,-5.376344E-5,6.2210797E-3,3.9079497E-3],"categories":[],"categories_nodes":[],"categories_segments":[],"categories_sizes":[],"default_left":[0,0,0,0,0,0,0,0,0,0,0,0,0,0,0],"id":1,"left_children":[1,3,5,7,9,11,13,-1,-1,-1,-1,-1,-1,-1,-1],"loss_changes":[2.5647528E2,7.23292E1,1.2020029E2,2.012023E1,2.9330177E1,3.374042E1,2.4980316E1,0E0,0E0,0E0,0E0,0E0,0E0,0E0,0E0],"parents":[2147483647,0,0,1,1,2,2,3,3,4,4,5,5,6,6],"right_children":[2,4,6,8,10,12,14,-1,-1,-1,-1,-1,-1,-1,-1],"split_conditions":[4.59E-1,3.73E-1,1.3E1,-4.8E0,2.6E1,1E1,8E0,-1.2396694E-4,3.7142858E-3,-9.6267194E-4,-3.5492228E-3,2.555294E-3,-5.376344E-5,6.2210797E-3,3.9079497E-3],"split_indices":[3,55,80,25,51,51,51,0,0,0,0,0,0,0,0],"split_type":[0,0,0,0,0,0,0,0,0,0,0,0,0,0,0],"sum_hessian":[6.3045E3,2.343E3,3.9615E3,5.55E2,1.788E3,1.9905E3,1.971E3,2.41E2,3.14E2,1.017E3,7.71E2,1.0615E3,9.29E2,7.77E2,1.194E3],"tree_param":{"num_deleted":"0","num_feature":"106","num_nodes":"15","size_leaf_vector":"1"}},{"base_weights":[-1.5065062E-1,1.08968645E-1,-3.0419043E-1,-2.0299363E-1,2.0586173E-1,-1.3248229E-1,-4.774459E-1,1.2273228E-4,-3.677311E-3,9.530549E-4,3.5138207E-3,-2.5297822E-3,5.3226384E-5,-6.159188E-3,-3.8689622E-3],"categories":[],"categories_nodes":[],"categories_segments":[],"categories_sizes":[],"default_left":[0,0,0,0,0,0,0,0,0,0,0,0,0,0,0],"id":2,"left_children":[1,3,5,7,9,11,13,-1,-1,-1,-1,-1,-1,-1,-1],"loss_changes":[2.513795E2,7.0893394E1,1.1781702E2,1.972152E1,2.87481E1,3.306995E1,2.4487366E1,0E0,0E0,0E0,0E0,0E0,0E0,0E0,0E0],"parents":[2147483647,0,0,1,1,2,2,3,3,4,4,5,5,6,6],"right_children":[2,4,6,8,10,12,14,-1,-1,-1,-1,-1,-1,-1,-1],"split_conditions":[4.59E-1,3.73E-1,1.3E1,-4.8E0,2.6E1,1E1,8E0,1.2273228E-4,-3.677311E-3,9.530549E-4,3.5138207E-3,-2.5297822E-3,5.3226384E-5,-6.159188E-3,-3.8689622E-3],"split_indices":[3,55,80,25,51,51,51,0,0,0,0,0,0,0,0],"split_type":[0,0,0,0,0,0,0,0,0,0,0,0,0,0,0],"sum_hessian":[6.3044297E3,2.342985E3,3.9614448E3,5.5499567E2,1.7879894E3,1.990493E3,1.9709518E3,2.41E2,3.1399567E2,1.016999E3,7.709903E2,1.061493E3,9.29E2,7.7697E2,1.1939818E3],"tree_param":{"num_deleted":"0","num_feature":"106","num_nodes":"15","size_leaf_vector":"1"}},{"base_weights":[1.5065059E-1,-1.08968645E-1,3.041904E-1,2.0299369E-1,-2.0586175E-1,1.3248222E-1,4.7744587E-1,-1.2273258E-4,3.677312E-3,-9.5305516E-4,-3.5138207E-3,2.529781E-3,-5.3226384E-5,6.159187E-3,3.8689622E-3],"categories":[],"categories_nodes":[],"categories_segments":[],"categories_sizes":[],"default_left":[0,0,0,0,0,0,0,0,0,0,0,0,0,0,0],"id":3,"left_children":[1,3,5,7,9,11,13,-1,-1,-1,-1,-1,-1,-1,-1],"loss_changes":[2.5137943E2,7.089342E1,1.1781702E2,1.9721533E1,2.8748085E1,3.306992E1,2.4487335E1,0E0,0E0,0E0,0E0,0E0,0E0,0E0,0E0],"parents":[2147483647,0,0,1,1,2,2,3,3,4,4,5,5,6,6],"right_children":[2,4,6,8,10,12,14,-1,-1,-1,-1,-1,-1,-1,-1],"split_conditions":[4.59E-1,3.73E-1,1.3E1,-4.8E0,2.6E1,1E1,8E0,-1.2273258E-4,3.677312E-3,-9.5305516E-4,-3.5138207E-3,2.529781E-3,-5.3226384E-5,6.159187E-3,3.8689622E-3],"split_indices":[3,55,80,25,51,51,51,0,0,0,0,0,0,0,0],"split_type":[0,0,0,0,0,0,0,0,0,0,0,0,0,0,0],"sum_hessian":[6.3044297E3,2.342985E3,3.9614448E3,5.5499567E2,1.7879894E3,1.990493E3,1.9709518E3,2.41E2,3.1399567E2,1.0169991E3,7.709903E2,1.061493E3,9.29E2,7.7697E2,1.1939818E3],"tree_param":{"num_deleted":"0","num_feature":"106","num_nodes":"15","size_leaf_vector":"1"}},{"base_weights":[-1.4915094E-1,1.0788138E-1,-3.011642E-1,-2.0097484E-1,2.0380923E-1,-1.3116008E-1,-4.7271097E-1,1.2150951E-4,-3.6408042E-3,9.4353606E-4,3.4788584E-3,-2.6478514E-3,-9.145828E-5,-6.0983757E-3,-3.830479E-3],"categories":[],"categories_nodes":[],"categories_segments":[],"categories_sizes":[],"default_left":[0,0,0,0,0,0,0,0,0,0,0,0,0,0,0],"id":4,"left_children":[1,3,5,7,9,11,13,-1,-1,-1,-1,-1,-1,-1,-1],"loss_changes":[2.4639214E2,6.948703E1,1.15492615E2,1.93315E1,2.8179024E1,3.2466866E1,2.4010162E1,0E0,0E0,0E0,0E0,0E0,0E0,0E0,0E0],"parents":[2147483647,0,0,1,1,2,2,3,3,4,4,5,5,6,6],"right_children":[2,4,6,8,10,12,14,-1,-1,-1,-1,-1,-1,-1,-1],"split_conditions":[4.59E-1,3.73E-1,1.3E1,-4.8E0,2.6E1,9E0,8E0,1.2150951E-4,-3.6408042E-3,9.4353606E-4,3.4788584E-3,-2.6478514E-3,-9.145828E-5,-6.0983757E-3,-3.830479E-3],"split_indices":[3,55,80,25,51,51,51,0,0,0,0,0,0,0,0],"split_type":[0,0,0,0,0,0,0,0,0,0,0,0,0,0,0],"sum_hessian":[6.3042217E3,2.3429407E3,3.9612812E3,5.5498285E2,1.7879578E3,1.9904725E3,1.9708087E3,2.4099998E2,3.1398285E2,1.0169962E3,7.7096155E2,9.494754E2,1.0409971E3,7.768809E2,1.1939277E3],"tree_param":{"num_deleted":"0","num_feature":"106","num_nodes":"15","size_leaf_vector":"1"}},{"base_weights":[1.4915091E-1,-1.0788144E-1,3.011642E-1,2.009748E-1,-2.038093E-1,1.3116008E-1,4.7271097E-1,-1.215098E-4,3.6408042E-3,-9.435373E-4,-3.4788584E-3,2.6478516E-3,9.145805E-5,6.0983757E-3,3.830479E-3],"categories":[],"categories_nodes":[],"categories_segments":[],"categories_sizes":[],"default_left":[0,0,0,0,0,0,0,0,0,0,0,0,0,0,0],"id":5,"left_children":[1,3,5,7,9,11,13,-1,-1,-1,-1,-1,-1,-1,-1],"loss_changes":[2.4639221E2,6.9487045E1,1.15492615E2,1.9331507E1,2.8179008E1,3.2466885E1,2.4010162E1,0E0,0E0,0E0,0E0,0E0,0E0,0E0,0E0],"parents":[2147483647,0,0,1,1,2,2,3,3,4,4,5,5,6,6],"right_children":[2,4,6,8,10,12,14,-1,-1,-1,-1,-1,-1,-1,-1],"split_conditions":[4.59E-1,3.73E-1,1.3E1,-4.8E0,2.6E1,9E0,8E0,-1.215098E-4,3.6408042E-3,-9.435373E-4,-3.4788584E-3,2.6478516E-3,9.145805E-5,6.0983757E-3,3.830479E-3],"split_indices":[3,55,80,25,51,51,51,0,0,0,0,0,0,0,0],"split_type":[0,0,0,0,0,0,0,0,0,0,0,0,0,0,0],"sum_hessian":[6.3042217E3,2.3429407E3,3.9612812E3,5.5498285E2,1.7879578E3,1.9904725E3,1.9708087E3,2.41E2,3.1398285E2,1.0169962E3,7.7096155E2,9.4947546E2,1.0409971E3,7.768809E2,1.1939277E3],"tree_param":{"num_deleted":"0","num_feature":"106","num_nodes":"15","size_leaf_vector":"1"}},{"base_weights":[-1.4766929E-1,1.0680637E-1,-2.9817596E-1,2.1590959E-1,-1.5966856E-1,-1.2985191E-1,-4.6804488E-1,7.0545624E-4,3.231573E-3,1.0211474E-3,-2.897847E-3,-2.4808727E-3,5.3608634E-5,-6.038611E-3,-3.7924882E-3],"categories":[],"categories_nodes":[],"categories_segments":[],"categories_sizes":[],"default_left":[0,0,0,0,0,0,0,0,0,0,0,0,0,0,0],"id":6,"left_children":[1,3,5,7,9,11,13,-1,-1,-1,-1,-1,-1,-1,-1],"loss_changes":[2.4151064E2,6.817837E1,1.1322519E2,2.5909744E1,2.3241453E1,3.1838348E1,2.3548065E1,0E0,0E0,0E0,0E0,0E0,0E0,0E0,0E0],"parents":[2147483647,0,0,1,1,2,2,3,3,4,4,5,5,6,6],"right_children":[2,4,6,8,10,12,14,-1,-1,-1,-1,-1,-1,-1,-1],"split_conditions":[4.59E-1,2.2E1,1.3E1,2.4E1,-6.2E0,1E1,8E0,7.0545624E-4,3.231573E-3,1.0211474E-3,-2.897847E-3,-2.4808727E-3,5.3608634E-5,-6.038611E-3,-3.7924882E-3],"split_indices":[3,103,80,51,25,51,51,0,0,0,0,0,0,0,0],"split_type":[0,0,0,0,0,0,0,0,0,0,0,0,0,0,0],"sum_hessian":[6.303882E3,2.3428677E3,3.9610142E3,1.6624133E3,6.804545E2,1.9904403E3,1.970574E3,7.0649084E2,9.559224E2,2.2599193E2,4.544626E2,1.0614403E3,9.29E2,7.7673474E2,1.1938392E3],"tree_param":{"num_deleted":"0","num_feature":"106","num_nodes":"15","size_leaf_vector":"1"}},{"base_weights":[1.4766932E-1,-1.068063E-1,2.9817596E-1,-2.1590948E-1,1.5966856E-1,1.2985195E-1,4.6804485E-1,-7.054554E-4,-3.2315722E-3,-1.0211476E-3,2.897847E-3,2.4808734E-3,-5.360834E-5,6.0386094E-3,3.7924878E-3],"categories":[],"categories_nodes":[],"categories_segments":[],"categories_sizes":[],"default_left":[0,0,0,0,0,0,0,0,0,0,0,0,0,0,0],"id":7,"left_children":[1,3,5,7,9,11,13,-1,-1,-1,-1,-1,-1,-1,-1],"loss_changes":[2.4151057E2,6.817835E1,1.1322513E2,2.5909737E1,2.3241457E1,3.1838364E1,2.3548065E1,0E0,0E0,0E0,0E0,0E0,0E0,0E0,0E0],"parents":[2147483647,0,0,1,1,2,2,3,3,4,4,5,5,6,6],"right_children":[2,4,6,8,10,12,14,-1,-1,-1,-1,-1,-1,-1,-1],"split_conditions":[4.59E-1,2.2E1,1.3E1,2.4E1,-6.2E0,1E1,8E0,-7.054554E-4,-3.2315722E-3,-1.0211476E-3,2.897847E-3,2.4808734E-3,-5.360834E-5,6.0386094E-3,3.7924878E-3],"split_indices":[3,103,80,51,25,51,51,0,0,0,0,0,0,0,0],"split_type":[0,0,0,0,0,0,0,0,0,0,0,0,0,0,0],"sum_hessian":[6.303882E3,2.342868E3,3.9610142E3,1.6624133E3,6.8045447E2,1.9904402E3,1.970574E3,7.064909E2,9.559224E2,2.2599191E2,4.544626E2,1.0614402E3,9.2899994E2,7.7673474E2,1.1938391E3],"tree_param":{"num_deleted":"0","num_feature":"106","num_nodes":"15","size_leaf_vector":"1"}},{"base_weights":[-1.4620487E-1,-3.4315112E-1,4.458214E-2,-1.8540893E-1,-5.05053E-1,-1.9480747E-1,1.7728464E-1,-2.8057348E-3,-2.2886145E-4,-4.1120825E-3,-6.501818E-3,6.526672E-4,-3.3198243E-3,6.0854986E-4,3.3048738E-3],"categories":[],"categories_nodes":[],"categories_segments":[],"categories_sizes":[],"default_left":[0,0,0,0,0,0,0,0,0,0,0,0,0,0,0],"id":8,"left_children":[1,3,5,7,9,11,13,-1,-1,-1,-1,-1,-1,-1,-1],"loss_changes":[2.3690288E2,7.9134094E1,1.01791664E2,2.4320602E1,2.05755E1,4.07937E1,3.6748375E1,0E0,0E0,0E0,0E0,0E0,0E0,0E0,0E0],"parents":[2147483647,0,0,1,1,2,2,3,3,4,4,5,5,6,6],"right_children":[2,4,6,8,10,12,14,-1,-1,-1,-1,-1,-1,-1,-1],"split_conditions":[1.5E1,1.3E1,-1.4E0,5.1E0,2.3E1,-4.8E0,2.4E1,-2.8057348E-3,-2.2886145E-4,-4.1120825E-3,-6.501818E-3,6.526672E-4,-3.3198243E-3,6.0854986E-4,3.3048738E-3],"split_indices":[51,80,77,77,80,25,51,0,0,0,0,0,0,0,0],"split_type":[0,0,0,0,0,0,0,0,0,0,0,0,0,0,0],"sum_hessian":[6.303429E3,3.1012559E3,3.2021733E3,1.5718937E3,1.5293622E3,1.1418525E3,2.0603208E3,9.909314E2,5.809622E2,9.3111096E2,5.982513E2,3.9447653E2,7.473759E2,1.17145E3,8.8887085E2],"tree_param":{"num_deleted":"0","num_feature":"106","num_nodes":"15","size_leaf_vector":"1"}},{"base_weights":[1.4620486E-1,3.4315106E-1,-4.4582125E-2,1.8540888E-1,5.05053E-1,1.9480748E-1,-1.7728463E-1,2.8057343E-3,2.2886092E-4,4.1120825E-3,6.501818E-3,-6.526675E-4,3.3198246E-3,-6.085498E-4,-3.3048736E-3],"categories":[],"categories_nodes":[],"categories_segments":[],"categories_sizes":[],"default_left":[0,0,0,0,0,0,0,0,0,0,0,0,0,0,0],"id":9,"left_children":[1,3,5,7,9,11,13,-1,-1,-1,-1,-1,-1,-1,-1],"loss_changes":[2.369028E2,7.9134094E1,1.0179167E2,2.4320599E1,2.0575562E1,4.0793705E1,3.6748375E1,0E0,0E0,0E0,0E0,0E0,0E0,0E0,0E0],"parents":[2147483647,0,0,1,1,2,2,3,3,4,4,5,5,6,6],"right_children":[2,4,6,8,10,12,14,-1,-1,-1,-1,-1,-1,-1,-1],"split_conditions":[1.5E1,1.3E1,-1.4E0,5.1E0,2.3E1,-4.8E0,2.4E1,2.8057343E-3,2.2886092E-4,4.1120825E-3,6.501818E-3,-6.526675E-4,3.3198246E-3,-6.085498E-4,-3.3048736E-3],"split_indices":[51,80,77,77,80,25,51,0,0,0,0,0,0,0,0],"split_type":[0,0,0,0,0,0,0,0,0,0,0,0,0,0,0],"sum_hessian":[6.303429E3,3.1012559E3,3.2021733E3,1.5718937E3,1.5293622E3,1.1418524E3,2.0603208E3,9.9093146E2,5.809623E2,9.311109E2,5.982513E2,3.9447653E2,7.473759E2,1.17145E3,8.8887085E2],"tree_param":{"num_deleted":"0","num_feature":"106","num_nodes":"15","size_leaf_vector":"1"}},{"base_weights":[-1.4475712E-1,1.0505248E-1,-2.925212E-1,-1.9628206E-1,1.9864179E-1,-1.2729308E-1,-4.5931676E-1,1.0726167E-4,-3.5473814E-3,9.214368E-4,3.3885157E-3,-2.5780313E-3,-8.1373306E-5,-5.931308E-3,-3.7185699E-3],"categories":[],"categories_nodes":[],"categories_segments":[],"categories_sizes":[],"default_left":[0,0,0,0,0,0,0,0,0,0,0,0,0,0,0],"id":10,"left_children":[1,3,5,7,9,11,13,-1,-1,-1,-1,-1,-1,-1,-1],"loss_changes":[2.3272586E2,6.613451E1,1.091102E2,1.8238543E1,2.6678734E1,3.0965378E1,2.2845367E1,0E0,0E0,0E0,0E0,0E0,0E0,0E0,0E0],"parents":[2147483647,0,0,1,1,2,2,3,3,4,4,5,5,6,6],"right_children":[2,4,6,8,10,12,14,-1,-1,-1,-1,-1,-1,-1,-1],"split_conditions":[4.59E-1,3.73E-1,1.3E1,-4.8E0,2.6E1,9E0,8E0,1.0726167E-4,-3.5473814E-3,9.214368E-4,3.3885157E-3,-2.5780313E-3,-8.1373306E-5,-5.931308E-3,-3.7185699E-3],"split_indices":[3,55,80,25,51,51,51,0,0,0,0,0,0,0,0],"split_type":[0,0,0,0,0,0,0,0,0,0,0,0,0,0,0],"sum_hessian":[6.3028984E3,2.342672E3,3.9602263E3,5.5490796E2,1.787764E3,1.9903466E3,1.9698799E3,2.4099829E2,3.1390964E2,1.0169693E3,7.707948E2,9.4935944E2,1.040987E3,7.763212E2,1.1935586E3],"tree_param":{"num_deleted":"0","num_feature":"106","num_nodes":"15","size_leaf_vector":"1"}},{"base_weights":[1.4475712E-1,-1.0505249E-1,2.925212E-1,1.9628204E-1,-1.986418E-1,1.272931E-1,4.5931673E-1,-1.072617E-4,3.5473814E-3,-9.214368E-4,-3.388516E-3,2.5780313E-3,8.1373575E-5,5.931307E-3,3.71857E-3],"categories":[],"categories_nodes":[],"categories_segments":[],"categories_sizes":[],"default_left":[0,0,0,0,0,0,0,0,0,0,0,0,0,0,0],"id":11,"left_children":[1,3,5,7,9,11,13,-1,-1,-1,-1,-1,-1,-1,-1],"loss_changes":[2.3272586E2,6.613451E1,1.091102E2,1.8238543E1,2.667875E1,3.096537E1,2.2845306E1,0E0,0E0,0E0,0E0,0E0,0E0,0E0,0E0],"parents":[2147483647,0,0,1,1,2,2,3,3,4,4,5,5,6,6],"right_children":[2,4,6,8,10,12,14,-1,-1,-1,-1,-1,-1,-1,-1],"split_conditions":[4.59E-1,3.73E-1,1.3E1,-4.8E0,2.6E1,9E0,8E0,-1.072617E-4,3.5473814E-3,-9.214368E-4,-3.388516E-3,2.5780313E-3,8.1373575E-5,5.931307E-3,3.71857E-3],"split_indices":[3,55,80,25,51,51,51,0,0,0,0,0,0,0,0],"split_type":[0,0,0,0,0,0,0,0,0,0,0,0,0,0,0],"sum_hessian":[6.3028984E3,2.342672E3,3.9602263E3,5.5490796E2,1.7877642E3,1.9903466E3,1.9698799E3,2.4099829E2,3.1390964E2,1.0169693E3,7.707948E2,9.493594E2,1.0409872E3,7.763213E2,1.1935586E3],"tree_param":{"num_deleted":"0","num_feature":"106","num_nodes":"15","size_leaf_vector":"1"}},{"base_weights":[-1.4332736E-1,-3.366846E-1,4.395021E-2,-1.8200946E-1,-4.9550635E-1,-1.9159989E-1,1.7451774E-1,-2.7619891E-3,-2.1163095E-4,-4.0256153E-3,-6.3927174E-3,6.3462293E-4,-3.2615066E-3,6.0438295E-4,3.2465064E-3],"categories":[],"categories_nodes":[],"categories_segments":[],"categories_sizes":[],"default_left":[0,0,0,0,0,0,0,0,0,0,0,0,0,0,0],"id":12,"left_children":[1,3,5,7,9,11,13,-1,-1,-1,-1,-1,-1,-1,-1],"loss_changes":[2.282631E2,7.6097595E1,9.853696E1,2.382183E1,2.0181488E1,3.9236515E1,3.5281578E1,0E0,0E0,0E0,0E0,0E0,0E0,0E0,0E0],"parents":[2147483647,0,0,1,1,2,2,3,3,4,4,5,5,6,6],"right_children":[2,4,6,8,10,12,14,-1,-1,-1,-1,-1,-1,-1,-1],"split_conditions":[1.5E1,1.3E1,-1.4E0,5.1E0,2.3E1,-4.8E0,2.4E1,-2.7619891E-3,-2.1163095E-4,-4.0256153E-3,-6.3927174E-3,6.3462293E-4,-3.2615066E-3,6.0438295E-4,3.2465064E-3],"split_indices":[51,80,77,77,80,25,51,0,0,0,0,0,0,0,0],"split_type":[0,0,0,0,0,0,0,0,0,0,0,0,0,0,0],"sum_hessian":[6.3022036E3,3.1003784E3,3.2018254E3,1.5717805E3,1.5285979E3,1.1416915E3,2.0601338E3,9.908405E2,5.8094E2,9.306985E2,5.978995E2,3.9445956E2,7.4723193E2,1.1714232E3,8.887107E2],"tree_param":{"num_deleted":"0","num_feature":"106","num_nodes":"15","size_leaf_vector":"1"}},{"base_weights":[1.4332737E-1,3.366846E-1,-4.3950204E-2,1.820095E-1,4.9550632E-1,1.9159988E-1,-1.7451772E-1,2.7619894E-3,2.1163157E-4,4.0256153E-3,6.3927174E-3,-6.3462293E-4,3.2615066E-3,-6.043833E-4,-3.2465057E-3],"categories":[],"categories_nodes":[],"categories_segments":[],"categories_sizes":[],"default_left":[0,0,0,0,0,0,0,0,0,0,0,0,0,0,0],"id":13,"left_children":[1,3,5,7,9,11,13,-1,-1,-1,-1,-1,-1,-1,-1],"loss_changes":[2.2826317E2,7.6097534E1,9.853694E1,2.3821823E1,2.0181519E1,3.9236507E1,3.5281555E1,0E0,0E0,0E0,0E0,0E0,0E0,0E0,0E0],"parents":[2147483647,0,0,1,1,2,2,3,3,4,4,5,5,6,6],"right_children":[2,4,6,8,10,12,14,-1,-1,-1,-1,-1,-1,-1,-1],"split_conditions":[1.5E1,1.3E1,-1.4E0,5.1E0,2.3E1,-4.8E0,2.4E1,2.7619894E-3,2.1163157E-4,4.0256153E-3,6.3927174E-3,-6.3462293E-4,3.2615066E-3,-6.043833E-4,-3.2465057E-3],"split_indices":[51,80,77,77,80,25,51,0,0,0,0,0,0,0,0],"split_type":[0,0,0,0,0,0,0,0,0,0,0,0,0,0,0],"sum_hessian":[6.302204E3,3.1003784E3,3.2018254E3,1.5717805E3,1.528598E3,1.1416915E3,2.0601338E3,9.908405E2,5.8094E2,9.306985E2,5.978995E2,3.944596E2,7.47232E2,1.1714231E3,8.887107E2],"tree_param":{"num_deleted":"0","num_feature":"106","num_nodes":"15","size_leaf_vector":"1"}},{"base_weights":[-1.4191335E-1,1.0333226E-1,-2.870008E-1,-1.9281112E-1,1.9530562E-1,-4.2465934E-1,-9.325221E-2,9.8905504E-5,-3.4801168E-3,9.089253E-4,3.3279848E-3,-3.4599197E-3,-5.782647E-3,-2.4242653E-3,4.111047E-4],"categories":[],"categories_nodes":[],"categories_segments":[],"categories_sizes":[],"default_left":[0,0,0,0,0,0,0,0,0,0,0,0,0,0,0],"id":14,"left_children":[1,3,5,7,9,11,13,-1,-1,-1,-1,-1,-1,-1,-1],"loss_changes":[2.2428354E2,6.386456E1,1.0558029E2,1.7489157E1,2.5646202E1,2.7772278E1,3.300557E1,0E0,0E0,0E0,0E0,0E0,0E0,0E0,0E0],"parents":[2147483647,0,0,1,1,2,2,3,3,4,4,5,5,6,6],"right_children":[2,4,6,8,10,12,14,-1,-1,-1,-1,-1,-1,-1,-1],"split_conditions":[4.59E-1,3.73E-1,1.6E0,-4.8E0,2.6E1,2.3E1,9E0,9.8905504E-5,-3.4801168E-3,9.089253E-4,3.3279848E-3,-3.4599197E-3,-5.782647E-3,-2.4242653E-3,4.111047E-4],"split_indices":[3,55,77,25,51,80,51,0,0,0,0,0,0,0,0],"split_type":[0,0,0,0,0,0,0,0,0,0,0,0,0,0,0],"sum_hessian":[6.301443E3,2.3423638E3,3.9590793E3,5.548182E2,1.7875457E3,2.3138762E3,1.645203E3,2.4099713E2,3.1382104E2,1.0169372E3,7.7060846E2,1.5323511E3,7.815252E2,7.792486E2,8.6595435E2],"tree_param":{"num_deleted":"0","num_feature":"106","num_nodes":"15","size_leaf_vector":"1"}},{"base_weights":[1.4191335E-1,-1.0333222E-1,2.8700078E-1,1.9281115E-1,-1.9530557E-1,4.2465928E-1,9.325221E-2,-9.890489E-5,3.4801168E-3,-9.089248E-4,-3.3279844E-3,3.459919E-3,5.7826457E-3,2.4242657E-3,-4.111051E-4],"categories":[],"categories_nodes":[],"categories_segments":[],"categories_sizes":[],"default_left":[0,0,0,0,0,0,0,0,0,0,0,0,0,0,0],"id":15,"left_children":[1,3,5,7,9,11,13,-1,-1,-1,-1,-1,-1,-1,-1],"loss_changes":[2.2428348E2,6.386455E1,1.0558026E2,1.7489153E1,2.5646217E1,2.7772247E1,3.3005592E1,0E0,0E0,0E0,0E0,0E0,0E0,0E0,0E0],"parents":[2147483647,0,0,1,1,2,2,3,3,4,4,5,5,6,6],"right_children":[2,4,6,8,10,12,14,-1,-1,-1,-1,-1,-1,-1,-1],"split_conditions":[4.59E-1,3.73E-1,1.6E0,-4.8E0,2.6E1,2.3E1,9E0,-9.890489E-5,3.4801168E-3,-9.089248E-4,-3.3279844E-3,3.459919E-3,5.7826457E-3,2.4242657E-3,-4.111051E-4],"split_indices":[3,55,77,25,51,80,51,0,0,0,0,0,0,0,0],"split_type":[0,0,0,0,0,0,0,0,0,0,0,0,0,0,0],"sum_hessian":[6.301443E3,2.3423638E3,3.9590793E3,5.548182E2,1.7875457E3,2.3138762E3,1.6452029E3,2.4099715E2,3.1382104E2,1.0169372E3,7.7060846E2,1.5323511E3,7.8152527E2,7.792486E2,8.6595435E2],"tree_param":{"num_deleted":"0","num_feature":"106","num_nodes":"15","size_leaf_vector":"1"}},{"base_weights":[-1.4051558E-1,-3.3051562E-1,4.3470733E-2,-1.7847481E-1,-4.8671544E-1,-1.8808109E-1,1.7181015E-1,-2.7143918E-3,-1.973844E-4,-3.9556664E-3,-6.27762E-3,6.1760726E-4,-3.199091E-3,6.0034567E-4,3.1894287E-3],"categories":[],"categories_nodes":[],"categories_segments":[],"categories_sizes":[],"default_left":[0,0,0,0,0,0,0,0,0,0,0,0,0,0,0],"id":16,"left_children":[1,3,5,7,9,11,13,-1,-1,-1,-1,-1,-1,-1,-1],"loss_changes":[2.2030084E2,7.3539856E1,9.5196754E1,2.3201405E1,1.9403992E1,3.7647625E1,3.387382E1,0E0,0E0,0E0,0E0,0E0,0E0,0E0,0E0],"parents":[2147483647,0,0,1,1,2,2,3,3,4,4,5,5,6,6],"right_children":[2,4,6,8,10,12,14,-1,-1,-1,-1,-1,-1,-1,-1],"split_conditions":[1.5E1,1.3E1,-1.4E0,5.1E0,2.3E1,-4.8E0,2.4E1,-2.7143918E-3,-1.973844E-4,-3.9556664E-3,-6.27762E-3,6.1760726E-4,-3.199091E-3,6.0034567E-4,3.1894287E-3],"split_indices":[51,80,77,77,80,25,51,0,0,0,0,0,0,0,0],"split_type":[0,0,0,0,0,0,0,0,0,0,0,0,0,0,0],"sum_hessian":[6.300568E3,3.0992354E3,3.2013323E3,1.571612E3,1.5276233E3,1.1414487E3,2.0598835E3,9.906975E2,5.809146E2,9.3026245E2,5.9736084E2,3.9443774E2,7.47011E2,1.1713933E3,8.8849036E2],"tree_param":{"num_deleted":"0","num_feature":"106","num_nodes":"15","size_leaf_vector":"1"}},{"base_weights":[1.4051561E-1,3.3051565E-1,-4.3470718E-2,1.7847483E-1,4.867155E-1,1.8808109E-1,-1.7181014E-1,2.7143918E-3,1.9738487E-4,3.955667E-3,6.277621E-3,-6.1760715E-4,3.199091E-3,-6.00345E-4,-3.189429E-3],"categories":[],"categories_nodes":[],"categories_segments":[],"categories_sizes":[],"default_left":[0,0,0,0,0,0,0,0,0,0,0,0,0,0,0],"id":17,"left_children":[1,3,5,7,9,11,13,-1,-1,-1,-1,-1,-1,-1,-1],"loss_changes":[2.2030084E2,7.3539856E1,9.519674E1,2.3201393E1,1.9404053E1,3.764762E1,3.3873856E1,0E0,0E0,0E0,0E0,0E0,0E0,0E0,0E0],"parents":[2147483647,0,0,1,1,2,2,3,3,4,4,5,5,6,6],"right_children":[2,4,6,8,10,12,14,-1,-1,-1,-1,-1,-1,-1,-1],"split_conditions":[1.5E1,1.3E1,-1.4E0,5.1E0,2.3E1,-4.8E0,2.4E1,2.7143918E-3,1.9738487E-4,3.955667E-3,6.277621E-3,-6.1760715E-4,3.199091E-3,-6.00345E-4,-3.189429E-3],"split_indices":[51,80,77,77,80,25,51,0,0,0,0,0,0,0,0],"split_type":[0,0,0,0,0,0,0,0,0,0,0,0,0,0,0],"sum_hessian":[6.300568E3,3.0992354E3,3.2013325E3,1.571612E3,1.5276233E3,1.1414487E3,2.0598838E3,9.906975E2,5.809146E2,9.3026245E2,5.973608E2,3.9443774E2,7.47011E2,1.1713933E3,8.8849036E2],"tree_param":{"num_deleted":"0","num_feature":"106","num_nodes":"15","size_leaf_vector":"1"}},{"base_weights":[-1.3913423E-1,1.0164356E-1,-2.8160626E-1,-1.8941176E-1,1.9203192E-1,-4.1693333E-1,-9.12294E-2,9.081592E-5,-3.4144341E-3,8.9656416E-4,3.2687725E-3,-5.2417503E-3,-3.080201E-3,-2.3835741E-3,4.126909E-4],"categories":[],"categories_nodes":[],"categories_segments":[],"categories_sizes":[],"default_left":[0,0,0,0,0,0,0,0,0,0,0,0,0,0,0],"id":18,"left_children":[1,3,5,7,9,11,13,-1,-1,-1,-1,-1,-1,-1,-1],"loss_changes":[2.1616466E2,6.167502E1,1.0194864E2,1.6772621E1,2.4657364E1,2.6861206E1,3.2098415E1,0E0,0E0,0E0,0E0,0E0,0E0,0E0,0E0],"parents":[2147483647,0,0,1,1,2,2,3,3,4,4,5,5,6,6],"right_children":[2,4,6,8,10,12,14,-1,-1,-1,-1,-1,-1,-1,-1],"split_conditions":[4.59E-1,3.73E-1,1.6E0,-4.8E0,2.6E1,-1.9E0,9E0,9.081592E-5,-3.4144341E-3,8.9656416E-4,3.2687725E-3,-5.2417503E-3,-3.080201E-3,-2.3835741E-3,4.126909E-4],"split_indices":[3,55,77,25,51,77,51,0,0,0,0,0,0,0,0],"split_type":[0,0,0,0,0,0,0,0,0,0,0,0,0,0,0],"sum_hessian":[6.2995884E3,2.3419607E3,3.9576274E3,5.547004E2,1.7872603E3,2.3125732E3,1.6450543E3,2.4099557E2,3.1370483E2,1.01689307E3,7.7036725E2,1.1633069E3,1.1492662E3,7.791156E2,8.659388E2],"tree_param":{"num_deleted":"0","num_feature":"106","num_nodes":"15","size_leaf_vector":"1"}},{"base_weights":[1.3913424E-1,-1.01643525E-1,2.8160626E-1,1.8941179E-1,-1.9203189E-1,4.1693336E-1,9.122937E-2,-9.081521E-5,3.4144341E-3,-8.965641E-4,-3.2687718E-3,5.2417503E-3,3.080201E-3,2.3835734E-3,-4.1269098E-4],"categories":[],"categories_nodes":[],"categories_segments":[],"categories_sizes":[],"default_left":[0,0,0,0,0,0,0,0,0,0,0,0,0,0,0],"id":19,"left_children":[1,3,5,7,9,11,13,-1,-1,-1,-1,-1,-1,-1,-1],"loss_changes":[2.1616461E2,6.167502E1,1.0194867E2,1.6772617E1,2.4657356E1,2.6861176E1,3.2098404E1,0E0,0E0,0E0,0E0,0E0,0E0,0E0,0E0],"parents":[2147483647,0,0,1,1,2,2,3,3,4,4,5,5,6,6],"right_children":[2,4,6,8,10,12,14,-1,-1,-1,-1,-1,-1,-1,-1],"split_conditions":[4.59E-1,3.73E-1,1.6E0,-4.8E0,2.6E1,-1.9E0,9E0,-9.081521E-5,3.4144341E-3,-8.965641E-4,-3.2687718E-3,5.2417503E-3,3.080201E-3,2.3835734E-3,-4.1269098E-4],"split_indices":[3,55,77,25,51,77,51,0,0,0,0,0,0,0,0],"split_type":[0,0,0,0,0,0,0,0,0,0,0,0,0,0,0],"sum_hessian":[6.2995884E3,2.3419607E3,3.9576274E3,5.547004E2,1.7872603E3,2.3125732E3,1.6450543E3,2.4099557E2,3.1370483E2,1.016893E3,7.7036725E2,1.1633069E3,1.1492662E3,7.791156E2,8.659388E2],"tree_param":{"num_deleted":"0","num_feature":"106","num_nodes":"15","size_leaf_vector":"1"}},{"base_weights":[-1.3776831E-1,-3.2448655E-1,4.299145E-2,-1.7502667E-1,-4.7813636E-1,-9.9884585E-2,2.4517904E-1,-2.667976E-3,-1.8351931E-4,-3.8835686E-3,-6.1713653E-3,1.364177E-3,-2.2348915E-3,1.3698802E-3,3.5217495E-3],"categories":[],"categories_nodes":[],"categories_segments":[],"categories_sizes":[],"default_left":[0,0,0,0,0,0,0,0,0,0,0,0,0,0,0],"id":20,"left_children":[1,3,5,7,9,11,13,-1,-1,-1,-1,-1,-1,-1,-1],"loss_changes":[2.1262949E2,7.107864E1,9.251466E1,2.2603271E1,1.882135E1,5.484607E1,1.5301292E1,0E0,0E0,0E0,0E0,0E0,0E0,0E0,0E0],"parents":[2147483647,0,0,1,1,2,2,3,3,4,4,5,5,6,6],"right_children":[2,4,6,8,10,12,14,-1,-1,-1,-1,-1,-1,-1,-1],"split_conditions":[1.5E1,1.3E1,5.45E-1,5.1E0,2.3E1,-4.8E0,2.2E1,-2.667976E-3,-1.8351931E-4,-3.8835686E-3,-6.1713653E-3,1.364177E-3,-2.2348915E-3,1.3698802E-3,3.5217495E-3],"split_indices":[51,80,55,77,80,25,29,0,0,0,0,0,0,0,0],"split_type":[0,0,0,0,0,0,0,0,0,0,0,0,0,0,0],"sum_hessian":[6.2985063E3,3.0977986E3,3.200708E3,1.5713942E3,1.5264044E3,1.8757286E3,1.3249794E3,9.90509E2,5.808852E2,9.2970605E2,5.9669836E2,6.441551E2,1.2315736E3,6.5994415E2,6.6503516E2],"tree_param":{"num_deleted":"0","num_feature":"106","num_nodes":"15","size_leaf_vector":"1"}},{"base_weights":[1.3776831E-1,3.2448655E-1,-4.2991456E-2,1.7502668E-1,4.7813633E-1,9.9884585E-2,-2.4517904E-1,2.667976E-3,1.8351921E-4,3.8835683E-3,6.171365E-3,-1.3641771E-3,2.2348915E-3,-1.3698802E-3,-3.5217495E-3],"categories":[],"categories_nodes":[],"categories_segments":[],"categories_sizes":[],"default_left":[0,0,0,0,0,0,0,0,0,0,0,0,0,0,0],"id":21,"left_children":[1,3,5,7,9,11,13,-1,-1,-1,-1,-1,-1,-1,-1],"loss_changes":[2.1262952E2,7.107858E1,9.251466E1,2.2603283E1,1.882138E1,5.484607E1,1.53013E1,0E0,0E0,0E0,0E0,0E0,0E0,0E0,0E0],"parents":[2147483647,0,0,1,1,2,2,3,3,4,4,5,5,6,6],"right_children":[2,4,6,8,10,12,14,-1,-1,-1,-1,-1,-1,-1,-1],"split_conditions":[1.5E1,1.3E1,5.45E-1,5.1E0,2.3E1,-4.8E0,2.2E1,2.667976E-3,1.8351921E-4,3.8835683E-3,6.171365E-3,-1.3641771E-3,2.2348915E-3,-1.3698802E-3,-3.5217495E-3],"split_indices":[51,80,55,77,80,25,29,0,0,0,0,0,0,0,0],"split_type":[0,0,0,0,0,0,0,0,0,0,0,0,0,0,0],"sum_hessian":[6.2985063E3,3.0977986E3,3.200708E3,1.5713942E3,1.5264044E3,1.8757286E3,1.3249794E3,9.905089E2,5.808852E2,9.2970605E2,5.9669836E2,6.441551E2,1.2315736E3,6.5994415E2,6.6503516E2],"tree_param":{"num_deleted":"0","num_feature":"106","num_nodes":"15","size_leaf_vector":"1"}},{"base_weights":[-1.3641703E-1,-3.2133645E-1,4.256646E-2,-1.7329137E-1,-4.735949E-1,-2.0139845E-1,1.5889388E-1,-2.641634E-3,-1.8168801E-4,-3.846122E-3,-6.1141145E-3,4.2040035E-4,-3.2949762E-3,5.0558936E-4,2.9972773E-3],"categories":[],"categories_nodes":[],"categories_segments":[],"categories_sizes":[],"default_left":[0,0,0,0,0,0,0,0,0,0,0,0,0,0,0],"id":22,"left_children":[1,3,5,7,9,11,13,-1,-1,-1,-1,-1,-1,-1,-1],"loss_changes":[2.0847401E2,6.974875E1,9.088813E1,2.2158478E1,1.8486664E1,3.2261105E1,3.306783E1,0E0,0E0,0E0,0E0,0E0,0E0,0E0,0E0],"parents":[2147483647,0,0,1,1,2,2,3,3,4,4,5,5,6,6],"right_children":[2,4,6,8,10,12,14,-1,-1,-1,-1,-1,-1,-1,-1],"split_conditions":[1.5E1,1.3E1,-1.9E0,5.1E0,2.3E1,-4.8E0,2.4E1,-2.641634E-3,-1.8168801E-4,-3.846122E-3,-6.1141145E-3,4.2040035E-4,-3.2949762E-3,5.0558936E-4,2.9972773E-3],"split_indices":[51,80,77,77,80,25,51,0,0,0,0,0,0,0,0],"split_type":[0,0,0,0,0,0,0,0,0,0,0,0,0,0,0],"sum_hessian":[6.2973667E3,3.0969314E3,3.2004353E3,1.5712756E3,1.5256559E3,1.033087E3,2.1673484E3,9.9039276E2,5.808828E2,9.2938165E2,5.9627423E2,3.564206E2,6.7666644E2,1.2257852E3,9.4156323E2],"tree_param":{"num_deleted":"0","num_feature":"106","num_nodes":"15","size_leaf_vector":"1"}},{"base_weights":[1.3641703E-1,3.2133645E-1,-4.256646E-2,1.7329141E-1,4.735949E-1,2.0139845E-1,-1.5889388E-1,2.6416343E-3,1.8168842E-4,3.846122E-3,6.1141145E-3,-4.2040055E-4,3.2949762E-3,-5.0558924E-4,-2.9972773E-3],"categories":[],"categories_nodes":[],"categories_segments":[],"categories_sizes":[],"default_left":[0,0,0,0,0,0,0,0,0,0,0,0,0,0,0],"id":23,"left_children":[1,3,5,7,9,11,13,-1,-1,-1,-1,-1,-1,-1,-1],"loss_changes":[2.0847403E2,6.974872E1,9.088813E1,2.215847E1,1.8486664E1,3.2261112E1,3.3067837E1,0E0,0E0,0E0,0E0,0E0,0E0,0E0,0E0],"parents":[2147483647,0,0,1,1,2,2,3,3,4,4,5,5,6,6],"right_children":[2,4,6,8,10,12,14,-1,-1,-1,-1,-1,-1,-1,-1],"split_conditions":[1.5E1,1.3E1,-1.9E0,5.1E0,2.3E1,-4.8E0,2.4E1,2.6416343E-3,1.8168842E-4,3.846122E-3,6.1141145E-3,-4.2040055E-4,3.2949762E-3,-5.0558924E-4,-2.9972773E-3],"split_indices":[51,80,77,77,80,25,51,0,0,0,0,0,0,0,0],"split_type":[0,0,0,0,0,0,0,0,0,0,0,0,0,0,0],"sum_hessian":[6.2973667E3,3.0969314E3,3.2004353E3,1.5712756E3,1.5256559E3,1.033087E3,2.1673484E3,9.9039276E2,5.808829E2,9.2938165E2,5.962743E2,3.564206E2,6.7666644E2,1.2257852E3,9.4156323E2],"tree_param":{"num_deleted":"0","num_feature":"106","num_nodes":"15","size_leaf_vector":"1"}},{"base_weights":[-1.3508253E-1,9.9295884E-2,-2.7382267E-1,2.0086418E-1,-1.4878947E-1,-4.0585002E-1,-8.825537E-2,6.7909656E-4,2.990476E-3,9.3658356E-4,-2.6938738E-3,-5.1058074E-3,-2.9957402E-3,-2.3275556E-3,4.184213E-4],"categories":[],"categories_nodes":[],"categories_segments":[],"categories_sizes":[],"default_left":[0,0,0,0,0,0,0,0,0,0,0,0,0,0,0],"id":24,"left_children":[1,3,5,7,9,11,13,-1,-1,-1,-1,-1,-1,-1,-1],"loss_changes":[2.0479404E2,5.9048706E1,9.6882355E1,2.1679054E1,1.993545E1,2.5570251E1,3.0948671E1,0E0,0E0,0E0,0E0,0E0,0E0,0E0,0E0],"parents":[2147483647,0,0,1,1,2,2,3,3,4,4,5,5,6,6],"right_children":[2,4,6,8,10,12,14,-1,-1,-1,-1,-1,-1,-1,-1],"split_conditions":[4.59E-1,2.2E1,1.6E0,2.4E1,-6.2E0,-1.9E0,9E0,6.7909656E-4,2.990476E-3,9.3658356E-4,-2.6938738E-3,-5.1058074E-3,-2.9957402E-3,-2.3275556E-3,4.184213E-4],"split_indices":[3,103,77,51,25,77,51,0,0,0,0,0,0,0,0],"split_type":[0,0,0,0,0,0,0,0,0,0,0,0,0,0,0],"sum_hessian":[6.29609E3,2.3412393E3,3.9548506E3,1.661285E3,6.7995416E2,2.310085E3,1.6447655E3,7.06404E2,9.5488104E2,2.25944E2,4.5401016E2,1.1615851E3,1.1484999E3,7.788748E2,8.6589075E2],"tree_param":{"num_deleted":"0","num_feature":"106","num_nodes":"15","size_leaf_vector":"1"}},{"base_weights":[1.3508254E-1,-9.929587E-2,2.738227E-1,-2.0086417E-1,1.4878948E-1,4.0585005E-1,8.825538E-2,-6.790965E-4,-2.9904759E-3,-9.365835E-4,2.6938743E-3,5.1058084E-3,2.9957404E-3,2.327556E-3,-4.184213E-4],"categories":[],"categories_nodes":[],"categories_segments":[],"categories_sizes":[],"default_left":[0,0,0,0,0,0,0,0,0,0,0,0,0,0,0],"id":25,"left_children":[1,3,5,7,9,11,13,-1,-1,-1,-1,-1,-1,-1,-1],"loss_changes":[2.0479404E2,5.90487E1,9.6882355E1,2.1679054E1,1.9935452E1,2.5570282E1,3.094868E1,0E0,0E0,0E0,0E0,0E0,0E0,0E0,0E0],"parents":[2147483647,0,0,1,1,2,2,3,3,4,4,5,5,6,6],"right_children":[2,4,6,8,10,12,14,-1,-1,-1,-1,-1,-1,-1,-1],"split_conditions":[4.59E-1,2.2E1,1.6E0,2.4E1,-6.2E0,-1.9E0,9E0,-6.790965E-4,-2.9904759E-3,-9.365835E-4,2.6938743E-3,5.1058084E-3,2.9957404E-3,2.327556E-3,-4.184213E-4],"split_indices":[3,103,77,51,25,77,51,0,0,0,0,0,0,0,0],"split_type":[0,0,0,0,0,0,0,0,0,0,0,0,0,0,0],"sum_hessian":[6.29609E3,2.3412393E3,3.9548506E3,1.6612852E3,6.7995416E2,2.310085E3,1.6447655E3,7.06404E2,9.548811E2,2.25944E2,4.5401016E2,1.1615851E3,1.1484999E3,7.7887476E2,8.6589075E2],"tree_param":{"num_deleted":"0","num_feature":"106","num_nodes":"15","size_leaf_vector":"1"}},{"base_weights":[-1.3376191E-1,-3.1551558E-1,4.209453E-2,-1.6994224E-1,-4.653585E-1,-9.770299E-2,2.3991145E-1,-2.5965776E-3,-1.6826298E-4,-3.7764895E-3,-6.013015E-3,1.3212323E-3,-2.1793835E-3,1.3453958E-3,3.441642E-3],"categories":[],"categories_nodes":[],"categories_segments":[],"categories_sizes":[],"default_left":[0,0,0,0,0,0,0,0,0,0,0,0,0,0,0],"id":26,"left_children":[1,3,5,7,9,11,13,-1,-1,-1,-1,-1,-1,-1,-1],"loss_changes":[2.0124133E2,6.7456085E1,8.8535614E1,2.158984E1,1.7957336E1,5.187047E1,1.4515854E1,0E0,0E0,0E0,0E0,0E0,0E0,0E0,0E0],"parents":[2147483647,0,0,1,1,2,2,3,3,4,4,5,5,6,6],"right_children":[2,4,6,8,10,12,14,-1,-1,-1,-1,-1,-1,-1,-1],"split_conditions":[1.5E1,1.3E1,5.45E-1,5.1E0,2.3E1,-4.8E0,2.2E1,-2.5965776E-3,-1.6826298E-4,-3.7764895E-3,-6.013015E-3,1.3212323E-3,-2.1793835E-3,1.3453958E-3,3.441642E-3],"split_indices":[51,80,55,77,80,25,29,0,0,0,0,0,0,0,0],"split_type":[0,0,0,0,0,0,0,0,0,0,0,0,0,0,0],"sum_hessian":[6.2947437E3,3.095079E3,3.1996643E3,1.5709884E3,1.5240908E3,1.8750616E3,1.3246028E3,9.9013873E2,5.808497E2,9.286865E2,5.954043E2,6.4399194E2,1.2310697E3,6.599047E2,6.64698E2],"tree_param":{"num_deleted":"0","num_feature":"106","num_nodes":"15","size_leaf_vector":"1"}},{"base_weights":[1.3376193E-1,3.1551558E-1,-4.2094525E-2,1.6994227E-1,4.653585E-1,9.7702965E-2,-2.3991142E-1,2.5965776E-3,1.6826368E-4,3.7764895E-3,6.0130153E-3,-1.3212326E-3,2.1793835E-3,-1.3453955E-3,-3.4416418E-3],"categories":[],"categories_nodes":[],"categories_segments":[],"categories_sizes":[],"default_left":[0,0,0,0,0,0,0,0,0,0,0,0,0,0,0],"id":27,"left_children":[1,3,5,7,9,11,13,-1,-1,-1,-1,-1,-1,-1,-1],"loss_changes":[2.0124133E2,6.7456085E1,8.853558E1,2.1589825E1,1.7957336E1,5.187046E1,1.4515846E1,0E0,0E0,0E0,0E0,0E0,0E0,0E0,0E0],"parents":[2147483647,0,0,1,1,2,2,3,3,4,4,5,5,6,6],"right_children":[2,4,6,8,10,12,14,-1,-1,-1,-1,-1,-1,-1,-1],"split_conditions":[1.5E1,1.3E1,5.45E-1,5.1E0,2.3E1,-4.8E0,2.2E1,2.5965776E-3,1.6826368E-4,3.7764895E-3,6.0130153E-3,-1.3212326E-3,2.1793835E-3,-1.3453955E-3,-3.4416418E-3],"split_indices":[51,80,55,77,80,25,29,0,0,0,0,0,0,0,0],"split_type":[0,0,0,0,0,0,0,0,0,0,0,0,0,0,0],"sum_hessian":[6.2947437E3,3.095079E3,3.1996643E3,1.5709884E3,1.5240908E3,1.8750616E3,1.3246028E3,9.9013873E2,5.808497E2,9.286865E2,5.954043E2,6.4399194E2,1.2310697E3,6.599047E2,6.64698E2],"tree_param":{"num_deleted":"0","num_feature":"106","num_nodes":"15","size_leaf_vector":"1"}},{"base_weights":[-1.32456E-1,9.76372E-2,-2.6870456E-1,-1.833653E-1,1.8489392E-1,-3.9848706E-1,-8.6425506E-2,5.2364718E-5,-3.2795595E-3,8.681635E-4,3.1417476E-3,-5.017586E-3,-2.9376259E-3,-2.288825E-3,4.1804416E-4],"categories":[],"categories_nodes":[],"categories_segments":[],"categories_sizes":[],"default_left":[0,0,0,0,0,0,0,0,0,0,0,0,0,0,0],"id":28,"left_children":[1,3,5,7,9,11,13,-1,-1,-1,-1,-1,-1,-1,-1],"loss_changes":[1.9735231E2,5.7450756E1,9.3494965E1,1.5146198E1,2.263543E1,2.48255E1,3.0069065E1,0E0,0E0,0E0,0E0,0E0,0E0,0E0,0E0],"parents":[2147483647,0,0,1,1,2,2,3,3,4,4,5,5,6,6],"right_children":[2,4,6,8,10,12,14,-1,-1,-1,-1,-1,-1,-1,-1],"split_conditions":[4.59E-1,3.73E-1,1.6E0,-4.8E0,2.6E1,-1.9E0,9E0,5.2364718E-5,-3.2795595E-3,8.681635E-4,3.1417476E-3,-5.017586E-3,-2.9376259E-3,-2.288825E-3,4.1804416E-4],"split_indices":[3,55,77,25,51,77,51,0,0,0,0,0,0,0,0],"split_type":[0,0,0,0,0,0,0,0,0,0,0,0,0,0,0],"sum_hessian":[6.2933193E3,2.3406948E3,3.9526248E3,5.5435205E2,1.7863427E3,2.3080847E3,1.6445402E3,2.4098232E2,3.1336972E2,1.016703E3,7.696397E2,1.1601946E3,1.14789E3,7.7868036E2,8.658598E2],"tree_param":{"num_deleted":"0","num_feature":"106","num_nodes":"15","size_leaf_vector":"1"}},{"base_weights":[1.32456E-1,-9.763719E-2,2.6870453E-1,1.833653E-1,-1.8489392E-1,3.9848706E-1,8.64255E-2,-5.2364354E-5,3.2795593E-3,-8.681631E-4,-3.141748E-3,5.017586E-3,2.9376259E-3,2.2888256E-3,-4.1804463E-4],"categories":[],"categories_nodes":[],"categories_segments":[],"categories_sizes":[],"default_left":[0,0,0,0,0,0,0,0,0,0,0,0,0,0,0],"id":29,"left_children":[1,3,5,7,9,11,13,-1,-1,-1,-1,-1,-1,-1,-1],"loss_changes":[1.973523E2,5.745076E1,9.3494965E1,1.5146194E1,2.263544E1,2.482547E1,3.0069088E1,0E0,0E0,0E0,0E0,0E0,0E0,0E0,0E0],"parents":[2147483647,0,0,1,1,2,2,3,3,4,4,5,5,6,6],"right_children":[2,4,6,8,10,12,14,-1,-1,-1,-1,-1,-1,-1,-1],"split_conditions":[4.59E-1,3.73E-1,1.6E0,-4.8E0,2.6E1,-1.9E0,9E0,-5.2364354E-5,3.2795593E-3,-8.681631E-4,-3.141748E-3,5.017586E-3,2.9376259E-3,2.2888256E-3,-4.1804463E-4],"split_indices":[3,55,77,25,51,77,51,0,0,0,0,0,0,0,0],"split_type":[0,0,0,0,0,0,0,0,0,0,0,0,0,0,0],"sum_hessian":[6.2933193E3,2.3406948E3,3.9526248E3,5.5435205E2,1.7863427E3,2.3080847E3,1.6445402E3,2.4098232E2,3.1336972E2,1.016703E3,7.696397E2,1.1601946E3,1.14789E3,7.786803E2,8.658598E2],"tree_param":{"num_deleted":"0","num_feature":"106","num_nodes":"15","size_leaf_vector":"1"}},{"base_weights":[-1.3116528E-1,-3.0982766E-1,4.1628435E-2,-1.6666849E-1,-4.5732668E-1,-9.5968366E-2,2.3632014E-1,-2.5525E-3,-1.5525114E-4,-3.7085512E-3,-5.9146434E-3,1.2916052E-3,-2.137618E-3,1.3283158E-3,3.3874623E-3],"categories":[],"categories_nodes":[],"categories_segments":[],"categories_sizes":[],"default_left":[0,0,0,0,0,0,0,0,0,0,0,0,0,0,0],"id":30,"left_children":[1,3,5,7,9,11,13,-1,-1,-1,-1,-1,-1,-1,-1],"loss_changes":[1.9428204E2,6.5255554E1,8.5742294E1,2.1038193E1,1.7449707E1,4.976393E1,1.4003029E1,0E0,0E0,0E0,0E0,0E0,0E0,0E0,0E0],"parents":[2147483647,0,0,1,1,2,2,3,3,4,4,5,5,6,6],"right_children":[2,4,6,8,10,12,14,-1,-1,-1,-1,-1,-1,-1,-1],"split_conditions":[1.5E1,1.3E1,5.45E-1,5.1E0,2.3E1,-4.8E0,2.2E1,-2.5525E-3,-1.5525114E-4,-3.7085512E-3,-5.9146434E-3,1.2916052E-3,-2.137618E-3,1.3283158E-3,3.3874623E-3],"split_indices":[51,80,55,77,80,25,29,0,0,0,0,0,0,0,0],"split_type":[0,0,0,0,0,0,0,0,0,0,0,0,0,0,0],"sum_hessian":[6.2917837E3,3.0929714E3,3.1988123E3,1.5706576E3,1.5223138E3,1.8745184E3,1.3242938E3,9.8984454E2,5.80813E2,9.2790607E2,5.9440784E2,6.438618E2,1.2306566E3,6.5987305E2,6.644208E2],"tree_param":{"num_deleted":"0","num_feature":"106","num_nodes":"15","size_leaf_vector":"1"}},{"base_weights":[1.3116528E-1,3.0982763E-1,-4.1628413E-2,1.6666847E-1,4.5732668E-1,9.5968395E-2,-2.3632012E-1,2.5524998E-3,1.5525107E-4,3.7085514E-3,5.9146434E-3,-1.2916047E-3,2.1376181E-3,-1.328316E-3,-3.387462E-3],"categories":[],"categories_nodes":[],"categories_segments":[],"categories_sizes":[],"default_left":[0,0,0,0,0,0,0,0,0,0,0,0,0,0,0],"id":31,"left_children":[1,3,5,7,9,11,13,-1,-1,-1,-1,-1,-1,-1,-1],"loss_changes":[1.9428198E2,6.5255615E1,8.574231E1,2.1038189E1,1.7449677E1,4.9763916E1,1.4003021E1,0E0,0E0,0E0,0E0,0E0,0E0,0E0,0E0],"parents":[2147483647,0,0,1,1,2,2,3,3,4,4,5,5,6,6],"right_children":[2,4,6,8,10,12,14,-1,-1,-1,-1,-1,-1,-1,-1],"split_conditions":[1.5E1,1.3E1,5.45E-1,5.1E0,2.3E1,-4.8E0,2.2E1,2.5524998E-3,1.5525107E-4,3.7085514E-3,5.9146434E-3,-1.2916047E-3,2.1376181E-3,-1.328316E-3,-3.387462E-3],"split_indices":[51,80,55,77,80,25,29,0,0,0,0,0,0,0,0],"split_type":[0,0,0,0,0,0,0,0,0,0,0,0,0,0,0],"sum_hessian":[6.2917837E3,3.0929714E3,3.1988123E3,1.5706576E3,1.5223138E3,1.8745184E3,1.3242938E3,9.8984454E2,5.8081305E2,9.27906E2,5.9440784E2,6.438618E2,1.2306566E3,6.5987305E2,6.644208E2],"tree_param":{"num_deleted":"0","num_feature":"106","num_nodes":"15","size_leaf_vector":"1"}},{"base_weights":[-1.298884E-1,-3.0685386E-1,4.121847E-2,-1.6502176E-1,-4.5306885E-1,-1.9792606E-1,1.5134883E-1,-2.5274365E-3,-1.5370185E-4,-3.6732298E-3,-5.8615315E-3,3.7859674E-4,-3.2254392E-3,4.810426E-4,2.8602667E-3],"categories":[],"categories_nodes":[],"categories_segments":[],"categories_sizes":[],"default_left":[0,0,0,0,0,0,0,0,0,0,0,0,0,0,0],"id":32,"left_children":[1,3,5,7,9,11,13,-1,-1,-1,-1,-1,-1,-1,-1],"loss_changes":[1.9050977E2,6.40629E1,8.4293274E1,2.0626133E1,1.7156067E1,2.9667019E1,3.0453968E1,0E0,0E0,0E0,0E0,0E0,0E0,0E0,0E0],"parents":[2147483647,0,0,1,1,2,2,3,3,4,4,5,5,6,6],"right_children":[2,4,6,8,10,12,14,-1,-1,-1,-1,-1,-1,-1,-1],"split_conditions":[1.5E1,1.3E1,-2E0,5.1E0,2.3E1,-4.8E0,2.4E1,-2.5274365E-3,-1.5370185E-4,-3.6732298E-3,-5.8615315E-3,3.7859674E-4,-3.2254392E-3,4.810426E-4,2.8602667E-3],"split_indices":[51,80,77,77,80,25,51,0,0,0,0,0,0,0,0],"split_type":[0,0,0,0,0,0,0,0,0,0,0,0,0,0,0],"sum_hessian":[6.2901836E3,3.0917651E3,3.1984187E3,1.5704851E3,1.5212802E3,1.00824646E3,2.190172E3,9.896745E2,5.8081055E2,9.274723E2,5.938079E2,3.4886523E2,6.593812E2,1.2405325E3,9.4963965E2],"tree_param":{"num_deleted":"0","num_feature":"106","num_nodes":"15","size_leaf_vector":"1"}},{"base_weights":[1.298884E-1,3.0685386E-1,-4.121847E-2,1.6502175E-1,4.5306882E-1,1.9792606E-1,-1.5134881E-1,2.5274365E-3,1.537017E-4,3.6732298E-3,5.8615305E-3,-3.78597E-4,3.2254395E-3,-4.810428E-4,-2.8602665E-3],"categories":[],"categories_nodes":[],"categories_segments":[],"categories_sizes":[],"default_left":[0,0,0,0,0,0,0,0,0,0,0,0,0,0,0],"id":33,"left_children":[1,3,5,7,9,11,13,-1,-1,-1,-1,-1,-1,-1,-1],"loss_changes":[1.9050975E2,6.406293E1,8.429327E1,2.0626133E1,1.7156067E1,2.9667027E1,3.0453941E1,0E0,0E0,0E0,0E0,0E0,0E0,0E0,0E0],"parents":[2147483647,0,0,1,1,2,2,3,3,4,4,5,5,6,6],"right_children":[2,4,6,8,10,12,14,-1,-1,-1,-1,-1,-1,-1,-1],"split_conditions":[1.5E1,1.3E1,-2E0,5.1E0,2.3E1,-4.8E0,2.4E1,2.5274365E-3,1.537017E-4,3.6732298E-3,5.8615305E-3,-3.78597E-4,3.2254395E-3,-4.810428E-4,-2.8602665E-3],"split_indices":[51,80,77,77,80,25,51,0,0,0,0,0,0,0,0],"split_type":[0,0,0,0,0,0,0,0,0,0,0,0,0,0,0],"sum_hessian":[6.290184E3,3.0917651E3,3.1984187E3,1.5704851E3,1.5212802E3,1.00824646E3,2.190172E3,9.896745E2,5.8081055E2,9.274723E2,5.938079E2,3.4886523E2,6.593812E2,1.2405325E3,9.4963965E2],"tree_param":{"num_deleted":"0","num_feature":"106","num_nodes":"15","size_leaf_vector":"1"}},{"base_weights":[-1.2862694E-1,9.539738E-2,-2.613544E-1,-4.623033E-2,2.6095107E-1,-3.6983382E-2,-3.6188123E-1,1.2215826E-3,-1.8299905E-3,4.094763E-4,3.079819E-3,8.8555715E-4,-1.7370732E-3,-4.890668E-3,-2.6776567E-3],"categories":[],"categories_nodes":[],"categories_segments":[],"categories_sizes":[],"default_left":[0,0,0,0,0,0,0,0,0,0,0,0,0,0,0],"id":34,"left_children":[1,3,5,7,9,11,13,-1,-1,-1,-1,-1,-1,-1,-1],"loss_changes":[1.8703706E2,5.4894264E1,8.907498E1,2.9094707E1,1.1155258E1,2.1010902E1,3.251831E1,0E0,0E0,0E0,0E0,0E0,0E0,0E0,0E0],"parents":[2147483647,0,0,1,1,2,2,3,3,4,4,5,5,6,6],"right_children":[2,4,6,8,10,12,14,-1,-1,-1,-1,-1,-1,-1,-1],"split_conditions":[4.59E-1,5.19E-1,9E0,-4.9E0,1E1,3.1E0,-1.9E0,1.2215826E-3,-1.8299905E-3,4.094763E-4,3.079819E-3,8.8555715E-4,-1.7370732E-3,-4.890668E-3,-2.6776567E-3],"split_indices":[3,55,103,25,2,25,77,0,0,0,0,0,0,0,0],"split_type":[0,0,0,0,0,0,0,0,0,0,0,0,0,0,0],"sum_hessian":[6.2884673E3,2.3396926E3,3.9487744E3,1.2613527E3,1.0783401E3,1.2222158E3,2.7265586E3,5.6537463E2,6.95978E2,1.9024982E2,8.880902E2,6.3735376E2,5.848621E2,1.1577733E3,1.5687853E3],"tree_param":{"num_deleted":"0","num_feature":"106","num_nodes":"15","size_leaf_vector":"1"}},{"base_weights":[1.2862693E-1,-9.539737E-2,2.6135436E-1,4.6230335E-2,-2.6095104E-1,3.6983322E-2,3.618812E-1,-1.2215825E-3,1.8299904E-3,-4.0947605E-4,-3.0798188E-3,-8.8555744E-4,1.7370721E-3,4.890668E-3,2.6776562E-3],"categories":[],"categories_nodes":[],"categories_segments":[],"categories_sizes":[],"default_left":[0,0,0,0,0,0,0,0,0,0,0,0,0,0,0],"id":35,"left_children":[1,3,5,7,9,11,13,-1,-1,-1,-1,-1,-1,-1,-1],"loss_changes":[1.8703703E2,5.4894257E1,8.907498E1,2.9094702E1,1.1155258E1,2.1010893E1,3.251831E1,0E0,0E0,0E0,0E0,0E0,0E0,0E0,0E0],"parents":[2147483647,0,0,1,1,2,2,3,3,4,4,5,5,6,6],"right_children":[2,4,6,8,10,12,14,-1,-1,-1,-1,-1,-1,-1,-1],"split_conditions":[4.59E-1,5.19E-1,9E0,-4.9E0,1E1,3.1E0,-1.9E0,-1.2215825E-3,1.8299904E-3,-4.0947605E-4,-3.0798188E-3,-8.8555744E-4,1.7370721E-3,4.890668E-3,2.6776562E-3],"split_indices":[3,55,103,25,2,25,77,0,0,0,0,0,0,0,0],"split_type":[0,0,0,0,0,0,0,0,0,0,0,0,0,0,0],"sum_hessian":[6.2884673E3,2.3396926E3,3.9487744E3,1.2613527E3,1.0783401E3,1.2222158E3,2.7265586E3,5.6537463E2,6.95978E2,1.9024982E2,8.880903E2,6.3735376E2,5.848621E2,1.1577733E3,1.5687853E3],"tree_param":{"num_deleted":"0","num_feature":"106","num_nodes":"15","size_leaf_vector":"1"}},{"base_weights":[-1.2737627E-1,-3.014047E-1,4.0808525E-2,-1.6194096E-1,-4.4533893E-1,-9.3547195E-2,2.3090966E-1,-2.3491194E-3,1.276923E-4,-3.6073423E-3,-5.767865E-3,1.2523198E-3,-2.0804596E-3,1.301239E-3,3.3072217E-3],"categories":[],"categories_nodes":[],"categories_segments":[],"categories_sizes":[],"default_left":[0,0,0,0,0,0,0,0,0,0,0,0,0,0,0],"id":36,"left_children":[1,3,5,7,9,11,13,-1,-1,-1,-1,-1,-1,-1,-1],"loss_changes":[1.8404875E2,6.196173E1,8.171383E1,2.0032673E1,1.6698395E1,4.698727E1,1.3283516E1,0E0,0E0,0E0,0E0,0E0,0E0,0E0,0E0],"parents":[2147483647,0,0,1,1,2,2,3,3,4,4,5,5,6,6],"right_children":[2,4,6,8,10,12,14,-1,-1,-1,-1,-1,-1,-1,-1],"split_conditions":[1.5E1,1.3E1,5.45E-1,6E0,2.3E1,-4.8E0,2.2E1,-2.3491194E-3,1.276923E-4,-3.6073423E-3,-5.767865E-3,1.2523198E-3,-2.0804596E-3,1.301239E-3,3.3072217E-3],"split_indices":[51,80,55,77,80,25,29,0,0,0,0,0,0,0,0],"split_type":[0,0,0,0,0,0,0,0,0,0,0,0,0,0,0],"sum_hessian":[6.286773E3,3.0893206E3,3.1974524E3,1.570106E3,1.5192147E3,1.8737032E3,1.323749E3,1.1072837E3,4.628223E2,9.2657806E2,5.9263666E2,6.436849E2,1.2300184E3,6.5980963E2,6.6393945E2],"tree_param":{"num_deleted":"0","num_feature":"106","num_nodes":"15","size_leaf_vector":"1"}},{"base_weights":[1.2737629E-1,3.0140474E-1,-4.080852E-2,1.6194099E-1,4.4533893E-1,9.35472E-2,-2.3090966E-1,2.3491196E-3,-1.276921E-4,3.6073423E-3,5.7678656E-3,-1.2523199E-3,2.0804596E-3,-1.3012392E-3,-3.3072215E-3],"categories":[],"categories_nodes":[],"categories_segments":[],"categories_sizes":[],"default_left":[0,0,0,0,0,0,0,0,0,0,0,0,0,0,0],"id":37,"left_children":[1,3,5,7,9,11,13,-1,-1,-1,-1,-1,-1,-1,-1],"loss_changes":[1.8404877E2,6.196176E1,8.171384E1,2.0032673E1,1.6698364E1,4.6987267E1,1.3283516E1,0E0,0E0,0E0,0E0,0E0,0E0,0E0,0E0],"parents":[2147483647,0,0,1,1,2,2,3,3,4,4,5,5,6,6],"right_children":[2,4,6,8,10,12,14,-1,-1,-1,-1,-1,-1,-1,-1],"split_conditions":[1.5E1,1.3E1,5.45E-1,6E0,2.3E1,-4.8E0,2.2E1,2.3491196E-3,-1.276921E-4,3.6073423E-3,5.7678656E-3,-1.2523199E-3,2.0804596E-3,-1.3012392E-3,-3.3072215E-3],"split_indices":[51,80,55,77,80,25,29,0,0,0,0,0,0,0,0],"split_type":[0,0,0,0,0,0,0,0,0,0,0,0,0,0,0],"sum_hessian":[6.286773E3,3.0893208E3,3.1974524E3,1.570106E3,1.5192147E3,1.8737032E3,1.323749E3,1.1072837E3,4.628223E2,9.265781E2,5.9263666E2,6.436849E2,1.2300184E3,6.598096E2,6.6393945E2],"tree_param":{"num_deleted":"0","num_feature":"106","num_nodes":"15","size_leaf_vector":"1"}},{"base_weights":[-1.2614115E-1,-2.9852882E-1,4.0407505E-2,-1.6034302E-1,-4.412378E-1,-1.7288934E-1,1.585532E-1,-2.4607799E-3,-1.415309E-4,-3.5732116E-3,-5.717002E-3,5.109802E-4,-2.913088E-3,5.70062E-4,2.9245915E-3],"categories":[],"categories_nodes":[],"categories_segments":[],"categories_sizes":[],"default_left":[0,0,0,0,0,0,0,0,0,0,0,0,0,0,0],"id":38,"left_children":[1,3,5,7,9,11,13,-1,-1,-1,-1,-1,-1,-1,-1],"loss_changes":[1.8048706E2,6.0844208E1,8.061716E1,1.9685665E1,1.6426025E1,3.0264225E1,2.7975113E1,0E0,0E0,0E0,0E0,0E0,0E0,0E0,0E0],"parents":[2147483647,0,0,1,1,2,2,3,3,4,4,5,5,6,6],"right_children":[2,4,6,8,10,12,14,-1,-1,-1,-1,-1,-1,-1,-1],"split_conditions":[1.5E1,1.3E1,-1.4E0,5.1E0,2.3E1,-4.8E0,2.4E1,-2.4607799E-3,-1.415309E-4,-3.5732116E-3,-5.717002E-3,5.109802E-4,-2.913088E-3,5.70062E-4,2.9245915E-3],"split_indices":[51,80,77,77,80,25,51,0,0,0,0,0,0,0,0],"split_type":[0,0,0,0,0,0,0,0,0,0,0,0,0,0,0],"sum_hessian":[6.284932E3,3.0879397E3,3.1969924E3,1.569911E3,1.5180288E3,1.1394318E3,2.0575605E3,9.891362E2,5.807748E2,9.2608624E2,5.919425E2,3.9426266E2,7.451691E2,1.1709794E3,8.8658136E2],"tree_param":{"num_deleted":"0","num_feature":"106","num_nodes":"15","size_leaf_vector":"1"}},{"base_weights":[1.2614115E-1,2.985288E-1,-4.040749E-2,1.6034302E-1,4.4123778E-1,1.7288937E-1,-1.585532E-1,2.4607799E-3,1.4153028E-4,3.5732116E-3,5.717002E-3,-5.109804E-4,2.9130888E-3,-5.700619E-4,-2.9245915E-3],"categories":[],"categories_nodes":[],"categories_segments":[],"categories_sizes":[],"default_left":[0,0,0,0,0,0,0,0,0,0,0,0,0,0,0],"id":39,"left_children":[1,3,5,7,9,11,13,-1,-1,-1,-1,-1,-1,-1,-1],"loss_changes":[1.80487E2,6.084424E1,8.0617165E1,1.9685684E1,1.6425995E1,3.0264244E1,2.7975113E1,0E0,0E0,0E0,0E0,0E0,0E0,0E0,0E0],"parents":[2147483647,0,0,1,1,2,2,3,3,4,4,5,5,6,6],"right_children":[2,4,6,8,10,12,14,-1,-1,-1,-1,-1,-1,-1,-1],"split_conditions":[1.5E1,1.3E1,-1.4E0,5.1E0,2.3E1,-4.8E0,2.4E1,2.4607799E-3,1.4153028E-4,3.5732116E-3,5.717002E-3,-5.109804E-4,2.9130888E-3,-5.700619E-4,-2.9245915E-3],"split_indices":[51,80,77,77,80,25,51,0,0,0,0,0,0,0,0],"split_type":[0,0,0,0,0,0,0,0,0,0,0,0,0,0,0],"sum_hessian":[6.284932E3,3.0879397E3,3.1969924E3,1.569911E3,1.5180288E3,1.1394318E3,2.0575605E3,9.8913617E2,5.807748E2,9.260863E2,5.919425E2,3.9426266E2,7.4516907E2,1.1709792E3,8.8658136E2],"tree_param":{"num_deleted":"0","num_feature":"106","num_nodes":"15","size_leaf_vector":"1"}},{"base_weights":[-1.2492089E-1,9.320664E-2,-2.5423798E-1,-1.767044E-1,1.7700678E-1,-3.5271626E-2,-3.5247472E-1,3.3515487E-6,-3.126349E-3,8.363012E-4,3.0022322E-3,8.820766E-4,-1.6978555E-3,-4.76881E-3,-2.6055726E-3],"categories":[],"categories_nodes":[],"categories_segments":[],"categories_sizes":[],"default_left":[0,0,0,0,0,0,0,0,0,0,0,0,0,0,0],"id":40,"left_children":[1,3,5,7,9,11,13,-1,-1,-1,-1,-1,-1,-1,-1],"loss_changes":[1.772796E2,5.294958E1,8.485478E1,1.335116E1,2.0521534E1,2.032832E1,3.1018097E1,0E0,0E0,0E0,0E0,0E0,0E0,0E0,0E0],"parents":[2147483647,0,0,1,1,2,2,3,3,4,4,5,5,6,6],"right_children":[2,4,6,8,10,12,14,-1,-1,-1,-1,-1,-1,-1,-1],"split_conditions":[4.59E-1,3.73E-1,9E0,-4.8E0,2.6E1,3.1E0,-1.9E0,3.3515487E-6,-3.126349E-3,8.363012E-4,3.0022322E-3,8.820766E-4,-1.6978555E-3,-4.76881E-3,-2.6055726E-3],"split_indices":[3,55,103,25,51,25,77,0,0,0,0,0,0,0,0],"split_type":[0,0,0,0,0,0,0,0,0,0,0,0,0,0,0],"sum_hessian":[6.2829727E3,2.3385938E3,3.9443787E3,5.537896E2,1.7848041E3,1.2219818E3,2.722397E3,2.4095755E2,3.1283206E2,1.01630225E3,7.6850183E2,6.3730316E2,5.846787E2,1.154986E3,1.5674109E3],"tree_param":{"num_deleted":"0","num_feature":"106","num_nodes":"15","size_leaf_vector":"1"}},{"base_weights":[1.2492089E-1,-9.320662E-2,2.5423795E-1,1.7670445E-1,-1.7700678E-1,3.5271633E-2,3.524747E-1,-3.3516878E-6,3.12635E-3,-8.3630136E-4,-3.0022317E-3,-8.820762E-4,1.6978553E-3,4.7688093E-3,2.6055723E-3],"categories":[],"categories_nodes":[],"categories_segments":[],"categories_sizes":[],"default_left":[0,0,0,0,0,0,0,0,0,0,0,0,0,0,0],"id":41,"left_children":[1,3,5,7,9,11,13,-1,-1,-1,-1,-1,-1,-1,-1],"loss_changes":[1.7727956E2,5.2949593E1,8.485475E1,1.33511715E1,2.0521523E1,2.0328308E1,3.1018097E1,0E0,0E0,0E0,0E0,0E0,0E0,0E0,0E0],"parents":[2147483647,0,0,1,1,2,2,3,3,4,4,5,5,6,6],"right_children":[2,4,6,8,10,12,14,-1,-1,-1,-1,-1,-1,-1,-1],"split_conditions":[4.59E-1,3.73E-1,9E0,-4.8E0,2.6E1,3.1E0,-1.9E0,-3.3516878E-6,3.12635E-3,-8.3630136E-4,-3.0022317E-3,-8.820762E-4,1.6978553E-3,4.7688093E-3,2.6055723E-3],"split_indices":[3,55,103,25,51,25,77,0,0,0,0,0,0,0,0],"split_type":[0,0,0,0,0,0,0,0,0,0,0,0,0,0,0],"sum_hessian":[6.2829727E3,2.3385938E3,3.9443787E3,5.537896E2,1.7848041E3,1.2219818E3,2.722397E3,2.4095757E2,3.1283206E2,1.01630225E3,7.685019E2,6.3730316E2,5.846787E2,1.154986E3,1.5674109E3],"tree_param":{"num_deleted":"0","num_feature":"106","num_nodes":"15","size_leaf_vector":"1"}},{"base_weights":[-1.2371212E-1,-2.9325488E-1,4.0000327E-2,-1.5733011E-1,-4.338064E-1,-9.151765E-2,2.2607236E-1,-2.2873133E-3,1.3534845E-4,-3.510029E-3,-5.626922E-3,1.2100078E-3,-2.027666E-3,1.2787731E-3,3.2338733E-3],"categories":[],"categories_nodes":[],"categories_segments":[],"categories_sizes":[],"default_left":[0,0,0,0,0,0,0,0,0,0,0,0,0,0,0],"id":42,"left_children":[1,3,5,7,9,11,13,-1,-1,-1,-1,-1,-1,-1,-1],"loss_changes":[1.7437662E2,5.8891296E1,7.8253006E1,1.9162872E1,1.5988953E1,4.4323315E1,1.26119E1,0E0,0E0,0E0,0E0,0E0,0E0,0E0,0E0],"parents":[2147483647,0,0,1,1,2,2,3,3,4,4,5,5,6,6],"right_children":[2,4,6,8,10,12,14,-1,-1,-1,-1,-1,-1,-1,-1],"split_conditions":[1.5E1,1.3E1,5.45E-1,6E0,2.3E1,-4.8E0,2.2E1,-2.2873133E-3,1.3534845E-4,-3.510029E-3,-5.626922E-3,1.2100078E-3,-2.027666E-3,1.2787731E-3,3.2338733E-3],"split_indices":[51,80,55,77,80,25,29,0,0,0,0,0,0,0,0],"split_type":[0,0,0,0,0,0,0,0,0,0,0,0,0,0,0],"sum_hessian":[6.281003E3,3.0851697E3,3.1958333E3,1.569477E3,1.5156926E3,1.8726965E3,1.3231367E3,1.1066783E3,4.6279865E2,9.250876E2,5.90605E2,6.4344275E2,1.2292539E3,6.597422E2,6.633945E2],"tree_param":{"num_deleted":"0","num_feature":"106","num_nodes":"15","size_leaf_vector":"1"}},{"base_weights":[1.2371212E-1,2.9325488E-1,-4.000034E-2,1.5733014E-1,4.3380642E-1,9.151764E-2,-2.2607237E-1,2.2873138E-3,-1.3534841E-4,3.5100293E-3,5.626922E-3,-1.210008E-3,2.027666E-3,-1.2787727E-3,-3.2338738E-3],"categories":[],"categories_nodes":[],"categories_segments":[],"categories_sizes":[],"default_left":[0,0,0,0,0,0,0,0,0,0,0,0,0,0,0],"id":43,"left_children":[1,3,5,7,9,11,13,-1,-1,-1,-1,-1,-1,-1,-1],"loss_changes":[1.7437665E2,5.8891266E1,7.825301E1,1.9162872E1,1.5988953E1,4.432332E1,1.26119E1,0E0,0E0,0E0,0E0,0E0,0E0,0E0,0E0],"parents":[2147483647,0,0,1,1,2,2,3,3,4,4,5,5,6,6],"right_children":[2,4,6,8,10,12,14,-1,-1,-1,-1,-1,-1,-1,-1],"split_conditions":[1.5E1,1.3E1,5.45E-1,6E0,2.3E1,-4.8E0,2.2E1,2.2873138E-3,-1.3534841E-4,3.5100293E-3,5.626922E-3,-1.210008E-3,2.027666E-3,-1.2787727E-3,-3.2338738E-3],"split_indices":[51,80,55,77,80,25,29,0,0,0,0,0,0,0,0],"split_type":[0,0,0,0,0,0,0,0,0,0,0,0,0,0,0],"sum_hessian":[6.281003E3,3.0851697E3,3.1958333E3,1.569477E3,1.5156926E3,1.8726967E3,1.3231366E3,1.1066783E3,4.627986E2,9.2508765E2,5.90605E2,6.4344275E2,1.2292539E3,6.597422E2,6.633945E2],"tree_param":{"num_deleted":"0","num_feature":"106","num_nodes":"15","size_leaf_vector":"1"}},{"base_weights":[-1.2251694E-1,-2.904725E-1,3.9607987E-2,-1.5578029E-1,-4.298516E-1,-1.8934618E-1,1.449913E-1,-2.3958741E-3,-1.2958495E-4,-3.4770195E-3,-5.578137E-3,5.991323E-4,-2.9414843E-3,8.0208166E-4,3.4069594E-3],"categories":[],"categories_nodes":[],"categories_segments":[],"categories_sizes":[],"default_left":[0,0,0,0,0,0,0,0,0,0,0,0,0,0,0],"id":44,"left_children":[1,3,5,7,9,11,13,-1,-1,-1,-1,-1,-1,-1,-1],"loss_changes":[1.7101288E2,5.7841583E1,7.714798E1,1.8792046E1,1.5735657E1,2.6347298E1,2.7730698E1,0E0,0E0,0E0,0E0,0E0,0E0,0E0,0E0],"parents":[2147483647,0,0,1,1,2,2,3,3,4,4,5,5,6,6],"right_children":[2,4,6,8,10,12,14,-1,-1,-1,-1,-1,-1,-1,-1],"split_conditions":[1.5E1,1.3E1,-2E0,5.1E0,2.3E1,3.23E-1,2.7E1,-2.3958741E-3,-1.2958495E-4,-3.4770195E-3,-5.578137E-3,5.991323E-4,-2.9414843E-3,8.0208166E-4,3.4069594E-3],"split_indices":[51,80,77,77,80,3,51,0,0,0,0,0,0,0,0],"split_type":[0,0,0,0,0,0,0,0,0,0,0,0,0,0,0],"sum_hessian":[6.27894E3,3.0836248E3,3.1953154E3,1.5692559E3,1.5143688E3,1.0069136E3,2.1884019E3,9.885198E2,5.80736E2,9.2454364E2,5.898252E2,2.9817322E2,7.0874036E2,1.645207E3,5.4319476E2],"tree_param":{"num_deleted":"0","num_feature":"106","num_nodes":"15","size_leaf_vector":"1"}},{"base_weights":[1.2251694E-1,2.904725E-1,-3.960798E-2,1.557803E-1,4.298516E-1,1.893462E-1,-1.449913E-1,2.3958741E-3,1.2958526E-4,3.477019E-3,5.5781375E-3,-5.991319E-4,2.9414843E-3,-8.0208166E-4,-3.4069594E-3],"categories":[],"categories_nodes":[],"categories_segments":[],"categories_sizes":[],"default_left":[0,0,0,0,0,0,0,0,0,0,0,0,0,0,0],"id":45,"left_children":[1,3,5,7,9,11,13,-1,-1,-1,-1,-1,-1,-1,-1],"loss_changes":[1.710129E2,5.7841522E1,7.7147995E1,1.8792042E1,1.5735687E1,2.6347294E1,2.7730701E1,0E0,0E0,0E0,0E0,0E0,0E0,0E0,0E0],"parents":[2147483647,0,0,1,1,2,2,3,3,4,4,5,5,6,6],"right_children":[2,4,6,8,10,12,14,-1,-1,-1,-1,-1,-1,-1,-1],"split_conditions":[1.5E1,1.3E1,-2E0,5.1E0,2.3E1,3.23E-1,2.7E1,2.3958741E-3,1.2958526E-4,3.477019E-3,5.5781375E-3,-5.991319E-4,2.9414843E-3,-8.0208166E-4,-3.4069594E-3],"split_indices":[51,80,77,77,80,3,51,0,0,0,0,0,0,0,0],"split_type":[0,0,0,0,0,0,0,0,0,0,0,0,0,0,0],"sum_hessian":[6.27894E3,3.0836248E3,3.1953154E3,1.5692559E3,1.5143689E3,1.0069136E3,2.1884019E3,9.885198E2,5.80736E2,9.245437E2,5.898252E2,2.9817322E2,7.087404E2,1.645207E3,5.4319476E2],"tree_param":{"num_deleted":"0","num_feature":"106","num_nodes":"15","size_leaf_vector":"1"}},{"base_weights":[-1.2133466E-1,9.114382E-2,-2.4739218E-1,-1.7282951E-1,1.7309268E-1,-3.366131E-2,-3.434233E-1,-6.9954735E-6,-3.0512002E-3,8.2314864E-4,2.9297012E-3,8.776813E-4,-1.6597738E-3,-4.6511427E-3,-2.5366875E-3],"categories":[],"categories_nodes":[],"categories_segments":[],"categories_sizes":[],"default_left":[0,0,0,0,0,0,0,0,0,0,0,0,0,0,0],"id":46,"left_children":[1,3,5,7,9,11,13,-1,-1,-1,-1,-1,-1,-1,-1],"loss_changes":[1.6817107E2,5.0613785E1,8.086607E1,1.2625353E1,1.9399479E1,1.9660091E1,2.957721E1,0E0,0E0,0E0,0E0,0E0,0E0,0E0,0E0],"parents":[2147483647,0,0,1,1,2,2,3,3,4,4,5,5,6,6],"right_children":[2,4,6,8,10,12,14,-1,-1,-1,-1,-1,-1,-1,-1],"split_conditions":[4.59E-1,3.73E-1,9E0,-4.8E0,2.6E1,3.1E0,-1.9E0,-6.9954735E-6,-3.0512002E-3,8.2314864E-4,2.9297012E-3,8.776813E-4,-1.6597738E-3,-4.6511427E-3,-2.5366875E-3],"split_indices":[3,55,103,25,51,25,77,0,0,0,0,0,0,0,0],"split_type":[0,0,0,0,0,0,0,0,0,0,0,0,0,0,0],"sum_hessian":[6.276828E3,2.3373477E3,3.9394805E3,5.534542E2,1.7838934E3,1.2217201E3,2.7177605E3,2.4094875E2,3.125055E2,1.01611884E3,7.6777454E2,6.372438E2,5.844763E2,1.1518616E3,1.5658988E3],"tree_param":{"num_deleted":"0","num_feature":"106","num_nodes":"15","size_leaf_vector":"1"}},{"base_weights":[1.2133467E-1,-9.11438E-2,2.4739219E-1,1.7282952E-1,-1.7309266E-1,3.366136E-2,3.434233E-1,6.995517E-6,3.0512002E-3,-8.231484E-4,-2.9297012E-3,-8.776806E-4,1.6597741E-3,4.6511427E-3,2.5366878E-3],"categories":[],"categories_nodes":[],"categories_segments":[],"categories_sizes":[],"default_left":[0,0,0,0,0,0,0,0,0,0,0,0,0,0,0],"id":47,"left_children":[1,3,5,7,9,11,13,-1,-1,-1,-1,-1,-1,-1,-1],"loss_changes":[1.6817108E2,5.0613792E1,8.086604E1,1.2625351E1,1.9399475E1,1.9660086E1,2.9577148E1,0E0,0E0,0E0,0E0,0E0,0E0,0E0,0E0],"parents":[2147483647,0,0,1,1,2,2,3,3,4,4,5,5,6,6],"right_children":[2,4,6,8,10,12,14,-1,-1,-1,-1,-1,-1,-1,-1],"split_conditions":[4.59E-1,3.73E-1,9E0,-4.8E0,2.6E1,3.1E0,-1.9E0,6.995517E-6,3.0512002E-3,-8.231484E-4,-2.9297012E-3,-8.776806E-4,1.6597741E-3,4.6511427E-3,2.5366878E-3],"split_indices":[3,55,103,25,51,25,77,0,0,0,0,0,0,0,0],"split_type":[0,0,0,0,0,0,0,0,0,0,0,0,0,0,0],"sum_hessian":[6.276828E3,2.3373477E3,3.9394805E3,5.534543E2,1.7838934E3,1.2217201E3,2.7177605E3,2.4094876E2,3.1250552E2,1.01611884E3,7.677746E2,6.3724384E2,5.844763E2,1.1518616E3,1.5658988E3],"tree_param":{"num_deleted":"0","num_feature":"106","num_nodes":"15","size_leaf_vector":"1"}},{"base_weights":[-1.20164484E-1,-2.8536788E-1,3.9206054E-2,-1.5285726E-1,-4.2268118E-1,-8.9595534E-2,2.2142284E-1,-2.2273192E-3,1.4258649E-4,-3.415869E-3,-5.4916977E-3,1.1725957E-3,-1.9790414E-3,1.2557971E-3,3.1648006E-3],"categories":[],"categories_nodes":[],"categories_segments":[],"categories_sizes":[],"default_left":[0,0,0,0,0,0,0,0,0,0,0,0,0,0,0],"id":48,"left_children":[1,3,5,7,9,11,13,-1,-1,-1,-1,-1,-1,-1,-1],"loss_changes":[1.652402E2,5.6005844E1,7.500819E1,1.8333664E1,1.5329834E1,4.1977924E1,1.2017838E1,0E0,0E0,0E0,0E0,0E0,0E0,0E0,0E0],"parents":[2147483647,0,0,1,1,2,2,3,3,4,4,5,5,6,6],"right_children":[2,4,6,8,10,12,14,-1,-1,-1,-1,-1,-1,-1,-1],"split_conditions":[1.5E1,1.3E1,5.45E-1,6E0,2.3E1,-4.8E0,2.2E1,-2.2273192E-3,1.4258649E-4,-3.415869E-3,-5.4916977E-3,1.1725957E-3,-1.9790414E-3,1.2557971E-3,3.1648006E-3],"split_indices":[51,80,55,77,80,25,29,0,0,0,0,0,0,0,0],"split_type":[0,0,0,0,0,0,0,0,0,0,0,0,0,0,0],"sum_hessian":[6.274659E3,3.080561E3,3.1940981E3,1.568772E3,1.5117891E3,1.8716287E3,1.3224694E3,1.1059982E3,4.627739E2,9.234488E2,5.883403E2,6.4317224E2,1.2284565E3,6.5966833E2,6.628011E2],"tree_param":{"num_deleted":"0","num_feature":"106","num_nodes":"15","size_leaf_vector":"1"}},{"base_weights":[1.2016448E-1,2.8536785E-1,-3.920605E-2,1.5285726E-1,4.2268115E-1,8.959552E-2,-2.214228E-1,2.2273192E-3,-1.425866E-4,3.415869E-3,5.4916963E-3,-1.172596E-3,1.9790414E-3,-1.2557971E-3,-3.1648001E-3],"categories":[],"categories_nodes":[],"categories_segments":[],"categories_sizes":[],"default_left":[0,0,0,0,0,0,0,0,0,0,0,0,0,0,0],"id":49,"left_children":[1,3,5,7,9,11,13,-1,-1,-1,-1,-1,-1,-1,-1],"loss_changes":[1.6524019E2,5.600583E1,7.500816E1,1.8333668E1,1.5329834E1,4.1977943E1,1.2017822E1,0E0,0E0,0E0,0E0,0E0,0E0,0E0,0E0],"parents":[2147483647,0,0,1,1,2,2,3,3,4,4,5,5,6,6],"right_children":[2,4,6,8,10,12,14,-1,-1,-1,-1,-1,-1,-1,-1],"split_conditions":[1.5E1,1.3E1,5.45E-1,6E0,2.3E1,-4.8E0,2.2E1,2.2273192E-3,-1.425866E-4,3.415869E-3,5.4916963E-3,-1.172596E-3,1.9790414E-3,-1.2557971E-3,-3.1648001E-3],"split_indices":[51,80,55,77,80,25,29,0,0,0,0,0,0,0,0],"split_type":[0,0,0,0,0,0,0,0,0,0,0,0,0,0,0],"sum_hessian":[6.274659E3,3.080561E3,3.1940981E3,1.568772E3,1.5117891E3,1.8716287E3,1.3224695E3,1.1059982E3,4.6277386E2,9.234488E2,5.883403E2,6.4317224E2,1.2284564E3,6.5966833E2,6.628011E2],"tree_param":{"num_deleted":"0","num_feature":"106","num_nodes":"15","size_leaf_vector":"1"}},{"base_weights":[-1.1900743E-1,-2.235718E-1,1.2840566E-1,-9.0384364E-2,-3.7626362E-1,-9.243466E-3,2.8531393E-1,-2.209362E-3,2.9021146E-4,-5.1122103E-3,-3.0314538E-3,1.6661114E-3,-1.1431776E-3,4.248206E-3,2.0570687E-3],"categories":[],"categories_nodes":[],"categories_segments":[],"categories_sizes":[],"default_left":[0,0,0,0,0,0,0,0,0,0,0,0,0,0,0],"id":50,"left_children":[1,3,5,7,9,11,13,-1,-1,-1,-1,-1,-1,-1,-1],"loss_changes":[1.6232523E2,8.965216E1,4.0268684E1,3.6745605E1,2.0116364E1,1.8387354E1,9.588379E0,0E0,0E0,0E0,0E0,0E0,0E0,0E0,0E0],"parents":[2147483647,0,0,1,1,2,2,3,3,4,4,5,5,6,6],"right_children":[2,4,6,8,10,12,14,-1,-1,-1,-1,-1,-1,-1,-1],"split_conditions":[2E1,1.4E1,5.14E-1,1E1,8E0,-6.4E0,-6.2E0,-2.209362E-3,2.9021146E-4,-5.1122103E-3,-3.0314538E-3,1.6661114E-3,-1.1431776E-3,4.248206E-3,2.0570687E-3],"split_indices":[28,80,55,51,51,25,25,0,0,0,0,0,0,0,0],"split_type":[0,0,0,0,0,0,0,0,0,0,0,0,0,0,0],"sum_hessian":[6.272397E3,4.4090806E3,1.8633165E3,2.3557974E3,2.0532834E3,9.9307446E2,8.70242E2,1.1249664E3,1.2308309E3,7.194226E2,1.3338608E3,3.7121512E2,6.218593E2,3.1459546E2,5.5564655E2],"tree_param":{"num_deleted":"0","num_feature":"106","num_nodes":"15","size_leaf_vector":"1"}},{"base_weights":[1.1900745E-1,2.235718E-1,-1.2840563E-1,9.0384364E-2,3.7626362E-1,9.243497E-3,-2.853139E-1,2.209362E-3,-2.902114E-4,5.1122103E-3,3.031454E-3,-1.6661114E-3,1.1431781E-3,-4.2482056E-3,-2.0570685E-3],"categories":[],"categories_nodes":[],"categories_segments":[],"categories_sizes":[],"default_left":[0,0,0,0,0,0,0,0,0,0,0,0,0,0,0],"id":51,"left_children":[1,3,5,7,9,11,13,-1,-1,-1,-1,-1,-1,-1,-1],"loss_changes":[1.623252E2,8.9652176E1,4.0268684E1,3.6745605E1,2.0116394E1,1.8387362E1,9.588379E0,0E0,0E0,0E0,0E0,0E0,0E0,0E0,0E0],"parents":[2147483647,0,0,1,1,2,2,3,3,4,4,5,5,6,6],"right_children":[2,4,6,8,10,12,14,-1,-1,-1,-1,-1,-1,-1,-1],"split_conditions":[2E1,1.4E1,5.14E-1,1E1,8E0,-6.4E0,-6.2E0,2.209362E-3,-2.902114E-4,5.1122103E-3,3.031454E-3,-1.6661114E-3,1.1431781E-3,-4.2482056E-3,-2.0570685E-3],"split_indices":[28,80,55,51,51,25,25,0,0,0,0,0,0,0,0],"split_type":[0,0,0,0,0,0,0,0,0,0,0,0,0,0,0],"sum_hessian":[6.272397E3,4.4090806E3,1.8633165E3,2.3557974E3,2.0532834E3,9.9307446E2,8.70242E2,1.1249664E3,1.2308309E3,7.194226E2,1.3338608E3,3.7121512E2,6.218593E2,3.145955E2,5.5564655E2],"tree_param":{"num_deleted":"0","num_feature":"106","num_nodes":"15","size_leaf_vector":"1"}},{"base_weights":[-1.17860265E-1,-2.8020218E-1,3.8641587E-2,-1.4999174E-1,-4.153425E-1,-1.8389577E-1,1.4103515E-1,-2.1918828E-3,1.5446063E-4,-3.348322E-3,-5.410736E-3,5.756275E-4,-2.8551912E-3,7.859811E-4,3.2989802E-3],"categories":[],"categories_nodes":[],"categories_segments":[],"categories_sizes":[],"default_left":[0,0,0,0,0,0,0,0,0,0,0,0,0,0,0],"id":52,"left_children":[1,3,5,7,9,11,13,-1,-1,-1,-1,-1,-1,-1,-1],"loss_changes":[1.5934116E2,5.4105087E1,7.280328E1,1.7968262E1,1.510379E1,2.4723755E1,2.5774899E1,0E0,0E0,0E0,0E0,0E0,0E0,0E0,0E0],"parents":[2147483647,0,0,1,1,2,2,3,3,4,4,5,5,6,6],"right_children":[2,4,6,8,10,12,14,-1,-1,-1,-1,-1,-1,-1,-1],"split_conditions":[1.5E1,1.3E1,-2E0,6E0,2.3E1,3.23E-1,2.7E1,-2.1918828E-3,1.5446063E-4,-3.348322E-3,-5.410736E-3,5.756275E-4,-2.8551912E-3,7.859811E-4,3.2989802E-3],"split_indices":[51,80,77,77,80,3,51,0,0,0,0,0,0,0,0],"split_type":[0,0,0,0,0,0,0,0,0,0,0,0,0,0,0],"sum_hessian":[6.2701665E3,3.077272E3,3.1928948E3,1.5682964E3,1.5089756E3,1.00590735E3,2.1869873E3,1.1055574E3,4.62739E2,9.221508E2,5.868247E2,2.9808557E2,7.078218E2,1.6446809E3,5.423065E2],"tree_param":{"num_deleted":"0","num_feature":"106","num_nodes":"15","size_leaf_vector":"1"}},{"base_weights":[1.1786027E-1,2.8020218E-1,-3.8641565E-2,1.4999172E-1,4.153425E-1,1.8389578E-1,-1.4103514E-1,2.191883E-3,-1.5446103E-4,3.3483221E-3,5.4107355E-3,-5.756274E-4,2.8551915E-3,-7.8598096E-4,-3.2989797E-3],"categories":[],"categories_nodes":[],"categories_segments":[],"categories_sizes":[],"default_left":[0,0,0,0,0,0,0,0,0,0,0,0,0,0,0],"id":53,"left_children":[1,3,5,7,9,11,13,-1,-1,-1,-1,-1,-1,-1,-1],"loss_changes":[1.5934113E2,5.4105087E1,7.280328E1,1.796827E1,1.510379E1,2.4723755E1,2.5774899E1,0E0,0E0,0E0,0E0,0E0,0E0,0E0,0E0],"parents":[2147483647,0,0,1,1,2,2,3,3,4,4,5,5,6,6],"right_children":[2,4,6,8,10,12,14,-1,-1,-1,-1,-1,-1,-1,-1],"split_conditions":[1.5E1,1.3E1,-2E0,6E0,2.3E1,3.23E-1,2.7E1,2.191883E-3,-1.5446103E-4,3.3483221E-3,5.4107355E-3,-5.756274E-4,2.8551915E-3,-7.8598096E-4,-3.2989797E-3],"split_indices":[51,80,77,77,80,3,51,0,0,0,0,0,0,0,0],"split_type":[0,0,0,0,0,0,0,0,0,0,0,0,0,0,0],"sum_hessian":[6.2701665E3,3.077272E3,3.1928948E3,1.5682964E3,1.5089756E3,1.00590735E3,2.1869873E3,1.1055574E3,4.6273898E2,9.221508E2,5.868247E2,2.9808557E2,7.078218E2,1.6446809E3,5.423065E2],"tree_param":{"num_deleted":"0","num_feature":"106","num_nodes":"15","size_leaf_vector":"1"}},{"base_weights":[-1.16727486E-1,-2.1953787E-1,1.2643062E-1,-8.863976E-2,-3.698001E-1,-9.071271E-3,2.8094625E-1,-2.1720943E-3,2.890802E-4,-5.0311936E-3,-2.9765635E-3,1.6366261E-3,-1.122727E-3,4.1805888E-3,2.0277286E-3],"categories":[],"categories_nodes":[],"categories_segments":[],"categories_sizes":[],"default_left":[0,0,0,0,0,0,0,0,0,0,0,0,0,0,0],"id":54,"left_children":[1,3,5,7,9,11,13,-1,-1,-1,-1,-1,-1,-1,-1],"loss_changes":[1.5674292E2,8.663484E1,3.9019333E1,3.5615704E1,1.9578003E1,1.7734495E1,9.247917E0,0E0,0E0,0E0,0E0,0E0,0E0,0E0,0E0],"parents":[2147483647,0,0,1,1,2,2,3,3,4,4,5,5,6,6],"right_children":[2,4,6,8,10,12,14,-1,-1,-1,-1,-1,-1,-1,-1],"split_conditions":[2E1,1.4E1,5.14E-1,1E1,8E0,-6.4E0,-6.2E0,-2.1720943E-3,2.890802E-4,-5.0311936E-3,-2.9765635E-3,1.6366261E-3,-1.122727E-3,4.1805888E-3,2.0277286E-3],"split_indices":[28,80,55,51,51,25,25,0,0,0,0,0,0,0,0],"split_type":[0,0,0,0,0,0,0,0,0,0,0,0,0,0,0],"sum_hessian":[6.2678135E3,4.4052954E3,1.8625184E3,2.3551985E3,2.0500967E3,9.9281476E2,8.697037E2,1.1244578E3,1.2307407E3,7.1774817E2,1.3323485E3,3.7109943E2,6.2171533E2,3.1422293E2,5.554808E2],"tree_param":{"num_deleted":"0","num_feature":"106","num_nodes":"15","size_leaf_vector":"1"}},{"base_weights":[1.16727486E-1,2.1953785E-1,-1.2643062E-1,8.863974E-2,3.698001E-1,9.071297E-3,-2.8094628E-1,2.1720943E-3,-2.8908034E-4,5.0311936E-3,2.9765635E-3,-1.6366255E-3,1.122727E-3,-4.1805888E-3,-2.0277288E-3],"categories":[],"categories_nodes":[],"categories_segments":[],"categories_sizes":[],"default_left":[0,0,0,0,0,0,0,0,0,0,0,0,0,0,0],"id":55,"left_children":[1,3,5,7,9,11,13,-1,-1,-1,-1,-1,-1,-1,-1],"loss_changes":[1.5674292E2,8.663489E1,3.901935E1,3.5615696E1,1.9577972E1,1.773449E1,9.247917E0,0E0,0E0,0E0,0E0,0E0,0E0,0E0,0E0],"parents":[2147483647,0,0,1,1,2,2,3,3,4,4,5,5,6,6],"right_children":[2,4,6,8,10,12,14,-1,-1,-1,-1,-1,-1,-1,-1],"split_conditions":[2E1,1.4E1,5.14E-1,1E1,8E0,-6.4E0,-6.2E0,2.1720943E-3,-2.8908034E-4,5.0311936E-3,2.9765635E-3,-1.6366255E-3,1.122727E-3,-4.1805888E-3,-2.0277288E-3],"split_indices":[28,80,55,51,51,25,25,0,0,0,0,0,0,0,0],"split_type":[0,0,0,0,0,0,0,0,0,0,0,0,0,0,0],"sum_hessian":[6.2678135E3,4.4052954E3,1.8625184E3,2.3551985E3,2.0500967E3,9.9281476E2,8.697037E2,1.1244578E3,1.2307408E3,7.1774817E2,1.3323485E3,3.7109943E2,6.2171533E2,3.1422293E2,5.554807E2],"tree_param":{"num_deleted":"0","num_feature":"106","num_nodes":"15","size_leaf_vector":"1"}},{"base_weights":[-1.1560458E-1,8.768303E-2,-2.363676E-1,-1.67584E-1,1.6692828E-1,-2.9991984E-2,-3.293438E-1,-2.6944146E-5,-2.945048E-3,8.028961E-4,2.815012E-3,8.750281E-4,-1.5810364E-3,-4.473548E-3,-2.4255998E-3],"categories":[],"categories_nodes":[],"categories_segments":[],"categories_sizes":[],"default_left":[0,0,0,0,0,0,0,0,0,0,0,0,0,0,0],"id":56,"left_children":[1,3,5,7,9,11,13,-1,-1,-1,-1,-1,-1,-1,-1],"loss_changes":[1.5386002E2,4.7282898E1,7.542644E1,1.1591192E1,1.7677578E1,1.8410477E1,2.7648438E1,0E0,0E0,0E0,0E0,0E0,0E0,0E0,0E0],"parents":[2147483647,0,0,1,1,2,2,3,3,4,4,5,5,6,6],"right_children":[2,4,6,8,10,12,14,-1,-1,-1,-1,-1,-1,-1,-1],"split_conditions":[4.59E-1,3.73E-1,9E0,-4.8E0,2.6E1,3.1E0,-1.9E0,-2.6944146E-5,-2.945048E-3,8.028961E-4,2.815012E-3,8.750281E-4,-1.5810364E-3,-4.473548E-3,-2.4255998E-3],"split_indices":[3,55,103,25,51,25,77,0,0,0,0,0,0,0,0],"split_type":[0,0,0,0,0,0,0,0,0,0,0,0,0,0,0],"sum_hessian":[6.265462E3,2.335034E3,3.9304282E3,5.5290045E2,1.7821334E3,1.2211692E3,2.709259E3,2.4092422E2,3.1197623E2,1.0157423E3,7.663911E2,6.3714374E2,5.840254E2,1.1463142E3,1.5629448E3],"tree_param":{"num_deleted":"0","num_feature":"106","num_nodes":"15","size_leaf_vector":"1"}},{"base_weights":[1.15604594E-1,-8.768304E-2,2.3636763E-1,1.67584E-1,-1.6692828E-1,2.9991996E-2,3.2934383E-1,2.6943511E-5,2.9450487E-3,-8.028961E-4,-2.8150124E-3,-8.7502785E-4,1.5810364E-3,4.473548E-3,2.4256003E-3],"categories":[],"categories_nodes":[],"categories_segments":[],"categories_sizes":[],"default_left":[0,0,0,0,0,0,0,0,0,0,0,0,0,0,0],"id":57,"left_children":[1,3,5,7,9,11,13,-1,-1,-1,-1,-1,-1,-1,-1],"loss_changes":[1.5386005E2,4.72829E1,7.542644E1,1.1591202E1,1.7677582E1,1.8410475E1,2.7648468E1,0E0,0E0,0E0,0E0,0E0,0E0,0E0,0E0],"parents":[2147483647,0,0,1,1,2,2,3,3,4,4,5,5,6,6],"right_children":[2,4,6,8,10,12,14,-1,-1,-1,-1,-1,-1,-1,-1],"split_conditions":[4.59E-1,3.73E-1,9E0,-4.8E0,2.6E1,3.1E0,-1.9E0,2.6943511E-5,2.9450487E-3,-8.028961E-4,-2.8150124E-3,-8.7502785E-4,1.5810364E-3,4.473548E-3,2.4256003E-3],"split_indices":[3,55,103,25,51,25,77,0,0,0,0,0,0,0,0],"split_type":[0,0,0,0,0,0,0,0,0,0,0,0,0,0,0],"sum_hessian":[6.265462E3,2.335034E3,3.9304282E3,5.5290045E2,1.7821334E3,1.2211692E3,2.709259E3,2.4092421E2,3.1197623E2,1.0157423E3,7.663911E2,6.371438E2,5.840254E2,1.1463142E3,1.5629448E3],"tree_param":{"num_deleted":"0","num_feature":"106","num_nodes":"15","size_leaf_vector":"1"}},{"base_weights":[-1.1449499E-1,-2.7291143E-1,3.806688E-2,-1.4586525E-1,-4.0508115E-1,-8.600896E-2,2.1359861E-1,-2.14139E-3,1.7279475E-4,-3.2551847E-3,-5.2957227E-3,1.1201096E-3,-1.8974303E-3,1.2220134E-3,3.0439317E-3],"categories":[],"categories_nodes":[],"categories_segments":[],"categories_sizes":[],"default_left":[0,0,0,0,0,0,0,0,0,0,0,0,0,0,0],"id":58,"left_children":[1,3,5,7,9,11,13,-1,-1,-1,-1,-1,-1,-1,-1],"loss_changes":[1.5140091E2,5.154442E1,6.953438E1,1.7474617E1,1.4740829E1,3.844863E1,1.0934242E1,0E0,0E0,0E0,0E0,0E0,0E0,0E0,0E0],"parents":[2147483647,0,0,1,1,2,2,3,3,4,4,5,5,6,6],"right_children":[2,4,6,8,10,12,14,-1,-1,-1,-1,-1,-1,-1,-1],"split_conditions":[1.5E1,1.3E1,5.45E-1,6E0,2.3E1,-4.8E0,2.2E1,-2.14139E-3,1.7279475E-4,-3.2551847E-3,-5.2957227E-3,1.1201096E-3,-1.8974303E-3,1.2220134E-3,3.0439317E-3],"split_indices":[51,80,55,77,80,25,29,0,0,0,0,0,0,0,0],"split_type":[0,0,0,0,0,0,0,0,0,0,0,0,0,0,0],"sum_hessian":[6.26301E3,3.0721633E3,3.1908467E3,1.5675159E3,1.5046475E3,1.869727E3,1.3211196E3,1.1048424E3,4.626734E2,9.2017554E2,5.84472E2,6.4272925E2,1.2269977E3,6.595437E2,6.615759E2],"tree_param":{"num_deleted":"0","num_feature":"106","num_nodes":"15","size_leaf_vector":"1"}},{"base_weights":[1.1449498E-1,2.729114E-1,-3.8066875E-2,1.458652E-1,4.0508115E-1,8.6008966E-2,-2.1359862E-1,2.1413898E-3,-1.7279545E-4,3.2551847E-3,5.2957227E-3,-1.1201095E-3,1.8974304E-3,-1.2220137E-3,-3.0439314E-3],"categories":[],"categories_nodes":[],"categories_segments":[],"categories_sizes":[],"default_left":[0,0,0,0,0,0,0,0,0,0,0,0,0,0,0],"id":59,"left_children":[1,3,5,7,9,11,13,-1,-1,-1,-1,-1,-1,-1,-1],"loss_changes":[1.5140086E2,5.1544464E1,6.953439E1,1.7474617E1,1.4740814E1,3.844863E1,1.0934242E1,0E0,0E0,0E0,0E0,0E0,0E0,0E0,0E0],"parents":[2147483647,0,0,1,1,2,2,3,3,4,4,5,5,6,6],"right_children":[2,4,6,8,10,12,14,-1,-1,-1,-1,-1,-1,-1,-1],"split_conditions":[1.5E1,1.3E1,5.45E-1,6E0,2.3E1,-4.8E0,2.2E1,2.1413898E-3,-1.7279545E-4,3.2551847E-3,5.2957227E-3,-1.1201095E-3,1.8974304E-3,-1.2220137E-3,-3.0439314E-3],"split_indices":[51,80,55,77,80,25,29,0,0,0,0,0,0,0,0],"split_type":[0,0,0,0,0,0,0,0,0,0,0,0,0,0,0],"sum_hessian":[6.26301E3,3.0721633E3,3.1908467E3,1.5675159E3,1.5046475E3,1.869727E3,1.3211196E3,1.1048424E3,4.626734E2,9.2017554E2,5.84472E2,6.427293E2,1.2269977E3,6.595437E2,6.615759E2],"tree_param":{"num_deleted":"0","num_feature":"106","num_nodes":"15","size_leaf_vector":"1"}},{"base_weights":[-1.1339785E-1,-2.1357547E-1,1.2337558E-1,-8.5960984E-2,-3.6036393E-1,-8.983327E-3,2.7439418E-1,-2.1179249E-3,2.9019546E-4,-4.9214456E-3,-2.8916907E-3,1.5939346E-3,-1.0957798E-3,4.09093E-3,1.976866E-3],"categories":[],"categories_nodes":[],"categories_segments":[],"categories_sizes":[],"default_left":[0,0,0,0,0,0,0,0,0,0,0,0,0,0,0],"id":60,"left_children":[1,3,5,7,9,11,13,-1,-1,-1,-1,-1,-1,-1,-1],"loss_changes":[1.485445E2,8.23961E1,3.722545E1,3.4081257E1,1.905423E1,1.6843174E1,8.906502E0,0E0,0E0,0E0,0E0,0E0,0E0,0E0,0E0],"parents":[2147483647,0,0,1,1,2,2,3,3,4,4,5,5,6,6],"right_children":[2,4,6,8,10,12,14,-1,-1,-1,-1,-1,-1,-1,-1],"split_conditions":[2E1,1.4E1,5.14E-1,1E1,8E0,-6.4E0,-6.2E0,-2.1179249E-3,2.9019546E-4,-4.9214456E-3,-2.8916907E-3,1.5939346E-3,-1.0957798E-3,4.09093E-3,1.976866E-3],"split_indices":[28,80,55,51,51,25,25,0,0,0,0,0,0,0,0],"split_type":[0,0,0,0,0,0,0,0,0,0,0,0,0,0,0],"sum_hessian":[6.260463E3,4.399258E3,1.8612052E3,2.3541768E3,2.045081E3,9.9238165E2,8.6882355E2,1.1236467E3,1.23053E3,7.1525024E2,1.3298308E3,3.709297E2,6.2145197E2,3.1367526E2,5.5514825E2],"tree_param":{"num_deleted":"0","num_feature":"106","num_nodes":"15","size_leaf_vector":"1"}},{"base_weights":[1.13397844E-1,2.1357545E-1,-1.2337557E-1,8.596097E-2,3.603639E-1,8.9833345E-3,-2.7439418E-1,2.1179249E-3,-2.9019563E-4,4.9214456E-3,2.8916905E-3,-1.5939347E-3,1.09578E-3,-4.09093E-3,-1.976866E-3],"categories":[],"categories_nodes":[],"categories_segments":[],"categories_sizes":[],"default_left":[0,0,0,0,0,0,0,0,0,0,0,0,0,0,0],"id":61,"left_children":[1,3,5,7,9,11,13,-1,-1,-1,-1,-1,-1,-1,-1],"loss_changes":[1.4854443E2,8.239612E1,3.7225452E1,3.4081257E1,1.905423E1,1.6843174E1,8.906502E0,0E0,0E0,0E0,0E0,0E0,0E0,0E0,0E0],"parents":[2147483647,0,0,1,1,2,2,3,3,4,4,5,5,6,6],"right_children":[2,4,6,8,10,12,14,-1,-1,-1,-1,-1,-1,-1,-1],"split_conditions":[2E1,1.4E1,5.14E-1,1E1,8E0,-6.4E0,-6.2E0,2.1179249E-3,-2.9019563E-4,4.9214456E-3,2.8916905E-3,-1.5939347E-3,1.09578E-3,-4.09093E-3,-1.976866E-3],"split_indices":[28,80,55,51,51,25,25,0,0,0,0,0,0,0,0],"split_type":[0,0,0,0,0,0,0,0,0,0,0,0,0,0,0],"sum_hessian":[6.260463E3,4.399258E3,1.8612052E3,2.3541768E3,2.045081E3,9.9238165E2,8.6882355E2,1.1236467E3,1.23053E3,7.152502E2,1.3298308E3,3.709297E2,6.2145197E2,3.1367526E2,5.5514825E2],"tree_param":{"num_deleted":"0","num_feature":"106","num_nodes":"15","size_leaf_vector":"1"}},{"base_weights":[-1.12309985E-1,-2.6800483E-1,3.7515502E-2,-1.4313456E-1,-3.9813888E-1,-1.775373E-1,1.3642202E-1,-2.2333586E-3,-6.6872904E-5,-3.1911593E-3,-5.219536E-3,5.4690876E-4,-2.7540734E-3,4.55588E-4,2.5535496E-3],"categories":[],"categories_nodes":[],"categories_segments":[],"categories_sizes":[],"default_left":[0,0,0,0,0,0,0,0,0,0,0,0,0,0,0],"id":62,"left_children":[1,3,5,7,9,11,13,-1,-1,-1,-1,-1,-1,-1,-1],"loss_changes":[1.460129E2,4.9821625E1,6.7885956E1,1.7157295E1,1.4534195E1,2.2868883E1,2.3611053E1,0E0,0E0,0E0,0E0,0E0,0E0,0E0,0E0],"parents":[2147483647,0,0,1,1,2,2,3,3,4,4,5,5,6,6],"right_children":[2,4,6,8,10,12,14,-1,-1,-1,-1,-1,-1,-1,-1],"split_conditions":[1.5E1,1.3E1,-2E0,5.1E0,2.3E1,3.23E-1,2.4E1,-2.2333586E-3,-6.6872904E-5,-3.1911593E-3,-5.219536E-3,5.4690876E-4,-2.7540734E-3,4.55588E-4,2.5535496E-3],"split_indices":[51,80,77,77,80,3,51,0,0,0,0,0,0,0,0],"split_type":[0,0,0,0,0,0,0,0,0,0,0,0,0,0,0],"sum_hessian":[6.257948E3,3.0684763E3,3.189472E3,1.5669792E3,1.5014971E3,1.004528E3,2.1849438E3,9.86497E2,5.8048224E2,9.187167E2,5.827804E2,2.979609E2,7.065671E2,1.2394235E3,9.4552045E2],"tree_param":{"num_deleted":"0","num_feature":"106","num_nodes":"15","size_leaf_vector":"1"}},{"base_weights":[1.12309985E-1,2.6800486E-1,-3.7515517E-2,1.431346E-1,3.981389E-1,1.7753734E-1,-1.3642205E-1,2.2333586E-3,6.6873414E-5,3.1911593E-3,5.2195364E-3,-5.4690865E-4,2.7540736E-3,-4.555883E-4,-2.55355E-3],"categories":[],"categories_nodes":[],"categories_segments":[],"categories_sizes":[],"default_left":[0,0,0,0,0,0,0,0,0,0,0,0,0,0,0],"id":63,"left_children":[1,3,5,7,9,11,13,-1,-1,-1,-1,-1,-1,-1,-1],"loss_changes":[1.4601294E2,4.982161E1,6.788599E1,1.7157284E1,1.453418E1,2.2868885E1,2.361105E1,0E0,0E0,0E0,0E0,0E0,0E0,0E0,0E0],"parents":[2147483647,0,0,1,1,2,2,3,3,4,4,5,5,6,6],"right_children":[2,4,6,8,10,12,14,-1,-1,-1,-1,-1,-1,-1,-1],"split_conditions":[1.5E1,1.3E1,-2E0,5.1E0,2.3E1,3.23E-1,2.4E1,2.2333586E-3,6.6873414E-5,3.1911593E-3,5.2195364E-3,-5.4690865E-4,2.7540736E-3,-4.555883E-4,-2.55355E-3],"split_indices":[51,80,77,77,80,3,51,0,0,0,0,0,0,0,0],"split_type":[0,0,0,0,0,0,0,0,0,0,0,0,0,0,0],"sum_hessian":[6.257948E3,3.0684763E3,3.189472E3,1.5669792E3,1.5014971E3,1.004528E3,2.1849438E3,9.864971E2,5.8048224E2,9.187166E2,5.827804E2,2.979609E2,7.065671E2,1.2394235E3,9.4552045E2],"tree_param":{"num_deleted":"0","num_feature":"106","num_nodes":"15","size_leaf_vector":"1"}},{"base_weights":[-1.1123591E-1,-2.097039E-1,1.2138686E-1,-8.4254995E-2,-3.5421175E-1,-4.2019314E-3,2.7607772E-1,-2.0823258E-3,2.8982613E-4,-4.845065E-3,-2.839159E-3,1.6990812E-3,-9.933934E-4,1.9187387E-3,4.1602817E-3],"categories":[],"categories_nodes":[],"categories_segments":[],"categories_sizes":[],"default_left":[0,0,0,0,0,0,0,0,0,0,0,0,0,0,0],"id":64,"left_children":[1,3,5,7,9,11,13,-1,-1,-1,-1,-1,-1,-1,-1],"loss_changes":[1.4333195E2,7.9662766E1,3.6161285E1,3.3060722E1,1.8570251E1,1.7049393E1,9.748676E0,0E0,0E0,0E0,0E0,0E0,0E0,0E0,0E0],"parents":[2147483647,0,0,1,1,2,2,3,3,4,4,5,5,6,6],"right_children":[2,4,6,8,10,12,14,-1,-1,-1,-1,-1,-1,-1,-1],"split_conditions":[2E1,1.4E1,6E-1,1E1,8E0,-6.6E0,3.5E1,-2.0823258E-3,2.8982613E-4,-4.845065E-3,-2.839159E-3,1.6990812E-3,-9.933934E-4,1.9187387E-3,4.1602817E-3],"split_indices":[28,80,77,51,51,25,2,0,0,0,0,0,0,0,0],"split_type":[0,0,0,0,0,0,0,0,0,0,0,0,0,0,0],"sum_hessian":[6.2553135E3,4.395022E3,1.8602913E3,2.3535027E3,2.0415195E3,1.0272616E3,8.330296E2,1.1230731E3,1.2304296E3,7.1337396E2,1.3281455E3,3.6270065E2,6.64561E2,5.2158136E2,3.1144827E2],"tree_param":{"num_deleted":"0","num_feature":"106","num_nodes":"15","size_leaf_vector":"1"}},{"base_weights":[1.1123592E-1,2.0970392E-1,-1.2138686E-1,8.425499E-2,3.5421178E-1,4.201923E-3,-2.7607772E-1,2.082326E-3,-2.8982625E-4,4.8450655E-3,2.8391592E-3,-1.6990813E-3,9.933932E-4,-1.9187386E-3,-4.1602817E-3],"categories":[],"categories_nodes":[],"categories_segments":[],"categories_sizes":[],"default_left":[0,0,0,0,0,0,0,0,0,0,0,0,0,0,0],"id":65,"left_children":[1,3,5,7,9,11,13,-1,-1,-1,-1,-1,-1,-1,-1],"loss_changes":[1.4333195E2,7.966281E1,3.6161278E1,3.306073E1,1.8570251E1,1.704939E1,9.748684E0,0E0,0E0,0E0,0E0,0E0,0E0,0E0,0E0],"parents":[2147483647,0,0,1,1,2,2,3,3,4,4,5,5,6,6],"right_children":[2,4,6,8,10,12,14,-1,-1,-1,-1,-1,-1,-1,-1],"split_conditions":[2E1,1.4E1,6E-1,1E1,8E0,-6.6E0,3.5E1,2.082326E-3,-2.8982625E-4,4.8450655E-3,2.8391592E-3,-1.6990813E-3,9.933932E-4,-1.9187386E-3,-4.1602817E-3],"split_indices":[28,80,77,51,51,25,2,0,0,0,0,0,0,0,0],"split_type":[0,0,0,0,0,0,0,0,0,0,0,0,0,0,0],"sum_hessian":[6.2553135E3,4.395022E3,1.8602913E3,2.3535027E3,2.0415194E3,1.0272616E3,8.330296E2,1.1230731E3,1.2304296E3,7.1337396E2,1.3281455E3,3.6270065E2,6.64561E2,5.2158136E2,3.1144827E2],"tree_param":{"num_deleted":"0","num_feature":"106","num_nodes":"15","size_leaf_vector":"1"}},{"base_weights":[-1.10169746E-1,-2.6320168E-1,3.6972158E-2,-1.4045776E-1,-3.913527E-1,-1.7473263E-1,1.343202E-1,-2.0752843E-3,1.9688567E-4,-3.1285654E-3,-5.1451535E-3,5.3576496E-4,-2.7101284E-3,7.55483E-4,3.1255046E-3],"categories":[],"categories_nodes":[],"categories_segments":[],"categories_sizes":[],"default_left":[0,0,0,0,0,0,0,0,0,0,0,0,0,0,0],"id":66,"left_children":[1,3,5,7,9,11,13,-1,-1,-1,-1,-1,-1,-1,-1],"loss_changes":[1.4082787E2,4.816684E1,6.574788E1,1.6839874E1,1.4333237E1,2.210532E1,2.2865578E1,0E0,0E0,0E0,0E0,0E0,0E0,0E0,0E0],"parents":[2147483647,0,0,1,1,2,2,3,3,4,4,5,5,6,6],"right_children":[2,4,6,8,10,12,14,-1,-1,-1,-1,-1,-1,-1,-1],"split_conditions":[1.5E1,1.3E1,-2E0,6E0,2.3E1,3.23E-1,2.7E1,-2.0752843E-3,1.9688567E-4,-3.1285654E-3,-5.1451535E-3,5.3576496E-4,-2.7101284E-3,7.55483E-4,3.1255046E-3],"split_indices":[51,80,77,77,80,3,51,0,0,0,0,0,0,0,0],"split_type":[0,0,0,0,0,0,0,0,0,0,0,0,0,0,0],"sum_hessian":[6.252745E3,3.0646401E3,3.1881052E3,1.5664142E3,1.498226E3,1.0039656E3,2.1841396E3,1.1038263E3,4.6258786E2,9.172001E2,5.810258E2,2.979294E2,7.0603613E2,1.6435864E3,5.405531E2],"tree_param":{"num_deleted":"0","num_feature":"106","num_nodes":"15","size_leaf_vector":"1"}},{"base_weights":[1.10169746E-1,2.632017E-1,-3.6972176E-2,1.404578E-1,3.9135274E-1,1.7473263E-1,-1.3432021E-1,2.0752845E-3,-1.9688508E-4,3.1285654E-3,5.145154E-3,-5.3576514E-4,2.7101284E-3,-7.554831E-4,-3.1255046E-3],"categories":[],"categories_nodes":[],"categories_segments":[],"categories_sizes":[],"default_left":[0,0,0,0,0,0,0,0,0,0,0,0,0,0,0],"id":67,"left_children":[1,3,5,7,9,11,13,-1,-1,-1,-1,-1,-1,-1,-1],"loss_changes":[1.4082791E2,4.8166794E1,6.574789E1,1.6839867E1,1.4333221E1,2.210532E1,2.2865578E1,0E0,0E0,0E0,0E0,0E0,0E0,0E0,0E0],"parents":[2147483647,0,0,1,1,2,2,3,3,4,4,5,5,6,6],"right_children":[2,4,6,8,10,12,14,-1,-1,-1,-1,-1,-1,-1,-1],"split_conditions":[1.5E1,1.3E1,-2E0,6E0,2.3E1,3.23E-1,2.7E1,2.0752845E-3,-1.9688508E-4,3.1285654E-3,5.145154E-3,-5.3576514E-4,2.7101284E-3,-7.554831E-4,-3.1255046E-3],"split_indices":[51,80,77,77,80,3,51,0,0,0,0,0,0,0,0],"split_type":[0,0,0,0,0,0,0,0,0,0,0,0,0,0,0],"sum_hessian":[6.252745E3,3.0646401E3,3.1881052E3,1.5664142E3,1.498226E3,1.0039656E3,2.1841396E3,1.1038263E3,4.6258786E2,9.172001E2,5.810259E2,2.979294E2,7.0603613E2,1.6435864E3,5.405531E2],"tree_param":{"num_deleted":"0","num_feature":"106","num_nodes":"15","size_leaf_vector":"1"}},{"base_weights":[-1.0911732E-1,8.382194E-2,-2.2393674E-1,-1.6129442E-1,1.599134E-1,-2.594215E-2,-3.1346446E-1,-4.4464454E-5,-2.82279E-3,7.7667163E-4,2.688732E-3,8.7470445E-4,-1.4970447E-3,-4.271898E-3,-2.3017288E-3],"categories":[],"categories_nodes":[],"categories_segments":[],"categories_sizes":[],"default_left":[0,0,0,0,0,0,0,0,0,0,0,0,0,0,0],"id":68,"left_children":[1,3,5,7,9,11,13,-1,-1,-1,-1,-1,-1,-1,-1],"loss_changes":[1.3849902E2,4.3536957E1,6.9462845E1,1.0495191E1,1.5937302E1,1.7157248E1,2.5465027E1,0E0,0E0,0E0,0E0,0E0,0E0,0E0,0E0],"parents":[2147483647,0,0,1,1,2,2,3,3,4,4,5,5,6,6],"right_children":[2,4,6,8,10,12,14,-1,-1,-1,-1,-1,-1,-1,-1],"split_conditions":[4.59E-1,3.73E-1,9E0,-4.8E0,2.6E1,3.1E0,-1.9E0,-4.4464454E-5,-2.82279E-3,7.7667163E-4,2.688732E-3,8.7470445E-4,-1.4970447E-3,-4.271898E-3,-2.3017288E-3],"split_indices":[3,55,103,25,51,25,77,0,0,0,0,0,0,0,0],"split_type":[0,0,0,0,0,0,0,0,0,0,0,0,0,0,0],"sum_hessian":[6.250035E3,2.3318804E3,3.918155E3,5.521378E2,1.7797424E3,1.2204237E3,2.6977314E3,2.4088466E2,3.1125317E2,1.015172E3,7.6457043E2,6.36993E2,5.834307E2,1.138757E3,1.5589745E3],"tree_param":{"num_deleted":"0","num_feature":"106","num_nodes":"15","size_leaf_vector":"1"}},{"base_weights":[1.0911733E-1,-8.382193E-2,2.2393674E-1,1.6129445E-1,-1.599134E-1,2.5942126E-2,3.134645E-1,4.4464367E-5,2.8227908E-3,-7.766715E-4,-2.688732E-3,-8.7470486E-4,1.4970446E-3,4.2718984E-3,2.301729E-3],"categories":[],"categories_nodes":[],"categories_segments":[],"categories_sizes":[],"default_left":[0,0,0,0,0,0,0,0,0,0,0,0,0,0,0],"id":69,"left_children":[1,3,5,7,9,11,13,-1,-1,-1,-1,-1,-1,-1,-1],"loss_changes":[1.3849902E2,4.3536964E1,6.946286E1,1.0495196E1,1.5937305E1,1.7157253E1,2.5465057E1,0E0,0E0,0E0,0E0,0E0,0E0,0E0,0E0],"parents":[2147483647,0,0,1,1,2,2,3,3,4,4,5,5,6,6],"right_children":[2,4,6,8,10,12,14,-1,-1,-1,-1,-1,-1,-1,-1],"split_conditions":[4.59E-1,3.73E-1,9E0,-4.8E0,2.6E1,3.1E0,-1.9E0,4.4464367E-5,2.8227908E-3,-7.766715E-4,-2.688732E-3,-8.7470486E-4,1.4970446E-3,4.2718984E-3,2.301729E-3],"split_indices":[3,55,103,25,51,25,77,0,0,0,0,0,0,0,0],"split_type":[0,0,0,0,0,0,0,0,0,0,0,0,0,0,0],"sum_hessian":[6.250035E3,2.3318804E3,3.918155E3,5.521378E2,1.7797424E3,1.2204237E3,2.6977314E3,2.4088467E2,3.1125317E2,1.015172E3,7.6457043E2,6.36993E2,5.834307E2,1.138757E3,1.5589745E3],"tree_param":{"num_deleted":"0","num_feature":"106","num_nodes":"15","size_leaf_vector":"1"}},{"base_weights":[-1.08075E-1,-2.5864804E-1,3.6590327E-2,-1.3784645E-1,-3.8499814E-1,-9.617233E-2,1.8783048E-1,-2.0403606E-3,2.0121348E-4,-3.0742106E-3,-5.069308E-3,9.182924E-4,-1.959368E-3,8.942111E-4,2.8716782E-3],"categories":[],"categories_nodes":[],"categories_segments":[],"categories_sizes":[],"default_left":[0,0,0,0,0,0,0,0,0,0,0,0,0,0,0],"id":70,"left_children":[1,3,5,7,9,11,13,-1,-1,-1,-1,-1,-1,-1,-1],"loss_changes":[1.3611438E2,4.6679504E1,6.4020874E1,1.6386358E1,1.3994659E1,3.1867807E1,1.4544224E1,0E0,0E0,0E0,0E0,0E0,0E0,0E0,0E0],"parents":[2147483647,0,0,1,1,2,2,3,3,4,4,5,5,6,6],"right_children":[2,4,6,8,10,12,14,-1,-1,-1,-1,-1,-1,-1,-1],"split_conditions":[1.5E1,1.3E1,6E-1,6E0,2.3E1,-4.8E0,2.2E1,-2.0403606E-3,2.0121348E-4,-3.0742106E-3,-5.069308E-3,9.182924E-4,-1.959368E-3,8.942111E-4,2.8716782E-3],"split_indices":[51,80,77,77,80,25,29,0,0,0,0,0,0,0,0],"split_type":[0,0,0,0,0,0,0,0,0,0,0,0,0,0,0],"sum_hessian":[6.2473037E3,3.0607617E3,3.186542E3,1.5658066E3,1.494955E3,1.6971246E3,1.4894174E3,1.103247E3,4.6255966E2,9.1581085E2,5.791441E2,5.88397E2,1.1087277E3,7.4915796E2,7.4025946E2],"tree_param":{"num_deleted":"0","num_feature":"106","num_nodes":"15","size_leaf_vector":"1"}},{"base_weights":[1.08075E-1,2.5864804E-1,-3.659032E-2,1.3784645E-1,3.8499814E-1,9.617235E-2,-1.8783048E-1,2.0403601E-3,-2.0121313E-4,3.0742106E-3,5.069308E-3,-9.182923E-4,1.9593681E-3,-8.9421106E-4,-2.8716782E-3],"categories":[],"categories_nodes":[],"categories_segments":[],"categories_sizes":[],"default_left":[0,0,0,0,0,0,0,0,0,0,0,0,0,0,0],"id":71,"left_children":[1,3,5,7,9,11,13,-1,-1,-1,-1,-1,-1,-1,-1],"loss_changes":[1.3611435E2,4.6679504E1,6.402087E1,1.638635E1,1.3994659E1,3.1867813E1,1.4544235E1,0E0,0E0,0E0,0E0,0E0,0E0,0E0,0E0],"parents":[2147483647,0,0,1,1,2,2,3,3,4,4,5,5,6,6],"right_children":[2,4,6,8,10,12,14,-1,-1,-1,-1,-1,-1,-1,-1],"split_conditions":[1.5E1,1.3E1,6E-1,6E0,2.3E1,-4.8E0,2.2E1,2.0403601E-3,-2.0121313E-4,3.0742106E-3,5.069308E-3,-9.182923E-4,1.9593681E-3,-8.9421106E-4,-2.8716782E-3],"split_indices":[51,80,77,77,80,25,29,0,0,0,0,0,0,0,0],"split_type":[0,0,0,0,0,0,0,0,0,0,0,0,0,0,0],"sum_hessian":[6.2473037E3,3.0607615E3,3.186542E3,1.5658066E3,1.494955E3,1.6971246E3,1.4894175E3,1.103247E3,4.6255966E2,9.1581085E2,5.791441E2,5.88397E2,1.1087277E3,7.4915796E2,7.4025946E2],"tree_param":{"num_deleted":"0","num_feature":"106","num_nodes":"15","size_leaf_vector":"1"}},{"base_weights":[-1.0704423E-1,-2.023043E-1,1.1777211E-1,-1.2109783E-1,-4.1293326E-1,-9.159207E-3,2.6275706E-1,-1.240153E-4,-2.52414E-3,-3.5091813E-3,-5.5431863E-3,1.5135627E-3,-1.0504712E-3,3.932662E-3,1.8861162E-3],"categories":[],"categories_nodes":[],"categories_segments":[],"categories_sizes":[],"default_left":[0,0,0,0,0,0,0,0,0,0,0,0,0,0,0],"id":72,"left_children":[1,3,5,7,9,11,13,-1,-1,-1,-1,-1,-1,-1,-1],"loss_changes":[1.3377739E2,7.498877E1,3.4221077E1,4.521206E1,1.0505508E1,1.5290262E1,8.325203E0,0E0,0E0,0E0,0E0,0E0,0E0,0E0,0E0],"parents":[2147483647,0,0,1,1,2,2,3,3,4,4,5,5,6,6],"right_children":[2,4,6,8,10,12,14,-1,-1,-1,-1,-1,-1,-1,-1],"split_conditions":[2E1,2E1,5.14E-1,2.9E0,3.7E1,-6.4E0,-6.2E0,-1.240153E-4,-2.52414E-3,-3.5091813E-3,-5.5431863E-3,1.5135627E-3,-1.0504712E-3,3.932662E-3,1.8861162E-3],"split_indices":[28,80,55,25,54,25,25,0,0,0,0,0,0,0,0],"split_type":[0,0,0,0,0,0,0,0,0,0,0,0,0,0,0],"sum_hessian":[6.24449E3,4.386096E3,1.8583942E3,3.1667527E3,1.2193438E3,9.913898E2,8.670044E2,1.7331998E3,1.4335527E3,8.4999646E2,3.6934726E2,3.7053656E2,6.208532E2,3.1255252E2,5.5445184E2],"tree_param":{"num_deleted":"0","num_feature":"106","num_nodes":"15","size_leaf_vector":"1"}},{"base_weights":[1.0704421E-1,2.0230429E-1,-1.1777212E-1,1.2109782E-1,4.1293323E-1,9.159199E-3,-2.6275706E-1,1.2401513E-4,2.52414E-3,3.509181E-3,5.5431863E-3,-1.5135627E-3,1.0504711E-3,-3.932662E-3,-1.8861161E-3],"categories":[],"categories_nodes":[],"categories_segments":[],"categories_sizes":[],"default_left":[0,0,0,0,0,0,0,0,0,0,0,0,0,0,0],"id":73,"left_children":[1,3,5,7,9,11,13,-1,-1,-1,-1,-1,-1,-1,-1],"loss_changes":[1.3377737E2,7.4988785E1,3.4221077E1,4.5212067E1,1.0505493E1,1.5290261E1,8.325211E0,0E0,0E0,0E0,0E0,0E0,0E0,0E0,0E0],"parents":[2147483647,0,0,1,1,2,2,3,3,4,4,5,5,6,6],"right_children":[2,4,6,8,10,12,14,-1,-1,-1,-1,-1,-1,-1,-1],"split_conditions":[2E1,2E1,5.14E-1,2.9E0,3.7E1,-6.4E0,-6.2E0,1.2401513E-4,2.52414E-3,3.509181E-3,5.5431863E-3,-1.5135627E-3,1.0504711E-3,-3.932662E-3,-1.8861161E-3],"split_indices":[28,80,55,25,54,25,25,0,0,0,0,0,0,0,0],"split_type":[0,0,0,0,0,0,0,0,0,0,0,0,0,0,0],"sum_hessian":[6.24449E3,4.386096E3,1.8583942E3,3.1667527E3,1.2193436E3,9.913898E2,8.670044E2,1.7331998E3,1.4335527E3,8.499964E2,3.6934726E2,3.7053656E2,6.208532E2,3.1255252E2,5.5445184E2],"tree_param":{"num_deleted":"0","num_feature":"106","num_nodes":"15","size_leaf_vector":"1"}},{"base_weights":[-1.0602074E-1,-2.540756E-1,3.6110815E-2,-1.3488401E-1,-3.7896404E-1,-8.1137545E-2,2.0199332E-1,-2.1271561E-3,-2.6483407E-5,-3.024751E-3,-4.9942187E-3,1.0412278E-3,-1.7827108E-3,1.1733517E-3,2.8634523E-3],"categories":[],"categories_nodes":[],"categories_segments":[],"categories_sizes":[],"default_left":[0,0,0,0,0,0,0,0,0,0,0,0,0,0,0],"id":74,"left_children":[1,3,5,7,9,11,13,-1,-1,-1,-1,-1,-1,-1,-1],"loss_changes":[1.313782E2,4.5466446E1,6.1982212E1,1.6118374E1,1.3601959E1,3.362139E1,9.390125E0,0E0,0E0,0E0,0E0,0E0,0E0,0E0,0E0],"parents":[2147483647,0,0,1,1,2,2,3,3,4,4,5,5,6,6],"right_children":[2,4,6,8,10,12,14,-1,-1,-1,-1,-1,-1,-1,-1],"split_conditions":[1.5E1,1.3E1,5.45E-1,5.1E0,2.3E1,-4.8E0,2.2E1,-2.1271561E-3,-2.6483407E-5,-3.024751E-3,-4.9942187E-3,1.0412278E-3,-1.7827108E-3,1.1733517E-3,2.8634523E-3],"split_indices":[51,80,55,77,80,25,29,0,0,0,0,0,0,0,0],"split_type":[0,0,0,0,0,0,0,0,0,0,0,0,0,0,0],"sum_hessian":[6.241807E3,3.056814E3,3.1849934E3,1.5651445E3,1.4916694E3,1.8663434E3,1.3186499E3,9.8486285E2,5.802816E2,9.1449194E2,5.771775E2,6.4193164E2,1.2244117E3,6.593236E2,6.593263E2],"tree_param":{"num_deleted":"0","num_feature":"106","num_nodes":"15","size_leaf_vector":"1"}},{"base_weights":[1.0602075E-1,2.540756E-1,-3.6110815E-2,1.3488401E-1,3.7896404E-1,8.1137545E-2,-2.0199332E-1,2.127156E-3,2.6483904E-5,3.024751E-3,4.9942187E-3,-1.0412278E-3,1.782711E-3,-1.1733515E-3,-2.8634523E-3],"categories":[],"categories_nodes":[],"categories_segments":[],"categories_sizes":[],"default_left":[0,0,0,0,0,0,0,0,0,0,0,0,0,0,0],"id":75,"left_children":[1,3,5,7,9,11,13,-1,-1,-1,-1,-1,-1,-1,-1],"loss_changes":[1.3137823E2,4.5466446E1,6.1982212E1,1.6118368E1,1.3601898E1,3.3621395E1,9.390125E0,0E0,0E0,0E0,0E0,0E0,0E0,0E0,0E0],"parents":[2147483647,0,0,1,1,2,2,3,3,4,4,5,5,6,6],"right_children":[2,4,6,8,10,12,14,-1,-1,-1,-1,-1,-1,-1,-1],"split_conditions":[1.5E1,1.3E1,5.45E-1,5.1E0,2.3E1,-4.8E0,2.2E1,2.127156E-3,2.6483904E-5,3.024751E-3,4.9942187E-3,-1.0412278E-3,1.782711E-3,-1.1733515E-3,-2.8634523E-3],"split_indices":[51,80,55,77,80,25,29,0,0,0,0,0,0,0,0],"split_type":[0,0,0,0,0,0,0,0,0,0,0,0,0,0,0],"sum_hessian":[6.241807E3,3.056814E3,3.1849934E3,1.5651444E3,1.4916694E3,1.8663434E3,1.3186499E3,9.848628E2,5.802816E2,9.1449194E2,5.7717755E2,6.4193164E2,1.2244117E3,6.593236E2,6.593263E2],"tree_param":{"num_deleted":"0","num_feature":"106","num_nodes":"15","size_leaf_vector":"1"}},{"base_weights":[-1.0501132E-1,-1.9864905E-1,1.1586838E-1,-1.187345E-1,-4.0632677E-1,-1.4313616E-1,1.8452E-1,-1.1586257E-4,-2.4826685E-3,-3.447875E-3,-5.46757E-3,-2.360034E-3,6.8115216E-4,3.1548517E-3,1.0490236E-3],"categories":[],"categories_nodes":[],"categories_segments":[],"categories_sizes":[],"default_left":[0,0,0,0,0,0,0,0,0,0,0,0,0,0,0],"id":76,"left_children":[1,3,5,7,9,11,13,-1,-1,-1,-1,-1,-1,-1,-1],"loss_changes":[1.2908066E2,7.268623E1,3.3070137E1,4.39406E1,1.0332031E1,7.6659284E0,1.52888565E1,0E0,0E0,0E0,0E0,0E0,0E0,0E0,0E0],"parents":[2147483647,0,0,1,1,2,2,3,3,4,4,5,5,6,6],"right_children":[2,4,6,8,10,12,14,-1,-1,-1,-1,-1,-1,-1,-1],"split_conditions":[2E1,2E1,3.6E-1,2.9E0,3.7E1,2.7E1,-6.2E0,-1.1586257E-4,-2.4826685E-3,-3.447875E-3,-5.46757E-3,-2.360034E-3,6.8115216E-4,3.1548517E-3,1.0490236E-3],"split_indices":[28,80,55,25,54,28,25,0,0,0,0,0,0,0,0],"split_type":[0,0,0,0,0,0,0,0,0,0,0,0,0,0,0],"sum_hessian":[6.238891E3,4.381527E3,1.8573639E3,3.1651475E3,1.2163795E3,3.8893384E2,1.46843E3,1.7328422E3,1.4323053E3,8.481562E2,3.682233E2,2.7008557E2,1.1884826E2,5.540674E2,9.143627E2],"tree_param":{"num_deleted":"0","num_feature":"106","num_nodes":"15","size_leaf_vector":"1"}},{"base_weights":[1.05011314E-1,1.9864905E-1,-1.1586839E-1,1.18734494E-1,4.0632677E-1,1.4313613E-1,-1.8452E-1,1.1586246E-4,2.4826685E-3,3.447875E-3,5.46757E-3,2.360034E-3,-6.811527E-4,-3.1548517E-3,-1.0490238E-3],"categories":[],"categories_nodes":[],"categories_segments":[],"categories_sizes":[],"default_left":[0,0,0,0,0,0,0,0,0,0,0,0,0,0,0],"id":77,"left_children":[1,3,5,7,9,11,13,-1,-1,-1,-1,-1,-1,-1,-1],"loss_changes":[1.2908066E2,7.268623E1,3.307013E1,4.3940605E1,1.03320465E1,7.6659293E0,1.52888565E1,0E0,0E0,0E0,0E0,0E0,0E0,0E0,0E0],"parents":[2147483647,0,0,1,1,2,2,3,3,4,4,5,5,6,6],"right_children":[2,4,6,8,10,12,14,-1,-1,-1,-1,